[[[[  7.86114633e-01,   4.34762567e-01,  -5.46409607e-01,  -1.97064906e-01,
     -3.51266235e-01,   9.00998637e-02,   3.62375706e-01,   1.33877397e-01,
     -3.47359627e-02,  -6.33408785e-01,   1.06410041e-01,   1.54431939e-01,
     -7.42999604e-03,  -2.27486670e-01,   3.09399784e-01,  -2.55520016e-01,
     -1.87879562e-01,  -1.36596099e-01,  -7.32181594e-02,   2.78006673e-01,
      6.94293156e-02,  -2.71388382e-01,   7.99216554e-02,  -2.90386349e-01,
      3.57888669e-01,   3.61823380e-01,   3.68978024e-01,   8.89132917e-02,
      3.05371750e-02,  -1.48474440e-01,  -3.92806977e-01,  -3.09001356e-02,
      1.55905843e-01,   1.07369113e+00,  -1.96440481e-02,  -4.80043003e-03,
      1.00505918e-01,   4.13554698e-01,  -1.31824300e-01,   1.49974003e-01,
      7.97286723e-03,  -2.74388850e-01,  -7.92000592e-01,  -2.78195113e-01,
      3.29367146e-02,  -6.79808035e-02,  -1.45563092e-02,  -2.08342656e-01,
      8.21528658e-02,  -4.12880242e-01,  -9.70935300e-02,  -2.22492844e-01,
      5.97947419e-01,  -1.92275509e-01,  -1.72161907e-02,   5.25603235e-01,
     -3.84683996e-01,  -2.98056692e-01,   1.40815169e-01,  -6.63749427e-02,
     -1.68574750e-01,   1.70624793e-01,   1.46443740e-01,  -4.74861078e-02],
   [ -2.29206279e-01,   1.90413356e-01,  -5.53164668e-02,  -5.64579070e-02,
      2.89404690e-01,  -3.39893579e-01,   4.00208294e-01,   1.18932454e-02,
      1.66514561e-01,   1.59197256e-01,   2.34710231e-01,  -5.85980058e-01,
     -3.90330255e-02,  -8.14226549e-03,  -5.63524723e-01,  -3.40123385e-01,
      2.57750124e-01,  -1.63420793e-02,  -1.96818322e-01,  -1.00797720e-01,
      1.12106819e-02,  -3.56231391e-01,   1.57302260e-01,   1.22782812e-01,
     -8.93843696e-02,  -1.34140179e-01,  -4.19857711e-01,  -3.35979730e-01,
     -3.54193091e-01,   7.02724993e-01,   1.20780908e-01,  -1.35820126e-02,
     -1.58016890e-01,  -7.93751240e-01,   4.27350476e-02,   4.50982712e-02,
      4.17758375e-01,  -1.59326553e-01,   3.37749451e-01,  -3.22112329e-02,
     -2.24927869e-02,   1.91325303e-02,   4.49612848e-02,   1.90128028e-01,
      1.05834357e-01,  -2.15299532e-01,   6.53854012e-02,   1.94096521e-01,
     -9.27451774e-02,   4.50604558e-02,   2.84992587e-02,  -6.91843927e-02,
     -5.27310595e-02,   3.03401917e-01,   3.02314728e-01,  -1.00885995e-01,
      2.52666265e-01,   7.04655588e-01,  -5.77014275e-02,  -1.89070687e-01,
      2.80746579e-01,  -3.45734209e-01,  -6.45171702e-01,  -8.49420950e-02],
   [ -6.30965948e-01,  -6.98054969e-01,   2.94048220e-01,  -8.35292228e-03,
     -3.86820108e-01,  -3.90190423e-01,  -1.03820441e-02,  -4.06880789e-02,
      2.75675189e-02,  -2.19046667e-01,   5.58796346e-01,   2.63550729e-01,
     -2.00086623e-01,  -1.60360232e-01,   1.22168586e-01,  -7.31894821e-02,
     -1.72587897e-04,   2.03743830e-01,  -8.92919675e-02,  -5.96733168e-02,
     -1.09574854e-01,  -1.08084932e-01,  -9.27515253e-02,   1.77200198e-01,
     -6.68710023e-02,  -1.40460804e-01,   4.37319010e-01,   1.54392973e-01,
     -1.41106183e-02,  -1.05700612e-01,   3.37739259e-01,  -3.52309883e-01,
     -1.88041367e-02,  -7.33040631e-01,  -1.36890739e-01,  -2.38621175e-01,
     -3.06521624e-01,  -1.43450186e-01,  -2.47441486e-01,  -1.45522326e-01,
     -1.18681222e-01,  -5.29774845e-01,   8.40508580e-01,   2.00393237e-03,
     -1.02256365e-01,   9.57440734e-02,  -1.07739456e-02,   8.47097579e-03,
      2.00914666e-02,   2.10558996e-01,   2.01311827e-01,   2.40561754e-01,
      1.37753487e-01,  -3.32315296e-01,  -1.95249051e-01,  -5.02586603e-01,
     -7.13612465e-03,  -3.25899363e-01,   2.41599202e-01,   1.10842653e-01,
     -4.51037258e-01,  -6.31949771e-03,   4.50386643e-01,  -1.26193792e-01],],

  [[  1.03407450e-01,  -1.98735222e-02,   6.06374405e-02,   6.93394840e-01,
      1.72680199e-01,   4.24775928e-01,   2.98257619e-01,  -1.36810943e-01,
     -8.90867040e-02,  -5.80161691e-01,   1.02333892e-02,   2.62377739e-01,
     -2.95124110e-02,  -4.35983777e-01,   1.45145103e-01,   4.34864834e-02,
      2.45916680e-01,  -8.15190300e-02,  -9.18796286e-02,   1.53189614e-01,
      8.20751041e-02,  -6.97446316e-02,   3.87023926e-01,   1.23424590e-01,
     -4.00106639e-01,   3.78179461e-01,   4.71253842e-01,   1.29412487e-01,
      5.34803756e-02,  -2.71209508e-01,   4.57141101e-01,  -6.36387989e-02,
     -1.67575553e-02,   7.67791092e-01,  -1.76102817e-01,   3.54651868e-01,
     -1.10410571e-01,   3.37747455e-01,  -5.07350005e-02,   5.56418449e-02,
      3.47744301e-02,  -2.03763351e-01,   4.16248471e-01,  -2.67805964e-01,
      1.52761713e-01,  -8.34588483e-02,  -3.44905794e-01,  -8.55261505e-01,
      1.07928872e-01,  -4.78604168e-01,   1.07537411e-01,  -1.75733432e-01,
      3.47301394e-01,  -3.26392561e-01,   3.24397581e-03,   2.66356260e-01,
     -1.11368820e-01,  -2.93561608e-01,   6.28518090e-02,   2.71939069e-01,
     -2.24933568e-02,  -2.95266390e-01,   8.92298936e-04,   8.73834863e-02],
   [ -2.09392339e-01,  -4.05780077e-02,  -8.31727535e-02,   2.85649121e-01,
      3.78347605e-01,   1.94125682e-01,   1.24501191e-01,  -2.19174981e-01,
      6.07971996e-02,   1.39612719e-01,  -7.58761764e-02,  -5.67410469e-01,
      2.97888041e-01,   2.39586741e-01,   1.62227079e-01,  -2.56562114e-01,
      2.29129627e-01,   4.02696542e-02,  -9.47486311e-02,  -1.29998580e-01,
     -1.04593121e-01,  -6.57245070e-02,   2.73923546e-01,   9.53144580e-03,
     -3.75991911e-01,  -1.03849165e-01,  -3.35743099e-01,  -3.63557518e-01,
     -3.60681266e-01,   5.31410694e-01,  -1.31786704e-01,  -2.87354410e-01,
     -2.86243588e-01,  -5.00641227e-01,  -2.21970573e-01,   3.50106925e-01,
      1.61223501e-01,  -2.22731665e-01,   1.70091018e-01,  -1.46533847e-01,
      2.80311126e-02,   8.83852616e-02,   2.43018717e-01,   4.18528207e-02,
      5.19443154e-02,  -2.05806866e-01,  -3.30854744e-01,   6.88190460e-01,
     -7.92835504e-02,   8.67235959e-02,  -3.70008856e-01,  -9.28283110e-02,
     -4.11582977e-01,   4.44910139e-01,   6.09111302e-02,   5.67231849e-02,
     -2.18257844e-01,   3.15062761e-01,  -2.30727553e-01,  -4.31985520e-02,
     -2.25611284e-01,   4.07784507e-02,   2.40811706e-01,  -9.33375657e-02],
   [  1.08546875e-01,   9.43663716e-02,  -8.69681709e-04,  -1.46020064e-02,
      2.52585977e-01,   7.29124308e-01,  -2.56829292e-01,  -1.54946476e-01,
      1.31776452e-01,  -3.17832440e-01,   1.95525050e-01,   6.56752944e-01,
     -2.12472811e-01,  -8.93891454e-02,  -4.31625694e-01,   9.03208181e-02,
     -4.54120815e-01,   8.17301720e-02,   1.29517585e-01,  -4.61050540e-01,
      1.38434857e-01,   2.20388964e-01,  -2.44952798e-01,   2.30021566e-01,
     -3.26904923e-01,   8.96883309e-02,   5.03711581e-01,  -3.09010029e-01,
     -1.05619123e-02,  -1.28985003e-01,  -5.09744108e-01,  -3.58735353e-01,
     -1.18354216e-01,  -2.73666263e-01,  -5.60377955e-01,   6.40141368e-02,
      1.33909643e-01,  -1.95056647e-01,  -3.14129293e-01,  -8.71652588e-02,
      1.44403800e-01,  -3.72616917e-01,  -2.08664732e-03,  -6.57681301e-02,
     -1.52520731e-01,  -5.86121082e-01,  -7.02920377e-01,   2.30705261e-01,
     -5.74721210e-02,   7.45045304e-01,   5.17401099e-01,   7.05654144e-01,
     -1.33250933e-02,   1.53001055e-01,   1.84352905e-01,  -3.88711512e-01,
     -9.57318068e-01,   8.30754638e-03,   1.76075608e-01,   5.72939031e-02,
     -6.91443831e-02,   3.59612495e-01,  -1.73080295e-01,   2.16720719e-02],],

  [[ -7.48462975e-02,   1.07803553e-01,   2.20425978e-01,  -1.36143258e-02,
      2.45886669e-01,   6.10286221e-02,   2.44839460e-01,  -1.99109316e-03,
     -6.12546876e-02,  -5.66505075e-01,  -1.13029309e-01,   3.31904322e-01,
      2.10150480e-01,  -3.62204492e-01,  -2.85639286e-01,   9.88955125e-02,
      3.91602665e-01,  -2.65541643e-01,   3.77976592e-03,  -3.88341993e-02,
      1.31684914e-01,   2.38858357e-01,   3.97597611e-01,   4.86147225e-01,
     -3.55792850e-01,  -3.10441881e-01,   2.25748613e-01,   8.94620478e-01,
      4.96673316e-01,  -3.88871759e-01,   2.80928850e-01,  -4.58295494e-01,
      3.98380905e-01,  -3.65303755e-01,   4.11083996e-01,  -1.13270152e+00,
      9.73943323e-02,   3.70954216e-01,  -4.08950329e-01,   1.41036749e-01,
     -8.93807113e-02,  -5.57228439e-02,   6.33424699e-01,   9.87571999e-02,
     -9.59481969e-02,  -2.40924254e-01,   3.40554565e-01,  -8.89523625e-01,
     -1.84553653e-01,  -6.44702435e-01,   1.01954974e-01,  -7.24505961e-01,
      1.49772421e-01,  -3.85598660e-01,   8.43829736e-02,   3.50768089e-01,
      9.74870145e-01,  -5.50600961e-02,  -1.05741940e-01,   1.07905917e-01,
      4.68612701e-01,  -1.63831204e-01,  -1.99172452e-01,   1.81023359e-01],
   [ -1.67890757e-01,  -1.47153646e-01,  -9.06171650e-02,  -4.24837559e-01,
      2.98855871e-01,  -7.58332536e-02,   2.00217471e-01,  -1.21103056e-01,
      2.53709763e-01,  -4.74677831e-02,  -2.01238200e-01,  -7.92630911e-01,
      2.23124802e-01,   5.52058816e-01,   4.26348746e-01,  -4.94984426e-02,
      1.63664639e-01,   1.49479240e-01,  -9.83906984e-02,  -4.52882528e-01,
     -3.54396373e-01,   1.17395267e-01,   2.41899088e-01,  -2.52950519e-01,
      5.01209199e-01,  -5.09496629e-01,  -7.71155238e-01,   8.59473571e-02,
     -1.84983835e-01,   2.80160606e-01,  -1.41189367e-01,  -1.10633326e+00,
      2.26016849e-01,   1.00165019e-02,   3.86060029e-01,  -8.40823531e-01,
     -1.12609513e-01,  -1.82593942e-01,   2.78275669e-01,  -1.11466974e-01,
     -6.97670951e-02,  -4.52666909e-01,  -2.40105703e-01,   8.02960619e-02,
     -5.90150058e-02,  -2.34517902e-01,   3.33626509e-01,   9.29426432e-01,
     -2.03140214e-01,  -1.99542239e-01,  -2.45484442e-01,  -2.62077183e-01,
     -3.31414849e-01,   5.76454759e-01,  -3.69037688e-01,   1.78688139e-01,
      7.70198047e-01,   1.55787691e-01,  -5.76815903e-01,  -2.91240782e-01,
     -2.78161883e-01,   1.08668413e-02,   3.92195344e-01,   3.72700915e-02],
   [  8.24680254e-02,   1.78124592e-01,   2.45818123e-02,  -3.72801900e-01,
      8.91358927e-02,   2.57321715e-01,  -1.08411334e-01,   3.78134451e-03,
      1.07656591e-01,  -2.03769758e-01,  -6.70734346e-02,   6.41983211e-01,
     -1.53314114e-01,   5.49389124e-02,  -1.26167044e-01,   2.53493100e-01,
     -4.53940719e-01,   1.61386177e-01,  -3.05027310e-02,  -9.34612870e-01,
      7.67266080e-02,   2.74276167e-01,  -2.05874220e-01,  -2.98733890e-01,
      9.21660304e-01,   5.07235169e-01,   2.27073371e-01,  -1.13196540e+00,
      1.22520849e-01,   6.87740818e-02,  -1.15582287e-01,  -9.15045202e-01,
      3.35417747e-01,   5.98907650e-01,   5.53023994e-01,   8.05253267e-01,
      4.07566130e-01,  -1.10339694e-01,   1.27459303e-01,  -1.05333805e-01,
      5.66042326e-02,  -3.28931898e-01,  -5.73204696e-01,  -1.27940997e-01,
      1.43860627e-04,  -1.75189272e-01,   3.07497829e-01,  -5.95128201e-02,
     -1.89356282e-01,   6.55975878e-01,   3.51332963e-01,   1.00726330e+00,
      8.59094858e-02,   2.90744632e-01,  -1.80740356e-01,  -6.37401879e-01,
      5.83840311e-01,  -9.97031704e-02,  -3.75971705e-01,  -2.75485158e-01,
      4.72887933e-01,   1.38442457e-01,  -1.65252283e-01,   1.83888391e-01],],

  [[  8.42909157e-01,  -3.96128446e-01,   6.44479021e-02,  -4.34050053e-01,
      2.48071268e-01,  -3.15658152e-02,   1.41777098e-01,   1.41654357e-01,
     -1.33475780e-01,  -1.30612273e-02,  -6.67923316e-02,   4.37100679e-01,
      9.47992802e-02,  -2.72020340e-01,  -2.10819870e-01,  -1.75251439e-01,
      7.81560421e-01,  -6.71039000e-02,  -1.17925890e-02,   1.12023123e-01,
     -2.41050646e-01,   6.03763640e-01,   4.13076162e-01,  -4.53279495e-01,
     -1.01797931e-01,  -8.60401541e-02,   3.75604928e-01,   8.04232299e-01,
      5.41642487e-01,  -9.91523862e-02,   2.06365794e-01,   8.27139676e-01,
     -1.98701397e-01,  -2.28473127e-01,  -4.00971085e-01,   8.07896316e-01,
      7.86197484e-01,   1.47540659e-01,  -3.87682080e-01,   4.41649891e-02,
      1.30239008e-02,   1.71984211e-01,   4.23152782e-02,   1.70928612e-01,
      2.51535885e-02,  -3.14445913e-01,  -8.88754055e-03,  -2.59294063e-01,
      3.23724568e-01,  -6.37684107e-01,   1.30708113e-01,  -1.68134749e-01,
      3.58598791e-02,  -2.13558674e-02,   1.88193068e-01,   4.94873196e-01,
     -6.65028930e-01,  -4.60979968e-01,  -2.17669338e-01,   7.88883343e-02,
      8.83557200e-01,   1.66756753e-02,   1.83118403e-01,   3.55768427e-02],
   [ -4.50072825e-01,  -2.63199806e-01,  -2.55758688e-02,  -3.15440819e-02,
      1.40274569e-01,   1.61871269e-01,   6.46448229e-03,  -7.17238262e-02,
      1.80291533e-01,   8.02669004e-02,   6.60867095e-02,  -1.03233278e+00,
      3.87728363e-01,   5.71056545e-01,   8.93408716e-01,  -3.33605669e-02,
      2.07330018e-01,  -1.08406218e-02,   5.08956388e-02,  -3.65603566e-01,
     -1.79152623e-01,   2.46302336e-01,   8.29336569e-02,  -7.28546456e-02,
     -2.17724219e-01,  -1.58680052e-01,  -3.97587955e-01,   4.99208877e-03,
     -5.32175228e-02,   4.05047923e-01,  -1.63265869e-01,   2.23454051e-02,
     -3.90998900e-01,   7.83957765e-02,   1.48277998e-01,   1.59582496e-01,
     -3.33253831e-01,  -5.14835306e-02,   2.75585443e-01,   4.75833640e-02,
      1.16548412e-01,  -1.10412769e-01,  -1.12515293e-01,  -7.42099881e-02,
     -1.15185790e-01,  -2.33049914e-01,   1.65232196e-01,   6.70333624e-01,
      4.39840227e-01,   1.86584629e-02,  -2.69672964e-02,  -1.62500694e-01,
     -7.14729279e-02,   3.69525552e-02,   9.82009098e-02,   5.29691391e-02,
     -2.43916228e-01,   5.64820468e-01,  -2.62122422e-01,  -1.60176560e-01,
     -5.41285038e-01,  -6.95359111e-02,  -4.79170859e-01,   7.12557882e-02],
   [ -6.08550727e-01,   4.38135684e-01,   1.13178745e-01,   6.14205003e-01,
     -2.03196377e-01,  -2.53001660e-01,  -7.24872053e-02,   2.01152861e-01,
     -1.32793561e-01,  -1.47086710e-01,   2.55563051e-01,   7.03602612e-01,
     -1.77813113e-01,   1.69819891e-01,  -4.68973964e-01,   3.78879458e-01,
     -7.02255487e-01,   7.71860629e-02,  -1.63467787e-02,  -5.65115035e-01,
      4.35720384e-01,   4.07720506e-01,  -2.02795759e-01,  -1.10078789e-01,
     -3.52060735e-01,   4.77790320e-03,   4.64904368e-01,  -1.49852657e+00,
      4.45300967e-01,  -7.87037611e-02,  -3.56823593e-01,   2.23503456e-01,
     -1.47217885e-01,   1.75046742e-01,   1.02346562e-01,  -2.98533320e-01,
      2.68855970e-02,  -6.10167645e-02,   4.35584597e-02,   2.79491302e-02,
     -5.09276167e-02,   4.97054867e-02,  -2.97881335e-01,  -9.30335373e-02,
      9.34389085e-02,   6.81525245e-02,   1.59936279e-01,  -4.24731582e-01,
      4.63039458e-01,   6.62455261e-01,  -4.01775748e-01,   2.18172133e-01,
     -2.87304688e-02,  -9.36164916e-01,  -7.00933188e-02,  -5.38054168e-01,
     -1.05790578e-01,  -1.19114563e-01,   9.39614549e-02,   2.56943926e-02,
      3.51700008e-01,   2.82101542e-01,   3.27122271e-01,   1.41530886e-01],],

  [[  6.88746631e-01,  -9.91323888e-02,  -1.60227846e-02,  -4.35936125e-03,
     -2.85193264e-01,   1.17505975e-01,   1.53526738e-02,   1.75104424e-01,
     -1.47731870e-01,  -1.13638043e-02,  -7.95912296e-02,   3.53044987e-01,
     -4.94063407e-01,  -2.00469717e-01,  -2.56628901e-01,  -4.00774360e-01,
      2.43665129e-01,   9.34043061e-03,  -1.85923316e-02,   4.36340600e-01,
      1.42169550e-01,  -1.91917673e-01,   2.70645648e-01,  -3.49946320e-02,
     -1.11915760e-01,   6.74620271e-02,   3.58461648e-01,   2.48721614e-01,
     -1.13381758e-01,  -5.69655776e-01,  -3.63119990e-01,   3.11679542e-01,
      1.69456720e-01,   2.00330392e-02,  -2.41583586e-02,  -8.98581669e-02,
      6.22340560e-01,   1.82470873e-01,  -3.09655190e-01,   1.19130917e-01,
      2.44000405e-02,  -1.66827604e-01,  -1.43853247e-01,  -1.67538002e-02,
     -9.80286077e-02,   1.86017603e-02,  -1.40577018e-01,   2.77868181e-01,
     -9.50834081e-02,  -3.95952284e-01,  -1.01441965e-01,   2.92052001e-01,
      6.74136775e-03,   4.18754339e-01,  -2.41831109e-01,   1.82178333e-01,
     -1.28745660e-01,  -4.18710947e-01,  -1.04598142e-01,   5.39808422e-02,
      8.62376764e-02,   9.29271616e-03,   4.75850292e-02,  -3.01236492e-02],
   [ -9.04830918e-02,  -2.67502964e-02,  -6.40988573e-02,  -2.53817551e-02,
      1.45271122e-01,   1.23471595e-01,   3.57515998e-02,  -2.03682065e-01,
      1.24143004e-01,   2.03223322e-02,   2.02357560e-01,  -8.94155622e-01,
      9.58085209e-02,   5.06724000e-01,   3.74404639e-01,  -9.26694274e-02,
      1.68963969e-01,   3.12144756e-01,   6.50927573e-02,   1.89966157e-01,
      1.63375765e-01,   1.52268022e-01,   2.25742042e-01,   2.13302791e-01,
     -1.27002746e-01,   1.87406719e-01,  -2.33098373e-01,   1.62235796e-01,
     -1.86134815e-01,   4.12217714e-02,   4.04093191e-02,  -8.15942883e-02,
     -2.28762656e-01,   4.20726389e-02,   1.79409832e-02,   1.32767349e-01,
     -3.90949428e-01,  -1.91688195e-01,   7.16009289e-02,   6.86755450e-03,
     -3.76291312e-02,  -7.31822193e-01,  -1.97540540e-02,  -4.52791303e-02,
     -2.98588611e-02,   5.25274873e-03,  -1.63707748e-01,  -1.15448251e-01,
     -2.83934742e-01,  -2.34321281e-02,   2.96650231e-02,   1.90802719e-02,
     -1.12264976e-01,   1.17800303e-01,   3.05719256e-01,   1.20809842e-02,
     -1.22573902e-03,   5.74050784e-01,   6.81746528e-02,  -1.10599302e-01,
     -6.49737775e-01,  -2.23960966e-01,  -2.85406001e-02,   6.56875744e-02],
   [ -5.16570032e-01,   2.71668017e-01,   1.26637384e-01,  -1.63518377e-02,
     -2.17873007e-01,  -2.58163422e-01,  -1.90853968e-01,  -9.64038968e-02,
     -1.73551753e-01,  -1.29073963e-01,   4.98108983e-01,   2.96339303e-01,
     -2.33670980e-01,  -5.90687692e-02,  -4.58875746e-01,   7.86213949e-02,
     -4.20225471e-01,  -7.20152110e-02,  -7.74906715e-03,   1.15077198e-01,
     -3.12862903e-01,  -7.62196556e-02,  -3.60852122e-01,   1.65381998e-01,
      1.19623393e-02,  -6.94281608e-02,   3.16010594e-01,  -5.33642650e-01,
     -1.50265202e-01,  -5.98171838e-02,   5.30566812e-01,   1.89662296e-02,
      1.90987796e-01,   4.31369245e-03,  -1.41575947e-01,  -1.42135620e-01,
     -4.20879036e-01,   1.72982141e-01,   2.63178527e-01,  -1.89105511e-01,
     -7.78682381e-02,   1.53402314e-01,   8.19893554e-02,   2.69956619e-01,
     -5.75210974e-02,  -1.24992162e-01,   1.26854226e-01,  -1.53105348e-01,
     -2.58491665e-01,   3.47531736e-01,  -1.74499065e-01,  -3.96277905e-01,
     -3.78868818e-01,  -8.66441727e-01,  -1.85175017e-02,  -3.31382632e-01,
      6.17336966e-02,  -1.79465041e-01,   3.19403708e-01,   6.52884915e-02,
     -5.48587814e-02,   4.50205915e-02,  -3.49315554e-02,   9.54958498e-02],],],


 [[[  5.68424463e-01,   5.78343153e-01,  -2.87618488e-01,  -5.47959745e-01,
      2.62182713e-01,  -5.05529761e-01,  -1.89455431e-02,   1.65209383e-01,
      4.46636882e-03,  -2.34951451e-01,  -1.77902162e-01,  -5.55571020e-02,
     -5.20257652e-01,  -2.16234758e-01,   2.43042558e-01,   4.04925227e-01,
     -7.42412448e-01,  -1.45631042e-04,   1.00759372e-01,  -2.94375926e-01,
      8.32809731e-02,   7.67319649e-02,   3.97351623e-01,  -1.04035191e-01,
      3.95165771e-01,   2.07822457e-01,   1.64277721e-04,   2.43709572e-02,
      9.64628339e-01,   1.71834737e-01,  -9.31106150e-01,   9.66533273e-02,
     -3.65906984e-01,   9.94197369e-01,   2.61277288e-01,  -4.70672436e-02,
     -1.11364312e-01,   6.37404799e-01,  -1.68214992e-01,  -1.11124285e-01,
     -6.06937744e-02,   1.11045882e-01,   3.46123904e-01,  -4.03575957e-01,
     -5.76789826e-02,  -8.34437534e-02,   2.01665953e-01,   5.94777226e-01,
     -1.24613345e-01,   2.21062880e-02,  -1.73563957e-01,  -4.50827926e-01,
      2.94494867e-01,   3.42070498e-02,  -1.44699126e-01,   2.38504842e-01,
     -7.13047534e-02,  -2.19431117e-01,   4.32601795e-02,   3.89103889e-02,
     -1.33667805e-03,   1.61560997e-01,  -6.06426954e-01,  -7.91024193e-02],
   [ -8.39911625e-02,   1.77721113e-01,   3.96200359e-01,   3.01501472e-02,
      2.86591202e-01,  -3.26712638e-01,   7.53634330e-03,   5.14841676e-01,
      8.56660008e-02,   2.12790340e-01,   7.46036172e-02,   1.60863280e-01,
     -1.29589960e-02,   6.94352031e-01,  -1.01768434e+00,  -1.49611710e-02,
     -1.27471760e-01,   3.44222263e-02,  -2.84139842e-01,  -1.37956098e-01,
     -9.64679271e-02,   2.74120778e-01,  -1.10644735e-01,   2.04436839e-01,
      1.44496664e-01,  -1.63454980e-01,  -2.53018677e-01,   1.50341943e-01,
      1.25167668e-01,   1.60466701e-01,   4.56221670e-01,   2.58259505e-01,
     -6.32991269e-02,  -7.12054431e-01,   2.88784772e-01,  -2.57921610e-02,
      2.78697431e-01,  -1.86702281e-01,   4.34620738e-01,   2.33454347e-01,
      3.28899473e-02,   1.97655231e-01,   2.23798528e-01,   2.89371073e-01,
     -1.58914536e-01,   4.12771314e-01,   1.05155185e-01,  -3.55870306e-01,
     -7.42737157e-03,   1.20582342e-01,  -1.42171383e-01,  -1.19721666e-01,
      5.21009825e-02,  -6.09718785e-02,   2.59644806e-01,  -1.62667796e-01,
     -2.12500900e-01,   1.83426127e-01,   4.83389311e-02,  -1.50280669e-01,
      6.14140987e-01,  -4.32581156e-02,   9.33435082e-01,   1.50762707e-01],
   [ -4.90304947e-01,  -5.10826409e-01,   4.07144725e-02,  -1.25762135e-01,
     -5.15418313e-02,  -4.43219393e-01,  -3.28260586e-02,   7.00249732e-01,
     -5.68249896e-02,  -3.17215890e-01,   2.73980439e-01,  -3.01248759e-01,
      1.10449046e-01,   1.82593495e-01,   7.82878876e-01,   2.87282079e-01,
      5.88332415e-01,  -3.83563936e-02,  -2.98829824e-01,   3.99491847e-01,
     -4.83395606e-02,  -3.03816110e-01,  -3.80771190e-01,   5.40714189e-02,
      2.21862957e-01,   1.58051908e-01,  -4.99904752e-02,   2.37778008e-01,
      2.08529919e-01,   1.21687196e-01,   8.19703102e-01,   4.35080379e-01,
      1.10930644e-01,  -6.57230318e-01,   4.50926095e-01,  -4.42310691e-01,
     -6.27105951e-01,  -2.77328342e-01,  -2.91604400e-01,   2.82282718e-02,
      5.85726202e-02,  -1.50391743e-01,   2.47843593e-01,  -5.19000888e-02,
     -4.08357084e-02,   7.01422393e-01,   5.58832884e-01,  -2.52476275e-01,
      3.15748565e-02,  -1.30438596e-01,  -2.73474604e-01,   5.47033846e-01,
      3.16249788e-01,  -6.91491412e-03,  -2.39933074e-01,  -2.04016268e-01,
     -7.24866569e-01,   5.80546632e-03,   9.98903066e-02,   2.37670109e-01,
     -1.43250763e-01,  -2.42840961e-01,  -4.14798617e-01,  -1.03025716e-02],],

  [[ -3.28794867e-01,   1.05312956e-03,  -4.85900253e-01,   1.74834937e-01,
      8.15657750e-02,   1.95179403e-01,  -1.62901402e-01,   1.09916441e-01,
      9.27128568e-02,   7.03575388e-02,   6.45917803e-02,  -1.85249299e-01,
     -6.47868514e-01,   3.67153846e-02,   1.35956720e-01,  -3.52836810e-02,
     -4.14729297e-01,  -8.61169398e-02,   3.88317369e-02,  -1.33409381e-01,
      9.33319628e-02,  -5.44694774e-02,   6.17563248e-01,   4.18733180e-01,
     -3.67490947e-01,   5.49541563e-02,   9.89398658e-02,  -7.82388300e-02,
      3.48901153e-01,   7.49812499e-02,  -4.81965132e-02,  -4.20937501e-02,
      4.87685114e-01,   1.76634043e-01,  -1.22674488e-01,   5.58297873e-01,
     -2.73463249e-01,   6.57272995e-01,  -1.38130262e-01,  -8.65184814e-02,
      1.99174415e-02,   3.92530531e-01,   6.61595345e-01,   3.75614204e-02,
      2.45822072e-01,   3.17460775e-01,   6.21503055e-01,   3.49428877e-02,
     -4.14847536e-03,  -6.41872287e-02,  -3.18305045e-01,  -4.02328104e-01,
     -1.00842848e-01,  -2.83522874e-01,  -3.66032839e-01,   3.58034402e-01,
      1.37916195e+00,   4.22652602e-01,   1.10908888e-01,   2.65267938e-01,
      1.56087577e-01,  -1.51340574e-01,  -8.70181501e-01,   3.49606574e-01],
   [ -1.48826092e-01,   5.57758920e-02,  -1.08391903e-01,  -1.87316146e-02,
     -1.68465942e-01,   2.71859188e-02,  -9.01598334e-02,   4.04301852e-01,
      2.36457270e-02,   1.91414550e-01,   4.30096947e-02,  -9.68865380e-02,
      1.46054804e-01,   8.71934414e-01,  -4.27677780e-01,  -3.88151377e-01,
     -1.20051526e-01,  -7.43388236e-02,  -1.12977043e-01,   3.46473396e-01,
     -2.48461843e-01,  -3.57576162e-02,   1.20487325e-01,   2.46081412e-01,
     -3.65880787e-01,  -1.47856757e-01,  -1.11872945e-02,   4.13586646e-02,
     -8.30522776e-02,   1.73145413e-01,   1.89786479e-01,  -2.18688875e-01,
      5.93816519e-01,  -2.45742321e-01,  -2.89338052e-01,   6.16592109e-01,
      2.22519398e-01,   2.73201391e-02,   2.01945573e-01,   3.60892415e-02,
      9.41945165e-02,   4.07047510e-01,  -3.05608183e-01,   2.51041293e-01,
      9.67980549e-02,   8.78577173e-01,   5.67997098e-01,  -6.13594130e-02,
      2.29819771e-02,  -3.56334820e-02,  -5.26037216e-01,  -2.71146357e-01,
     -1.21659316e-01,  -6.53258264e-02,  -2.08985552e-01,  -8.73891264e-03,
      1.25854194e+00,  -1.14857352e+00,   1.94917277e-01,  -1.70788094e-01,
      1.62587181e-01,   1.18380480e-01,   2.28659630e+00,   1.73257992e-01],
   [  4.20448214e-01,  -2.39188354e-02,  -1.13448486e-01,   6.32397234e-02,
      1.05300322e-01,   3.49477977e-01,   7.27669373e-02,   2.61672169e-01,
     -1.43050104e-01,  -1.85450464e-01,   2.84472778e-02,  -4.43169057e-01,
      4.31167670e-02,   6.05453014e-01,   3.07677060e-01,  -1.60780832e-01,
      1.44245699e-01,  -2.09327772e-01,  -1.01736911e-01,   3.92041326e-01,
      2.77196705e-01,  -2.97419012e-01,  -4.77828562e-01,   9.19247717e-02,
     -4.68294978e-01,   2.54896551e-01,   1.41556337e-01,   3.52395147e-01,
      2.53463775e-01,  -2.54657656e-01,   6.86257482e-02,  -4.48439755e-02,
      3.70396435e-01,   2.98127413e-01,  -4.09198821e-01,   2.53211826e-01,
     -2.27303192e-01,  -2.94379387e-02,  -1.33681133e-01,   3.39258499e-02,
     -1.57255307e-03,   8.32616910e-03,  -8.36528778e-01,  -1.86912388e-01,
     -1.05471604e-01,   3.96041602e-01,   8.19159687e-01,   8.92159529e-03,
      5.73477941e-03,   1.89117774e-01,  -4.22023088e-01,   2.62518585e-01,
      1.87375665e-01,   2.81118274e-01,   1.20964855e-01,  -3.85113955e-01,
      1.37765038e+00,   5.68820715e-01,   2.79974252e-01,   1.34527329e-02,
      2.87230402e-01,   2.18453288e-01,  -1.42446339e+00,   9.98395085e-02],],

  [[ -6.02687418e-01,  -7.24754408e-02,   3.60218048e-01,   1.17498386e+00,
     -1.03598344e+00,   2.12171718e-01,  -6.49511814e-02,  -1.38830200e-01,
     -1.53004736e-01,  -2.08396520e-02,  -1.11677289e-01,   6.79766536e-02,
     -4.36773777e-01,  -1.08858839e-01,  -6.49176687e-02,   3.68430316e-01,
     -6.22395836e-02,  -2.22780615e-01,   2.62313068e-01,   2.26044118e-01,
     -1.35572925e-01,  -8.04993987e-01,  -1.39251109e-02,   1.25142187e-01,
     -4.11336452e-01,  -5.76904833e-01,   1.37060344e-01,  -2.50678398e-02,
     -6.47009909e-03,  -8.65389705e-02,   2.08490536e-01,   5.91434181e-01,
     -8.07354033e-01,  -9.44562376e-01,  -4.02817369e-01,  -1.34143353e+00,
     -2.07942158e-01,   6.90670967e-01,  -3.77450049e-01,  -1.93059728e-01,
      2.23757345e-02,   3.07265699e-01,  -2.14303181e-01,  -7.97546133e-02,
     -2.24550720e-03,   4.12423223e-01,  -8.60277593e-01,  -8.44779432e-01,
     -1.36905655e-01,   7.84970224e-02,  -5.43171689e-02,  -1.64799094e-01,
     -1.57827035e-01,  -1.82544634e-01,   2.85705239e-01,   5.42411149e-01,
     -1.76939881e+00,   9.42861617e-01,   2.83179939e-01,   2.54911244e-01,
      2.85954207e-01,  -3.07023466e-01,  -8.01558852e-01,   1.13516241e-01],
   [  4.29024994e-02,   1.69077590e-01,   1.02507174e-01,   1.81116119e-01,
     -9.47835267e-01,  -1.22847585e-02,   3.89306387e-03,   4.49211672e-02,
     -1.32981807e-01,   1.05080672e-03,  -7.96680748e-02,  -4.19153452e-01,
     -7.50755798e-03,   2.07125098e-01,   2.18925938e-01,   3.38900805e-01,
      1.27390027e-01,   2.02210397e-01,  -2.73475535e-02,   1.00426376e+00,
     -5.87046504e-01,  -6.31747901e-01,   4.67185862e-02,  -8.13191712e-01,
      7.24938810e-01,  -4.45600957e-01,  -2.29522958e-01,  -2.44647145e-01,
     -1.90138981e-01,  -9.58338287e-03,  -1.83225989e-01,   9.35703889e-02,
     -9.55001414e-01,   3.64492536e-01,  -9.17852998e-01,  -1.01411724e+00,
      3.22499663e-01,   1.68748707e-01,   2.86466599e-01,   1.07992001e-01,
     -8.78787488e-02,   1.12195194e-01,  -5.84403753e-01,  -1.75412759e-01,
      1.68602522e-02,   8.57249022e-01,  -8.07291865e-01,   4.96362865e-01,
     -4.76702116e-02,  -6.16039596e-02,  -1.92175522e-01,  -8.13765451e-02,
     -2.06110001e-01,   2.95426756e-01,  -3.16172242e-02,  -1.55153498e-01,
     -1.46856594e+00,  -1.55583787e+00,   1.45215333e-01,  -4.70338352e-02,
     -8.06926250e-01,  -4.14403528e-02,   1.31786466e+00,  -2.44188055e-01],
   [  6.19253874e-01,   1.74020324e-02,   9.81632061e-03,  -3.86537239e-03,
     -1.87345609e-01,   2.34237984e-01,   2.94664651e-01,  -1.63030773e-01,
     -3.18490595e-01,   1.30417392e-01,  -8.18887800e-02,  -2.07609072e-01,
      1.54284239e-01,   2.43251041e-01,  -7.39760622e-02,   4.53099698e-01,
      7.39711449e-02,   6.85432628e-02,  -1.16800904e-01,   7.92756140e-01,
      6.79897308e-01,  -1.39713898e-01,  -1.19741894e-01,  -5.86811364e-01,
      6.40283465e-01,   1.67109251e-01,   3.57135236e-02,  -5.42463601e-01,
      8.58422834e-03,  -1.75806537e-01,  -2.84585267e-01,   4.63509649e-01,
     -1.05736148e+00,   7.14609325e-01,  -7.39529788e-01,   7.15439260e-01,
      6.75546169e-01,   7.15119168e-02,   1.44181112e-02,   7.17237294e-02,
     -2.30047479e-01,  -1.92139402e-01,  -6.97683454e-01,  -3.07357490e-01,
     -1.26472395e-02,   4.09600496e-01,  -1.12214851e+00,   4.16537642e-01,
     -1.86945319e-01,   2.36267895e-01,  -3.38792443e-01,   4.19563591e-01,
      2.68254783e-02,   7.29537368e-01,   6.36903167e-01,  -7.17686474e-01,
     -7.12067485e-01,   4.03812915e-01,  -9.73896757e-02,  -6.78175539e-02,
      1.11883059e-01,   1.31008793e-02,  -7.17627406e-01,  -7.26568550e-02],],

  [[  3.89456719e-01,  -5.31657159e-01,   6.40617087e-02,  -7.09729254e-01,
      3.59175205e-02,  -2.85221606e-01,   5.19550666e-02,  -3.24341625e-01,
      5.74868023e-02,   1.14260323e-01,  -2.73513436e-01,   1.75542384e-01,
      3.93135324e-02,   1.08940691e-01,  -4.71899092e-01,  -5.01095831e-01,
      6.64147139e-01,   1.41571254e-01,   2.94943273e-01,  -1.76003277e-01,
     -4.45640028e-01,  -1.99655950e-01,  -3.04624170e-01,  -2.05825672e-01,
      1.13099068e-01,   1.97771370e-01,   5.54320291e-02,  -1.82091817e-01,
     -8.07600200e-01,  -8.27629343e-02,   9.72142458e-01,   4.20833141e-01,
      1.06766450e+00,  -2.56013125e-01,   6.92181706e-01,   9.71313477e-01,
      3.94212395e-01,   6.05185866e-01,  -2.18049273e-01,  -8.47621858e-02,
     -1.15899965e-02,   7.04736337e-02,  -1.42588675e-01,   4.74717498e-01,
     -1.47249281e-01,  -1.79712884e-02,  -3.03439796e-03,  -8.61829400e-01,
      1.65800378e-01,  -1.19131409e-01,   2.67215908e-01,   6.47555113e-01,
     -1.37953058e-01,  -7.38788992e-02,   2.26630405e-01,   5.34473300e-01,
      7.57735297e-02,  -4.75773886e-02,  -1.91170305e-01,   1.57392882e-02,
      8.47726464e-01,  -1.10617124e-01,   2.29779214e-01,  -1.28056044e-02],
   [ -3.21707398e-01,  -1.77708752e-02,  -8.54816139e-02,  -4.34858143e-01,
     -2.54073620e-01,   5.63765913e-02,  -2.48177368e-02,   4.63393331e-02,
      1.65772617e-01,  -8.57752934e-02,  -1.92921177e-01,  -5.98951519e-01,
      2.39225611e-01,  -2.94805527e-01,   9.39614713e-01,  -1.63583070e-01,
      2.05565006e-01,   2.47607026e-02,   3.44403721e-02,   1.98942229e-01,
     -5.05861580e-01,  -5.01625240e-01,   1.00717001e-01,   4.02619690e-01,
     -9.08567905e-02,   3.87696594e-01,  -3.21281925e-02,  -2.01978475e-01,
     -7.46517837e-01,   2.33686138e-02,  -2.63468564e-01,   1.97363243e-01,
      7.59290397e-01,   4.33528930e-01,   8.72849405e-01,   4.09523100e-01,
     -1.98787212e-01,  -9.87828597e-02,   8.52385834e-02,   2.49730155e-01,
     -7.72259906e-02,  -9.71742496e-02,   4.52160925e-01,   1.07322648e-01,
     -2.26586923e-01,   5.68748355e-01,   7.44531751e-02,   1.02599072e+00,
      4.69727904e-01,  -2.12200269e-01,   3.67310107e-01,  -1.50991231e-02,
      1.37652636e-01,  -1.44927964e-01,  -1.44703642e-01,  -1.80622846e-01,
      1.84566692e-01,  -2.32244283e-01,  -3.68927777e-01,   2.46390607e-02,
     -6.33385241e-01,  -2.96545941e-02,  -6.73780859e-01,  -3.14253151e-01],
   [ -1.36795804e-01,   4.55073863e-01,  -1.13554664e-01,  -2.42258757e-01,
      4.42437500e-01,  -3.13610584e-01,   3.80843669e-01,  -6.36804625e-02,
      1.27630923e-02,  -8.44500065e-02,  -7.19696283e-02,   2.94963241e-01,
     -2.24006791e-02,  -1.09215662e-01,  -1.12837183e+00,  -5.14802784e-02,
     -5.86528122e-01,  -1.82409436e-02,  -1.68619558e-01,   4.98256356e-01,
      8.71349514e-01,   2.85284877e-01,   2.40904033e-01,   1.92389488e-01,
     -3.85985911e-01,  -1.38973743e-01,   1.68328747e-01,  -6.62718415e-01,
     -4.87263620e-01,  -3.84617820e-02,  -1.08042514e+00,   5.95481277e-01,
      1.05674016e+00,  -8.23254734e-02,   7.59166181e-01,  -3.21275443e-01,
      3.09436798e-01,  -2.89789170e-01,   1.32233545e-01,   2.10923374e-01,
      2.23678887e-01,  -3.81949872e-01,   5.93867421e-01,   6.03725135e-01,
      7.33820200e-02,   3.77209872e-01,  -2.31233120e-01,  -1.99984118e-01,
      3.22732508e-01,   2.12566048e-01,  -3.93569916e-01,  -4.88889724e-01,
      2.27209199e-02,  -1.94399774e-01,  -3.09177697e-01,  -3.60891879e-01,
      1.48726940e-01,   3.12211424e-01,  -6.03684843e-01,   2.22990483e-01,
      2.04610363e-01,   1.16957448e-01,   5.09971797e-01,  -1.17210664e-01],],

  [[  4.24179047e-01,  -1.90139368e-01,   1.46130964e-01,  -1.83984086e-01,
     -1.48507841e-02,  -4.55415517e-01,  -8.20013210e-02,  -2.64538199e-01,
      1.93987846e-01,   1.31009385e-01,  -1.50431961e-01,   3.81754816e-01,
     -6.29426837e-01,   2.59104401e-01,  -2.71474928e-01,  -1.97768524e-01,
      3.59438986e-01,  -7.91028365e-02,   2.29254693e-01,  -5.23230851e-01,
      1.27282694e-01,   4.72532600e-01,  -2.48093247e-01,   6.87535629e-02,
      1.07803583e-01,  -1.62890881e-01,  -5.58055937e-02,   1.89427882e-02,
     -5.12689471e-01,  -3.90322387e-01,   8.09510723e-02,  -4.96050566e-01,
     -3.91097665e-01,  -2.25843832e-01,  -1.87132910e-01,  -2.09143966e-01,
      2.58308172e-01,   4.25781965e-01,   1.54608890e-01,   4.13250271e-03,
     -3.25632021e-02,   1.21581666e-01,  -3.58619303e-01,  -9.28084925e-02,
     -1.77128330e-01,   1.72616571e-01,   2.15403810e-01,  -1.54667526e-01,
     -1.00059129e-01,  -6.23194128e-02,  -1.06879175e-01,   5.42324185e-01,
     -1.55696064e-01,   1.28604531e-01,  -1.83142364e-01,   1.62352249e-01,
      4.53454494e-01,  -1.14176802e-01,   6.58212528e-02,   1.79567337e-01,
      4.20141131e-01,   1.79268867e-01,   1.37915492e-01,  -3.16286157e-03],
   [ -7.76749998e-02,  -5.14004678e-02,  -3.31636406e-02,   3.82976025e-01,
     -1.72798932e-01,  -2.16221958e-01,   1.79579139e-01,  -9.09782499e-02,
      1.11905940e-01,  -1.83464424e-03,   1.99627981e-01,  -4.10984218e-01,
     -7.76080787e-02,  -3.46736491e-01,   9.76715207e-01,   1.51897967e-01,
      1.95615560e-01,   8.13431218e-02,   1.76017776e-01,  -3.20693851e-01,
     -8.28839689e-02,   5.68235695e-01,  -1.79642506e-04,   1.69098824e-01,
      8.81794915e-02,   1.38268352e-01,   1.02207609e-01,   2.97601998e-01,
      1.99579328e-01,   1.12932183e-01,  -1.73922911e-01,  -2.11587012e-01,
     -5.07417202e-01,   3.26922536e-01,  -1.36510029e-01,   1.63379177e-01,
     -5.05216539e-01,  -2.43688852e-01,  -1.82752073e-01,   9.69868377e-02,
     -6.54557943e-02,  -4.14755225e-01,   7.65293166e-02,  -2.97076404e-01,
     -2.32587159e-02,   2.44249046e-01,   1.46500826e-01,   4.95696396e-01,
     -2.60240823e-01,  -1.17991105e-01,   4.67088968e-01,   1.05573468e-01,
      2.20460910e-02,  -1.29057258e-01,   3.83198023e-01,  -1.74083978e-01,
      1.93412617e-01,   2.18801126e-01,   7.99714923e-02,   5.98445609e-02,
     -3.51044327e-01,   7.25612566e-02,  -2.87080139e-01,  -1.75628588e-01],
   [ -4.66888636e-01,   5.99326640e-02,  -2.20976606e-01,   2.17031732e-01,
      3.52019407e-02,  -1.71015754e-01,   2.47337207e-01,   1.21915936e-01,
      8.81480575e-02,   6.76395223e-02,   3.88588816e-01,   3.64886254e-01,
     -1.21814227e-02,  -4.30055797e-01,  -2.74664521e-01,  -1.51922643e-01,
     -3.67632806e-01,  -3.14080894e-01,  -7.29380548e-02,   2.11867411e-02,
      2.56046243e-02,   4.16131675e-01,   9.34854150e-02,  -5.79038821e-02,
      2.70558536e-01,  -5.95540591e-02,  -3.13717835e-02,   1.03190780e-01,
     -2.40213454e-01,   4.40241694e-02,  -4.95184101e-02,   6.18210211e-02,
     -3.45530033e-01,  -1.09374158e-01,  -1.79539934e-01,  -1.97843537e-01,
     -3.76302958e-01,  -2.92741299e-01,  -3.09190191e-02,  -1.78286135e-01,
     -3.71297821e-02,  -2.99824476e-01,   3.07910264e-01,  -3.66004929e-02,
      1.61418885e-01,   9.10602452e-04,  -1.17549255e-01,  -3.34700108e-01,
     -1.95717663e-01,   6.40828609e-02,   1.95377991e-01,  -6.48786306e-01,
     -2.14949787e-01,  -5.81059575e-01,  -1.34852752e-01,  -2.62455910e-01,
      6.64154887e-02,  -3.92805822e-02,   2.58481115e-01,   3.07001397e-02,
      8.99245292e-02,  -8.30370113e-02,   1.65638849e-01,   1.10753790e-01],],],


 [[[  2.91129827e-01,   7.01182783e-01,  -6.58950163e-03,  -9.77592170e-02,
      3.53974253e-02,  -2.84696996e-01,   2.76279580e-02,  -2.24364966e-01,
     -4.60903626e-03,   4.05121684e-01,  -2.96136320e-01,  -4.13439609e-02,
     -2.10844934e-01,  -2.44070783e-01,   6.79703891e-01,  -4.23943847e-02,
     -3.28664660e-01,  -1.05218351e-01,  -1.12212263e-01,  -3.10878247e-01,
      9.78278518e-02,   3.69504154e-01,   6.66347563e-01,   9.77803543e-02,
      4.19233680e-01,   2.73373604e-01,  -2.39198953e-02,  -1.63787708e-01,
      1.07957318e-01,   1.69470802e-01,  -9.30170417e-01,  -1.93455160e-01,
     -6.36853576e-01,   8.43343198e-01,  -2.68399507e-01,   1.69741139e-01,
     -2.14863047e-01,  -3.08620512e-01,  -5.98759413e-01,  -1.86237469e-01,
      1.65331051e-01,  -6.21415377e-02,   9.04020429e-01,  -2.65548497e-01,
      9.91284549e-02,  -2.88544625e-01,  -3.00485462e-01,   7.35675573e-01,
     -2.37913989e-02,   4.18300569e-01,   4.59313601e-01,  -3.24649185e-01,
      2.79137343e-01,   3.11076880e-01,   2.67513484e-01,  -2.70897418e-01,
      7.05148518e-01,   1.94318786e-01,  -2.88987008e-04,   1.08847581e-01,
     -3.15366358e-01,  -3.03552717e-01,  -8.62608969e-01,  -5.64297915e-01],
   [ -4.05511260e-02,   7.37949237e-02,   8.43116641e-01,   5.53702593e-01,
      1.52560547e-01,  -5.70691638e-02,   2.26334095e-01,  -1.97656468e-01,
     -4.33230437e-02,   1.09826177e-01,   4.57519032e-02,   5.44005871e-01,
      4.35463369e-01,   5.45351207e-01,  -8.22525620e-01,  -2.16943532e-01,
     -1.08396657e-01,   1.59718797e-01,  -1.65528297e-01,  -1.02263913e-02,
     -9.52509344e-02,   3.68137836e-01,  -4.35610086e-01,   9.41383615e-02,
      2.27945428e-02,  -1.00750662e-01,  -1.63876578e-01,   7.76762217e-02,
     -9.49797392e-01,  -4.54209268e-01,   5.75901985e-01,   2.28016898e-01,
     -2.46906534e-01,  -6.95454061e-01,  -2.52915144e-01,  -8.50436650e-03,
      2.42374748e-01,   8.91443491e-02,   4.55044180e-01,   2.49237016e-01,
      1.64337516e-01,   3.54307681e-01,  -1.45192325e-01,   7.16477811e-01,
     -4.73366007e-02,  -8.43227506e-01,  -6.58184290e-01,  -7.74597406e-01,
     -1.67383868e-02,  -7.64328986e-02,   5.52817643e-01,  -5.18772244e-01,
      2.29986295e-01,  -3.12621206e-01,   5.52305639e-01,  -2.06355527e-01,
      4.71751601e-01,  -2.37966701e-01,  -1.23260282e-01,  -2.74755836e-01,
      7.07103670e-01,  -3.27466056e-02,   1.48788893e+00,  -3.42609107e-01],
   [ -3.33251208e-01,  -7.20376909e-01,   4.06920940e-01,   1.71017796e-01,
     -5.47635630e-02,  -5.91050535e-02,   3.13888229e-02,  -1.60055161e-01,
      6.68009669e-02,  -3.99476439e-01,   2.72669345e-01,  -1.02502808e-01,
      6.78614318e-01,   5.38782179e-01,   9.95614052e-01,   6.20533377e-02,
      2.55279541e-01,   2.85621643e-01,  -4.95308906e-01,   2.68588215e-01,
      1.98769588e-02,  -2.03228906e-01,  -3.47853065e-01,   1.34671479e-01,
      1.22035354e-01,   5.94783723e-01,   3.14199328e-01,  -1.40416101e-01,
     -4.25439507e-01,   2.57112950e-01,   8.88272882e-01,   9.64089334e-02,
     -2.83875138e-01,  -5.08648694e-01,   2.36165691e-02,  -5.73670566e-01,
     -4.66980577e-01,   2.16264859e-01,   3.28729153e-01,  -3.21194455e-02,
      2.46602163e-01,   1.25645429e-01,  -6.09268486e-01,  -3.47204149e-01,
     -1.62895933e-01,  -4.43732366e-02,  -5.61760724e-01,   7.52189606e-02,
     -9.01918411e-02,  -3.36548537e-01,   2.00760111e-01,   7.60789514e-01,
      1.75315350e-01,   1.07582040e-01,  -4.53744441e-01,   5.12102008e-01,
      3.80828261e-01,   1.29223764e-01,  -9.36052874e-02,  -2.73141055e-03,
     -4.59301591e-01,   2.09865719e-01,  -7.60791779e-01,  -3.29253823e-01],],

  [[ -5.05720973e-01,   3.43915582e-01,  -9.82816577e-01,  -1.12468374e+00,
      8.26456904e-01,   5.72314523e-02,   1.37059450e-01,   5.31024672e-02,
      2.15845391e-01,   2.78951049e-01,  -1.65109307e-01,  -4.48255651e-02,
     -4.12652075e-01,  -3.57668787e-01,   2.45018434e-02,   3.87044370e-01,
     -2.48727068e-01,   5.35798408e-02,  -8.16502944e-02,  -4.24453557e-01,
      2.25939706e-01,   3.05855811e-01,   4.41414207e-01,   5.39835155e-01,
     -2.92861164e-01,  -7.03238130e-01,  -3.44036985e-03,  -3.65908951e-01,
     -8.88774619e-02,   3.05555195e-01,  -4.96607721e-01,   5.35283163e-02,
      2.66967088e-01,  -8.81717913e-03,   6.83906853e-01,   5.08816838e-01,
     -3.46314967e-01,  -1.35172379e+00,  -6.69108093e-01,   3.49506624e-02,
     -5.13680458e-01,  -1.64451629e-01,  -3.55345696e-01,  -2.11337835e-01,
      2.87647694e-01,  -3.93926837e-02,  -2.31305435e-01,   6.82570636e-01,
     -7.51000494e-02,   3.85273069e-01,   5.84526479e-01,   8.25349241e-02,
     -8.17624778e-02,   1.36365041e-01,  -5.14233392e-03,  -2.16419041e-01,
     -1.61769998e+00,   1.39072335e+00,  -9.57741737e-02,   1.85029328e-01,
     -4.63188738e-01,  -7.31152534e-01,  -8.70433450e-01,  -6.14088066e-02],
   [ -1.29111754e-02,  -1.18124202e-01,  -2.87542164e-01,  -8.38596523e-01,
      4.96225208e-01,   4.76093069e-02,   1.65233448e-01,   1.89700574e-01,
      1.97273761e-01,  -3.89888026e-02,   1.11216335e-02,   6.78164721e-01,
      3.78260195e-01,  -3.59389812e-01,  -1.06134033e+00,   2.10948139e-02,
     -3.75533253e-02,   1.38587682e-02,   7.89463744e-02,   3.07823550e-02,
     -3.35424244e-01,   1.36592776e-01,   4.80670668e-02,   3.67940627e-02,
     -4.46546972e-01,  -6.66055679e-01,  -7.38935396e-02,   1.22054271e-01,
     -6.13925636e-01,   1.10579215e-01,   1.16217062e-01,   6.71602488e-02,
      4.38973606e-01,  -3.33093584e-01,   7.68481374e-01,   5.27745664e-01,
      2.51121998e-01,  -1.72425240e-01,   3.50347579e-01,   5.92630096e-02,
     -4.66836572e-01,  -7.07842223e-03,  -7.21918702e-01,  -2.39853486e-01,
     -7.17845187e-02,  -8.34060133e-01,  -3.37614298e-01,  -6.25879943e-01,
      4.80960272e-02,  -1.06246293e-01,   7.72473335e-01,  -3.00750017e-01,
      2.77440158e-05,  -3.79795372e-01,   2.41092205e-01,  -3.26643735e-02,
     -1.26972318e+00,  -2.06807637e+00,  -1.67892531e-01,  -2.80180573e-01,
      2.26162121e-01,  -2.09293887e-01,   2.46894407e+00,  -1.53132930e-01],
   [  3.93366873e-01,  -1.91276893e-01,  -3.38121086e-01,  -3.10811877e-01,
      4.93122667e-01,   5.43829203e-01,  -4.77979891e-02,  -3.56002033e-01,
      3.09792936e-01,  -2.00167835e-01,   1.52609125e-01,  -2.20439240e-01,
      4.36870068e-01,  -1.81880474e-01,   3.82500142e-01,   2.41593972e-01,
      3.92746001e-01,   7.86904693e-02,  -6.73686638e-02,  -1.19184712e-02,
      1.65709615e-01,  -4.02114034e-01,  -5.02531119e-02,   9.11320299e-02,
     -4.02872026e-01,   4.52932119e-02,   2.36148730e-01,   3.77002507e-01,
     -1.95117474e-01,   1.70886263e-01,   5.29406190e-01,  -5.12447171e-02,
      5.07906854e-01,   5.73604226e-01,   5.90176404e-01,   2.81865686e-01,
     -1.64865151e-01,   8.55035126e-01,   2.44312569e-01,   1.13715129e-02,
     -6.39051557e-01,  -7.04644024e-02,  -8.49643409e-01,  -6.68438315e-01,
     -1.70242190e-01,  -6.39513254e-01,   1.76218897e-01,  -5.61595745e-02,
     -8.03856459e-03,  -2.06983343e-01,   3.08518589e-01,   3.57461154e-01,
      1.67247653e-02,   8.03605020e-02,  -3.43623906e-02,   4.63913321e-01,
     -4.72369730e-01,   6.59246564e-01,   9.62025374e-02,  -7.94711113e-02,
      6.80119842e-02,   5.13809562e-01,  -1.59014356e+00,  -3.24083418e-01],],

  [[ -7.65658557e-01,  -2.40798041e-01,   3.01785767e-01,   1.32220125e+00,
     -1.35425103e+00,   1.28974140e-01,  -1.61437616e-02,   5.55322289e-01,
      1.43648431e-01,   3.85924816e-01,  -7.59851262e-02,   2.08382085e-01,
     -2.20056355e-01,  -2.32129738e-01,   1.93051919e-01,   2.53349751e-01,
     -7.13530779e-01,  -3.88742536e-01,  -7.81098902e-02,  -3.32133293e-01,
     -2.22930700e-01,   1.26848698e-01,  -6.51199877e-01,  -5.43913580e-02,
     -4.64146316e-01,  -1.24209046e-01,  -7.93495402e-02,  -4.03825343e-01,
     -3.62801015e-01,   1.42383114e-01,  -3.61229897e-01,   1.70969024e-01,
      4.09943759e-01,  -8.65397215e-01,  -3.56077015e-01,  -1.37433696e+00,
     -4.33583617e-01,  -1.92579615e+00,  -6.86291158e-01,   4.29424159e-02,
      7.52203643e-01,   1.11123202e-02,  -1.16321869e-01,   9.32721317e-01,
      1.91496849e-01,  -2.75393903e-01,   1.16914797e+00,  -1.82877347e-01,
     -2.78148428e-02,   3.83458197e-01,   4.98141617e-01,   1.40133455e-01,
     -2.01198995e-01,  -3.03333905e-02,  -1.11757946e+00,  -2.16480330e-01,
      6.09120019e-02,   1.94323456e+00,   3.26977283e-01,   3.40591818e-01,
     -3.23916465e-01,  -9.00594056e-01,  -3.93008888e-01,   4.11327899e-01],
   [  2.47991532e-01,   3.47841321e-03,  -1.25423148e-01,   1.65847614e-01,
     -1.17386568e+00,  -1.04419813e-01,  -2.29406446e-01,   5.64100027e-01,
      3.03512454e-01,  -5.71166947e-02,   1.13017134e-01,   6.66018009e-01,
      1.60747781e-01,  -8.36096466e-01,  -8.12661871e-02,   3.93335938e-01,
     -1.07351251e-01,   7.88913369e-02,   1.12720817e-01,   1.39333189e-01,
     -4.51292574e-01,   2.28492111e-01,  -1.27487734e-01,  -7.42868185e-01,
      8.27635229e-01,  -1.56039432e-01,  -1.44796044e-01,   3.98155838e-01,
     -3.41664016e-01,   1.03405640e-01,  -6.34701774e-02,  -4.71123494e-02,
      3.23320299e-01,   5.53007007e-01,  -6.93495274e-01,  -1.02710259e+00,
      2.84119248e-01,  -4.76130873e-01,   1.85043499e-01,  -3.13935168e-02,
      6.02072120e-01,   9.29075629e-02,   6.82428956e-01,   4.57867503e-01,
     -4.42871545e-03,  -8.40580225e-01,   1.12161493e+00,  -2.03888670e-01,
     -1.84378847e-01,  -1.43176764e-01,   6.92833722e-01,  -1.78150386e-01,
     -9.27615464e-02,  -2.99664587e-01,  -1.30878961e+00,   9.81966406e-03,
      2.39996403e-01,  -2.61622429e+00,   3.37895513e-01,  -1.83823600e-01,
     -5.28160393e-01,  -3.36718798e-01,   7.87697375e-01,   1.10103108e-01],
   [  6.23266518e-01,   1.67397350e-01,   1.02297470e-01,   3.35309267e-01,
     -3.95353436e-01,   1.14047900e-01,  -1.56899601e-01,  -2.16970369e-01,
      3.93334031e-01,  -4.73747775e-02,   3.80657464e-01,   1.36049539e-01,
      1.92306101e-01,  -5.20619273e-01,   5.17524540e-01,   5.87709665e-01,
      4.97632384e-01,   2.22669989e-01,   1.60664573e-01,   1.10341586e-01,
      6.56234980e-01,   1.04597576e-01,   2.52200723e-01,  -6.59292817e-01,
      5.35903990e-01,  -2.93942243e-01,   2.03967065e-01,   5.19659460e-01,
     -1.32158935e-01,  -2.08046325e-02,   5.73910832e-01,   2.81194955e-01,
     -3.06186528e-04,   6.81718290e-01,  -7.34232664e-01,   5.69586337e-01,
      4.10609871e-01,   5.37690282e-01,   5.25393724e-01,  -4.65823486e-02,
      6.30506694e-01,   1.85565993e-01,   9.36582446e-01,   8.41101706e-01,
     -1.69330850e-01,  -5.55324435e-01,   1.48454738e+00,   4.21580017e-01,
     -3.14667314e-01,  -3.21852475e-01,   5.54554760e-01,   9.68885724e-04,
      3.16513935e-03,   5.65207779e-01,  -3.28427441e-02,   3.25725168e-01,
      4.22771275e-01,   4.56380576e-01,   5.52923262e-01,  -3.12687337e-01,
      8.93828049e-02,   6.36931300e-01,  -5.10542870e-01,   1.97148427e-01],],

  [[  3.09988201e-01,  -6.59833372e-01,   3.05754662e-01,   3.16516399e-01,
     -4.37307507e-02,  -7.19817355e-02,   8.14569518e-02,   3.28148812e-01,
     -1.55936688e-01,   2.08690047e-01,  -3.46568078e-01,  -4.04638022e-01,
      2.14386329e-01,   4.84222889e-01,  -2.36047566e-01,  -7.24739730e-01,
      2.60458827e-01,  -2.40391679e-02,  -9.97533128e-02,  -3.47118378e-01,
     -4.19120103e-01,  -5.65126061e-01,  -2.85257518e-01,  -8.89282748e-02,
      3.86256911e-02,   5.16201794e-01,  -1.77510127e-01,  -5.21894693e-01,
     -1.00313708e-01,  -6.13308838e-03,   9.40009475e-01,  -3.80151272e-01,
     -3.90414357e-01,  -1.83176070e-01,  -6.88249990e-02,   9.07034636e-01,
      1.57970890e-01,  -3.56015265e-01,  -3.24977413e-02,  -1.64853886e-01,
     -5.10642350e-01,  -1.46633433e-02,  -7.63043284e-01,  -1.01858184e-01,
     -1.31924927e-01,  -2.38107622e-01,  -1.26953438e-01,  -1.19852602e+00,
      2.80579150e-01,   1.64878651e-01,   8.50053355e-02,   5.39506435e-01,
      1.78954564e-02,  -4.74690832e-02,   7.47693241e-01,  -2.39029765e-01,
      1.22494888e+00,   3.75558019e-01,   1.89612322e-02,  -6.00435585e-02,
      2.50308484e-01,  -7.26741493e-01,   4.53930110e-01,   4.88287717e-01],
   [ -4.05554295e-01,   9.31257010e-02,  -2.08212912e-01,  -1.04523048e-01,
     -3.49389970e-01,   2.81749368e-01,  -1.09442890e-01,   5.39759755e-01,
     -1.26236165e-02,  -1.98755637e-01,  -1.14305831e-01,  -6.18403479e-02,
      1.32133529e-01,  -5.30588686e-01,   9.35652196e-01,  -3.95875812e-01,
      3.03274572e-01,   4.58389483e-02,   8.03711414e-02,   2.39914600e-02,
     -4.06901062e-01,  -7.94372022e-01,   2.83026788e-03,   4.56078857e-01,
      3.79355140e-02,   4.98381436e-01,  -1.59945354e-01,   3.90532523e-01,
      5.70248067e-01,   3.29238981e-01,  -1.76158875e-01,  -1.17684871e-01,
     -6.96485937e-01,   4.74224478e-01,  -1.58019304e-01,   3.95199239e-01,
     -4.98761237e-01,   1.75916657e-01,  -1.80311546e-01,   1.43922284e-01,
     -5.52559793e-01,   1.57683678e-02,   9.33669955e-02,  -7.35465288e-01,
     -9.88737196e-02,  -5.66330552e-01,   1.09702442e-02,   6.21720731e-01,
      4.10642713e-01,  -9.51220281e-03,   1.57641858e-01,   1.79507155e-02,
      2.06653103e-01,  -2.98305079e-02,  -2.18652084e-01,  -1.75254211e-01,
      8.04413199e-01,  -5.54462075e-01,  -3.33053440e-01,  -2.37151787e-01,
     -5.68866611e-01,  -2.97470480e-01,  -1.17530406e+00,  -1.67109057e-01],
   [ -2.25848973e-01,   4.97100830e-01,   1.08590789e-01,  -3.75206590e-01,
      1.80571094e-01,  -1.25155091e-01,  -1.46893682e-02,   8.32537040e-02,
      2.26685569e-01,   3.96560840e-02,  -9.42342803e-02,   1.05852008e-01,
     -1.13498874e-01,  -3.32925022e-01,  -9.07682061e-01,  -6.79850876e-01,
     -6.96772635e-02,   1.04479045e-02,   1.46261409e-01,   3.69217634e-01,
      7.97784150e-01,  -1.37105450e-01,   4.21140552e-01,   3.55181426e-01,
     -6.53408051e-01,  -3.35793436e-01,   3.10532629e-01,   6.22864366e-01,
      4.40984905e-01,  -4.92104366e-02,  -1.13060486e+00,  -1.02898300e-01,
     -7.06282079e-01,  -3.56068224e-01,  -1.71406433e-01,  -1.20104246e-01,
      3.40985432e-02,   3.65419865e-01,   1.32289678e-01,   5.85867167e-02,
     -1.65304974e-01,  -7.45918229e-02,   5.57369351e-01,   2.12365091e-01,
     -7.45961070e-02,   1.39832394e-02,  -5.54941475e-01,   5.52328169e-01,
      4.75215673e-01,   4.96089691e-03,   1.49366856e-01,  -6.12972558e-01,
     -2.71456361e-01,   6.19263947e-01,   5.10003090e-01,   5.03356636e-01,
      2.38024533e-01,   3.02919626e-01,  -4.92236942e-01,  -1.75946355e-01,
      2.75637060e-01,   5.08769095e-01,   8.82781684e-01,  -3.77139589e-03],],

  [[  7.47852921e-01,  -2.50352502e-01,   3.59541923e-01,  -2.92875618e-01,
      6.24413252e-01,  -3.32624726e-02,  -2.39708070e-02,   5.21128714e-01,
     -1.21517763e-01,   1.57572746e-01,  -2.79552370e-01,  -2.00151607e-01,
      2.15170577e-01,   3.87498081e-01,  -5.04031599e-01,  -3.30863222e-02,
      1.92167416e-01,  -1.68359671e-02,  -1.62529260e-01,  -5.91160059e-02,
      3.46524090e-01,  -3.26955140e-01,  -1.58331141e-01,   1.94246899e-02,
      1.04920223e-01,  -7.22637996e-02,  -2.10699245e-01,  -5.35949051e-01,
      1.44015431e-01,  -1.69633865e-01,   5.42980373e-01,  -7.97475651e-02,
      3.87176692e-01,  -2.33814240e-01,   4.91036735e-02,  -1.17586650e-01,
      2.37661630e-01,  -9.17264223e-02,   3.60110611e-01,  -4.37380746e-02,
      9.57858190e-02,   9.12213251e-02,   8.43487829e-02,  -5.44626312e-03,
     -1.35072559e-01,   1.65470436e-01,  -2.68977612e-01,  -5.89643180e-01,
     -1.55742228e-01,  -2.28657216e-01,  -2.72287399e-01,   1.86674744e-01,
     -2.20538870e-01,   8.01125839e-02,   2.65902400e-01,  -1.24505952e-01,
     -2.93645948e-01,  -1.22613147e-01,  -1.10026158e-01,   7.98560157e-02,
      2.10567545e-02,  -4.70561355e-01,   2.89231986e-01,   4.31019455e-01],
   [ -3.65349561e-01,   1.26389503e-01,   2.75746398e-02,   1.89495817e-01,
      1.61782205e-01,   3.14285636e-01,   2.48140708e-01,   5.34633875e-01,
     -3.65016729e-01,  -1.00630365e-01,   3.60049903e-02,  -1.02284387e-01,
      5.24934113e-01,  -2.01162204e-01,   9.55756307e-01,   3.38214964e-01,
      2.58063730e-02,  -2.10211203e-02,   3.26402128e-01,  -5.93771823e-02,
     -1.30987808e-01,  -3.80031437e-01,  -9.48902741e-02,   2.27055699e-01,
      1.10963620e-01,   1.61413863e-01,  -3.69019359e-02,   1.53167531e-01,
      1.01499903e+00,   2.88554907e-01,  -2.92768329e-01,   2.97157526e-01,
      3.10045213e-01,   2.87409306e-01,   2.29638100e-01,   8.14515129e-02,
     -2.17815623e-01,   1.07710622e-02,  -4.53395933e-01,   2.36569852e-01,
      2.04525054e-01,  -1.96984336e-01,  -5.62889874e-03,  -3.08457255e-01,
      6.29596710e-02,  -3.77103925e-01,  -1.80874728e-02,   4.99425799e-01,
     -3.69091362e-01,  -2.39570469e-01,  -1.31782174e-01,   2.90895253e-01,
      5.67033812e-02,  -8.62650052e-02,  -1.77196026e-01,  -1.44018322e-01,
     -5.78827620e-01,   2.17503738e-02,  -9.47894603e-02,  -3.91247915e-03,
     -3.46393526e-01,  -8.90086517e-02,  -4.54870403e-01,  -2.02346042e-01],
   [ -3.93256307e-01,   1.22689577e-02,   3.89255881e-02,  -1.16382308e-01,
      1.70695372e-02,   3.64285022e-01,  -3.57124582e-02,   2.72934377e-01,
     -1.75106958e-01,   2.26798162e-01,   2.40362555e-01,  -8.05354305e-03,
      7.30231404e-01,  -1.99357942e-01,  -4.40612912e-01,  -2.91060358e-01,
     -3.52486193e-01,   5.54422801e-03,   2.38064706e-01,   1.37079537e-01,
     -1.60928458e-01,   2.13146523e-01,   3.99360806e-02,  -6.23405501e-02,
      2.28453483e-02,  -1.69743672e-01,   2.68536419e-01,   3.67250413e-01,
      5.49296618e-01,  -3.43085736e-01,  -5.50095737e-01,   7.70709962e-02,
      5.50323129e-01,  -1.37592167e-01,   3.23821902e-01,  -3.68809402e-01,
     -2.52093107e-01,   4.68113422e-02,  -2.96944845e-02,   1.30429696e-02,
      7.79583864e-03,  -5.15361037e-03,   7.52459913e-02,  -1.51540190e-01,
     -8.38852860e-03,  -5.77847473e-02,  -4.67106819e-01,   1.19976081e-01,
     -1.65060714e-01,   8.66880044e-02,   1.35176750e-02,  -4.15463835e-01,
     -3.54782492e-01,   2.20720112e-01,  -2.67065525e-01,   3.30337286e-01,
     -5.63389719e-01,  -2.58876383e-02,  -2.39067927e-01,   5.40221892e-02,
      8.54673013e-02,   2.84197271e-01,   1.75880626e-01,   1.55259997e-01],],],


 [[[  7.12928995e-02,   6.44386530e-01,  -1.79402471e-01,  -7.19756559e-02,
     -6.99491680e-01,  -8.68614316e-02,  -1.43658310e-01,  -3.92226100e-01,
     -2.84767210e-01,   1.69346184e-01,  -3.71633768e-01,  -3.15659136e-01,
      2.92414814e-01,  -3.17499965e-01,   3.51259857e-01,  -2.37783462e-01,
      4.01574001e-02,  -6.24912024e-01,  -8.15921351e-02,  -1.96148437e-02,
     -6.50705099e-02,  -4.79001626e-02,   4.85246480e-01,   3.80288959e-02,
      4.32845354e-01,  -2.74733990e-01,  -1.89732179e-01,   2.58917511e-01,
     -2.18427911e-01,  -1.13543712e-01,  -2.21821040e-01,  -7.37757012e-02,
      6.86281323e-01,   7.31851757e-01,  -4.44540270e-02,   7.03576356e-02,
      9.50858891e-02,  -2.31923908e-01,  -4.58432406e-01,   3.40938568e-02,
      2.70167679e-01,  -1.04259260e-01,   1.62022069e-01,  -2.38471821e-01,
      1.65042967e-01,   1.04518540e-01,   5.55555761e-01,   5.09811759e-01,
     -9.74110961e-02,   4.19679135e-01,  -4.85907793e-02,  -2.12757558e-01,
      3.28914791e-01,   1.09397173e-01,  -6.86407536e-02,  -2.53952384e-01,
     -3.43266338e-01,  -3.96120697e-01,   2.41119228e-02,  -4.62813936e-02,
     -7.49325752e-02,   5.46593487e-01,  -7.32030720e-02,   3.37166116e-02],
   [  5.03510684e-02,   8.80911276e-02,   7.49151766e-01,   3.16270024e-01,
     -7.67060071e-02,  -3.05364490e-01,   7.76720271e-02,  -4.04506236e-01,
     -4.27643001e-01,  -1.20894320e-01,   6.41504824e-02,   2.38592058e-01,
     -2.58894801e-01,  -1.62563562e-01,  -8.83205175e-01,  -1.37375459e-01,
     -3.97287250e-01,  -1.62145998e-02,   3.70240249e-02,  -7.08720237e-02,
     -2.12313030e-02,   1.85387600e-02,  -1.18420511e-01,   8.59598592e-02,
     -1.67580321e-01,  -4.32314456e-01,   1.70078337e-01,  -8.81967992e-02,
     -1.82674214e-01,  -8.24635327e-01,   2.98933744e-01,   1.59417167e-01,
      1.07967246e+00,  -6.41446710e-01,  -1.38933048e-01,   7.87060410e-02,
      3.08454812e-01,   1.75097078e-01,   7.49279037e-02,   1.61253393e-01,
      1.74930111e-01,   1.53748527e-01,  -4.60541815e-01,   2.96426833e-01,
     -2.55107105e-01,   1.16405666e-01,   3.71979058e-01,  -5.81893921e-01,
     -3.05462796e-02,  -9.29379165e-02,  -2.46125549e-01,  -4.71332878e-01,
      2.43324697e-01,  -1.31837621e-01,   1.37251243e-01,   2.58474238e-02,
     -2.58433908e-01,   6.01670861e-01,  -2.55567841e-02,   2.35754047e-02,
      8.58337879e-01,   3.09402160e-02,  -8.69526714e-02,   5.80485821e-01],
   [ -8.93037468e-02,  -7.91858852e-01,   8.58160257e-02,  -1.36093184e-01,
     -2.47532532e-01,  -4.72473651e-01,   6.24365956e-02,  -1.14308737e-01,
     -2.19794810e-01,  -4.51934431e-03,   1.28747210e-01,  -6.36970401e-01,
     -2.51163989e-01,  -1.11037754e-01,   2.17649728e-01,  -9.41259712e-02,
     -2.33794320e-02,   8.80073160e-02,  -4.63604212e-01,  -2.48348787e-02,
      4.01066570e-03,   3.83472852e-02,  -9.48502421e-02,   2.90734274e-03,
     -3.67769301e-02,   5.13096631e-01,  -3.24028552e-01,  -8.99699256e-02,
      9.61328298e-02,   1.50760651e-01,   9.00573730e-02,  -1.72817588e-01,
      6.85524642e-01,  -1.68748423e-01,   9.47506353e-03,  -3.10063630e-01,
     -1.58448294e-02,  -1.45361513e-01,   3.37130755e-01,   4.29498963e-02,
      1.46485925e-01,   1.63033321e-01,  -7.33900070e-01,  -8.37934315e-01,
     -1.54492170e-01,   2.53103286e-01,   8.48355591e-02,   1.74418315e-02,
     -1.01606682e-01,  -5.19662917e-01,  -1.84653029e-01,   8.04501712e-01,
      1.25834957e-01,   2.06454113e-01,  -5.15310943e-01,   1.59408122e-01,
      2.84541976e-02,  -1.34962857e-01,  -1.14250511e-01,   9.97445807e-02,
     -8.42250228e-01,  -1.53239682e-01,   3.44067335e-01,   3.47062260e-01],],

  [[ -6.08506441e-01,   4.34082657e-01,  -8.59649837e-01,  -5.97279131e-01,
      1.61966383e-01,   3.04204971e-01,  -1.83773696e-01,  -1.17905371e-01,
     -5.84009588e-01,   7.81180784e-02,  -2.48226851e-01,  -1.62703395e-01,
      3.87889981e-01,   2.83965021e-01,   3.51070583e-01,   5.00931516e-02,
      2.15841718e-02,  -6.46778420e-02,   1.54369529e-02,   3.29513252e-01,
      4.04483601e-02,   1.31410211e-02,  -2.22825468e-01,   2.23008186e-01,
     -1.51459992e-01,  -5.85893035e-01,  -1.97677270e-01,  -5.09593546e-01,
      2.09507078e-01,   5.99090680e-02,  -8.05980340e-02,  -4.60342616e-02,
     -1.33748138e+00,  -4.70019542e-02,  -2.60260731e-01,   1.99916616e-01,
      3.21782716e-02,  -3.94207507e-01,  -6.90251775e-03,   3.39206040e-01,
     -6.79798186e-01,   3.06998789e-02,  -2.40830854e-01,   5.85039318e-01,
     -6.55410439e-02,   5.27687371e-01,  -1.85601890e-01,   9.48672652e-01,
      4.36485745e-02,   5.06445646e-01,  -4.67988193e-01,   4.54762615e-02,
     -1.91224650e-01,   2.91213185e-01,   6.32945001e-01,  -4.64557827e-01,
      3.20443958e-01,   1.10943452e-01,   2.90769860e-02,  -1.83631897e-01,
     -2.97271997e-01,   6.41262352e-01,   1.56428531e-01,  -6.63073003e-01],
   [  1.14264123e-01,  -1.52354613e-01,  -1.84595257e-01,   2.19819352e-01,
      3.77623677e-01,  -1.39972940e-03,  -6.18490316e-02,  -3.43440026e-01,
     -4.87724394e-01,  -1.98498696e-01,   6.74140528e-02,   6.81594849e-01,
      9.55278128e-02,  -2.66873389e-01,  -4.88668710e-01,   2.54517645e-01,
     -1.97609127e-01,   5.02797961e-01,   9.39851999e-02,  -7.21709579e-02,
     -2.39780941e-03,  -4.01751511e-02,  -5.96477650e-02,  -2.43758336e-01,
     -6.37412786e-01,  -5.93720734e-01,   3.54887843e-02,  -1.73837408e-01,
      3.56265306e-01,  -6.03364944e-01,   1.10142767e-01,   1.23401999e-01,
     -1.22216594e+00,  -1.38864756e-01,   5.17493002e-02,   1.28353849e-01,
      5.17905176e-01,   3.78100455e-01,  -1.24536134e-01,   1.43835098e-01,
     -6.51676655e-01,   1.53361917e-01,   7.03034043e-01,   5.15116990e-01,
     -1.89684540e-01,   5.06124675e-01,  -1.79587543e-01,  -7.74382114e-01,
      1.43001936e-02,   2.82175336e-02,  -4.26255554e-01,  -1.82808340e-02,
      1.55626647e-02,  -2.37798989e-01,   1.07364130e+00,   1.76035613e-01,
      1.92749456e-01,  -4.20769751e-01,   4.22137640e-02,  -2.74997294e-01,
      6.18558645e-01,  -1.18573979e-01,  -2.54157752e-01,  -1.53859451e-01],
   [  4.93267685e-01,  -2.59930402e-01,  -5.40107965e-01,   2.92491555e-01,
      2.20934659e-01,   1.42550915e-01,  -7.10970834e-02,  -2.93117285e-01,
      5.17450161e-02,   2.48360127e-01,   9.47661698e-02,  -4.17154402e-01,
     -2.91637212e-01,  -3.40757549e-01,   6.32683218e-01,   4.64269727e-01,
      1.97747424e-01,  -1.39137292e-02,  -1.87823400e-02,  -1.46090895e-01,
      1.02084309e-01,  -3.84973399e-02,   1.77814037e-01,  -2.03010798e-01,
     -1.20719135e-01,  -4.13280845e-01,  -2.90982932e-01,   2.03261748e-01,
      2.71121144e-01,   3.27365667e-01,   8.59606564e-02,  -1.08353525e-01,
     -1.25274241e+00,   3.42809021e-01,   9.52460542e-02,   6.77107275e-02,
     -1.88290644e-02,   2.04524785e-01,   1.12888766e-02,   1.34343386e-01,
     -6.47600591e-01,   1.05652608e-01,   6.54914200e-01,   6.45816207e-01,
     -1.30727053e-01,  -6.64352328e-02,  -4.71751541e-01,  -2.45819762e-01,
     -3.03120613e-02,  -2.78922409e-01,  -3.60755883e-02,  -2.10151114e-02,
      2.02370044e-02,   2.17417404e-01,  -1.45377830e-01,   4.17339027e-01,
      3.58608365e-01,   3.18002820e-01,  -8.03327933e-02,  -2.76749045e-01,
     -1.25631958e-01,  -1.40478477e-01,   5.81609979e-02,  -1.84269831e-01],],

  [[ -7.98232615e-01,  -5.83252646e-02,   3.19744259e-01,  -3.46861184e-01,
      6.99449301e-01,   2.97100931e-01,  -1.28572732e-01,  -1.23569325e-01,
     -4.28831220e-01,   2.36014187e-01,   2.39138491e-02,  -9.23857167e-02,
      5.91429114e-01,   5.90211749e-01,  -3.74467552e-01,  -6.93185985e-01,
     -7.50485599e-01,  -7.64380574e-01,  -2.60475248e-01,   3.71493489e-01,
     -3.63353431e-01,   2.45235965e-01,  -9.39573526e-01,  -9.19247717e-02,
     -2.70948201e-01,   1.00105941e+00,   1.37466716e-03,  -2.65186101e-01,
      1.75770685e-01,   9.17193480e-03,  -5.18081486e-01,  -2.00360566e-02,
      7.93070138e-01,  -7.23991215e-01,   3.36754411e-01,  -8.46747100e-01,
     -4.61945623e-01,  -5.78238666e-01,   1.85421690e-01,   4.70498770e-01,
      1.17087650e+00,  -3.54621783e-02,  -5.88548839e-01,   9.45741385e-02,
     -1.47217661e-01,   2.11234540e-01,  -8.60338628e-01,   1.30390656e+00,
      4.46173698e-02,   1.57932833e-01,  -4.83141810e-01,   5.16313314e-02,
     -5.65236881e-02,   1.21369697e-01,   1.04060814e-01,  -6.77799582e-01,
      8.71228933e-01,   5.06193578e-01,  -4.91924882e-02,   1.44493580e+00,
     -7.44633615e-01,   7.12814748e-01,   3.66439909e-01,  -3.40444058e-01],
   [  4.42179829e-01,  -1.75329909e-01,  -3.52659196e-01,  -6.27290785e-01,
      3.07244748e-01,  -1.91967428e-01,   8.73252749e-03,  -3.20582271e-01,
     -6.30824208e-01,  -3.33178997e-01,   1.97925553e-01,   7.11637974e-01,
     -1.10866055e-02,   1.01528510e-01,  -9.80137765e-01,  -1.01750560e-01,
     -4.09840047e-02,   1.12111963e-01,  -9.03922468e-02,  -1.86307460e-01,
     -1.06382325e-01,   1.05503656e-01,  -2.36174673e-01,  -4.78880644e-01,
      6.75645471e-01,   7.08984733e-01,   1.00611843e-01,   4.71350223e-01,
      4.35342401e-01,  -2.83635765e-01,  -1.15704499e-01,   1.70434982e-01,
      9.50980961e-01,   3.73343974e-01,   3.01717639e-01,  -4.19917613e-01,
      2.60805041e-01,   4.37514663e-01,  -3.50444853e-01,   3.88967209e-02,
      9.98173833e-01,   2.56015137e-02,   3.00226599e-01,  -6.87192917e-01,
     -7.67934620e-02,   3.80353391e-01,  -1.10912871e+00,  -9.63331640e-01,
     -6.36852682e-02,  -2.42313758e-01,  -5.38223445e-01,   2.67368674e-01,
     -8.26285183e-02,  -6.59655392e-01,   3.83476287e-01,   2.53080755e-01,
      4.05193537e-01,  -5.95076144e-01,   1.89419419e-01,   7.25162208e-01,
      5.96002378e-02,   3.45607214e-02,  -9.74963009e-01,  -2.90684223e-01],
   [  5.97841024e-01,   1.17964514e-01,   1.47025213e-01,   1.87354878e-01,
      2.59284765e-01,   2.73291860e-03,   1.93639532e-01,  -4.21519369e-01,
     -6.65110499e-02,   2.53705531e-01,   7.26182386e-02,  -6.36685014e-01,
     -5.54005623e-01,   1.85019836e-01,   4.59208459e-01,  -7.97406510e-02,
      5.57086527e-01,  -1.40957404e-02,   3.28840733e-01,  -2.82298416e-01,
      4.68070686e-01,  -2.65325934e-01,   5.94149888e-01,  -2.47045636e-01,
      7.50016809e-01,   1.57675534e-01,  -4.13292527e-01,   1.22124963e-01,
      1.24024756e-01,   3.52564454e-01,   7.12028563e-01,   1.88455164e-01,
      9.91790652e-01,   2.67605633e-01,   1.90781608e-01,   6.09324872e-01,
      7.95802921e-02,   3.52441855e-02,  -5.68779632e-02,  -7.15247393e-02,
      1.09399545e+00,   1.04241796e-01,   4.55820918e-01,   3.68599862e-01,
     -5.94639480e-02,   1.16788924e-01,  -5.12994647e-01,  -2.61358678e-01,
     -2.25542396e-01,  -8.07759881e-01,  -1.64516613e-01,  -4.19046879e-01,
     -1.61085663e-05,   4.43005800e-01,   5.55980504e-01,   5.90796590e-01,
      2.21518040e-01,   3.38840634e-01,   3.64773721e-01,   6.28380954e-01,
      2.87962914e-01,  -2.71027774e-01,   7.89780378e-01,  -3.92895937e-01],],

  [[  9.42296013e-02,  -5.65128863e-01,   4.77191627e-01,   8.03361654e-01,
      5.74956954e-01,   2.40432963e-01,  -8.04132968e-02,  -2.99607277e-01,
     -2.43348882e-01,   6.44223392e-02,   3.31027865e-01,  -2.41330087e-01,
      7.65469670e-01,   4.27431464e-01,   2.81211317e-01,  -2.83256531e-01,
     -2.53471255e-01,   3.80035043e-02,   3.06736585e-02,   2.17417195e-01,
     -3.26443583e-01,   3.53871763e-01,  -3.74484569e-01,  -2.02094242e-01,
      1.88376501e-01,   7.32567981e-02,   5.32843880e-02,  -3.10595125e-01,
      7.97416866e-02,  -5.12076821e-03,   2.35158965e-01,  -6.61929250e-02,
     -3.07578266e-01,  -1.48574263e-01,  -6.75574765e-02,   4.74565297e-01,
      2.39966616e-01,   3.32198709e-01,   7.95786977e-01,   1.45481110e-01,
     -8.64170194e-01,  -9.99784693e-02,  -3.24019879e-01,  -5.38045347e-01,
      4.62872768e-03,  -3.28420699e-02,   2.47896895e-01,   3.26287061e-01,
      1.37911111e-01,   4.34639752e-01,  -2.38446444e-01,   4.69368130e-01,
     -1.12847045e-01,  -4.85063158e-02,  -7.19021380e-01,  -6.57455027e-01,
     -7.97357321e-01,  -7.01519191e-01,   1.26269579e-01,   5.28289974e-01,
     -1.28147051e-01,   4.57743943e-01,   6.62635982e-01,  -2.49048978e-01],
   [ -2.37496331e-01,   8.24647918e-02,  -3.33465755e-01,   1.13785602e-01,
      6.79403022e-02,   9.87902582e-02,  -9.89294052e-02,  -2.84120739e-01,
     -4.59747016e-01,  -1.46560952e-01,   2.89950728e-01,   6.62949324e-01,
     -1.62738740e-01,  -3.99626404e-01,   7.54598975e-01,   1.72698677e-01,
      4.12937887e-02,   3.67937326e-01,  -2.21381728e-02,  -1.63165554e-01,
     -1.32702932e-01,   1.77137837e-01,  -8.82057771e-02,   2.66985297e-01,
     -3.40122990e-02,   2.52457023e-01,   1.72834694e-01,   1.96289495e-01,
      4.83081490e-01,   2.50770211e-01,  -5.85490093e-02,   1.87994584e-01,
     -3.49671125e-01,   3.86538565e-01,  -2.37357780e-01,   1.32417381e-01,
     -6.69517368e-03,   3.90374720e-01,  -6.96542978e-01,   9.94285755e-03,
     -9.26427782e-01,  -1.34491906e-01,  -9.74406376e-02,  -8.66053760e-01,
     -1.78392988e-03,   2.00040579e-01,   4.21476513e-01,  -3.63657594e-01,
      2.75762290e-01,   1.26196459e-01,  -4.41840798e-01,   3.07828218e-01,
     -5.65217957e-02,  -9.79567766e-02,  -1.20881510e+00,   1.52777657e-01,
     -9.12416041e-01,   5.62000155e-01,   7.63701648e-02,   1.42998144e-01,
      9.62466151e-02,   2.11389214e-02,  -1.52422154e+00,  -4.53424662e-01],
   [ -6.26796484e-02,   6.32534802e-01,   2.70760626e-01,   5.09932265e-02,
     -8.44225436e-02,  -6.38649583e-01,   2.21994549e-01,  -2.82533765e-01,
     -1.83631539e-01,   3.57043087e-01,  -1.34140834e-01,  -3.17128122e-01,
     -7.27552176e-01,   1.32783398e-01,   1.93681773e-02,  -3.07487190e-01,
      1.71127260e-01,  -1.10828727e-01,   4.17128414e-01,   4.00778241e-02,
      4.97002214e-01,   1.87338740e-01,   2.91564584e-01,   2.71925718e-01,
     -5.66099226e-01,  -2.86448389e-01,  -4.27502468e-02,   3.72886777e-01,
      7.18029216e-02,   4.95773032e-02,  -3.55627149e-01,  -1.05360962e-01,
     -5.29703140e-01,  -2.70537794e-01,  -2.31625512e-01,  -2.01989278e-01,
      8.98160487e-02,  -2.09392458e-01,  -4.01071995e-01,  -7.22357482e-02,
     -8.09883237e-01,  -1.25514835e-01,   2.89654315e-01,  -2.36966774e-01,
     -2.58121155e-02,   1.02765806e-01,   6.68562055e-01,   4.54655886e-02,
      3.93585116e-01,  -1.74483687e-01,  -1.03966869e-01,  -5.89811683e-01,
     -1.85411990e-01,   8.19477379e-01,  -5.75629883e-02,   7.01416016e-01,
     -8.57680082e-01,   1.01146363e-01,   2.68503368e-01,   2.54975528e-01,
      6.52162313e-01,  -2.33635396e-01,   8.80141795e-01,  -4.15537864e-01],],

  [[  6.05358541e-01,  -2.39460960e-01,   3.51450920e-01,  -4.65237349e-02,
     -2.20107496e-01,  -1.22217417e-01,   1.84007082e-02,  -4.01519798e-02,
      3.71723086e-01,  -1.50688469e-01,   1.10575063e-02,  -1.15022302e-01,
      3.40570748e-01,   7.86020085e-02,  -4.75179851e-01,   7.75120556e-02,
      1.52908310e-01,  -3.35601300e-01,   6.09887019e-02,   1.40175670e-01,
      4.16138470e-01,  -1.04719743e-01,  -9.69822109e-02,  -9.37706679e-02,
      1.99440539e-01,  -2.95195431e-01,  -3.22408415e-02,  -3.80381823e-01,
     -5.04690707e-01,   1.73931733e-01,   3.71996999e-01,   3.48543115e-02,
      8.76161680e-02,  -8.51641968e-02,   2.61297114e-02,  -7.39822537e-02,
      3.12644392e-01,   2.35597184e-03,   8.29351664e-01,  -1.94759786e-01,
      1.54759809e-01,   2.95810364e-02,   4.98376131e-01,   8.58405009e-02,
      3.41416560e-02,  -5.38490005e-02,  -7.68122748e-02,   1.15056336e-01,
      5.38965017e-02,   2.14690909e-01,   6.45063445e-02,  -1.54936373e-01,
     -1.49108946e-01,  -4.84183058e-02,   1.90710500e-01,  -3.31913948e-01,
      6.82524741e-02,  -2.82789677e-01,  -1.71001088e-02,  -2.36420915e-01,
     -1.13770440e-01,   2.49265403e-01,   3.14247400e-01,   3.95715833e-01],
   [ -3.87843817e-01,  -1.33459657e-01,  -1.88521832e-01,  -1.82043552e-01,
     -1.49951100e-01,  -1.09637730e-01,   2.86126196e-01,  -1.00409105e-01,
     -2.18349725e-01,  -2.17607901e-01,   2.41347719e-02,   6.00986183e-01,
     -3.81650090e-01,  -3.31346691e-02,   3.93604279e-01,   3.11859310e-01,
     -7.91672617e-02,   1.51549742e-01,   1.27659589e-01,  -1.62599042e-01,
      7.81625062e-02,  -2.70556360e-01,  -2.77932826e-02,   1.31172150e-01,
     -2.12342396e-01,   1.85557425e-01,  -8.23888090e-03,  -2.01142132e-02,
     -6.08645193e-03,   6.79838717e-01,  -8.54718462e-02,   5.52331731e-02,
      2.17632651e-02,   1.61283761e-01,   5.17968647e-02,   5.41996695e-02,
     -1.24610299e-02,  -5.78745157e-02,  -6.00968957e-01,   5.32109663e-02,
      4.89657342e-01,  -1.03649795e-01,  -2.08112016e-01,   3.84121150e-01,
      6.87739179e-02,   5.02231419e-02,   2.73781389e-01,  -1.51980966e-01,
     -2.71620333e-01,  -1.33554712e-01,  -3.16876695e-02,   4.50179189e-01,
      2.01284721e-01,  -1.64629757e-01,  -2.66921401e-01,   2.66629130e-01,
      3.96998376e-01,   4.68173623e-01,  -2.50728935e-01,  -2.72614658e-01,
     -3.61442454e-02,   8.30659866e-02,  -5.85788369e-01,  -4.29541022e-01],
   [ -3.21111828e-01,   3.22053671e-01,  -1.41602695e-01,  -2.05849677e-01,
     -2.73749053e-01,  -5.38438022e-01,   5.39327115e-02,  -2.08958551e-01,
     -2.48082846e-01,   2.15708911e-01,  -7.29080379e-01,  -2.92561829e-01,
     -2.98152715e-01,   1.00415654e-01,  -5.83751917e-01,  -1.97413191e-01,
     -5.26163466e-02,   2.96472102e-01,   1.83911160e-01,  -1.01349592e-01,
     -4.42432255e-01,  -6.94406852e-02,  -1.09078167e-02,  -1.52846768e-01,
      8.01936984e-02,   2.00985633e-02,  -3.26592058e-01,   2.62136698e-01,
     -6.82665527e-01,  -2.46575028e-01,  -3.04870248e-01,  -2.77671903e-01,
      8.92995521e-02,  -9.05853808e-02,   3.04351677e-03,   7.47433398e-03,
     -1.44556180e-01,  -2.21919507e-01,  -4.96274203e-01,   8.84383619e-02,
      1.59420967e-01,  -1.66539043e-01,  -2.16648608e-01,   1.08841099e-01,
     -2.03160971e-01,  -1.41213655e-01,   4.45541382e-01,  -7.86823314e-03,
     -3.06550367e-03,   8.40999261e-02,   7.17761666e-02,  -4.26939309e-01,
     -1.94497824e-01,   6.05629444e-01,   2.44182095e-01,   2.88005650e-01,
      5.35869062e-01,   9.20280293e-02,  -4.94215518e-01,  -9.77251828e-02,
      3.76579881e-01,  -1.65998638e-01,   3.08520615e-01,  -1.54254436e-01],],],


 [[[  4.32609729e-02,   4.44973767e-01,  -6.64127022e-02,   4.68077920e-02,
     -1.67092115e-01,  -2.62312498e-02,  -4.89896117e-03,   6.99833129e-03,
      3.34811866e-01,   1.68701306e-01,  -5.14760852e-01,   4.96994033e-02,
      3.25209677e-01,   1.23501316e-01,   1.98057368e-01,   9.09212828e-02,
      4.57656533e-01,   1.36441022e-01,  -4.44359839e-01,  -1.61171257e-01,
      1.62020177e-01,  -1.47703052e-01,   3.36080752e-02,  -5.19015864e-02,
      4.83636975e-01,  -9.65669155e-02,  -3.69730264e-01,   4.21410382e-01,
      4.86785322e-02,  -2.85673328e-02,   9.16655213e-02,  -2.25501209e-02,
     -2.31830418e-01,   4.10355061e-01,  -5.83965704e-02,   1.30641863e-01,
     -1.77804798e-01,   1.16409838e-01,   3.19184922e-02,   1.22133948e-01,
     -5.12880981e-02,  -6.31156340e-02,  -7.44260699e-02,   1.39088452e-01,
     -2.28878900e-01,  -2.18716204e-01,  -3.69590104e-01,  -6.04274094e-01,
     -7.85621330e-02,   1.80485889e-01,   1.16462655e-01,   5.19036539e-02,
     -2.04893216e-01,  -2.61314064e-02,  -2.07542539e-01,  -6.07886948e-02,
      2.23979965e-01,  -8.01273286e-02,  -1.60705000e-01,  -2.74158627e-01,
     -1.06399050e-02,   2.03879625e-01,   2.29564250e-01,  -2.17740238e-01],
   [  2.20974967e-01,   4.40548569e-01,   4.29521292e-01,   1.66781738e-01,
      4.02488053e-01,  -3.16542208e-01,   1.58849210e-01,  -8.47418606e-02,
      5.68927675e-02,   1.36992559e-01,   1.91788912e-01,  -6.67551607e-02,
     -2.66829789e-01,  -7.51220286e-02,  -3.04669261e-01,   8.93884823e-02,
     -2.21502990e-01,  -4.96561110e-01,   4.24920544e-02,  -9.49680507e-02,
      1.39620781e-01,   1.95468932e-01,   8.91031045e-03,   1.51474848e-01,
     -1.14229128e-01,  -5.40164113e-01,   4.23680902e-01,  -2.39986539e-01,
      2.16376424e-01,  -5.23581147e-01,   7.41262734e-02,   6.79803640e-02,
     -1.54411331e-01,  -2.48525694e-01,   1.28219128e-01,   2.08663773e-02,
     -2.06608862e-01,  -9.76813678e-03,  -2.50236303e-01,  -1.27410702e-02,
     -1.19832128e-01,   2.27433756e-01,  -1.63835604e-02,   3.19052368e-01,
     -4.20556337e-01,  -1.38472952e-02,  -1.81416929e-01,   4.34819669e-01,
      1.73638165e-01,   3.66476715e-01,   2.85728578e-03,  -1.70598462e-01,
      2.49191329e-01,  -4.48437631e-02,   3.82390339e-03,  -1.50386384e-02,
     -2.32586846e-01,   3.42184246e-01,   4.77282591e-02,   4.53079551e-01,
      6.78458810e-01,   9.56152454e-02,  -2.76419938e-01,   4.40877765e-01],
   [ -2.06877261e-01,  -6.64155126e-01,  -8.33803862e-02,  -2.45274767e-01,
      1.93539351e-01,  -2.49702949e-02,   1.88691005e-01,   2.26509109e-01,
      2.24480748e-01,   7.08489642e-02,   3.81495953e-01,   2.11437587e-02,
      1.92691050e-02,   1.50814448e-02,  -1.04175203e-01,  -1.50048628e-01,
      2.01618761e-01,   3.27579975e-01,  -1.78329095e-01,   1.43450066e-01,
     -2.36983582e-01,   3.11790295e-02,  -5.15814591e-03,   1.93405852e-01,
     -1.10027574e-01,  -2.14653358e-01,  -7.78186858e-01,  -1.72875121e-01,
      1.36186719e-01,   1.87549725e-01,  -2.51268119e-01,  -1.67950675e-01,
     -4.65996623e-01,  -2.17525929e-01,  -1.36138489e-02,  -2.06115156e-01,
     -3.16765279e-01,  -7.20738545e-02,   1.61470503e-01,   4.76518348e-02,
      1.51653579e-02,   5.72135210e-01,   1.76331043e-01,  -1.41204983e-01,
     -1.61787253e-02,   1.99484482e-01,   9.97260138e-02,   1.84066921e-01,
      3.05439711e-01,  -5.33521950e-01,  -3.27535152e-01,   7.22645149e-02,
     -2.35176355e-01,   1.02849849e-01,   1.89272627e-01,   2.76546739e-02,
      1.12732634e-01,  -2.73804694e-01,  -1.22847825e-01,   1.69326290e-01,
     -7.85582781e-01,  -3.43581915e-01,  -6.90457076e-02,  -1.07290171e-01],],

  [[ -6.80808723e-01,  -9.17706043e-02,   9.88338888e-03,  -1.25231102e-01,
     -2.70800412e-01,   1.13386288e-01,   1.19914245e-02,   1.30677586e-02,
      2.33572185e-01,  -1.73145190e-01,  -2.71726966e-01,  -1.66770533e-01,
      6.49616239e-04,   1.92133814e-01,   5.47847450e-01,  -2.54554152e-01,
      1.92019030e-01,   1.17406614e-01,   9.06989723e-02,   1.78215697e-01,
      2.61026323e-01,  -5.39875962e-02,  -5.67481339e-01,  -1.94099441e-01,
     -1.79987103e-01,   6.95880830e-01,  -9.31227505e-02,   3.82198989e-02,
     -1.44744575e-01,   2.30133668e-01,   1.96296036e-01,  -9.40712914e-02,
      5.88072419e-01,  -1.37705192e-01,  -1.19438909e-01,   1.98821515e-01,
     -3.97626013e-01,   3.16044331e-01,   5.00609457e-01,  -3.59514058e-01,
      1.15555320e-02,  -1.45177141e-01,  -6.24675930e-01,   1.68882266e-01,
      5.77516891e-02,   6.36638775e-02,   2.38040060e-01,   8.52363184e-02,
      1.71689317e-02,  -1.48306549e-01,  -1.34502342e-02,   2.46813223e-01,
     -4.95980456e-02,   1.89924747e-01,  -2.75418878e-01,   1.95328146e-02,
      2.10391074e-01,  -4.36276764e-01,   1.55580640e-02,  -4.46625113e-01,
      2.07849592e-01,   2.89241701e-01,   4.22228277e-01,  -2.09514409e-01],
   [  2.57390887e-01,   1.96831971e-02,   8.61946419e-02,   5.34754813e-01,
      1.16822012e-01,  -2.15939999e-01,   1.55239254e-01,  -1.77688263e-02,
     -1.25582576e-01,   9.46303755e-02,   8.52673277e-02,   2.37642527e-01,
     -3.56969312e-02,  -8.24764669e-02,  -2.75163680e-01,   1.30770117e-01,
     -5.04030824e-01,  -2.55367935e-01,  -5.76246008e-02,  -1.58177495e-01,
      2.22294137e-01,   9.73509178e-02,  -3.18254642e-02,  -1.53696790e-01,
     -5.42990923e-01,   3.86249423e-01,   7.12139904e-01,  -1.09808706e-01,
      3.06111306e-01,  -5.60672045e-01,  -1.11583443e-02,   9.63833556e-02,
      5.85889220e-01,   5.01015522e-02,   4.54802848e-02,   2.53024567e-02,
     -1.07002154e-01,  -6.14599744e-03,  -5.47746241e-01,  -7.91162789e-01,
      1.39583677e-01,   3.37605402e-02,   3.11863571e-01,  -2.55442381e-01,
      9.25271288e-02,   5.05201109e-02,   2.60210693e-01,  -7.70375654e-02,
     -8.88108537e-02,   4.67946231e-01,  -1.37983739e-01,   2.62248933e-01,
      1.12540811e-01,  -3.32427323e-01,   5.23646213e-02,   3.88626717e-02,
     -6.09125756e-02,   4.10372376e-01,   1.14212461e-01,   6.24405369e-02,
      8.03098440e-01,   1.92158416e-01,  -7.64039397e-01,   5.05582929e-01],
   [  1.48568988e-01,   2.79180314e-02,  -4.21217382e-02,  -7.74815828e-02,
      1.74139012e-02,   4.50092524e-01,   1.70272887e-01,   2.07899258e-01,
      1.88261941e-01,  -1.11660458e-01,   8.36875737e-02,   4.56155054e-02,
     -8.39280337e-02,  -2.47113511e-01,   1.09327845e-02,  -1.48898631e-01,
     -1.36397127e-02,   2.11565718e-01,   2.02781074e-02,   9.90217105e-02,
     -5.07595062e-01,   1.63228475e-02,   2.40304276e-01,  -3.26253176e-01,
     -2.59472340e-01,  -2.59663850e-01,  -4.53125447e-01,   3.03656936e-01,
     -2.19953895e-01,   8.99364054e-02,  -2.02081650e-01,  -2.84562372e-02,
      4.80008662e-01,   1.02207601e-01,   1.88401759e-01,   1.24919966e-01,
     -3.73231977e-01,  -3.08231354e-01,  -1.24253534e-01,  -7.18008161e-01,
      6.54693618e-02,   6.27649128e-02,   5.24552822e-01,   4.99319077e-01,
      1.72286391e-01,  -4.02325630e-01,   7.21394718e-02,  -1.02715619e-01,
     -2.16987152e-02,  -3.05608567e-02,   1.93356887e-01,  -7.06203103e-01,
     -5.02437465e-02,  -1.97371885e-01,  -5.07686496e-01,   5.64421788e-02,
     -2.21787676e-01,  -2.90347245e-02,  -2.02145606e-01,  -2.32371777e-01,
     -4.00927633e-01,  -3.08653384e-01,   3.89032692e-01,   7.58270994e-02],],

  [[ -7.38850355e-01,  -1.88341364e-01,   2.38262117e-01,  -4.20836449e-01,
      4.04743165e-01,   4.94861528e-02,   5.95602244e-02,   9.51653048e-02,
      5.47002137e-01,   5.63974082e-02,  -4.07382436e-02,  -2.61835545e-01,
      1.43726617e-01,  -4.14264724e-02,   6.84260428e-02,  -3.72497112e-01,
     -3.74237984e-01,  -7.91053325e-02,   9.10768956e-02,   3.21472615e-01,
      9.80315879e-02,  -2.02537421e-02,  -4.05591160e-01,  -8.55434462e-02,
     -2.57726729e-01,   3.36757094e-01,  -3.95818591e-01,   5.43035492e-02,
     -2.20483020e-01,   4.60751764e-02,   5.35729807e-03,  -1.11792326e-01,
     -7.25802481e-01,  -4.71029133e-01,  -1.40953332e-01,  -4.47262317e-01,
     -7.76906788e-01,   1.14452749e-01,   6.40874505e-01,  -5.31539679e-01,
      1.53644443e-01,  -1.18951807e-02,   6.28129989e-02,  -2.80765176e-01,
     -5.35431623e-01,  -1.41902223e-01,   2.91937262e-01,   6.98901474e-01,
      3.65124159e-02,  -1.10470101e-01,   1.21177975e-02,   2.59316526e-02,
      3.62901762e-02,   3.31357270e-01,   4.04178083e-01,  -3.53389569e-02,
     -1.82179376e-01,  -3.13333184e-01,   1.14913248e-02,   2.96549171e-01,
     -6.22291625e-01,   4.12363559e-01,   4.27666247e-01,   1.95027869e-02],
   [  6.92923307e-01,  -8.99156649e-03,  -4.69429940e-01,  -1.93046361e-01,
     -2.52823144e-01,  -1.12986751e-01,   7.46382922e-02,  -4.60305549e-02,
      1.05482250e-01,   3.40662189e-02,   7.24827796e-02,   4.26088899e-01,
     -1.93101764e-01,  -2.50384033e-01,  -4.44753468e-01,   1.34605259e-01,
     -2.35800326e-01,  -6.48330897e-02,  -5.09484448e-02,  -4.11430061e-01,
      1.30862057e-01,   1.21154696e-01,  -2.01217942e-02,  -1.49645284e-01,
      5.44048309e-01,   2.85070032e-01,   3.13329011e-01,   1.62858129e-01,
      1.09298274e-01,  -6.10217750e-01,  -1.13697723e-01,   9.25852135e-02,
     -5.48584640e-01,   4.28984910e-01,   8.77263024e-03,  -1.17533661e-01,
      1.26266748e-01,   6.90833256e-02,  -4.91683483e-01,  -1.18332577e+00,
     -3.56864855e-02,   1.31820023e-01,   4.15809685e-03,  -9.16470826e-01,
     -8.24266449e-02,   9.85712931e-03,   2.26788342e-01,  -6.63296044e-01,
     -4.34681848e-02,   1.68019608e-01,  -2.09241472e-02,   3.72479767e-01,
     -1.28403842e-01,  -5.44167340e-01,   4.10410941e-01,   2.83848606e-02,
     -2.48805135e-01,   4.98144537e-01,   1.05008714e-01,   3.01804513e-01,
      1.16436824e-01,   3.17835033e-01,  -7.40942895e-01,   7.14366376e-01],
   [  2.78778940e-01,   1.66597500e-01,  -3.75269689e-02,   8.36879313e-02,
     -1.70810625e-01,   4.55818832e-01,   2.82987148e-01,   1.54292524e-01,
      1.76133439e-01,   1.55001553e-02,  -2.77111650e-01,  -2.49625653e-01,
      6.43717200e-02,  -1.98507756e-02,   6.15294874e-01,  -2.40683347e-01,
      3.38980943e-01,   2.78076947e-01,   7.77871981e-02,  -1.49264887e-01,
     -2.94488192e-01,  -9.01710093e-02,   4.52658176e-01,   8.87092650e-02,
      6.10152125e-01,  -2.61904001e-01,  -7.56116152e-01,  -2.43886914e-02,
     -3.59382004e-01,  -4.33228761e-02,   2.36790806e-01,   1.41321957e-01,
     -1.79852590e-01,   1.52920932e-01,  -2.15037595e-02,   2.83253878e-01,
      7.60376006e-02,  -2.67641425e-01,  -1.26747072e-01,  -1.03052723e+00,
      4.34078602e-03,   2.34591797e-01,  -1.91065129e-02,  -1.98063016e-01,
      6.25675470e-02,  -6.10391796e-02,   2.52269715e-01,  -8.72614756e-02,
     -4.50669974e-01,  -4.77994561e-01,   2.15946034e-01,  -3.05383146e-01,
      1.43503353e-01,  -1.97325960e-01,  -1.47815362e-01,  -6.78972388e-03,
     -4.87300754e-01,  -1.90156490e-01,   1.46467676e-02,  -3.47657166e-02,
     -2.48675361e-01,  -5.74496984e-01,   2.94052452e-01,   1.30413547e-01],],

  [[ -3.38087499e-01,  -2.98729658e-01,   1.18744113e-01,   2.76139408e-01,
      2.31802255e-01,  -5.83480932e-02,   3.15817818e-02,   2.30243355e-02,
      4.73966539e-01,   2.41083633e-02,   4.28561300e-01,  -3.55411828e-01,
      2.29483381e-01,   1.75105572e-01,  -1.95407033e-01,   2.85634607e-01,
     -3.36966723e-01,   4.12889451e-01,   5.78571334e-02,  -4.87191379e-02,
      3.64081077e-02,   9.20107588e-02,   1.01201214e-01,  -2.72735566e-01,
      2.00600281e-01,  -4.48781341e-01,  -3.02483067e-02,   9.50528458e-02,
      1.19283468e-01,   1.76427022e-01,  -4.42126207e-02,  -6.08330220e-02,
      1.45924538e-01,  -4.40835990e-02,   7.71756321e-02,   2.39347577e-01,
      2.89086550e-02,   1.01453654e-01,   9.11692798e-01,   1.37565508e-01,
     -1.40640303e-01,  -5.55438250e-02,   5.22409260e-01,   1.61004454e-01,
     -1.86134040e-01,  -1.58102810e-01,  -1.86890990e-01,   4.06414628e-01,
      1.22225203e-01,   2.67038554e-01,   6.86955899e-02,   8.64426717e-02,
     -1.82632077e-02,   1.96113542e-01,   9.86229405e-02,  -1.51222154e-01,
      6.31324202e-02,  -5.29744565e-01,   1.22971900e-01,  -4.33240563e-01,
     -2.37042174e-01,   2.04599991e-01,   2.66866297e-01,  -5.80054335e-02],
   [  1.65985242e-01,  -1.24543831e-01,  -1.83230519e-01,  -1.81808621e-01,
     -1.66302230e-02,   1.14737883e-01,  -2.03577653e-01,  -9.95100215e-02,
      1.85638621e-01,   4.41911444e-02,   3.78681272e-01,   2.90330023e-01,
     -3.25824142e-01,  -3.79779458e-01,  -4.11290564e-02,   4.08201933e-01,
     -1.49864420e-01,  -8.98949653e-02,   3.43174525e-02,  -3.74114931e-01,
     -4.62226793e-02,   6.36707991e-02,  -6.38675690e-02,   1.48388579e-01,
     -8.02894905e-02,   1.23578599e-02,   5.41977167e-01,  -2.48163566e-02,
     -3.03179231e-02,   8.86644796e-02,   2.93203183e-02,   8.03607628e-02,
      3.61036390e-01,   3.01051259e-01,  -8.45860541e-02,  -6.03312217e-02,
      1.17715657e-01,   2.71233767e-01,  -5.94117165e-01,  -1.65151477e-01,
     -1.54460832e-01,  -1.15075350e-01,  -6.97957948e-02,   4.51801628e-01,
      1.15983874e-01,  -5.01938239e-02,  -4.10159141e-01,  -3.92772943e-01,
      5.04888773e-01,   5.06220102e-01,   2.05917314e-01,   2.46220946e-01,
     -1.77412689e-01,  -2.79859275e-01,  -2.45766435e-03,  -1.42163798e-01,
      3.79627585e-01,   5.88390708e-01,   1.77591577e-01,  -2.04685807e-01,
      1.49377272e-01,   4.13448185e-01,  -4.95243937e-01,   5.33828080e-01],
   [ -4.10286672e-02,   1.88775152e-01,  -1.39888842e-02,   7.01829642e-02,
     -2.11078927e-01,  -9.97188017e-02,  -2.10225396e-02,   1.48301765e-01,
      7.54259005e-02,   2.52990574e-01,  -5.54625213e-01,  -2.40654990e-01,
     -5.42887673e-02,   2.09212571e-01,  -3.76799852e-02,  -4.61641997e-02,
      1.63515151e-01,  -7.90843964e-02,   5.09729274e-02,  -5.88950813e-02,
     -3.08400765e-03,  -9.25168470e-02,  -8.14920962e-02,   2.71307498e-01,
     -4.24390614e-01,  -5.54890037e-02,  -1.79718673e-01,   2.81910032e-01,
     -4.23398405e-01,   7.84395039e-02,   6.54816180e-02,  -1.28959924e-01,
      3.51769626e-01,  -2.87851125e-01,  -4.53165025e-02,  -1.67604744e-01,
      6.35079384e-01,  -1.67709738e-01,  -3.93402159e-01,   1.71442315e-01,
     -3.68880294e-02,   6.01957850e-02,  -3.69999290e-01,   1.81520253e-01,
      1.49319366e-01,   1.69450268e-01,  -2.27263287e-01,  -2.68810112e-02,
      4.23936874e-01,  -3.34545046e-01,  -9.18552801e-02,  -4.92298245e-01,
      6.58552796e-02,   2.56356865e-01,   3.20302010e-01,  -2.82455478e-02,
      5.78866959e-01,  -6.65243194e-02,   3.45277816e-01,  -3.75377297e-01,
      3.18267673e-01,  -2.93710828e-01,   1.39807969e-01,   1.73896909e-01],],

  [[  2.49591678e-01,   3.84361118e-01,  -5.69381006e-02,   2.30882481e-01,
     -1.38428628e-01,  -3.41663286e-02,   2.98509955e-01,  -2.84737907e-02,
      3.29818070e-01,   5.48974052e-03,   1.70955166e-01,  -1.31641924e-01,
     -1.78320900e-01,  -2.88969964e-01,  -9.61872563e-02,   2.45907679e-01,
      6.37824833e-02,  -3.09186596e-02,   3.49933863e-01,  -7.82631859e-02,
      3.24111849e-01,   1.54203326e-01,   5.21346591e-02,  -4.29248735e-02,
      1.35930687e-01,  -1.98925555e-01,  -2.78600931e-01,   9.64665860e-02,
      9.84967723e-02,   3.97768468e-01,  -2.86705673e-01,   1.55963888e-02,
     -4.99645760e-03,  -9.45745930e-02,   1.17764391e-01,   1.32938713e-01,
     -1.73964977e-01,  -2.41075411e-01,   5.32820880e-01,  -3.66164446e-01,
      2.04149652e-02,   1.06052972e-01,   4.16577846e-01,  -1.13637440e-01,
     -1.79671556e-01,   1.81471899e-01,   1.86276317e-01,   7.84360468e-02,
     -2.26644725e-01,  -1.29790738e-01,  -1.97270796e-01,  -2.26629436e-01,
     -1.40439585e-01,   8.40104744e-02,   6.85473979e-02,  -9.38444806e-04,
     -2.10074037e-01,   2.60003209e-01,   1.51087031e-01,   1.57116372e-02,
     -2.28015631e-01,   7.63425231e-02,   1.11557610e-01,  -2.59779394e-01],
   [  7.95238242e-02,  -2.94495672e-01,  -8.31726715e-02,  -8.02028626e-02,
      1.30857468e-01,   1.31021321e-01,   1.09442562e-01,  -1.36819288e-01,
      2.54667521e-01,   3.00964862e-01,  -8.45984295e-02,   5.42549968e-01,
     -5.88279188e-01,   6.01560995e-02,   4.00737852e-01,  -2.23556980e-02,
     -1.64351854e-02,  -3.80698085e-01,   3.65865678e-02,   5.55887669e-02,
      6.38354570e-02,  -4.70087193e-02,   5.51277846e-02,   1.57438532e-01,
     -1.90834492e-01,   5.11455238e-02,   4.37772125e-01,  -2.18184456e-01,
      2.67555863e-01,   6.89768016e-01,   8.97387639e-02,  -1.00181907e-01,
     -1.23449378e-01,   6.61392957e-02,  -1.85266823e-01,   8.98535773e-02,
     -1.81512505e-01,   7.04216287e-02,  -3.82989347e-01,  -2.37196267e-01,
      2.22213790e-01,  -1.27556529e-02,  -2.73980767e-01,   2.63636082e-01,
      1.96107045e-01,   5.21754622e-02,  -1.06217012e-01,  -1.92509994e-01,
     -2.91573733e-01,   9.67787579e-02,   1.39013052e-01,   3.12321752e-01,
     -1.05936401e-01,  -2.71094292e-01,  -3.73255402e-01,   2.83070832e-01,
      4.58047949e-02,  -1.41958013e-01,  -5.39765991e-02,   1.89973727e-01,
     -6.24495074e-02,   2.30876103e-01,  -4.02427614e-02,   3.12452167e-02],
   [ -2.33829662e-01,   8.05608556e-02,   2.62442976e-02,   8.91390815e-02,
      5.20824492e-02,  -2.96383705e-02,  -2.73033231e-01,  -6.02941550e-02,
     -7.31485933e-02,   1.10990219e-01,  -1.22684860e+00,  -1.22439325e-01,
      1.50315285e-01,   1.28307968e-01,  -2.05156893e-01,  -1.32543355e-01,
     -2.29939949e-02,   1.43765315e-01,  -1.91438764e-01,   7.52036422e-02,
     -4.16086465e-01,  -8.88859704e-02,  -6.96209744e-02,   6.13473915e-02,
     -5.58782928e-03,   1.52951926e-01,  -1.80524349e-01,   5.44043537e-03,
     -5.95446527e-02,  -2.58809865e-01,   2.81152427e-01,  -1.46202803e-01,
     -3.57927024e-01,   6.42231107e-02,   4.17255312e-02,  -3.42245474e-02,
      8.53942782e-02,   1.03983089e-01,  -1.41502991e-01,   5.07996142e-01,
     -5.86699992e-02,  -4.01743613e-02,  -3.84047508e-01,  -2.53994316e-01,
      1.81512117e-01,  -1.05600059e-01,  -1.70794159e-01,   1.45991817e-01,
     -1.70985967e-01,  -4.98805605e-02,  -1.25508368e-01,  -4.32054773e-02,
      8.67104009e-02,   1.75372645e-01,   2.57865727e-01,  -4.31331061e-02,
     -1.05275311e-01,  -3.15244198e-01,  -1.84723377e-01,   1.70227394e-01,
      2.35135287e-01,  -3.99552315e-01,  -3.28137726e-02,  -5.52317917e-01],],],],