[[[[ -5.38478233e-02,   2.70924363e-02,   1.71926454e-01,   1.14300348e-01,
     -5.71553856e-02,  -2.76434422e-02,   1.72777623e-01,  -1.27604470e-01,
     -6.89944029e-02,   5.54758422e-02,  -2.11839437e-01,   1.98854879e-01,
      3.31350528e-02,  -2.32198358e-01,  -1.55119017e-01,   9.49035585e-02,
     -5.86103089e-02,   1.59174174e-01,  -1.91181138e-01,  -1.01903707e-01],
   [ -2.07641318e-01,  -2.18774565e-02,  -1.71588212e-02,  -1.31855592e-01,
      1.04497485e-01,   1.07703619e-02,  -1.74533799e-01,   1.04206800e-01,
     -1.23972699e-01,  -2.03071848e-01,  -4.59006488e-01,  -3.61756176e-01,
      2.78504416e-02,   5.30835427e-02,   2.86996901e-01,   2.45799907e-02,
     -2.50425100e-01,   8.91300067e-02,  -2.43414328e-01,  -7.44845569e-02],
   [  1.91473573e-01,   3.16753797e-02,  -1.51869014e-01,  -8.42744410e-02,
      1.17852010e-01,   2.80071069e-02,   3.10476171e-03,  -2.88867742e-01,
     -1.74540356e-01,  -3.84683535e-02,  -2.81203777e-01,   1.07592121e-01,
      1.91131514e-02,  -1.47280470e-01,   1.04501307e-01,  -6.47151917e-02,
     -9.05184448e-02,  -3.23963203e-02,  -4.59097587e-02,  -3.45166735e-02],
   [ -1.18296929e-01,  -1.59236476e-01,  -8.43081921e-02,  -1.37794036e-02,
     -6.80817477e-03,  -9.43644941e-02,   2.83053610e-02,  -1.76924333e-01,
      1.98716968e-01,  -2.00911477e-01,   2.44128574e-02,   5.81899546e-02,
      9.71677303e-02,  -4.22123335e-02,   2.90491823e-02,  -3.49733941e-02,
      1.78039782e-02,  -2.05091923e-01,  -3.13507877e-02,   7.15138391e-02],
   [ -1.85479403e-01,  -9.56705064e-02,   1.10642269e-01,  -2.02746496e-01,
     -1.23038448e-01,  -1.41412532e-02,   1.26658186e-01,   1.89376809e-02,
      9.18103233e-02,   2.15826496e-01,  -1.43001795e-01,  -8.99792463e-02,
      4.17226627e-02,  -2.64917314e-02,  -4.61582169e-02,  -1.86122879e-02,
      1.02942839e-01,  -2.96442389e-01,  -4.97173034e-02,  -8.24791342e-02],
   [ -1.95850119e-01,   1.37365937e-01,  -2.77334768e-02,  -1.40768036e-01,
     -5.80731928e-02,  -5.48618622e-02,   1.79026499e-01,  -3.63782108e-01,
     -1.35086507e-01,   1.51999325e-01,  -3.74519229e-01,  -1.11962594e-01,
     -4.91742343e-02,   8.49198848e-02,  -5.99913970e-02,   5.62490858e-02,
      1.24621198e-01,  -2.07543582e-01,  -2.69051164e-01,  -1.05676185e-02],
   [  1.80633496e-02,  -1.36847213e-01,   7.21149221e-02,  -8.43017399e-02,
     -1.56709298e-01,   7.94818774e-02,  -1.49772942e-01,  -3.25323313e-01,
     -8.20808113e-02,  -1.01255305e-01,  -3.17249119e-01,  -7.85729811e-02,
      1.31944925e-01,  -1.83422610e-01,   5.00169806e-02,  -1.49238276e-05,
     -3.63079607e-02,   5.30068995e-03,  -1.32121846e-01,  -6.17330782e-02],
   [  6.46708533e-02,  -2.02223882e-01,  -6.71766475e-02,   6.09027513e-04,
      1.22171417e-02,  -9.16768610e-02,  -3.77236269e-02,  -2.52532274e-01,
     -1.94471627e-01,  -1.86056700e-02,  -1.49282306e-01,   5.05650695e-03,
      7.90871531e-02,   1.27016017e-02,   2.30752096e-01,  -5.07840440e-02,
     -3.72726023e-01,   3.03331278e-02,  -2.04687625e-01,  -8.98892134e-02],
   [ -1.68713322e-03,  -6.76014945e-02,  -2.59292990e-01,  -4.27409075e-03,
     -3.67291011e-02,   1.06522776e-01,   3.81565131e-02,  -3.95585060e-01,
     -2.42183074e-01,   1.08545303e-01,  -1.16875894e-01,  -8.84367824e-02,
     -1.38694420e-01,   1.22108214e-01,  -7.38087818e-02,  -1.42444149e-01,
      6.11597672e-02,  -1.25254095e-01,  -7.21405819e-02,  -3.01684644e-02],
   [ -1.02480330e-01,   1.01124018e-01,  -1.13300897e-01,  -1.72007799e-01,
     -3.86121534e-02,  -5.69104925e-02,  -1.11891411e-01,  -3.47282775e-02,
     -3.10219556e-01,  -4.17765349e-01,  -2.04299763e-01,  -4.70987968e-02,
     -1.60573553e-02,  -2.28424996e-01,   8.10843408e-02,  -1.29359260e-01,
     -1.03997216e-01,   3.34951803e-02,  -8.15769583e-02,  -1.30213886e-01],
   [ -1.74149081e-01,  -1.36860058e-01,   2.47146189e-03,   3.02789770e-02,
     -1.17463037e-01,   1.22693572e-02,  -4.81989272e-02,  -1.58575967e-01,
     -3.22724670e-01,  -1.42318783e-02,  -7.46015087e-02,  -2.12173015e-01,
      9.24797356e-03,   5.15409224e-02,  -1.77360289e-02,  -1.06527396e-01,
      4.79271561e-02,   5.68619147e-02,  -1.63633421e-01,  -7.47771189e-02],
   [  3.62571105e-02,   6.32512271e-02,   5.06389029e-02,  -1.99385770e-02,
     -2.45997846e-01,   7.16247782e-02,  -1.74783304e-01,   4.94477093e-01,
      5.12375720e-02,  -1.73035353e-01,  -6.79353178e-02,  -3.23248416e-01,
      2.31285214e-01,  -3.12409669e-01,  -2.77353883e-01,  -1.31892741e-01,
     -1.47440657e-01,   1.37609662e-02,   4.42262143e-02,   2.33828165e-02],
   [ -3.93323116e-02,  -4.25109640e-02,  -3.83405536e-02,  -1.57121904e-02,
      1.62393469e-02,  -4.94506694e-02,  -2.89842844e-01,  -1.03903972e-01,
     -2.79162172e-02,   1.75841466e-01,  -4.18031961e-02,  -1.04789495e-01,
     -4.87204008e-02,   6.14198148e-02,  -8.30503181e-03,  -4.37327623e-02,
      1.82285890e-01,  -1.28446966e-01,  -2.88044751e-01,  -1.18459374e-01],
   [ -1.32417127e-01,   3.31826918e-02,   7.34794838e-03,  -1.58516839e-01,
     -1.02127776e-01,   1.06196687e-01,   6.89344630e-02,   8.34367871e-02,
     -6.05686717e-02,  -1.15576461e-01,  -2.97623515e-01,   6.06192574e-02,
      3.26653928e-01,  -1.24347314e-01,  -3.61257493e-01,  -1.35198170e-02,
      1.33909985e-01,   1.45166414e-03,   4.99503724e-02,   7.81145692e-02],
   [ -3.04054826e-01,  -6.69654310e-02,   1.11926146e-01,   5.19404486e-02,
     -1.30889758e-01,  -9.85797718e-02,  -4.22391035e-02,  -9.04107317e-02,
     -2.28270873e-01,  -1.36187702e-01,   8.35368335e-02,   2.05736861e-01,
      8.10910836e-02,   1.31781921e-01,  -1.49263814e-01,   8.49205069e-03,
      7.37371817e-02,  -4.55526486e-02,  -8.75181183e-02,   1.75402850e-01],
   [ -1.47239596e-01,   6.00793585e-02,  -1.16655221e-02,  -1.50385812e-01,
     -1.71757191e-01,   5.17586581e-02,  -9.51655358e-02,  -8.81207660e-02,
      1.59395903e-01,  -2.51253098e-02,   1.93049554e-02,   1.69351578e-01,
     -1.18234143e-01,  -6.73509995e-03,  -1.63894504e-01,   6.71827421e-02,
      1.98391546e-02,  -3.84865940e-01,   2.78383717e-02,   1.83589727e-01],
   [ -1.46151319e-01,   9.23678726e-02,   5.48888147e-02,  -6.07140027e-02,
     -1.58693001e-01,   9.27778780e-02,  -7.98372328e-02,  -3.17950919e-02,
     -8.31532106e-02,   4.82372008e-02,  -2.65897483e-01,   1.77762210e-02,
     -1.27064362e-01,  -1.63715512e-01,   6.30863309e-02,  -9.18500423e-02,
     -2.93283343e-01,  -1.45746306e-01,   1.68069318e-01,  -1.08962422e-02],
   [  1.52705805e-02,   2.86846727e-01,   8.98488462e-02,  -4.38637994e-02,
      8.74902308e-02,  -9.06643942e-02,  -4.62287366e-02,   4.41706441e-02,
     -1.08822607e-01,   1.14995420e-01,  -7.17348382e-02,  -4.21846360e-02,
      4.70120795e-02,   1.08955219e-01,   3.56744695e-03,   1.19442642e-01,
      1.76757500e-01,   1.08402617e-01,   1.32296696e-01,   1.74001366e-01],
   [  5.28180711e-02,  -2.88386531e-02,   1.09931648e-01,  -2.50520051e-01,
      6.09284565e-02,   6.52330741e-02,   1.99379101e-02,   2.58923210e-02,
     -1.82127923e-01,   2.18064323e-01,   1.61984265e-01,   5.87929673e-02,
      8.70667282e-04,  -1.17154129e-01,  -1.21512869e-02,   5.23356050e-02,
      1.99314147e-01,  -1.07396908e-01,  -7.61286244e-02,   3.26700136e-02],
   [ -2.20265854e-02,   2.16571033e-01,  -8.00907686e-02,  -1.37054339e-01,
     -7.06205145e-02,  -3.15530784e-02,   6.95235729e-02,  -1.52984709e-01,
      1.14965126e-01,   1.48379728e-01,  -4.00996059e-02,   3.39867175e-02,
     -1.22751668e-01,   3.86430621e-02,  -1.24676660e-01,  -9.65863019e-02,
     -1.53052844e-02,  -1.75024420e-02,   6.10216893e-02,   5.14460728e-02],
   [ -3.05717140e-02,  -1.32990181e-01,  -2.11849421e-01,  -2.64708668e-01,
      2.65834570e-01,   6.37958059e-04,  -6.71175271e-02,   1.24186955e-01,
      1.06969588e-01,   2.22912282e-01,   8.93322155e-02,   6.59998953e-02,
      1.13949822e-02,  -1.52249008e-01,   1.73272982e-01,  -6.95909262e-02,
      8.51755217e-02,   1.46624893e-01,  -2.43455283e-02,  -1.54174462e-01],
   [  1.24518946e-01,   6.33317381e-02,   2.07030222e-01,  -7.72098154e-02,
     -2.93327589e-02,  -2.15060726e-01,  -2.08936021e-01,   2.21570671e-01,
     -2.07421720e-01,  -6.31067976e-02,   1.31866142e-01,   1.12373903e-01,
     -1.54605910e-01,  -1.90569878e-01,  -1.88239470e-01,  -1.76201835e-01,
      1.17976479e-01,  -9.03696418e-02,   3.99943031e-02,   1.18892804e-01],
   [ -1.47075236e-01,  -3.43180336e-02,  -1.38546616e-01,  -4.69751470e-02,
     -1.86713919e-01,   2.47416962e-02,  -1.00092553e-01,  -1.87531412e-01,
     -6.23951629e-02,  -5.48318960e-02,  -1.60916205e-02,  -1.22962229e-01,
      5.37824333e-02,   1.58161774e-01,   3.07018235e-02,  -3.57224256e-01,
     -1.64992422e-01,   5.76321296e-02,   1.64843738e-01,   9.48795527e-02],
   [ -2.43723407e-01,  -2.11274892e-01,   6.49351999e-02,  -1.12049840e-01,
      9.01682954e-03,  -1.14341073e-01,  -1.26164496e-01,  -1.25202592e-02,
     -4.45681699e-02,  -1.04667850e-01,  -2.00017050e-01,  -8.98771510e-02,
     -2.39413455e-02,   1.19371682e-01,  -3.99403311e-02,  -2.83059422e-02,
     -1.88944750e-02,  -1.54552221e-01,  -1.32604226e-01,  -1.74733564e-01],
   [ -1.09816581e-01,  -1.92924425e-01,  -1.60696357e-01,  -2.09752977e-01,
     -2.58885566e-02,  -4.05277424e-02,   8.02947730e-02,  -8.47284645e-02,
      8.16482827e-02,  -2.91243345e-01,   3.58428620e-02,   8.07252377e-02,
      3.18852849e-02,   2.33434457e-02,  -4.27128673e-01,  -2.05590189e-01,
     -1.18107162e-01,   3.22844610e-02,   1.04876824e-01,   1.45192072e-01],
   [ -1.17587514e-01,  -2.40347702e-02,   1.76746286e-02,  -1.64849721e-02,
     -1.92119807e-01,  -1.39131546e-01,   1.27527369e-02,  -2.15535179e-01,
     -1.39285937e-01,  -3.11189406e-02,  -1.43411532e-01,   9.91844758e-02,
      2.61960588e-02,   4.03357074e-02,  -2.45851409e-02,  -9.20713395e-02,
     -7.91983753e-02,  -3.32750380e-01,  -9.60827768e-02,  -1.96603552e-01],
   [ -1.92619627e-03,  -2.96401232e-02,  -1.30199686e-01,  -5.49193658e-02,
      2.35092398e-02,   7.19812512e-02,   5.97289354e-02,  -2.88198680e-01,
      2.45009921e-02,   2.35270523e-02,   2.17963576e-01,  -1.66451149e-02,
     -3.08423713e-02,   3.18317711e-02,  -1.00112282e-01,  -3.67582068e-02,
     -5.07060885e-02,   1.07614174e-01,   9.67433304e-02,   1.48281008e-01],
   [ -1.25234082e-01,  -1.66748017e-01,   2.10958794e-01,  -2.33005695e-02,
     -6.55320510e-02,   9.21796262e-02,  -1.31765213e-02,  -2.56272316e-01,
     -1.96129158e-01,   8.50985572e-03,  -4.44680117e-02,   8.16871878e-03,
     -5.37697338e-02,   9.12171975e-02,  -1.85899884e-01,  -7.01706260e-02,
     -1.37593403e-01,  -1.24936998e-01,   6.88231364e-02,  -5.93290739e-02],
   [  8.75993595e-02,   4.92691584e-02,   2.31408626e-02,  -5.70766581e-03,
     -5.53276986e-02,  -6.67326450e-02,  -1.12684302e-01,   2.21337810e-01,
     -1.24839999e-01,  -5.49374660e-03,   2.36010831e-02,  -6.35389760e-02,
      2.55145715e-03,  -1.12505234e-03,   4.72289175e-02,  -1.84374437e-01,
     -1.07019506e-01,   4.69523855e-03,   1.44873019e-02,  -1.09597802e-01],
   [ -1.26616940e-01,  -4.11515236e-02,  -1.55459419e-01,  -2.74688061e-02,
      2.02961303e-02,   2.41765305e-02,   3.17791216e-02,  -1.22348420e-01,
      1.64389282e-01,   2.53287144e-02,  -1.92146115e-02,   3.34385484e-02,
     -2.56111443e-01,   7.73603469e-02,  -3.64234298e-02,  -1.42706931e-01,
     -2.40455009e-03,  -1.43505320e-01,   3.26889679e-02,  -6.76474944e-02],
   [  5.74192330e-02,  -3.15641165e-01,   8.25354308e-02,  -7.34974956e-03,
     -2.60861814e-01,   2.35938765e-02,   8.98817256e-02,   7.10477233e-02,
      1.53659731e-01,  -1.98443055e-01,  -3.32268059e-01,   9.40357242e-03,
      8.14560428e-02,  -5.30673116e-02,  -2.69385111e-02,  -6.63208589e-02,
     -9.51796398e-02,  -3.05087119e-01,  -1.36798367e-01,  -3.52310240e-02],
   [  1.29519597e-01,   3.76202539e-02,  -6.07598126e-02,  -5.38561977e-02,
      1.29895061e-01,   1.67521294e-02,  -1.79512370e-02,  -4.85576279e-02,
      1.84876040e-01,   8.66101496e-03,   2.09012613e-01,   9.94159654e-02,
     -1.52318716e-01,  -1.42656490e-01,  -1.19873606e-01,  -1.44442543e-01,
      3.21241654e-02,   2.31511265e-01,   5.22902831e-02,   2.41995044e-03],],

  [[ -2.71844923e-01,  -2.13733330e-01,  -1.10164415e-02,   2.27847956e-02,
     -6.90526590e-02,   1.18018925e-01,  -2.85662226e-02,  -2.40179390e-01,
      8.04771185e-02,   9.82345417e-02,  -8.97795260e-02,   1.41051099e-01,
      8.45835730e-02,  -3.10071528e-01,  -4.86680865e-02,   3.82587969e-01,
     -5.29078357e-02,   2.77418077e-01,  -1.98778600e-01,  -5.33114858e-02],
   [ -1.40458196e-01,   4.80880290e-02,  -3.68732889e-03,  -1.44158334e-01,
      1.25805829e-02,   1.08052552e-01,   7.56206065e-02,  -3.30300368e-02,
     -3.62946868e-01,   1.85275227e-02,  -4.01058793e-02,  -1.91142365e-01,
      1.91084489e-01,   2.95108378e-01,   1.00502916e-01,   8.68945867e-02,
     -1.45582333e-01,   5.19154370e-02,  -1.43853426e-01,   3.46473344e-02],
   [  1.69236287e-02,  -1.24654897e-01,  -1.17063373e-02,  -5.76317497e-02,
      9.78235900e-02,   4.48513171e-03,  -1.69022307e-02,  -1.34494200e-01,
     -6.72507063e-02,   1.65303703e-02,  -8.87201354e-02,   1.17933646e-01,
     -2.45278906e-02,   1.72600076e-01,  -8.22694376e-02,  -2.01130565e-02,
      3.10447570e-02,  -3.94895226e-02,  -1.41140491e-01,  -6.67182654e-02],
   [ -2.21176177e-01,   9.78874043e-03,  -2.42527798e-02,  -1.29946113e-01,
      3.05488501e-02,  -8.30838755e-02,  -2.34591246e-01,  -6.66731149e-02,
     -1.26130819e-01,  -1.89351991e-01,  -1.86273232e-02,   6.22728281e-02,
     -1.73162371e-02,   1.44761689e-02,  -5.59844784e-02,   5.57272546e-02,
     -1.39707670e-01,  -2.01932847e-01,   1.06876522e-01,   2.13880856e-02],
   [  4.06906232e-02,  -1.82565302e-01,  -3.11983638e-02,  -1.14104263e-01,
     -4.47351933e-02,  -1.20639130e-01,  -8.27284753e-02,  -1.54518306e-01,
      4.31608707e-02,   1.16078027e-01,  -1.52109101e-01,  -2.26120517e-01,
     -9.13273692e-02,   7.71804154e-02,  -1.69765607e-01,  -9.77673456e-02,
     -1.67890266e-01,  -2.36419603e-01,  -1.55480504e-01,   3.88113484e-02],
   [ -1.35858152e-02,   1.68097373e-02,  -1.17092775e-02,  -1.70432776e-01,
      1.32378146e-01,  -4.51219194e-02,   2.33275011e-01,  -1.98431656e-01,
     -1.45298252e-02,   1.47623807e-01,  -1.72981203e-01,   1.06204070e-01,
      4.21830639e-03,   8.70686583e-03,  -2.31004924e-01,  -2.04059333e-01,
     -1.98360104e-02,   6.68457970e-02,  -2.75751740e-01,  -1.61728170e-02],
   [  9.77270901e-02,  -1.68778539e-01,   5.62993959e-02,   6.31573275e-02,
     -6.53288364e-02,   5.83941583e-03,  -1.69101253e-01,  -1.92482546e-01,
     -1.61815137e-01,  -6.81873485e-02,  -1.56843871e-01,  -3.61029394e-02,
      8.18046108e-02,  -3.92375231e-01,  -2.18141600e-02,  -8.80190730e-03,
     -6.58508390e-02,   5.12472959e-03,  -1.95278972e-02,  -2.15224624e-02],
   [ -4.09440510e-02,   3.64622027e-02,   1.27244025e-01,  -7.22128898e-02,
      2.08088197e-02,  -1.30657665e-03,   4.16169176e-03,  -1.89649135e-01,
      1.44161746e-01,  -6.25935420e-02,   9.06019062e-02,  -1.48123920e-01,
     -4.62225750e-02,  -6.26767054e-02,   6.84177782e-03,  -1.79448068e-01,
     -4.54919599e-02,  -9.43019614e-02,  -1.38306255e-02,  -7.16596888e-03],
   [  4.76321317e-02,  -4.88910452e-03,  -1.11294270e-01,   3.81466329e-01,
     -1.18577041e-01,  -4.93597426e-02,   9.76274833e-02,  -2.63070375e-01,
     -3.50490771e-02,  -7.41695166e-02,  -2.21976340e-01,  -1.28376871e-01,
     -6.51947334e-02,  -4.48755585e-02,  -6.13258071e-02,  -3.77504937e-02,
     -1.73939079e-01,   1.49467960e-02,  -1.86048999e-01,  -3.74155082e-02],
   [  1.27775788e-01,  -2.71256082e-02,  -9.52779576e-02,  -1.19911705e-03,
     -8.14424902e-02,  -6.74336106e-02,   5.10743856e-02,  -2.48685665e-03,
      4.43507545e-02,  -1.60898536e-01,  -3.31351645e-02,  -4.52815257e-02,
      1.78132374e-02,  -1.96309894e-01,  -5.50890230e-02,  -2.17995839e-05,
      9.18002203e-02,   7.38406321e-03,  -1.67803690e-02,   8.23767949e-03],
   [  1.74637735e-01,  -3.66846099e-02,   1.21758446e-01,  -7.66635463e-02,
      4.31392528e-02,  -5.73103018e-02,  -3.08801495e-02,  -9.72970203e-02,
     -9.68716741e-02,  -1.50229603e-01,  -1.04041360e-01,  -1.99202001e-01,
     -9.29064602e-02,  -9.51930135e-02,  -3.21509913e-02,   4.33869585e-02,
     -6.12518452e-02,   3.17676626e-02,  -7.63089433e-02,  -7.43004084e-02],
   [  3.39025885e-01,   1.13263279e-01,   5.42932423e-03,  -2.17638850e-01,
     -1.06699549e-01,  -1.29855588e-01,   4.86161336e-02,   2.94168256e-02,
     -3.63985330e-01,  -4.80738059e-02,  -6.80445582e-02,  -1.88760594e-01,
      7.32824281e-02,   8.45149439e-03,  -5.00514172e-02,  -1.63586497e-01,
     -1.65923193e-01,  -7.54768774e-02,   2.88088154e-02,   1.10709347e-01],
   [ -6.28997460e-02,   5.32735251e-02,   5.03756478e-02,   1.09952837e-02,
     -4.10616845e-02,  -6.34657592e-02,  -2.11933061e-01,  -1.59941792e-01,
      1.91533826e-02,   1.11478068e-01,   3.09921019e-02,  -1.82171091e-01,
      6.26379345e-03,   5.87454662e-02,   7.79911410e-04,  -1.10942140e-01,
     -1.12472139e-01,  -1.53299958e-01,  -2.11361218e-02,  -3.44571061e-02],
   [  1.26310259e-01,  -6.86870515e-02,  -8.30520689e-02,  -1.37284026e-01,
     -1.10252574e-01,   6.05095550e-03,   5.38200289e-02,  -2.09093615e-02,
     -1.82684690e-01,  -6.82283938e-02,  -7.08841532e-02,   6.83316588e-02,
     -3.72907631e-02,   4.77541909e-02,  -4.97197248e-02,   2.26323262e-01,
      5.99288605e-02,   6.39344379e-02,   6.08184189e-02,   3.07705998e-02],
   [ -1.59412682e-01,  -9.15235374e-03,   8.35141540e-02,  -2.48957723e-01,
     -1.18881486e-01,  -5.71836755e-02,  -8.67403075e-02,  -1.37626991e-01,
      7.72207975e-02,  -7.86943287e-02,  -1.79845661e-01,   1.62931517e-01,
     -6.21422790e-02,  -6.57767355e-02,  -1.71757251e-01,  -2.75716372e-02,
     -3.33445258e-02,   1.25071272e-01,   8.93719494e-02,  -7.72145465e-02],
   [ -1.89149361e-02,   1.50795594e-01,  -5.33204898e-02,   1.42171262e-02,
     -1.38556629e-01,   4.31795530e-02,   1.16219975e-01,  -5.34433834e-02,
      2.56120592e-01,   1.32848406e-02,  -1.37682334e-02,  -1.95355006e-02,
     -1.88390717e-01,   7.43323565e-02,  -4.20467667e-02,  -6.62947744e-02,
      1.66096073e-02,  -9.79476646e-02,   6.06937706e-02,   3.75422463e-02],
   [ -1.72651291e-01,  -3.04735601e-02,  -1.28903225e-01,   3.79203423e-03,
     -4.54318114e-02,   2.98089590e-02,  -4.92273979e-02,  -8.78758654e-02,
     -9.53461304e-02,  -9.26707909e-02,   7.88612738e-02,   1.43063039e-01,
      1.56335440e-02,   1.15031958e-01,   1.03992753e-01,  -2.83821285e-01,
     -1.78455129e-01,  -2.83101499e-02,  -1.79441929e-01,  -6.53780773e-02],
   [  5.35881035e-02,   1.78673550e-01,  -3.98737341e-02,  -1.50485905e-02,
     -4.52609994e-02,  -1.06910635e-02,   1.13090977e-01,   9.09107178e-02,
     -1.88491017e-01,   1.54476464e-01,  -3.32124233e-02,   1.75835118e-02,
      4.03372161e-02,  -4.95311953e-02,   1.00600094e-01,   5.12947440e-02,
      1.31629750e-01,   5.25460355e-02,   1.79101005e-02,   1.38769718e-02],
   [ -1.02806464e-02,  -5.35049029e-02,   2.32188124e-02,  -1.91715822e-01,
      4.47066538e-02,  -1.45216538e-02,   5.45694083e-02,  -5.28851599e-02,
     -1.07606597e-01,   1.01732932e-01,   5.81115857e-02,  -1.47158504e-01,
     -1.11580491e-01,   5.17301634e-02,   9.48789045e-02,  -1.17036089e-01,
     -5.32884970e-02,  -1.47693068e-01,  -1.29530141e-02,  -1.00587942e-01],
   [  1.82077028e-02,   9.21588242e-02,  -9.70496982e-02,  -8.03570300e-02,
     -2.24977061e-01,  -8.95009004e-03,  -3.78714539e-02,   2.02541240e-02,
      4.70972545e-02,  -7.39583448e-02,  -3.77638564e-02,   5.00101857e-02,
     -5.86048991e-04,  -2.81001218e-02,  -1.09941259e-01,   5.21421246e-02,
     -1.75214812e-01,  -3.62991355e-02,   7.35745952e-02,   2.77806651e-02],
   [ -1.76934630e-01,  -1.38433501e-01,   9.30720195e-02,  -8.36612135e-02,
      5.06691635e-02,   4.59502302e-02,  -1.17297120e-01,   4.54047322e-02,
     -5.53947464e-02,   1.77273348e-01,  -1.89685106e-01,  -4.75433618e-02,
      1.52558118e-01,   7.15927854e-02,  -5.23908772e-02,  -3.78848389e-02,
      1.49755761e-01,   6.39896095e-02,   6.99868053e-02,  -2.83372849e-01],
   [ -6.45401776e-02,  -2.47962028e-02,  -8.66300613e-03,   4.55830954e-02,
     -9.41593293e-03,  -1.81803331e-01,  -2.81687797e-04,   9.07426178e-02,
     -2.54332513e-01,   1.30947400e-03,   8.47100317e-02,   2.22440679e-02,
     -2.03398522e-02,  -1.05204284e-02,  -1.74811080e-01,   2.30155326e-02,
     -6.68701157e-02,   7.49865919e-03,  -4.84685861e-02,   9.16069224e-02],
   [  2.21198246e-01,  -9.48080719e-02,  -1.41844153e-01,   4.31455106e-01,
      1.26025811e-01,   1.08868040e-01,  -1.16896024e-02,  -1.22896761e-01,
      4.40056622e-01,  -7.86615629e-03,  -6.99548796e-02,  -6.85260892e-02,
     -1.03842355e-01,   1.71893850e-01,   1.52927339e-01,  -2.41884351e-01,
      5.06040230e-02,   8.99397209e-02,  -1.40437901e-01,   7.75796771e-02],
   [ -2.06287131e-01,  -4.93694022e-02,  -1.04015939e-01,   5.53561421e-03,
     -2.99530197e-02,   1.25386575e-02,  -2.36590147e-01,  -6.90853000e-02,
     -2.23070249e-01,  -2.23128989e-01,  -6.95315078e-02,  -1.04672566e-01,
     -1.11074045e-01,  -4.23777774e-02,  -3.73187400e-02,  -1.37277260e-01,
     -6.46866187e-02,  -8.06585252e-02,  -2.29566574e-01,  -9.22657847e-02],
   [ -2.59361994e-02,   9.27972123e-02,   3.46626677e-02,   6.35270253e-02,
     -3.18585150e-02,  -9.56984535e-02,   8.41747224e-02,  -1.64760143e-01,
     -2.75383353e-01,  -1.38270840e-01,   3.62250134e-02,  -6.13699062e-03,
     -6.41274750e-02,  -2.64510550e-02,   2.22318724e-01,   5.45038953e-02,
     -1.82394043e-01,   1.07675232e-02,  -4.23205178e-03,  -1.58983782e-01],
   [ -7.87924975e-02,  -4.72309515e-02,   1.04000438e-02,   3.36068384e-02,
      1.03035821e-02,  -8.02219321e-04,  -5.51547408e-02,  -1.38065025e-01,
     -1.48953021e-01,   2.52041165e-02,  -3.57084386e-02,  -4.59930301e-02,
      7.33993053e-02,  -1.23643197e-01,  -8.16446394e-02,   4.67302352e-02,
      1.66808087e-02,  -2.73533985e-02,  -9.27208737e-03,  -1.84697658e-02],
   [  2.35950187e-01,  -1.32180855e-01,  -2.78664734e-02,   1.24417454e-01,
      7.24623306e-03,   8.00378695e-02,   3.43110971e-02,  -1.99283376e-01,
     -3.76727879e-02,  -5.12777492e-02,  -1.65180817e-01,  -2.78048543e-03,
     -1.31868109e-01,   1.17811710e-01,  -2.27159653e-02,  -4.85078357e-02,
     -8.49035829e-02,   1.33435186e-02,   4.31560129e-02,   1.03286117e-01],
   [ -3.65777686e-02,  -1.18379079e-01,   8.40599164e-02,  -4.88305539e-02,
      3.85904964e-03,   3.62248309e-02,  -8.32343176e-02,  -1.53361455e-01,
     -1.10603206e-01,   2.75422204e-02,   9.52189937e-02,   1.29682701e-02,
     -3.41974162e-02,   5.05711883e-02,   1.83291745e-03,   4.58162613e-02,
      3.86086404e-02,  -7.04099089e-02,   1.27365906e-02,  -7.97497332e-02],
   [  1.29547119e-01,   2.40313541e-02,  -2.47435365e-02,  -6.98093623e-02,
      6.93350285e-02,  -1.25197366e-01,   3.21851894e-02,   3.07683963e-02,
     -8.69504642e-03,   2.19246000e-03,   8.14280510e-02,  -2.38191467e-02,
     -4.56736535e-02,   1.05420850e-01,   1.01765491e-01,   2.15217620e-02,
      1.42606124e-02,   5.43636940e-02,   9.40432176e-02,   2.12671198e-02],
   [ -1.31945952e-03,  -4.16274630e-02,   3.79599072e-02,   1.55048952e-01,
     -1.11144735e-02,   1.38029769e-01,   1.26792237e-01,  -1.11932047e-01,
     -1.07013039e-01,  -2.66086400e-01,   8.51741135e-02,  -1.65868893e-01,
     -1.88347660e-02,  -6.94114417e-02,   4.02192362e-02,   1.26250356e-01,
      3.51198241e-02,   1.15998030e-01,   6.44126311e-02,   9.85701978e-02],
   [  1.06480941e-01,  -1.83671601e-02,   1.29976183e-01,  -8.45585018e-02,
      2.50697844e-02,   6.99414611e-02,   5.92611991e-02,  -7.89082889e-03,
      1.09005578e-01,  -2.07108594e-02,   1.53798223e-01,   5.94039857e-02,
      2.90068209e-01,  -8.73608440e-02,  -9.33330655e-02,   6.71345666e-02,
     -3.45283031e-01,  -2.12094584e-03,   1.76806882e-01,   1.59921721e-02],
   [  2.55193450e-02,   1.19286850e-01,  -4.84808646e-02,  -6.53265193e-02,
     -2.94037163e-02,  -5.60794324e-02,   4.24604006e-02,   7.60634094e-02,
      6.37553185e-02,  -1.64309274e-02,  -1.28608923e-02,   1.90955400e-02,
      5.46464548e-02,  -1.19569260e-04,  -5.41820265e-02,   1.11410901e-01,
      5.14492095e-02,   2.94535235e-03,  -7.68072605e-02,  -1.83282629e-01],],

  [[  2.46914372e-01,  -1.34384900e-01,   1.92567751e-01,  -7.88272247e-02,
     -5.54353446e-02,   5.95756322e-02,  -2.72905510e-02,   3.08016777e-01,
     -8.72954652e-02,   2.51103610e-01,   1.99331403e-01,   1.37127444e-01,
     -7.67362490e-02,  -1.89718321e-01,  -1.82636321e-01,   9.01033282e-02,
     -5.66679686e-02,  -3.79756056e-02,  -9.03203264e-02,   3.24568525e-02],
   [  1.04572892e-01,  -2.94328239e-02,   8.26659203e-02,  -3.18200827e-01,
     -3.83037962e-02,   1.44181326e-01,  -9.53123420e-02,   1.49732068e-01,
      3.23290408e-01,   8.26514065e-02,   4.87635247e-02,  -3.08852851e-01,
      1.54297560e-01,   1.81887686e-01,  -1.22874826e-02,  -4.74194884e-02,
      3.67717966e-02,  -8.94108564e-02,  -1.10561296e-01,  -4.13531996e-02],
   [ -8.27600807e-02,   2.02877782e-02,  -4.88543585e-02,  -5.23108337e-03,
      9.65576619e-02,  -6.62599206e-02,   6.47369912e-03,   1.24746330e-01,
     -1.27591744e-01,  -1.55207038e-01,  -1.29595503e-01,   1.83435172e-01,
      2.90816166e-02,   7.08536729e-02,  -4.05080467e-02,   5.80143444e-02,
      8.01938772e-02,   1.45164341e-01,  -1.29178658e-01,  -4.83172536e-02],
   [ -5.76862246e-02,   4.61960807e-02,   1.42209843e-01,  -5.31760119e-02,
     -6.63521960e-02,  -7.49921054e-02,  -8.08425099e-02,  -1.48705915e-01,
     -1.27106309e-01,  -4.26374301e-02,  -1.90855339e-01,   3.44522327e-01,
     -1.07031979e-01,   1.96846202e-01,  -1.23006381e-01,  -2.24469099e-02,
      7.46685117e-02,  -6.07425459e-02,  -7.73766786e-02,   4.87761348e-02],
   [ -2.59269327e-02,  -6.78465664e-02,   1.18877450e-02,  -1.68535173e-01,
      9.80503485e-02,  -1.76324457e-01,  -2.21445914e-02,   1.12567898e-02,
     -1.87642481e-02,   4.21674624e-02,  -1.72484204e-01,  -1.80313289e-02,
     -2.24324595e-02,  -1.74055677e-02,  -1.07419446e-01,  -9.91115272e-02,
      4.87709511e-03,  -2.74875522e-01,  -4.80808727e-02,  -1.64335549e-01],
   [  1.50643796e-01,  -4.69046645e-02,  -1.17456308e-02,  -1.80746183e-01,
     -1.21615594e-02,  -3.35978493e-02,   1.21743828e-01,   1.36226192e-01,
      4.73355781e-03,   2.48754062e-02,   4.20668116e-03,  -4.66161733e-03,
     -8.03720206e-02,  -2.05715597e-02,  -1.10071935e-01,   3.40691861e-03,
     -1.12873770e-01,   1.47560285e-02,   1.35514304e-01,   5.06216735e-02],
   [ -2.83831693e-02,  -1.55872717e-01,  -1.85945425e-02,  -2.86744058e-01,
     -7.73449317e-02,  -1.38220415e-01,   2.42597796e-02,  -1.21190865e-02,
     -2.37486325e-02,  -8.32707211e-02,  -8.01554173e-02,  -3.02979112e-01,
     -9.94277894e-02,  -4.42388028e-01,  -5.81098422e-02,  -3.81771550e-02,
     -1.38455525e-01,  -7.79911056e-02,  -3.70003306e-03,   1.42274927e-02],
   [ -1.56993166e-01,   9.76827145e-02,  -2.16596514e-01,  -5.73942903e-04,
      3.22199538e-02,  -4.80254326e-04,   8.49661604e-02,   3.72390002e-02,
      1.23299025e-01,  -1.09030725e-02,   2.17838317e-01,  -5.81688941e-01,
     -5.10508986e-03,  -6.06208265e-01,   4.04903889e-01,  -2.56517995e-02,
     -1.10663205e-01,  -1.03917895e-02,   6.08274899e-02,  -1.55614270e-02],
   [ -8.32524002e-02,  -3.38661335e-02,  -1.31440461e-02,  -2.82393340e-02,
     -1.42448753e-01,   1.30433321e-01,  -9.62302908e-02,  -2.38873035e-01,
      1.43742561e-01,   2.20428333e-01,   3.70559841e-02,  -1.11372747e-01,
     -1.49889722e-01,  -2.37855166e-01,   7.79622719e-02,   4.52064723e-02,
     -8.32206309e-02,   6.44764677e-02,   6.36043202e-04,  -3.28648388e-02],
   [  6.81216493e-02,   5.94692901e-02,   3.98194939e-02,  -3.97667959e-02,
     -1.28042713e-01,  -3.63147967e-02,  -1.04235627e-01,  -4.76546526e-01,
     -2.52264977e-01,   4.03327355e-03,   7.23932907e-02,   2.93252543e-02,
     -7.86770731e-02,  -1.79431006e-01,   1.78548932e-01,   2.42272943e-01,
      1.44793972e-01,   2.20912218e-04,  -3.90334949e-02,  -5.86824259e-03],
   [ -1.01900594e-02,  -1.02190368e-01,  -2.70925723e-02,  -3.30384411e-02,
     -8.81167129e-03,  -6.89430311e-02,   5.30975796e-02,  -1.56746984e-01,
     -2.36336933e-03,  -9.64324549e-02,  -1.01155594e-01,  -4.40204382e-01,
      1.88355800e-02,  -7.84160346e-02,  -2.15651065e-01,  -5.26238717e-02,
     -1.05374157e-01,   5.41952625e-02,  -7.99787566e-02,   1.31589733e-02],
   [  9.24169272e-02,  -3.07790358e-02,  -4.26516728e-03,  -2.45519914e-03,
     -1.11390613e-01,  -8.51184577e-02,  -4.97944281e-02,   1.39562070e-01,
      1.73458695e-01,  -1.22760318e-01,  -2.23906375e-02,  -2.80406952e-01,
      1.34713110e-02,   6.75063580e-02,  -8.93730298e-02,  -2.33482178e-02,
      1.76793113e-01,   4.33638366e-03,   9.08239111e-02,  -1.45710960e-01],
   [ -9.38129276e-02,   3.89407767e-04,  -2.28372999e-02,   7.71068037e-02,
     -9.11476240e-02,  -8.09526891e-02,  -7.11489916e-02,   5.21679819e-02,
      1.54100824e-02,  -8.89825746e-02,  -1.01079993e-01,   3.22835930e-02,
      4.95834723e-02,  -1.15479663e-01,   5.94878476e-03,  -8.19722712e-02,
     -3.22882533e-02,  -1.27813727e-01,  -1.95686266e-01,  -6.91709816e-02],
   [ -3.73624831e-01,   3.80151533e-02,   1.27823487e-01,  -1.18081950e-01,
     -6.03378564e-02,   4.36487496e-02,  -1.07986815e-02,  -3.16645265e-01,
     -1.73172727e-01,  -1.58569276e-01,   6.82527795e-02,   2.45253637e-01,
      1.47289280e-02,   5.63168116e-02,  -9.29307789e-02,  -4.83660400e-02,
      2.04302669e-01,  -8.63366351e-02,   1.20898210e-01,   2.06499055e-01],
   [ -1.56109676e-01,   9.17800665e-02,   2.35315934e-02,   2.08533574e-02,
     -5.52090025e-03,  -1.42572656e-01,  -1.30016491e-01,  -1.94637075e-01,
     -8.03529173e-02,   6.95098117e-02,  -4.90405895e-02,  -1.55598775e-01,
      6.45914972e-02,  -2.61934008e-02,  -5.96761592e-02,   1.83517244e-02,
      5.82685918e-02,  -1.03605337e-01,  -4.71223332e-02,  -7.37391338e-02],
   [ -1.38747334e-01,  -2.59250347e-02,  -2.60514051e-01,   2.99589839e-02,
     -2.60243248e-02,  -3.81439775e-02,   5.59804775e-03,  -5.90212382e-02,
     -8.02951679e-02,   1.43028479e-02,  -3.89026590e-02,  -1.99514106e-01,
      5.08503430e-03,   3.35711896e-01,  -8.00262690e-02,  -9.28089768e-02,
      1.66160725e-02,  -1.22330859e-01,   2.90476829e-02,   9.76689979e-02],
   [ -6.87580630e-02,  -1.32377129e-02,  -6.68164715e-02,   2.78889425e-02,
      7.85680860e-02,  -4.94565777e-02,   1.71301011e-02,   1.90839693e-01,
      5.91565296e-02,  -1.36492521e-01,   9.81203392e-02,  -3.34973246e-01,
      3.26306298e-02,   9.76665989e-02,  -8.68238881e-02,  -1.17927715e-02,
      9.73291397e-02,  -7.11885542e-02,   1.32142052e-01,   3.95451626e-03],
   [  2.86689457e-02,   1.65675983e-01,  -1.69733867e-01,   5.96630275e-02,
      4.73250523e-02,   6.85672835e-02,   1.66782022e-01,   1.84134766e-01,
     -6.24734946e-02,  -1.48124062e-03,  -3.58665995e-02,   1.38282433e-01,
      2.67701708e-02,   3.62484902e-02,   8.92341956e-02,   4.46000025e-02,
      1.49659351e-01,   1.05297998e-01,   1.04264572e-01,   1.14555754e-01],
   [  1.99307734e-03,  -4.72097583e-02,  -1.60203531e-01,  -2.35297248e-01,
      3.82330157e-02,   1.08024828e-01,  -2.99721714e-02,  -3.75772938e-02,
      2.55115125e-02,   5.60273975e-02,   6.98814541e-02,  -8.11375976e-02,
     -1.65294260e-02,   7.30877221e-02,   7.01340064e-02,   1.62918866e-01,
      1.13261633e-01,  -5.54219671e-02,  -4.73901182e-02,   1.85410023e-01],
   [ -1.35117611e-02,  -2.36764867e-02,  -9.04805809e-02,  -1.02797113e-01,
      8.87692049e-02,  -2.01001000e-02,   1.73407152e-01,  -1.16894424e-01,
      4.43990016e-03,   5.49860112e-02,  -2.99063288e-02,   6.87835068e-02,
      1.77655984e-02,   5.29594310e-02,  -4.82876562e-02,  -1.20484360e-01,
     -3.56876403e-01,   6.04450293e-02,  -3.22677009e-02,  -2.62518581e-02],
   [ -1.73113659e-01,   3.13848369e-02,  -2.09164590e-01,  -3.25673819e-02,
     -5.46205696e-03,  -1.21324539e-01,  -1.66193813e-01,  -1.22222580e-01,
     -7.42625967e-02,  -1.53673661e-03,  -1.12126850e-01,  -1.02498770e-01,
     -1.73918128e-01,   6.74365163e-02,   8.88136253e-02,  -1.36620253e-01,
      1.77261099e-01,   4.60279621e-02,  -8.52706563e-03,  -1.57281607e-01],
   [ -3.39643925e-01,  -6.49140179e-02,   1.89711168e-01,  -1.16000973e-01,
      1.39796669e-02,   9.29878801e-02,   2.37114027e-01,  -2.08315507e-01,
      7.18527362e-02,  -1.25432149e-01,   1.24573618e-01,  -2.09679991e-01,
      9.74682420e-02,  -1.87232569e-01,  -1.61262259e-01,   8.25336426e-02,
     -4.37252298e-02,   9.57335252e-03,  -3.47703725e-01,  -4.23906818e-02],
   [ -1.06119663e-01,   1.48057669e-01,   3.16149518e-02,   4.00401384e-01,
      9.50523186e-03,   5.69871813e-02,  -6.81417733e-02,   1.54257882e-02,
      1.56360313e-01,  -2.31540576e-02,   9.76153091e-02,  -3.87019634e-01,
      1.43446587e-02,   2.27037117e-01,   4.42547090e-02,   2.70386226e-03,
     -2.05624446e-01,   1.62250064e-02,  -1.80362840e-05,   3.06691043e-02],
   [ -4.19007093e-02,  -2.58416802e-01,  -8.07722211e-02,  -1.20930038e-01,
      1.30592272e-01,   5.07797748e-02,  -1.41559407e-01,  -5.08720800e-02,
      1.30071416e-01,  -1.20493814e-01,  -2.94228755e-02,  -2.86449701e-01,
     -1.03292614e-01,  -1.22524887e-01,  -1.13181643e-01,  -1.40899653e-02,
     -1.52675882e-02,   3.31467018e-02,   1.62243113e-01,  -2.26933971e-01],
   [  1.68661341e-01,   1.60649821e-01,  -2.16759481e-02,  -5.68707883e-02,
      1.32469647e-02,   1.55630335e-01,   1.11023106e-01,  -1.01146862e-01,
      1.12543888e-01,  -1.40253067e-01,   6.79212734e-02,   8.02993551e-02,
     -1.23482518e-01,   1.52034551e-01,   8.50407928e-02,   1.21039629e-01,
     -1.20593496e-01,   2.24989504e-01,   1.32315442e-01,  -1.63630560e-01],
   [ -3.30175310e-02,  -7.66070485e-02,   2.66474839e-02,   1.59866437e-01,
      9.18856114e-02,   3.78968790e-02,  -9.69965160e-02,   2.01425720e-02,
     -7.04865828e-02,  -5.72297201e-02,  -8.20464566e-02,  -1.14708934e-02,
      8.64817128e-02,  -6.15555942e-02,  -1.48979366e-01,  -3.98696363e-02,
      1.75505131e-01,  -2.58423835e-01,  -7.85350576e-02,  -8.45657960e-02],
   [  2.48348698e-01,  -1.01197027e-01,  -1.93400159e-01,  -8.75333920e-02,
      6.92126751e-02,   2.71510761e-02,   3.24682472e-03,  -1.47744104e-01,
      4.68585864e-02,  -1.77339222e-02,  -1.71372332e-02,  -2.73032069e-01,
     -1.04406342e-01,   5.44087663e-02,  -5.28274849e-02,   2.67946925e-02,
     -1.13707995e-02,  -1.47639737e-01,   4.42941971e-02,  -6.43500173e-03],
   [  1.07827961e-01,  -2.68880576e-02,   1.04628690e-01,  -1.02791093e-01,
     -9.78683308e-03,   1.62433773e-01,   2.57505566e-01,   6.10428005e-02,
     -6.02657646e-02,  -5.52952290e-02,   1.56560335e-02,  -2.71014012e-02,
     -3.43786143e-02,  -1.71184048e-01,  -1.61193013e-02,   1.63481664e-02,
     -4.90506291e-02,  -2.14825049e-01,  -5.28181344e-02,  -4.42031436e-02],
   [  2.99941208e-02,   2.22064764e-03,   5.41025847e-02,   1.01542408e-02,
      5.06245811e-03,   1.67855173e-02,   4.68356274e-02,   1.03142798e-01,
      1.90450195e-02,  -8.47441480e-02,   1.00520313e-01,  -7.15084150e-02,
     -7.69796921e-03,   2.39724256e-02,   4.92719673e-02,  -2.44084792e-03,
     -5.82580687e-03,  -1.07385278e-01,  -6.62042424e-02,  -3.85234542e-02],
   [  7.84500465e-02,   4.27105352e-02,  -2.95321137e-01,   6.90350831e-02,
      2.39097513e-02,   3.80809493e-02,   5.65849505e-02,  -1.08175263e-01,
      7.99807906e-02,   2.90678203e-01,   3.46447267e-02,  -2.55990505e-01,
     -4.35660779e-02,   3.54630612e-02,   7.54952133e-02,   3.82667668e-02,
      2.00166374e-01,   2.43990764e-01,   2.44565979e-02,  -1.11721016e-01],
   [  6.58015013e-02,  -1.47100240e-01,  -6.22844649e-03,   2.88967192e-01,
      6.69239610e-02,  -1.26009500e-02,   3.64922620e-02,   6.01584790e-03,
     -1.36942953e-01,  -6.12745732e-02,  -5.55105694e-02,   2.40829960e-01,
     -2.44070366e-01,  -1.06730528e-01,   8.38167872e-03,  -5.99782467e-02,
     -2.89480418e-01,  -6.24797754e-02,   1.01172335e-01,  -1.45036131e-01],
   [  1.30335707e-02,  -6.02351949e-02,   2.89510228e-02,   1.99898332e-01,
     -4.43366542e-02,   1.03886403e-01,  -1.09862648e-01,  -4.32816744e-02,
     -8.35325718e-02,   1.59952827e-02,  -6.76945150e-02,   1.32391555e-02,
      1.57224968e-01,   1.60299003e-01,   7.23570734e-02,   8.46111625e-02,
      2.96328608e-02,   1.18680395e-01,   3.17037734e-03,   2.22754225e-01],],

  [[  2.14361995e-01,  -2.05820635e-01,  -1.30059436e-01,  -1.38559178e-01,
     -5.36071546e-02,  -2.49236241e-01,  -5.46199596e-03,   8.74596983e-02,
     -9.42582935e-02,  -6.54105842e-02,  -6.90510590e-03,  -1.56076252e-01,
     -6.05632141e-02,  -1.61463648e-01,  -9.05584637e-03,  -2.79994793e-02,
     -2.81745583e-01,  -8.04237202e-02,  -2.36121919e-02,   6.28346801e-02],
   [ -5.14115207e-03,   2.69649327e-02,   2.99778998e-01,  -1.02421671e-01,
     -5.51847788e-03,   2.34324515e-01,   1.92896780e-02,  -3.46292481e-02,
      1.14616625e-01,   1.23836935e-01,  -1.35512769e-01,   2.21989527e-01,
     -1.40879559e-03,  -1.40685886e-01,  -6.10642359e-02,  -1.60215095e-01,
      8.46262127e-02,   2.81434879e-02,   7.81216100e-02,  -2.65238792e-01],
   [ -1.65477768e-01,  -9.08859819e-03,  -9.44326892e-02,  -2.17588972e-02,
      1.79489367e-02,  -5.26895262e-02,  -1.17465749e-01,   1.74332410e-02,
     -1.20698132e-01,  -3.40607278e-02,   1.42016774e-02,  -7.01002404e-02,
     -1.36170506e-01,  -2.29536779e-02,  -3.21572237e-02,  -9.55208689e-02,
      1.40613746e-02,   4.73295897e-02,  -9.80042219e-02,  -1.66498479e-02],
   [ -2.28737354e-01,   4.03523706e-02,  -1.40571864e-02,  -7.14436024e-02,
     -5.72718494e-03,   4.05158959e-02,  -1.44312277e-01,   1.00780644e-01,
      1.39506385e-01,  -4.25316114e-03,  -7.44582713e-02,   4.09434766e-01,
     -1.76599488e-01,   6.46101162e-02,  -1.39034986e-01,  -1.82756275e-01,
     -1.62386075e-01,  -9.99806896e-02,  -1.09369308e-01,   9.36482400e-02],
   [ -1.33180723e-01,  -1.20403223e-01,  -4.23647910e-02,  -5.76728061e-02,
     -6.06338121e-02,  -1.83150157e-01,   1.39633402e-01,   2.35354342e-03,
      2.68849321e-02,  -1.19732946e-01,  -2.41797253e-01,   7.76576027e-02,
     -9.02049094e-02,  -2.41587773e-01,  -1.53685972e-01,  -4.68482636e-02,
      4.16480862e-02,  -3.38066667e-01,   4.19626124e-02,  -1.08907335e-01],
   [  1.94741115e-01,  -6.25802279e-02,  -2.31520444e-01,  -2.52088588e-02,
     -9.35694501e-02,   9.90912616e-02,  -1.77800078e-02,  -1.57416701e-01,
     -3.87382768e-02,   4.66693938e-02,   5.48069701e-02,  -4.54700917e-01,
     -4.08690982e-02,  -5.80821894e-02,   1.38122976e-01,  -1.15470104e-01,
     -2.42507741e-01,   1.34230211e-01,   5.41583300e-02,   2.43701097e-02],
   [ -2.09471732e-02,   1.06256604e-02,  -3.49327587e-02,  -4.17384595e-01,
      3.88301238e-02,  -1.61604002e-01,  -4.24185507e-02,  -3.34548168e-02,
     -1.31459191e-01,  -1.83966663e-02,   1.75217792e-01,  -1.83340564e-01,
     -1.07580877e-03,  -1.47493988e-01,   5.97445155e-03,  -6.71310648e-02,
     -4.86818030e-02,   1.47167258e-02,  -9.21525881e-02,   3.25109623e-02],
   [  7.14659616e-02,  -2.62083653e-02,  -2.93817818e-01,   8.48734677e-02,
     -1.22439675e-01,   7.43674785e-02,  -5.51390238e-02,   2.24530533e-01,
     -1.17788784e-01,   4.22556605e-03,   1.05750434e-01,  -2.46877655e-01,
     -7.07542524e-02,   1.40518397e-02,  -4.85190563e-02,  -1.50560394e-01,
      9.66207013e-02,  -1.67376269e-02,   5.50672822e-02,  -1.05963998e-01],
   [  2.97876894e-02,  -1.23886675e-01,  -3.09535086e-01,   1.65710717e-01,
     -1.21268295e-01,   1.01417318e-01,   1.49474442e-01,  -8.19343403e-02,
     -3.89995910e-02,  -7.75673836e-02,  -1.16563641e-01,  -1.28503650e-01,
      1.40942782e-01,  -5.69336824e-02,  -7.07666762e-03,  -1.12380654e-01,
      2.77880821e-02,   1.44252881e-01,  -2.68649329e-02,  -2.00764798e-02],
   [ -2.89159715e-01,  -2.00828239e-02,  -1.75356850e-01,  -2.67835468e-01,
     -1.30452514e-01,   3.25530618e-01,  -2.96684176e-01,  -7.57230818e-02,
     -2.79419720e-01,   2.95935106e-02,  -9.24695432e-02,   1.53549910e-01,
     -8.24563876e-02,  -9.93249416e-02,   5.95547166e-03,  -1.24907538e-01,
      8.51111859e-02,   8.46608803e-02,  -9.09315050e-02,  -2.02557281e-01],
   [  3.92969139e-02,  -2.19968244e-01,  -2.28293817e-02,  -1.96473133e-02,
      1.08490121e-02,  -2.72080619e-02,  -3.75159495e-02,   5.36068268e-02,
     -7.94241112e-03,  -1.31878061e-02,  -1.34023145e-01,  -1.01381309e-01,
      5.73002473e-02,   1.54594883e-01,  -4.51037511e-02,   2.96291765e-02,
     -2.69778855e-02,  -3.11458074e-02,  -1.30690694e-01,   2.35913228e-02],
   [ -3.48902673e-01,  -3.79161462e-02,   1.60697147e-01,  -5.48558943e-02,
      5.12688681e-02,  -1.90359488e-01,   2.39918642e-02,  -4.30869646e-02,
     -7.54791796e-02,  -2.56685093e-02,  -4.70548347e-02,  -2.62899548e-01,
     -8.39703083e-02,  -2.56689694e-02,  -3.88228372e-02,   1.92591310e-01,
      8.45093504e-02,  -1.11223422e-01,   8.15785825e-02,  -1.11637250e-01],
   [ -1.18036211e-01,  -1.28864363e-01,  -2.17973106e-02,  -8.45161527e-02,
      8.63094032e-02,  -8.29071179e-02,  -7.44541064e-02,   4.53636199e-02,
      1.60989054e-02,  -2.14242619e-02,  -1.85843393e-01,   2.38381177e-01,
      4.15868647e-02,  -5.31213097e-02,  -8.43223631e-02,   1.06071912e-01,
      8.27860087e-03,  -1.03787407e-01,  -1.91322640e-02,  -2.84515899e-02],
   [  1.06993780e-01,  -1.73926383e-01,   8.60524625e-02,  -1.26124904e-01,
      1.08126163e-01,   1.29304424e-01,   5.84285520e-02,  -2.92361110e-01,
      1.06881037e-01,  -4.55028899e-02,  -1.91787556e-01,  -1.13097534e-01,
     -2.46268138e-02,  -1.07155899e-02,  -1.27378432e-02,  -5.85623942e-02,
     -2.13803768e-01,  -1.04720309e-01,   1.18569911e-01,  -6.82272948e-04],
   [ -1.07828625e-01,  -6.92047179e-02,   6.17858358e-02,   1.33105412e-01,
      5.85526461e-03,  -1.23993792e-02,  -7.81342480e-03,  -3.90980154e-01,
     -2.28677869e-01,   5.12887686e-02,  -2.98732147e-02,  -4.35436159e-01,
      6.18582182e-02,   3.30141149e-02,  -8.73586070e-03,  -1.01944149e-01,
     -1.25483185e-01,  -7.84810260e-02,  -6.70572510e-03,  -1.21441752e-01],
   [ -6.07507816e-03,  -6.85885772e-02,  -7.47697847e-03,   5.01797311e-02,
      7.28298863e-03,   8.50606784e-02,  -1.79749280e-02,  -1.10726871e-01,
     -8.33933651e-02,   3.00163738e-02,  -2.99244244e-02,  -2.58201420e-01,
     -1.39010400e-02,   1.31037399e-01,  -8.80343542e-02,  -3.60294692e-02,
      9.03145876e-03,  -7.16835633e-02,   4.74118032e-02,  -1.33697152e-01],
   [  6.47314712e-02,  -1.74444750e-01,  -1.96710695e-02,  -6.36540204e-02,
     -5.84816486e-02,   5.80328470e-03,   3.90559584e-02,  -2.87610799e-01,
     -2.36820243e-02,  -3.11465301e-02,  -1.80807501e-01,  -4.48391914e-01,
     -5.56809641e-02,  -6.18910789e-02,  -1.03661232e-01,  -5.43947630e-02,
     -1.03378534e-01,  -1.02996439e-01,  -9.57757831e-02,   1.35828212e-01],
   [  1.99847490e-01,   1.26800880e-01,   7.13954791e-02,  -7.13487491e-02,
      9.08186473e-03,  -1.18632257e-01,  -7.15856478e-02,  -6.92471266e-02,
     -6.59632459e-02,  -3.56130041e-02,   1.70393378e-01,  -2.63468511e-02,
     -4.55037206e-02,   5.34390844e-03,   5.61421961e-02,   5.03567941e-02,
      1.06650740e-01,   2.90037319e-02,  -1.68497749e-02,  -9.72323269e-02],
   [ -1.94395140e-01,  -4.21617739e-02,  -4.78592515e-03,  -1.90810710e-01,
     -1.95590053e-02,  -3.35097425e-02,   8.99565443e-02,   1.73652098e-01,
     -1.56113461e-01,  -2.86132302e-02,  -1.04020022e-01,  -1.11077391e-01,
      1.14688696e-02,   4.19300571e-02,   7.06525370e-02,  -7.10749403e-02,
     -9.99166593e-02,  -1.29952431e-01,  -4.46473621e-02,   7.56321847e-02],
   [ -2.26083547e-01,  -1.13839656e-01,   3.32019553e-02,  -6.45687431e-02,
      3.23422432e-01,   5.06080836e-02,  -9.30437297e-02,  -4.26869206e-02,
     -3.50612104e-02,  -2.40131281e-02,  -9.57416520e-02,  -3.67340967e-02,
      4.98105679e-03,   1.89964414e-01,   6.89534619e-02,  -6.11090474e-02,
     -3.11301425e-02,  -9.53549519e-02,  -1.44499063e-01,   6.73949495e-02],
   [ -2.14997575e-01,   3.34571034e-01,  -7.14436024e-02,  -5.31260110e-02,
     -6.38311058e-02,  -7.71808205e-03,  -4.55528870e-02,  -4.09438498e-02,
      8.63981899e-03,  -9.03401375e-02,   2.02262387e-01,  -1.06586665e-01,
     -1.88290954e-01,  -9.05310437e-02,  -8.30517337e-03,  -1.64578944e-01,
      4.24013212e-02,   1.63873672e-01,  -3.33102196e-02,   5.71860708e-02],
   [ -1.89500600e-01,  -1.74855188e-01,   4.25104499e-02,   6.68847188e-02,
     -3.43082622e-02,   1.40723130e-02,   6.72043562e-02,  -3.46312970e-01,
     -5.20643070e-02,  -1.71087636e-03,  -8.96553993e-02,   1.48262620e-01,
      9.03864875e-02,  -2.07765073e-01,  -8.90508890e-02,   7.12143481e-02,
     -1.79143205e-01,  -1.52987704e-01,  -1.06755897e-01,   3.86963114e-02],
   [ -3.92829210e-01,  -2.08322272e-01,  -3.73367965e-01,   2.29616046e-01,
     -1.75038472e-01,  -3.82830441e-01,   4.12293933e-02,  -1.98600262e-01,
     -7.74476230e-02,  -6.26822188e-02,   9.90682468e-02,  -2.08681926e-01,
      7.30945468e-02,   1.97101235e-01,   1.91425122e-02,  -7.84859806e-02,
      8.28877091e-02,   3.15958895e-02,   6.89012259e-02,  -1.05131790e-01],
   [ -6.00142442e-02,  -4.10864986e-02,  -2.11702228e-01,   1.56882610e-02,
     -7.63955861e-02,  -1.40088081e-01,  -5.60656525e-02,  -1.20983578e-01,
     -5.11800274e-02,  -1.45480856e-02,   1.76838651e-01,  -2.55847573e-01,
      1.43397311e-02,  -2.67299503e-01,   5.26925027e-02,   1.11208692e-01,
     -8.36293586e-03,   2.94711161e-02,   7.53637105e-02,  -5.96239157e-02],
   [  1.77997515e-01,  -1.61957294e-01,  -2.45683596e-01,   6.23725355e-02,
     -1.15985744e-01,   5.32744564e-02,  -1.13044888e-01,   4.58903648e-02,
      1.24755263e-01,   2.82322746e-02,   2.36023031e-02,  -1.49001837e-01,
     -5.82869835e-02,  -1.59682974e-01,  -1.76754907e-01,   4.18499112e-02,
     -2.32537203e-02,   9.54842344e-02,   5.02465442e-02,  -6.45564273e-02],
   [ -3.32555808e-02,   5.13721164e-03,   1.20388329e-01,   1.19733550e-01,
      1.48729101e-04,  -3.16225924e-03,   8.52588639e-02,  -4.64927107e-02,
      5.79779372e-02,   3.55718769e-02,  -1.37760594e-01,   7.59724621e-03,
     -1.15700565e-01,  -1.94585681e-01,  -2.88168579e-01,   1.57293141e-01,
     -8.77240524e-02,   4.36971448e-02,  -5.44803329e-02,   5.96980006e-02],
   [ -2.00612214e-03,   8.58838931e-02,   7.76893878e-03,  -2.58649558e-01,
      7.67316148e-02,  -1.61136478e-01,  -3.11290799e-03,  -7.11254403e-02,
      6.54526055e-02,  -1.37650352e-02,  -1.39596611e-01,  -2.97410667e-01,
      1.49077162e-01,   1.53547585e-01,  -9.04163625e-03,  -4.46487814e-02,
     -2.69302428e-02,   5.49038313e-02,   3.72779928e-03,   3.99495140e-02],
   [  2.54102379e-01,   1.04382798e-01,  -1.49253905e-01,  -6.49456456e-02,
      1.03037901e-01,   2.14005873e-01,  -1.64628383e-02,   4.03763987e-02,
     -1.49418533e-01,  -5.63496128e-02,   3.12478766e-02,  -3.51439893e-01,
     -1.16345007e-02,  -1.10798657e-01,   1.84370857e-02,   3.27597894e-02,
     -7.46494532e-02,  -1.10793002e-01,  -4.33023414e-03,  -1.13284022e-01],
   [ -8.01737607e-02,   2.34470684e-02,   7.13992938e-02,   7.67599568e-02,
     -3.06906295e-03,  -5.94474711e-02,   1.43429656e-02,   6.64371923e-02,
      6.05390817e-02,  -2.22224686e-02,  -5.95152043e-02,   9.17166322e-02,
     -1.37182018e-02,  -4.47647460e-02,  -7.39498362e-02,  -1.15984259e-02,
     -7.26102442e-02,   2.28758261e-01,  -1.30324990e-01,  -4.19609286e-02],
   [ -1.49320036e-01,   6.28053397e-02,  -2.24372923e-01,  -7.35031143e-02,
     -2.52710581e-01,   6.13823272e-02,  -1.40660405e-01,   7.63824582e-02,
      1.57070965e-01,   1.91502422e-01,  -1.92503840e-01,   2.78843731e-01,
      3.54854017e-02,   1.04884036e-01,  -5.73240221e-02,  -3.98608148e-02,
     -5.40328911e-03,   8.45468640e-02,   1.27515867e-01,  -1.41213220e-02],
   [ -2.73087680e-01,  -4.07684557e-02,  -1.30367503e-02,  -9.61498469e-02,
      1.10586867e-01,  -2.32278079e-01,  -8.27512816e-02,   7.36644045e-02,
      2.07951814e-02,   5.17346039e-02,   5.81756327e-03,   5.33685029e-01,
     -1.88853532e-01,  -1.36172295e-01,   5.18286154e-02,  -5.30473515e-03,
     -3.14524740e-01,  -3.06430478e-02,   4.04820703e-02,  -1.73269466e-01],
   [  3.94954123e-02,  -3.34666632e-02,  -3.41757923e-01,  -2.21265685e-02,
     -7.72046074e-02,   6.18333332e-02,   6.72698319e-02,   4.05758657e-02,
      5.76247461e-02,   4.58381232e-03,  -1.12347290e-01,  -1.26069188e-01,
     -7.86310956e-02,  -2.17280492e-01,  -2.53944770e-02,  -2.53544394e-02,
      1.30443186e-01,   1.08003318e-01,   4.33924682e-02,   1.41145542e-01],],

  [[ -2.60090739e-01,   1.58139348e-01,   1.49077609e-01,   1.76363602e-01,
      3.97503190e-02,   1.74735244e-02,   6.11964464e-02,   1.53122529e-01,
      1.00976795e-01,   1.31217077e-01,   2.57952124e-01,   1.54693900e-02,
     -5.19610345e-02,   1.89940631e-01,   8.06479231e-02,   2.05236807e-01,
     -6.74730539e-02,  -1.70226961e-01,   1.24064155e-01,   1.56059369e-01],
   [ -3.15842003e-01,   1.08370923e-01,   6.35436922e-02,  -2.31202707e-01,
     -1.21973250e-02,   2.02105895e-01,  -6.79008663e-02,   1.48059607e-01,
      2.92877495e-01,   2.24486534e-02,  -3.75967473e-02,  -3.46943326e-02,
      8.92532915e-02,   2.44900152e-01,   1.06362246e-01,  -4.94638607e-02,
     -1.08011432e-01,  -2.88479608e-02,  -2.07217764e-02,  -2.35828925e-02],
   [  7.93379471e-02,   1.46602526e-01,  -1.18707702e-01,   1.99037716e-02,
      8.76736641e-03,   3.89272310e-02,  -2.70532854e-02,  -9.00148600e-02,
     -7.85248261e-03,  -2.13898420e-02,   5.05472580e-03,  -8.42194930e-02,
     -6.67821169e-02,  -1.86184421e-01,   1.20743960e-02,   1.49224773e-01,
     -3.64437312e-01,  -1.03115588e-01,  -1.73917487e-01,   1.49826780e-01],
   [  2.71123439e-01,  -7.47535052e-03,   3.09287280e-01,  -1.16482861e-01,
     -7.63345212e-02,  -2.62038052e-01,   1.02996387e-01,   9.21473578e-02,
     -1.68779269e-01,  -1.79618984e-01,  -1.22644179e-01,  -1.15357399e-01,
      7.61191174e-02,  -2.78463930e-01,  -2.08702683e-01,  -7.86928087e-02,
      1.31304711e-01,   4.94780904e-03,  -1.47268459e-01,   1.04435794e-01],
   [ -2.30147108e-01,  -1.21383272e-01,   8.71930085e-03,  -9.56696179e-03,
     -2.29477342e-02,   4.95464802e-02,   3.65699567e-02,  -3.38092595e-02,
     -1.87482879e-01,   1.25714898e-01,  -1.45984590e-01,   7.02932030e-02,
     -5.98361306e-02,  -1.40802816e-01,  -2.34887734e-01,   8.70470852e-02,
      3.59894224e-02,  -5.32440692e-02,  -6.91779424e-03,  -1.73518032e-01],
   [ -8.84061214e-03,  -1.91903356e-02,  -7.38862082e-02,   2.42778398e-02,
     -2.65561547e-02,   8.94725099e-02,  -2.72997711e-02,  -5.07412888e-02,
      9.25344229e-02,   5.70818596e-02,  -8.05282146e-02,  -5.81005514e-02,
     -4.97106165e-02,  -1.61238492e-01,  -1.99330151e-01,   1.15372397e-01,
     -2.48641625e-01,   1.19073108e-01,   2.36637071e-02,  -1.36793464e-01],
   [ -1.42088369e-01,   3.30978595e-02,   1.46509567e-02,  -1.18151195e-01,
      1.16284164e-02,   1.39197916e-01,  -7.25891143e-02,   7.72814825e-02,
     -4.24890891e-02,   5.60713820e-02,  -5.30118756e-02,   8.82583484e-02,
      1.04726233e-01,  -7.31661916e-02,  -5.84058240e-02,   2.94744000e-02,
     -4.93424013e-03,  -1.53856844e-01,   5.37767960e-03,   5.27156219e-02],
   [ -8.16461444e-02,   1.40574843e-01,  -1.58324689e-01,   3.76337096e-02,
      2.03758590e-02,  -4.35572974e-02,   9.09756646e-02,   3.41262519e-01,
     -6.53491616e-02,   9.83780175e-02,   3.60284857e-02,  -2.29410715e-02,
     -1.65730506e-01,   5.41556217e-02,   2.05271333e-01,   4.43617217e-02,
      1.38557166e-01,  -7.64340162e-03,   9.24987942e-02,   1.56182498e-01],
   [  5.35218269e-02,   4.87192348e-02,  -2.08142951e-01,   6.69547245e-02,
     -2.80515492e-01,   2.01229066e-01,   3.46720777e-02,  -9.84091461e-02,
     -3.19350697e-02,   2.55192108e-02,   1.37441844e-01,   3.29158828e-02,
     -4.71364520e-02,   2.69400388e-01,   9.46021080e-02,  -1.92905486e-01,
      4.94845845e-02,   8.34926441e-02,  -3.97476517e-02,   9.14732814e-02],
   [  1.64506100e-02,   7.50246570e-02,   1.83586183e-03,  -1.40719125e-02,
     -2.98785772e-02,   1.03483155e-01,   7.86243305e-02,   1.14823148e-01,
     -2.38559440e-01,  -2.02621184e-02,   6.91208318e-02,  -2.56034046e-01,
      5.67408316e-02,  -2.12692276e-01,   1.71829030e-01,  -1.09317571e-01,
     -6.31388128e-02,   7.66853541e-02,  -7.67789930e-02,  -2.05074832e-01],
   [ -2.25974038e-01,  -1.70852393e-01,   1.92746937e-01,  -1.93203792e-01,
      6.02104841e-03,  -5.72851300e-02,  -1.40247479e-01,  -1.53460473e-01,
      1.44171163e-01,   5.91990203e-02,  -2.15698764e-01,  -5.13106287e-02,
     -8.34046677e-02,  -5.22929840e-02,  -5.12404107e-02,   1.57738640e-03,
     -1.11031279e-01,  -2.12641925e-01,  -7.49980882e-02,  -4.49775495e-02],
   [ -1.86743587e-01,  -9.35670882e-02,  -1.51680082e-01,  -1.20143838e-01,
     -4.49593961e-02,   2.29476333e-01,   1.52074592e-02,   1.70987204e-01,
      1.11554839e-01,  -2.75750235e-02,  -8.36366042e-02,  -4.36423421e-01,
      6.06579594e-02,  -2.02906923e-03,  -1.12192914e-01,  -3.49722877e-02,
      6.40577450e-02,  -2.59627961e-02,  -9.36746523e-02,   8.56232420e-02],
   [ -4.27737683e-02,  -3.03891897e-02,  -2.27136631e-02,   1.00981101e-01,
      5.88183738e-02,   3.69890518e-02,   3.25200140e-01,  -3.97009403e-02,
     -8.53045136e-02,  -9.86998007e-02,  -2.03240380e-01,   4.51358706e-02,
     -2.92132515e-02,   4.62552272e-02,  -1.57567039e-02,  -5.52970767e-02,
      1.61469787e-01,  -1.02019221e-01,  -2.35176478e-02,  -1.27426505e-01],
   [  2.17881694e-01,   1.18441634e-01,   1.97150707e-01,  -1.46966100e-01,
     -1.15015872e-01,   1.36177123e-01,   1.67115659e-01,  -2.51325011e-01,
     -3.29323225e-02,   7.86374975e-03,  -1.44101351e-01,   1.63596362e-01,
      1.41119480e-01,   1.31751031e-01,   1.56876594e-01,  -1.69666857e-02,
     -1.51572272e-01,   1.06596999e-01,  -1.83193516e-02,   1.32573351e-01],
   [  7.32424781e-02,   1.70478970e-01,  -8.93368274e-02,   1.25238419e-01,
      1.99672673e-03,  -1.39062107e-01,  -1.82322264e-02,  -1.18006296e-01,
     -2.09819451e-01,   8.98402780e-02,   2.20656637e-02,  -1.83856338e-02,
     -1.37120351e-01,   9.48251877e-03,  -6.90010265e-02,  -5.31033874e-02,
     -1.40077919e-01,   5.01050167e-02,  -1.27745658e-01,  -1.24646440e-01],
   [ -8.21155533e-02,  -8.45627044e-04,  -3.18612903e-02,  -6.94044083e-02,
     -6.17873780e-02,  -3.62245962e-02,   1.35859579e-01,  -3.25176507e-01,
     -2.80624032e-02,  -8.07535052e-02,  -6.35249317e-02,  -2.09657669e-01,
     -2.95279864e-02,  -7.07024187e-02,  -2.51631234e-02,  -6.11256585e-02,
      3.91354598e-02,  -1.40907854e-01,  -2.16541931e-01,  -6.67802915e-02],
   [  5.46282567e-02,  -8.55316445e-02,   6.57443106e-02,   5.24145849e-02,
     -1.30458340e-01,   7.83058703e-02,  -9.03048217e-02,  -2.96512619e-03,
      1.08159475e-01,  -1.27939239e-01,  -3.20778131e-01,  -1.28554195e-01,
      9.90075469e-02,  -2.06152409e-01,  -1.15648836e-01,   7.59815350e-02,
      3.14734913e-02,  -4.27125022e-04,  -2.70807687e-02,   1.49446413e-01],
   [ -1.40672952e-01,  -3.31797861e-02,   1.54795229e-01,  -7.95276538e-02,
      1.31426692e-01,   8.21992010e-02,   8.80637169e-02,  -1.94000881e-02,
     -1.98087608e-03,   6.78332336e-03,  -9.29236785e-03,  -2.05730245e-01,
     -3.63232084e-02,  -1.45803019e-01,   1.23281926e-01,   1.03769720e-01,
      1.37731448e-01,  -1.95842031e-02,  -2.70625263e-01,   2.72681594e-01],
   [  7.91343674e-02,   1.00067578e-01,  -2.03757852e-01,  -1.94273770e-01,
      4.53446247e-02,   2.64029484e-02,   2.95576062e-02,   9.34564099e-02,
      6.13956302e-02,  -4.06475291e-02,  -4.07242894e-01,   1.84320569e-01,
     -6.91749081e-02,  -9.44277272e-03,   5.00778435e-03,   2.36723453e-01,
      9.25948471e-02,  -2.00061277e-02,   9.09873843e-02,   1.15652621e-01],
   [ -1.00220457e-01,  -1.00803845e-01,   7.01576620e-02,   5.03045954e-02,
      4.80837673e-02,  -6.93908781e-02,  -2.61142045e-01,  -2.76336987e-02,
      5.51353358e-02,   7.71574005e-02,  -1.86311007e-02,  -3.65465507e-02,
      6.73970068e-03,  -8.78277570e-02,   1.22841015e-01,  -6.78941607e-02,
     -2.68966049e-01,   9.13140625e-02,   7.15280101e-02,  -6.41454458e-02],
   [  7.88107701e-03,  -1.40186191e-01,   1.30839730e-02,  -2.37329528e-02,
     -2.21554702e-03,  -1.67150095e-01,  -6.86921105e-02,   7.94554688e-03,
      5.24796285e-02,  -8.76608342e-02,   1.08757898e-01,  -7.21920654e-02,
     -1.08574443e-01,   2.90850490e-01,   1.01946317e-01,   2.14874558e-02,
     -1.49864167e-01,   5.91895618e-02,   1.10633291e-01,  -8.19847807e-02],
   [ -1.76545322e-01,  -2.94917226e-02,   2.71364242e-01,   1.59423891e-02,
      4.92753722e-02,  -1.82949513e-01,   3.88239622e-02,  -3.63437176e-01,
      4.17171344e-02,  -8.91242474e-02,  -1.24217406e-01,   4.15256709e-01,
      1.27721503e-01,   3.44414487e-02,  -6.64887503e-02,   1.02207847e-01,
     -2.99739596e-02,   4.65843827e-02,  -3.21230143e-02,   2.61220872e-01],
   [  4.49407458e-01,   1.90828651e-01,  -1.07803956e-01,   3.26141506e-01,
      1.17363364e-01,   3.40238027e-02,  -5.94844893e-02,  -9.64818429e-03,
     -7.24221393e-03,   3.75773683e-02,   1.80576801e-01,   1.35055169e-01,
      4.55832183e-02,   6.46038577e-02,  -5.00347801e-02,   1.12075675e-02,
      2.97196563e-02,   5.57451770e-02,  -1.06481574e-01,  -3.69410478e-02],
   [ -1.24475650e-01,  -9.31959003e-02,  -7.45651647e-02,  -4.07588035e-02,
     -4.43889014e-02,  -3.09037328e-01,  -8.12957995e-04,   6.25295117e-02,
     -1.83086321e-02,   1.10632658e-03,   2.42674470e-01,  -5.43075949e-02,
     -5.10623083e-02,  -5.95620722e-02,   4.75764871e-02,  -6.26568273e-02,
     -4.00468335e-02,   4.92211282e-02,  -9.06714797e-03,  -6.72416836e-02],
   [ -7.84406960e-02,   1.24429137e-01,   1.09704800e-01,  -1.59438811e-02,
     -1.35584753e-02,   1.01556115e-01,  -1.19386204e-01,   6.84836432e-02,
      2.80975968e-01,  -6.59577325e-02,   7.61007741e-02,  -3.48403245e-01,
     -4.48939912e-02,   1.16226994e-01,   1.09486833e-01,  -1.01687878e-01,
      1.39088750e-01,   1.53082907e-01,   3.65797170e-02,  -1.84706718e-01],
   [  3.41685824e-02,  -1.09712340e-01,  -2.06054032e-01,   3.93620133e-02,
     -9.62512270e-02,   1.55920625e-01,   6.86572865e-02,  -8.98151994e-02,
     -9.19199884e-02,  -7.66510069e-02,  -1.04601033e-01,   5.25941327e-02,
      6.28142655e-02,   4.17390525e-01,  -2.29102448e-01,  -2.53742170e-02,
     -1.57637149e-01,  -2.76509047e-01,  -1.23067290e-01,  -1.04088314e-01],
   [  3.20800841e-01,  -5.56083173e-02,   1.39037764e-03,   4.64240052e-02,
      1.11201704e-01,   3.78797054e-02,  -1.61963284e-01,   9.16831568e-02,
      1.60575449e-01,  -8.31920095e-03,  -4.13397476e-02,  -1.77547976e-01,
      6.88403100e-02,  -7.85081610e-02,   4.61762026e-02,  -1.48441583e-01,
      2.48856638e-02,   7.73359165e-02,   1.27559036e-01,  -2.40324497e-01],
   [  1.18776701e-01,  -6.15811534e-03,  -8.47400501e-02,  -1.31755307e-01,
     -2.81197615e-02,   1.67571902e-01,  -6.58811778e-02,   6.26147538e-02,
     -1.06919117e-01,   7.01996833e-02,  -4.64015119e-02,  -2.67876297e-01,
      4.81572673e-02,  -4.40518484e-02,  -1.46242455e-01,  -9.70089361e-02,
     -8.26384798e-02,  -2.18843356e-01,   3.98010090e-02,  -2.77399927e-01],
   [  6.22759238e-02,  -3.86921465e-02,   4.61418703e-02,   8.38350058e-02,
      5.20390421e-02,  -2.02773083e-02,  -5.68102822e-02,  -1.00690939e-01,
      8.18946026e-03,  -4.18383814e-02,  -1.42438889e-01,   1.19129002e-01,
     -1.86828971e-02,   3.97326937e-03,  -3.47411148e-02,  -1.48562208e-01,
     -1.43065780e-01,  -1.09679289e-02,  -1.10547394e-01,   8.36611018e-02],
   [ -9.48145017e-02,  -1.63100481e-01,  -6.10327162e-02,   6.20215992e-03,
      8.37578550e-02,   9.59591120e-02,  -7.85474032e-02,  -3.07190325e-02,
     -5.56279644e-02,   8.73889178e-02,  -1.72219679e-01,  -2.20777929e-01,
      1.30478546e-01,  -3.85328084e-02,  -2.16775402e-01,  -9.04345140e-03,
     -3.52539606e-02,   9.59308743e-02,   5.47374897e-02,  -4.49257232e-02],
   [  1.23822391e-01,  -2.03253746e-01,   2.19009817e-01,   1.12357058e-01,
      3.37727331e-02,   5.20029217e-02,   1.23404607e-01,   1.46796420e-01,
     -4.86448547e-03,   3.51853445e-02,  -1.02746366e-02,   2.55436420e-01,
     -1.83683950e-02,   2.86492016e-02,  -1.20870188e-01,   6.93382174e-02,
     -3.99564467e-02,  -1.57041594e-01,  -3.85510102e-02,   4.91620377e-02],
   [  1.97051853e-01,  -2.75514722e-02,   4.40469794e-02,   4.71672118e-02,
     -1.14602506e-01,   3.71737741e-02,  -1.99141070e-01,  -1.70620419e-02,
     -4.41620611e-02,   7.29564130e-02,   5.67616522e-03,  -3.87335494e-02,
      1.13962978e-01,  -1.97272047e-01,   1.42090961e-01,  -7.38084689e-02,
     -4.89684679e-02,  -1.59226000e-01,  -8.60690512e-03,  -1.03525944e-01],],],


 [[[  3.41134779e-02,   8.47807825e-02,  -1.78658038e-01,  -1.36981428e-01,
      1.27486154e-01,  -1.66079868e-02,  -1.34902492e-01,  -1.09335870e-01,
     -2.26603784e-02,  -2.17578620e-01,  -9.07707512e-02,  -1.23951748e-01,
     -1.59235358e-01,  -2.44685188e-01,  -1.22717150e-01,  -1.12184361e-01,
      1.30029574e-01,   6.04500212e-02,  -9.64187458e-02,   1.77870691e-01],
   [ -1.55815119e-02,  -9.80253741e-02,  -3.44141275e-02,  -1.51944989e-02,
     -5.92896678e-02,  -1.24823516e-02,  -1.78833589e-01,  -5.76126054e-02,
     -6.34337813e-02,  -9.93698239e-02,  -6.84171170e-02,   1.64553121e-01,
     -6.65781274e-02,  -4.68858965e-02,  -1.60890535e-01,   7.38503933e-02,
     -3.04993808e-01,  -2.31031459e-02,   8.36460572e-03,   2.49047484e-02],
   [ -3.60137336e-02,   1.07034102e-01,  -1.66082501e-01,  -5.61667979e-02,
     -6.35082275e-02,   1.96826775e-02,  -5.28250933e-02,  -1.05318883e-02,
      3.23490985e-02,  -2.34644264e-01,  -2.58126527e-01,  -4.74641770e-02,
      2.81040743e-02,   6.19593933e-02,   1.02543801e-01,   1.26599073e-01,
     -2.69235760e-01,  -9.32153985e-02,   3.82485949e-02,  -1.28780961e-01],
   [ -7.85849150e-03,  -1.37820914e-01,   1.62560996e-02,  -6.50657639e-02,
      9.31013227e-02,   1.26598990e-02,  -3.65791930e-04,  -7.70457014e-02,
      2.20649973e-01,  -1.92108110e-01,  -1.73322469e-01,  -4.38350579e-03,
     -1.12842299e-01,   1.61188170e-01,  -1.29710644e-01,  -4.57413606e-02,
     -9.81944576e-02,  -2.09040403e-01,   5.94150200e-02,  -2.63847094e-02],
   [  4.84089851e-02,  -7.54025877e-02,   4.82310988e-02,  -1.26479343e-01,
     -2.76858285e-02,  -6.59190491e-02,   4.44736704e-02,  -1.56826571e-01,
     -7.07058236e-02,   5.48837557e-02,   2.09391420e-03,  -1.49336919e-01,
     -1.10557988e-01,  -1.19244993e-01,   8.95017311e-02,   3.04943845e-02,
      2.72858329e-02,   3.87740061e-02,  -1.19944938e-01,  -7.07739443e-02],
   [  1.44407004e-01,   9.32181627e-02,  -2.27315694e-01,  -2.01362640e-01,
     -5.33863977e-02,   1.17245158e-02,  -1.43734897e-02,  -1.70349568e-01,
     -1.33646012e-03,  -1.92141786e-01,  -3.22215110e-01,   6.38151541e-02,
     -2.63226200e-02,  -1.65245757e-01,  -2.56761253e-01,  -8.42461511e-02,
      5.42295054e-02,   1.11789070e-02,   7.03419372e-02,  -2.70770937e-02],
   [ -1.00449502e-01,  -8.22859332e-02,  -6.16973564e-02,  -1.20273545e-01,
      4.68006078e-03,  -1.80107355e-02,   2.31792536e-02,  -2.45760642e-02,
     -3.41940075e-02,  -5.89077063e-02,  -2.35359892e-01,  -1.16965793e-01,
      1.72151253e-02,  -3.22161645e-01,   1.42264422e-02,  -2.94258595e-01,
     -4.38762046e-02,  -8.08736905e-02,  -6.99623600e-02,   9.93662328e-02],
   [ -6.55312382e-04,  -1.62738152e-02,  -4.76018526e-02,  -2.14553937e-01,
      2.34581586e-02,   1.75298471e-02,   1.30467057e-01,  -4.02283520e-02,
      1.97239995e-01,  -2.42979378e-02,  -4.31134790e-01,  -5.62557355e-02,
     -7.52687156e-02,   2.75726855e-01,   2.00186446e-01,  -1.43268198e-01,
     -6.14517406e-02,  -1.12847082e-01,  -1.94629997e-01,  -5.77315763e-02],
   [  1.41863585e-01,  -6.84326589e-02,  -3.08115304e-01,  -2.56756574e-01,
     -1.42832190e-01,  -1.21803448e-01,  -1.87416911e-01,  -2.15169460e-01,
      1.38533339e-01,   8.98198187e-02,  -1.64212093e-01,  -1.07545868e-01,
      1.06592931e-01,   1.76519841e-01,  -8.10309052e-02,   3.57050374e-02,
     -6.13982033e-04,  -2.29019057e-02,   1.50345042e-01,   5.15698828e-02],
   [  1.64777502e-01,   2.48960266e-03,  -4.50246423e-01,  -3.06219310e-01,
      3.80793847e-02,  -1.12267070e-01,  -1.34503588e-01,   1.01324916e-01,
     -1.76201940e-01,  -2.61724681e-01,   1.23951674e-01,  -3.63620281e-01,
      7.63500705e-02,   1.02148764e-02,  -2.27913946e-01,  -1.76191777e-02,
     -1.45367831e-02,  -8.18825737e-02,  -1.23092473e-01,  -3.70154865e-02],
   [  2.41914708e-02,  -1.86357573e-01,  -1.73387617e-01,  -3.46347317e-02,
     -3.42484191e-02,  -4.20021266e-02,   1.18726138e-02,   1.22940816e-01,
     -2.16671392e-01,   3.39901745e-02,   1.58923537e-01,  -1.96789175e-01,
     -3.28955688e-02,  -7.64764845e-03,  -1.16754659e-01,  -3.62489074e-02,
      3.51553746e-02,   3.48279417e-01,  -2.86764354e-01,  -1.87792107e-02],
   [ -3.18522632e-01,  -1.63017511e-01,   1.37645587e-01,   3.34380865e-01,
      5.35654556e-03,   5.04375026e-02,  -1.66589379e-01,  -6.41475692e-02,
     -9.56305191e-02,  -8.40111300e-02,   1.36517987e-01,   4.15722094e-02,
      8.09092820e-02,   3.02891172e-02,   5.50357997e-02,  -2.75583714e-01,
     -4.04244542e-01,  -1.08153723e-01,   1.66959204e-02,   5.82065471e-02],
   [  8.09102282e-02,  -4.01424281e-02,   1.44502418e-02,  -4.62839287e-03,
     -3.94628048e-02,  -7.26131201e-02,  -8.10294598e-02,  -2.93502957e-02,
     -3.25610451e-02,   1.95000812e-01,   2.38331556e-02,  -1.03008538e-01,
      1.42454663e-02,   3.04320431e-03,  -9.23366547e-02,  -9.49650779e-02,
     -4.01293896e-02,   3.53057235e-02,  -1.46097243e-01,  -5.39707541e-02],
   [  5.96198030e-02,  -1.31943583e-01,  -7.91174825e-03,   4.08968590e-02,
     -1.22009911e-01,  -9.37574804e-02,  -1.39663741e-01,  -2.00918198e-01,
     -8.36373046e-02,  -1.07530235e-04,   2.00377822e-01,  -5.77280335e-02,
     -1.05013087e-01,   1.72350585e-01,  -3.18987817e-01,  -3.58198467e-03,
      5.92275783e-02,   1.79883242e-01,   1.64985240e-01,  -8.73076990e-02],
   [ -1.26551524e-01,   5.93735464e-03,   5.03303781e-02,   2.80768454e-01,
      4.22933772e-02,  -1.01756759e-01,   1.03702106e-01,  -6.30371571e-02,
     -3.05846222e-02,  -3.90278958e-02,  -1.44893825e-01,  -4.87544425e-02,
      2.53545158e-02,  -2.82734782e-01,  -1.08669989e-01,  -8.74970704e-02,
     -3.00396271e-02,  -1.07943878e-01,  -1.10221030e-02,   1.30012529e-02],
   [  2.66162772e-02,  -2.78435815e-02,  -6.82906806e-02,   1.45353481e-01,
     -3.46824564e-02,   9.23214778e-02,   7.81577080e-02,  -4.18665744e-02,
     -8.85430872e-02,  -9.76499245e-02,  -7.29311183e-02,   1.64168134e-01,
     -1.49004549e-01,  -1.95774212e-02,  -1.10407121e-01,   1.41161144e-01,
      1.85636625e-01,  -1.53409258e-01,  -1.40976876e-01,  -5.52011877e-02],
   [ -1.01351850e-01,  -1.25688449e-01,  -5.34851924e-02,   3.34047489e-02,
     -3.31590548e-02,   3.64800915e-02,   1.15479035e-02,  -6.75316714e-03,
      1.40484825e-01,   1.87634379e-02,  -9.00703073e-02,  -1.94691703e-01,
     -4.10776958e-02,   1.82025254e-01,  -4.56581488e-02,  -1.88596502e-01,
      1.97089016e-01,   6.47135526e-02,   1.78936332e-01,   4.66337614e-02],
   [ -1.35813415e-01,   6.24493212e-02,  -7.90081322e-02,   4.59717989e-01,
     -3.38902473e-02,  -3.56734246e-02,   6.17739744e-02,   1.48189113e-01,
     -5.00480011e-02,   8.14721063e-02,  -9.91947502e-02,  -8.91248807e-02,
     -2.29026788e-04,   1.56710178e-01,  -6.82070106e-02,   1.42706828e-02,
     -9.10612121e-02,   6.96223453e-02,   2.03575380e-02,   6.68528825e-02],
   [ -1.37919858e-02,   7.72110298e-02,  -1.30454570e-01,   6.08671317e-03,
     -7.87505805e-02,  -3.60243246e-02,  -4.06048745e-02,   1.07825808e-01,
      2.20695943e-01,   4.19573439e-03,   5.87127060e-02,   5.17320633e-02,
     -1.81312449e-02,   7.72493007e-03,  -7.57426694e-02,  -4.64876816e-02,
     -8.33247453e-02,  -4.94764298e-02,   2.72160154e-02,   4.55912314e-02],
   [ -1.89882770e-01,  -8.86535272e-03,   1.35990515e-01,  -8.63927901e-02,
      9.72864106e-02,   4.29470986e-02,   1.38452742e-02,  -7.63598680e-02,
     -5.53881712e-02,   6.94542676e-02,   4.07471806e-02,  -4.48646508e-02,
      3.78840789e-02,   8.12734757e-03,  -1.31089702e-01,   1.79525495e-01,
     -1.40280232e-01,   4.90389988e-02,   3.98029620e-03,  -1.14244623e-02],
   [ -1.84403121e-01,  -8.28347653e-02,  -1.61204800e-01,  -2.87914455e-01,
      1.31569535e-01,  -1.54610993e-02,  -1.26685258e-02,   1.44529209e-01,
     -1.82175040e-02,  -2.55725496e-02,  -1.57541379e-01,   1.92560241e-01,
      2.28225291e-02,  -1.86034247e-01,   1.77294597e-01,   1.76172554e-01,
      5.68607710e-02,   2.50676990e-01,   1.57225013e-01,  -7.85967112e-02],
   [  1.83932990e-01,   1.49952218e-01,  -1.29911741e-02,   4.25321937e-01,
     -1.15315318e-01,  -1.59789130e-01,  -6.68722391e-02,  -1.82316914e-01,
     -1.71561956e-01,  -1.45225152e-01,   4.89621609e-02,  -3.27688366e-01,
     -7.03015253e-02,   1.14777863e-01,   1.33832484e-01,  -3.66713363e-03,
     -7.33616129e-02,   6.51500560e-03,   1.23062052e-01,  -2.38910969e-02],
   [ -2.31442545e-02,  -1.44904226e-01,  -1.08580962e-01,  -7.78623372e-02,
     -1.66311823e-02,   1.45804197e-01,   1.30095005e-01,  -9.35065597e-02,
     -1.60143793e-01,  -4.20531407e-02,  -2.59262651e-01,   1.43717349e-01,
     -9.30839870e-03,   6.75389543e-02,   3.01053319e-02,  -1.53434962e-01,
     -3.47051412e-01,   2.41954941e-02,  -2.23637521e-02,   8.05025473e-02],
   [  7.31750801e-02,   9.99010950e-02,   2.24901121e-02,   8.64844248e-02,
     -9.35270190e-02,  -3.42473611e-02,   1.42205432e-01,  -1.37793794e-02,
     -1.32023767e-01,  -1.96287885e-01,  -1.83136597e-01,  -8.19622949e-02,
     -1.30660892e-01,  -1.74210325e-01,  -1.34381622e-01,  -7.76688084e-02,
      1.53812870e-01,   9.72383693e-02,   5.13609163e-02,   1.05512306e-01],
   [  1.28041103e-01,  -1.67702481e-01,  -1.41607106e-01,  -3.61283302e-01,
     -2.97935978e-02,   7.99426585e-02,  -2.20277295e-01,   1.78552851e-01,
     -3.59055363e-02,  -4.12289500e-02,   4.18281227e-01,   1.71469450e-01,
      4.42809686e-02,  -7.30439946e-02,   4.39511798e-02,  -1.84020728e-01,
     -7.72240683e-02,   2.24494323e-01,   1.02526722e-02,  -2.55005574e-03],
   [ -1.35480925e-01,  -8.40929374e-02,  -2.03053236e-01,  -1.56679347e-01,
      2.01613158e-02,  -3.82766314e-02,  -1.68707952e-01,  -5.63930832e-02,
      9.50024799e-02,   3.36384065e-02,   1.25775784e-01,   3.04945465e-02,
      9.10155028e-02,  -1.64178416e-01,   4.69380571e-03,  -1.13348648e-01,
     -1.24435082e-01,   2.75752041e-02,  -1.20505400e-01,  -4.50436547e-02],
   [  8.88016373e-02,  -9.69741195e-02,  -2.92491704e-01,   2.19557285e-01,
     -9.98704210e-02,  -7.35550150e-02,   1.65722687e-02,  -1.11261709e-03,
      8.84557739e-02,  -4.71065082e-02,  -3.66752595e-01,  -3.25464189e-01,
      1.28801614e-01,  -2.56061517e-02,   1.83179498e-01,  -1.83628907e-03,
     -7.79930726e-02,  -1.41102269e-01,   9.61753801e-02,   2.21011057e-01],
   [ -8.36948156e-02,  -1.99294701e-01,  -1.36454245e-02,  -1.59961477e-01,
     -2.26763412e-02,   3.21181007e-02,  -1.89071879e-01,   1.78802788e-01,
     -7.61986002e-02,   1.36859506e-01,  -2.86961943e-02,  -3.12764585e-01,
     -1.61841974e-01,   5.30877337e-02,   1.26379011e-02,  -8.23055431e-02,
      2.37330683e-02,  -6.08775541e-02,  -5.26627265e-02,  -2.47182876e-01],
   [ -7.68449344e-03,  -1.62852183e-02,  -1.18835224e-02,  -8.11265036e-02,
      2.94696167e-02,   1.65781677e-02,  -1.89554363e-01,  -3.81641239e-02,
      6.02104031e-02,  -3.26707512e-02,  -1.53081072e-02,  -9.91443731e-03,
      5.03099225e-02,   7.28310049e-02,   4.84509906e-03,  -5.18690981e-02,
      6.65285438e-02,   1.25409998e-02,  -1.14826463e-01,   3.19551863e-02],
   [  4.53423848e-03,   2.12270573e-01,  -1.99194312e-01,   7.11752940e-03,
      8.91012624e-02,   3.09454650e-02,  -2.70780087e-01,   1.33117467e-01,
      1.56459734e-01,  -2.91447956e-02,  -1.77801728e-01,  -2.94273227e-01,
     -1.75549701e-01,   1.51678413e-01,  -1.85096860e-01,  -1.20003030e-01,
      2.01946139e-01,  -5.47372438e-02,  -1.48783609e-01,  -2.09812075e-01],
   [  9.67356190e-02,   1.16629101e-01,   2.23390371e-01,  -6.62798807e-03,
      8.13171715e-02,  -3.61188836e-02,   2.47713193e-01,  -3.37311178e-01,
      2.52375782e-01,   1.66633487e-01,  -2.12865591e-01,  -1.47787347e-01,
      6.29890561e-02,   4.46992591e-02,  -2.62579978e-01,   1.21087730e-01,
      1.20468706e-01,  -1.74889520e-01,   1.12920947e-01,  -1.26183644e-01],
   [  5.72229177e-03,  -1.04361348e-01,  -1.40154241e-02,   7.53828045e-03,
     -6.32544011e-02,  -1.00840470e-02,   3.47935557e-02,  -7.47787729e-02,
      3.19745317e-02,  -1.84082583e-01,  -6.29157573e-02,   7.14602247e-02,
      1.04337759e-01,   9.79473162e-03,  -1.60349742e-01,   1.00090116e-01,
     -5.10230102e-02,  -1.32994294e-01,   8.36685598e-02,  -5.22923768e-02],],

  [[ -3.34596872e-01,   1.51153669e-01,  -1.43717408e-01,  -5.18583544e-02,
      1.29547179e-01,   1.65860221e-01,  -3.38066161e-01,   3.69285680e-02,
      1.29733190e-01,   4.93752770e-02,  -4.74133305e-02,  -2.52771735e-01,
     -1.76315516e-01,  -1.84045449e-01,  -7.83884451e-02,   2.77910799e-01,
      1.36541963e-01,   2.42939889e-02,  -1.54076926e-02,  -6.96566841e-03],
   [ -1.71619374e-02,  -1.27722174e-01,  -1.07336245e-01,  -9.97837186e-02,
      2.03767214e-02,  -4.23707888e-02,  -1.88395847e-02,  -4.36301082e-02,
     -2.99490839e-01,  -6.02701381e-02,  -3.16865146e-02,  -4.07264717e-02,
     -3.79358381e-02,   7.38428086e-02,   1.06855184e-01,   3.44045125e-02,
      1.44472755e-02,   2.41541322e-02,  -7.33457580e-02,  -2.42732000e-02],
   [  5.41890934e-02,   2.85097249e-02,  -1.08387731e-01,   9.65555608e-02,
     -9.30732712e-02,   4.57456410e-02,   1.80998400e-01,   3.43178809e-02,
     -2.38172524e-02,  -6.25603423e-02,  -1.16284944e-01,  -1.51783913e-01,
     -5.69194630e-02,   1.32963091e-01,  -7.50210807e-02,   3.60376686e-02,
      8.42738450e-02,  -5.53595088e-02,  -3.16810189e-03,   1.80102812e-04],
   [  6.28782809e-02,  -9.83067155e-02,  -8.55640024e-02,   1.13467395e-01,
     -8.67518410e-02,  -1.91752184e-02,  -2.12556735e-01,  -1.55537399e-02,
      1.63206413e-01,  -1.29239142e-01,  -8.45844075e-02,   2.16893792e-01,
     -5.10842279e-02,   1.24585656e-02,  -6.18889481e-02,  -1.06355101e-01,
      1.17518455e-01,  -1.46531239e-01,  -9.17795002e-02,  -4.74717133e-02],
   [  1.24330290e-01,  -1.71689302e-01,  -3.11696753e-02,   4.35162038e-02,
     -6.85486868e-02,   7.20592448e-03,   1.78225022e-02,  -9.03857723e-02,
      1.86382625e-02,   3.98564599e-02,  -1.05778828e-01,   6.51604608e-02,
      6.19805567e-02,   1.18242070e-01,  -5.65055944e-02,  -1.03845105e-01,
     -1.09992847e-01,   2.08449084e-02,   1.39720198e-02,  -5.69166876e-02],
   [  1.69990465e-01,   1.34093106e-01,  -4.46896860e-03,  -7.11273327e-02,
      6.73163533e-02,  -1.91960465e-02,   1.17733411e-01,  -1.70580044e-01,
      5.43972291e-02,  -2.30542839e-01,  -6.54287115e-02,   1.06768504e-01,
     -7.47507587e-02,   2.94032618e-02,  -1.16697475e-01,  -1.38135284e-01,
      4.23455611e-02,  -1.24550894e-01,   2.59977151e-02,  -6.55630007e-02],
   [  9.83996838e-02,  -1.09395340e-01,  -1.00013604e-02,  -9.03791636e-02,
     -2.23447103e-02,   9.71087348e-03,  -1.56620696e-01,  -6.69927243e-03,
     -8.31581578e-02,  -1.77358836e-02,  -7.98170567e-02,  -1.59078151e-01,
     -7.21064508e-02,   5.80026247e-02,  -2.45703431e-03,  -1.20557271e-01,
     -2.29096338e-01,  -8.62613097e-02,  -6.44860789e-02,   6.55008852e-03],
   [ -9.30130482e-03,   1.31728770e-02,  -1.65055059e-02,  -1.92212593e-02,
     -3.54369693e-02,   1.23148836e-01,   1.80038139e-02,  -2.66863052e-02,
     -1.98550403e-01,  -1.10632844e-01,   6.27139136e-02,  -1.60761550e-01,
     -2.14179493e-02,   2.11544946e-01,  -6.69305325e-02,   2.27688566e-01,
     -1.14798501e-01,  -1.19893558e-01,  -3.20248187e-01,   1.82131276e-01],
   [ -4.20575887e-02,   4.90736514e-02,  -1.38741612e-01,  -1.04042642e-01,
     -1.89437475e-02,  -1.08375669e-01,  -5.16435225e-03,  -9.88373756e-02,
     -2.02310145e-01,  -9.33537409e-02,  -3.75486225e-01,  -7.40448618e-03,
      8.01759493e-03,  -1.00436434e-01,  -2.33102605e-01,   4.14377004e-02,
     -1.44337669e-01,  -6.50881305e-02,   5.10907620e-02,  -1.34851143e-01],
   [  9.94665250e-02,   4.55322675e-02,  -1.93842262e-01,  -1.71467602e-01,
      4.18853201e-03,  -1.24991827e-01,   3.57409418e-02,   4.81907688e-02,
     -1.74608722e-01,  -2.30111536e-02,   4.84309457e-02,  -2.11889639e-01,
      6.86035454e-02,   2.48318054e-02,  -2.88561974e-02,   1.08687408e-01,
      1.20128833e-01,  -4.37347889e-02,  -6.65884232e-04,  -3.32803465e-02],
   [ -3.15874210e-03,  -8.36310014e-02,   3.56130190e-02,  -1.36624537e-02,
     -3.27488258e-02,  -5.94348535e-02,  -1.62640125e-01,   4.44437042e-02,
     -9.27964970e-02,   9.10291299e-02,  -1.58227265e-01,  -2.02902835e-02,
     -1.34965340e-02,  -3.17410640e-02,   8.21833778e-03,  -1.10533312e-01,
     -5.65801039e-02,   7.30577111e-02,  -2.78596073e-01,  -1.63813159e-02],
   [  2.61242432e-03,  -8.61798972e-02,  -4.41729538e-02,   5.17075658e-02,
     -1.70530677e-01,  -5.19859232e-02,  -1.58210412e-01,   4.84596342e-02,
      3.99987102e-02,  -1.49997830e-01,  -4.26111259e-02,   1.40441164e-01,
      1.12522885e-01,   1.52587101e-01,   1.50403315e-02,  -7.44173825e-02,
     -1.73252717e-01,  -1.66608021e-01,   3.07230130e-02,   6.56674057e-02],
   [  5.11303917e-02,   9.69255250e-03,  -4.88755759e-03,   4.40066457e-02,
      1.05386963e-02,  -2.14203745e-02,  -2.79986084e-01,  -2.16537397e-02,
      8.70292336e-02,  -2.90900860e-02,  -6.05977746e-03,   3.51571105e-02,
      4.18403186e-02,   1.92072559e-02,   1.47805121e-02,   3.90038826e-03,
      5.66299818e-03,  -4.93566319e-02,   8.06616712e-03,   2.44713165e-02],
   [  4.45329696e-02,   8.57708231e-02,  -6.04228526e-02,   6.87123789e-03,
     -4.03286740e-02,   5.64412102e-02,  -2.93204397e-01,  -7.69400150e-02,
     -1.01930939e-01,  -1.02521047e-01,   4.56031933e-02,  -5.19353636e-02,
     -1.54940160e-02,  -1.20575055e-01,   1.04775406e-01,   9.07602813e-03,
      4.32397202e-02,  -1.67846739e-01,   5.40529117e-02,   9.27776378e-03],
   [  3.35557610e-02,   2.19346192e-02,   6.12003803e-02,   1.25136018e-01,
     -9.06431004e-02,   3.83345820e-02,   3.16009633e-02,   6.57327333e-03,
     -1.46193579e-01,  -1.53391898e-01,  -3.30956876e-02,   1.13485903e-02,
      9.11619700e-03,   7.66556039e-02,  -1.21606730e-01,  -3.63389626e-02,
     -2.46132892e-02,   2.52281964e-01,   5.35098240e-02,   1.35225616e-02],
   [ -5.05049750e-02,  -2.51480732e-02,  -7.93157369e-02,   8.94120410e-02,
     -1.27639443e-01,  -8.16652253e-02,   1.24739073e-02,  -2.96043288e-02,
      8.08228403e-02,  -7.80308153e-03,  -1.24180287e-01,   4.67615649e-02,
     -7.29123130e-02,  -4.96096313e-02,  -5.25818765e-02,   1.27814665e-01,
     -2.28983313e-01,  -6.25490025e-02,   6.02798862e-03,  -1.19284764e-01],
   [ -1.28478587e-01,  -3.73991504e-02,   1.32191405e-01,   9.30269063e-02,
     -4.49567810e-02,  -6.70056499e-04,  -7.34187886e-02,   2.67932005e-02,
     -4.47849259e-02,   1.94769129e-02,  -2.13801816e-01,  -1.45960599e-01,
     -1.24958426e-01,   2.92496562e-01,  -6.92513362e-02,  -7.14594126e-02,
     -2.23473534e-02,  -1.79129645e-01,  -2.36297939e-02,   1.44835249e-01],
   [  6.15165010e-03,   7.40761161e-02,  -9.55329314e-02,  -2.46560909e-02,
      2.21117232e-02,   4.36490327e-02,   8.39446932e-02,   4.02731299e-02,
     -3.73690762e-02,  -3.06235570e-02,  -9.33316797e-02,   3.44821393e-01,
      2.42946036e-02,   9.07919034e-02,   1.51282351e-03,   6.82487041e-02,
     -3.12838657e-03,   2.62177158e-02,   7.88641870e-02,   1.43194303e-01],
   [  1.09655894e-01,  -7.12405443e-02,  -1.37040272e-01,   1.65945366e-01,
     -4.52304706e-02,   4.53224685e-03,   1.77185893e-01,  -4.83471677e-02,
     -1.63505692e-02,  -3.00174560e-02,   9.16650333e-03,   8.18929002e-02,
     -6.98814914e-02,  -1.74978554e-01,  -2.33587455e-02,  -2.86125600e-01,
      3.52308154e-02,   5.04309405e-03,  -2.36790441e-02,  -1.82838421e-02],
   [  1.48385406e-01,   1.65285021e-01,   1.60860419e-01,   6.62265196e-02,
      2.33451109e-02,   1.34160906e-01,  -1.80616036e-01,  -1.51931688e-01,
     -6.55247793e-02,   9.38965902e-02,   3.23698074e-02,  -3.92620303e-02,
     -5.24857752e-02,  -6.07212968e-02,   2.15125512e-02,   8.94890353e-02,
     -1.32648304e-01,  -1.24707200e-01,   1.15157425e-01,  -6.46506101e-02],
   [ -4.65084091e-02,  -6.49185404e-02,   5.44309691e-02,  -3.72631960e-02,
     -3.37300673e-02,  -6.11520074e-02,   6.11977093e-02,   8.37349370e-02,
     -2.14613721e-01,   6.20785058e-02,  -1.18880950e-01,   9.06989872e-02,
     -5.92858195e-02,  -9.90945101e-02,   9.01152045e-02,   9.46215913e-02,
      2.00007945e-01,   1.25045598e-01,  -1.94419697e-01,  -7.77185410e-02],
   [ -1.69696391e-01,  -1.06491812e-01,   9.82161090e-02,  -1.31106347e-01,
      3.57926488e-02,  -3.70767675e-02,   9.57849175e-02,  -1.58944353e-01,
     -2.35300407e-01,  -8.05443972e-02,  -1.19821347e-01,  -3.28495771e-01,
     -2.85943523e-02,  -6.13455959e-02,  -3.34978998e-02,  -3.19540501e-02,
     -5.66785485e-02,  -7.04420507e-02,   1.47923604e-01,   2.28299618e-01],
   [ -4.37566303e-02,  -2.22957768e-02,   8.30428898e-02,  -7.78612792e-02,
      1.62283443e-02,   7.43864924e-02,   2.11934924e-01,  -2.84654826e-01,
      2.82641858e-01,   1.41109183e-01,  -1.38595015e-01,  -8.29805508e-02,
     -1.25000421e-02,  -1.83379073e-02,  -2.01358553e-02,  -2.40145445e-01,
     -2.04608709e-01,  -9.72527489e-02,   5.81847653e-02,  -7.51200318e-02],
   [ -1.81055404e-02,   4.84839045e-02,  -2.13509724e-02,   2.03559063e-02,
      4.79704775e-02,   1.23115480e-01,  -6.06550127e-02,  -9.50436518e-02,
      8.29209536e-02,  -8.98574665e-02,   1.58234373e-01,  -2.46547349e-02,
     -1.27145484e-01,   2.09226608e-02,  -1.45347174e-02,  -2.94557493e-02,
      1.29231915e-01,   2.43170839e-02,  -3.47403698e-02,  -8.88214856e-02],
   [ -2.98422486e-01,  -1.50425479e-01,   1.64018851e-02,  -9.08879265e-02,
      5.90392426e-02,  -1.57646969e-01,  -1.14373654e-01,  -1.11087315e-01,
     -3.91660035e-01,  -1.16207831e-01,   2.99124181e-01,   9.85315815e-02,
     -2.02586755e-01,  -9.11628753e-02,   8.49986672e-02,   2.02889308e-01,
      3.16804461e-02,  -3.28621008e-02,   2.33447462e-01,  -3.38138901e-02],
   [ -1.50310799e-01,   2.15617090e-01,  -7.11227357e-02,   7.74848238e-02,
      6.04895838e-02,   7.26587176e-02,  -1.15228653e-01,  -2.88140494e-02,
     -1.41927391e-01,   1.16771616e-01,  -3.99829075e-02,   1.19092874e-02,
      8.76258686e-02,  -8.02487582e-02,  -1.53245881e-01,   5.13025858e-02,
     -3.10322400e-02,  -8.56959261e-03,  -3.49440388e-02,  -4.22168477e-03],
   [ -1.86986253e-01,  -1.73876673e-01,  -1.36376470e-02,   1.15462705e-01,
     -6.70285150e-02,  -3.72546054e-02,  -3.45322257e-03,   3.33558358e-02,
     -1.90934800e-02,   6.54315874e-02,   1.22113250e-01,   5.19780852e-02,
      5.70332184e-02,  -3.18485312e-02,  -1.38296923e-02,   8.55237525e-03,
      8.27952623e-02,  -1.41905591e-01,   4.57062274e-02,  -1.08808756e-01],
   [  9.61690098e-02,  -2.53945351e-01,   9.59463120e-02,   5.57480892e-03,
     -3.23093683e-02,  -8.19779094e-03,  -4.01866622e-02,  -4.56593484e-02,
      4.15692069e-02,  -1.93279888e-02,  -1.57694668e-01,   1.66372934e-04,
      5.51049374e-02,  -1.64442465e-01,  -8.03927239e-03,   7.36287087e-02,
      2.75244534e-01,   2.96581462e-02,  -3.34197022e-02,  -7.65355676e-02],
   [ -1.31220380e-02,   1.10479929e-01,   1.16301641e-01,   1.00562267e-01,
      1.25569433e-01,  -1.71314236e-02,  -2.18498595e-02,   3.79808731e-02,
     -1.86587915e-01,  -7.21959770e-02,  -3.36293951e-02,   1.12569198e-01,
      4.81580868e-02,   5.53570464e-02,   7.03719929e-02,   6.95950761e-02,
     -9.35292169e-02,   7.91804567e-02,  -3.34853269e-02,   5.87691665e-02],
   [ -6.49870187e-02,   7.84076750e-02,  -1.60582945e-01,  -4.99146879e-02,
      1.34500759e-02,  -2.98002958e-02,  -1.93308502e-01,  -9.69274491e-02,
      1.38816029e-01,  -1.55602479e-02,   1.50640532e-02,  -3.71901721e-01,
     -1.34258837e-01,   2.75813997e-01,   1.32503211e-01,  -1.79361477e-01,
     -1.50944141e-03,   1.85599446e-01,   7.49389753e-02,  -1.73129186e-01],
   [  7.33704958e-03,   6.88443854e-02,   2.96496749e-02,   2.75574774e-01,
     -2.62837466e-02,   3.49113606e-02,   2.86123455e-01,  -4.68151793e-02,
     -8.18800367e-03,   1.76860690e-01,   6.40218034e-02,   2.19285470e-02,
     -7.39565268e-02,   7.29125179e-03,  -1.07416732e-03,   4.17431742e-02,
     -5.89822754e-02,  -1.09898761e-01,   1.34968653e-01,   6.66889772e-02],
   [  4.27793488e-02,  -2.01104760e-01,   1.49456663e-02,  -1.54808432e-01,
     -7.77546375e-04,  -1.33431945e-02,  -7.52007291e-02,  -6.25822917e-02,
      9.59448665e-02,  -2.46469378e-02,   4.58091088e-02,  -1.91895459e-02,
      1.88982546e-01,   6.71985000e-03,   5.12861600e-03,  -1.14131026e-01,
     -7.89415985e-02,   7.78827965e-02,   2.09615931e-01,   2.57624779e-02],],

  [[ -4.15364206e-01,   1.18146643e-01,  -6.20725080e-02,  -9.02041420e-02,
      3.55168879e-02,   1.81220863e-02,  -1.18725952e-02,   6.95880130e-02,
      3.28363553e-02,  -1.16547972e-01,  -1.35510579e-01,  -3.03104132e-01,
     -1.75184384e-02,  -1.83013901e-02,   3.80349420e-02,  -7.15874583e-02,
     -7.06822500e-02,   5.25017045e-02,  -1.87776182e-02,  -3.71787995e-02],
   [  2.79469676e-02,  -1.24934509e-01,  -1.56062376e-02,  -1.06305167e-01,
     -1.25233039e-01,   6.77064434e-02,  -1.56994909e-01,   1.46861523e-02,
     -2.58079022e-01,  -5.07884547e-02,  -6.35991171e-02,  -9.95347500e-02,
      8.49532522e-03,  -1.73967481e-01,   1.52779102e-01,  -1.02575377e-01,
     -1.30773932e-01,  -7.96563644e-03,  -1.46628737e-01,  -3.02406009e-02],
   [ -5.81388623e-02,   9.22266319e-02,  -4.24114801e-02,  -4.98525836e-02,
      7.94912428e-02,   1.14495859e-01,  -5.36098108e-02,   1.71481594e-02,
      2.49970760e-02,  -7.13136271e-02,  -6.27423897e-02,  -1.92468211e-01,
     -4.19690534e-02,   1.67198002e-01,  -5.22444956e-02,   5.81646226e-02,
      1.13365769e-01,  -6.20715767e-02,  -4.50061401e-03,  -6.99719265e-02],
   [  2.54666507e-02,   5.17068729e-02,   1.85759626e-02,   4.53517698e-02,
     -4.14434075e-02,   1.17595971e-03,  -6.39066920e-02,  -3.96380834e-02,
     -2.60716289e-01,  -2.71154027e-02,  -3.22904363e-02,   4.85827960e-02,
      5.82929179e-02,  -2.69059330e-01,  -5.74357957e-02,  -8.23834762e-02,
     -9.38352942e-02,  -1.53476134e-01,  -1.05360210e-01,  -3.35671268e-02],
   [ -1.95069592e-02,  -1.40730545e-01,  -1.42996401e-01,  -5.97128049e-02,
      2.74914014e-03,   7.29275271e-02,  -7.28558153e-02,  -6.36962568e-03,
      9.69165638e-02,   8.77151862e-02,  -8.86825323e-02,  -9.20747295e-02,
      8.35542306e-02,   8.95638317e-02,  -6.72803540e-03,  -1.41516641e-01,
     -1.24199629e-01,  -2.10354879e-01,  -1.22936442e-01,  -2.41783500e-01],
   [  8.90131891e-02,   1.65326566e-01,  -8.19486082e-02,  -5.46194129e-02,
      6.43123165e-02,  -8.26957524e-02,   2.41403896e-02,  -9.97412875e-02,
      3.71902026e-02,   1.23188943e-01,   1.09932430e-01,  -2.97699362e-01,
      2.60122791e-02,   8.37930962e-02,  -7.71414414e-02,  -4.37727347e-02,
      7.22759264e-03,  -2.04413041e-01,  -3.75794508e-02,  -2.36051790e-02],
   [ -1.47148385e-03,   5.58034033e-02,  -1.82348475e-01,  -1.98153347e-01,
      2.80484464e-02,   8.45969394e-02,  -4.01212387e-02,   3.88297699e-02,
     -7.14422017e-02,  -7.62336403e-02,  -9.36571509e-02,  -1.12043433e-01,
     -8.08396563e-03,  -2.44091600e-01,  -7.13271648e-02,  -1.81219578e-01,
     -8.84348303e-02,  -2.16786601e-02,   1.25042126e-01,   1.07633241e-01],
   [  8.00680518e-02,  -9.50572491e-02,  -5.88965043e-02,  -4.97540623e-01,
     -6.59763115e-03,  -6.00892678e-02,  -4.33591381e-02,   6.89278170e-02,
      9.13177654e-02,   8.46646503e-02,  -3.09890620e-02,  -2.60466605e-01,
     -1.22644298e-01,   1.11063533e-02,   9.29273814e-02,   1.95227996e-01,
     -1.42795041e-01,  -1.01473639e-02,  -3.25583667e-03,  -5.95673062e-02],
   [  1.06260739e-01,  -1.39482036e-01,  -2.97093153e-01,  -2.59054713e-02,
     -3.16442996e-02,   1.80371031e-02,  -1.26712888e-01,  -1.80620298e-01,
      5.49735464e-02,   8.85429904e-02,  -2.34873474e-01,   2.73143630e-02,
     -2.49072984e-02,  -5.50744832e-01,   2.58259475e-03,   1.12067804e-01,
      5.10569550e-02,  -6.41045719e-02,   1.09209955e-01,   6.86356351e-02],
   [ -4.24123183e-02,   1.85273122e-02,  -1.28686950e-01,  -2.40199193e-01,
     -1.14148781e-01,   1.68146621e-02,  -3.05966675e-01,   1.25544071e-01,
     -2.43117660e-01,  -1.65541023e-01,   3.34704434e-03,  -3.11663061e-01,
      4.76246253e-02,  -9.62851271e-02,   2.92438958e-02,  -5.23835421e-02,
     -1.19695209e-01,   4.67330627e-02,   1.07746728e-01,  -7.39867240e-02],
   [  1.77991644e-01,  -1.14734501e-01,   4.98794541e-02,  -2.48467922e-02,
     -1.99709162e-02,  -7.41010979e-02,  -9.27095339e-02,   1.05666108e-01,
      7.62774274e-02,   1.19127564e-01,   1.03550600e-02,   9.53894705e-02,
     -7.52566457e-02,  -8.88105184e-02,   2.05927998e-01,  -1.07604526e-02,
     -1.66831553e-01,  -9.13638100e-02,  -1.44082576e-01,  -1.48147464e-01],
   [ -5.46979606e-02,   9.65287313e-02,   7.49773234e-02,   1.64241627e-01,
     -2.72759497e-02,  -8.50476772e-02,  -1.08183630e-01,  -1.46500422e-02,
      3.14541645e-02,  -1.31574005e-01,  -7.85170570e-02,  -1.09488696e-01,
      2.91976910e-02,  -1.48923680e-01,   2.61127949e-02,  -1.67361319e-01,
      5.98006845e-02,  -2.54830539e-01,  -3.93449962e-02,  -3.31044458e-02],
   [  2.97326241e-02,   5.52928858e-02,  -2.98366323e-02,   9.84907988e-03,
     -3.98511998e-02,  -1.77942757e-02,   1.24270283e-01,   2.71127950e-02,
     -6.66439310e-02,  -3.64711918e-02,   5.94362756e-03,  -2.09685713e-01,
      2.67104572e-03,  -5.21708690e-02,   1.39417201e-01,  -2.71069410e-04,
      1.74315870e-02,  -2.56826840e-02,  -3.35262045e-02,  -3.20226550e-02],
   [ -3.11509728e-01,  -6.51341081e-02,  -9.30247977e-02,   1.97459444e-01,
     -1.98392197e-01,  -6.70302808e-02,  -2.60680497e-01,   2.16262136e-02,
     -4.58641708e-01,  -5.34551069e-02,   1.22965477e-01,   2.09876120e-01,
      4.70404737e-02,  -3.82031053e-01,  -1.56464800e-02,   3.42617631e-02,
      5.71834669e-02,  -2.67756283e-01,   1.29768476e-01,   2.46617589e-02],
   [  5.80535047e-02,   2.62245145e-02,  -4.35718969e-02,   4.69758064e-01,
      3.26732881e-02,  -3.40218395e-02,  -1.64405435e-01,  -7.40277627e-03,
      1.65606663e-01,   2.00900398e-02,   5.83497472e-02,  -1.92458078e-01,
     -2.58967597e-02,   5.86276548e-03,   2.14114785e-02,  -6.22609593e-02,
      1.32452846e-01,   1.95742160e-01,  -5.34637570e-02,  -1.14550307e-01],
   [ -2.20066026e-01,  -7.52968192e-02,  -2.00934067e-01,   9.75949615e-02,
     -2.32123002e-01,  -4.96320203e-02,  -1.30781916e-03,   1.73349176e-02,
      1.15229540e-01,  -8.71922821e-02,   6.65085763e-02,  -4.12618786e-01,
     -7.45870769e-02,   7.20475838e-02,  -3.28186620e-03,   8.57786760e-02,
     -8.57468396e-02,  -3.05352539e-01,  -5.99285960e-02,  -7.72867724e-02],
   [ -5.58718890e-02,  -1.40799358e-01,   4.51089367e-02,  -1.03257308e-02,
      1.04031555e-01,   8.14211965e-02,  -7.37310871e-02,  -1.45364422e-02,
      4.82130349e-02,  -1.29313186e-01,   4.89673950e-02,  -9.07802731e-02,
     -7.83711076e-02,   2.45443478e-01,  -4.72298451e-02,  -6.01386018e-02,
     -1.65245444e-01,  -1.68579295e-01,   2.09564134e-01,  -1.37391225e-01],
   [  1.31675884e-01,   8.62529948e-02,  -1.17674932e-01,   1.81554988e-01,
     -9.20396578e-03,   1.95341725e-02,  -1.66809820e-02,  -1.80398032e-01,
     -1.17898926e-01,  -6.85962737e-02,  -2.01856866e-01,   2.12800324e-01,
      5.71519695e-02,   1.38280705e-01,   1.10905737e-01,   1.75098106e-01,
      6.18862584e-02,   2.35283319e-02,   1.27395689e-02,  -3.37790400e-02],
   [  4.55186479e-02,   8.79112855e-02,  -2.14619637e-01,  -2.82800086e-02,
      9.42830369e-02,   9.24829021e-02,   6.87685683e-02,  -3.92559469e-02,
      6.28332794e-02,  -4.36721258e-02,   5.83769083e-02,  -4.30977046e-02,
     -5.31178489e-02,  -1.63774043e-01,   1.00026824e-01,  -1.46261370e-02,
      4.88238223e-02,  -2.36309558e-01,  -1.39971718e-01,   1.03654064e-01],
   [  2.74516791e-01,   1.06694819e-02,   1.35334566e-01,  -2.49218922e-02,
      1.47595838e-01,   3.16355756e-04,   4.19503957e-01,  -7.31596202e-02,
     -1.62921563e-01,  -1.04842931e-01,  -1.35573302e-03,   5.13747334e-02,
      6.27464727e-02,   2.90710814e-02,   3.33484076e-02,   4.60146517e-02,
     -1.08093888e-01,  -1.35220036e-01,   7.68429488e-02,  -1.06422432e-01],
   [ -1.22206666e-01,   1.49128482e-01,   1.50205597e-01,  -9.50370356e-03,
      9.67688672e-03,   1.10872760e-01,   4.45259213e-02,  -2.61822599e-04,
     -2.60723531e-01,   2.63505057e-03,  -1.71481133e-01,  -8.49504694e-02,
     -1.15085244e-01,   4.26249672e-03,   7.45260119e-02,  -7.90297613e-02,
      1.74514219e-01,   3.33226681e-01,   1.94033142e-02,  -1.17062675e-02],
   [ -3.26210499e-01,  -8.12720805e-02,  -1.58593088e-01,   5.04276276e-01,
      1.40639737e-01,  -6.44578040e-02,  -9.68691483e-02,  -2.39619240e-01,
     -9.07604471e-02,  -9.90552157e-02,   1.15764819e-01,  -4.11070824e-01,
      2.37638876e-03,  -1.33590907e-01,  -6.91259801e-02,   7.09356833e-03,
      3.42519656e-02,   9.28829387e-02,  -9.31865275e-02,  -1.87442780e-01],
   [ -2.21203998e-01,  -1.50243100e-02,  -5.90788536e-02,  -4.02247608e-02,
      2.79982993e-03,  -2.61788983e-02,   4.46479589e-01,  -7.44146258e-02,
      2.01587915e-01,  -4.71199974e-02,   1.77744418e-01,  -3.14996988e-02,
      1.13674507e-01,  -3.18983704e-01,   1.05662160e-01,   2.48135757e-02,
      5.35250939e-02,  -1.72287613e-01,   1.42753139e-01,   1.27008660e-02],
   [ -8.50986540e-02,   7.61091188e-02,  -1.25837605e-02,  -6.59312606e-02,
      6.86699152e-02,   1.48604512e-01,  -1.19088784e-01,  -5.65971024e-02,
     -1.57514270e-02,   2.09300779e-02,   1.57145597e-02,  -2.68181652e-01,
     -5.11068031e-02,  -2.02405937e-02,   1.89086556e-01,   8.29684287e-02,
      9.53703746e-03,   1.27764449e-01,   3.82258072e-02,  -1.89985901e-01],
   [  4.53587435e-02,   3.23698521e-01,  -1.65159196e-01,  -1.60977513e-01,
     -6.35841489e-03,  -3.25953886e-02,  -7.92539269e-02,  -3.97948846e-02,
      1.78714067e-01,   2.32123267e-02,  -1.40348971e-01,  -1.21263852e-02,
     -1.60884589e-01,  -1.47308901e-01,  -1.47770047e-01,  -8.10302123e-02,
      4.75871637e-02,   7.28584081e-02,  -1.46902233e-01,  -1.64899379e-01],
   [ -1.38886586e-01,   1.52781755e-01,  -1.81986578e-02,  -4.85139154e-02,
      3.32461409e-02,   1.60628825e-01,   2.50017624e-02,   1.10056564e-01,
      7.19037876e-02,   1.10856269e-03,   1.62891477e-01,   8.87920558e-02,
      2.93682907e-02,  -2.80044913e-01,  -8.59882981e-02,  -8.91073123e-02,
      3.52145806e-02,  -1.48770973e-01,   1.02282539e-01,  -3.78045775e-02],
   [ -2.28667915e-01,   5.90659492e-03,  -1.67176053e-01,  -1.25996470e-01,
      7.60948658e-03,  -2.83636719e-01,  -1.54549316e-01,  -7.72270709e-02,
     -6.31339177e-02,  -1.11383619e-02,  -9.23009887e-02,   1.46156669e-01,
     -2.23664269e-02,  -1.13507681e-01,   2.96477471e-02,  -6.39311001e-02,
      1.26874477e-01,  -8.37095082e-02,  -3.95479798e-02,  -1.54983580e-01],
   [ -8.83313566e-02,  -2.34106675e-01,  -7.99719617e-02,  -1.07992157e-01,
     -2.72365492e-02,   1.51416674e-01,  -7.46997818e-02,  -4.40726355e-02,
      6.28344715e-02,  -5.08040329e-03,   7.00204214e-03,   4.96666320e-02,
     -9.94830877e-02,   1.24062493e-01,  -1.00564964e-01,  -2.23446302e-02,
      1.92630619e-01,   1.69136181e-01,   2.90890168e-02,  -1.17186435e-01],
   [ -1.50969788e-01,  -2.75852550e-02,  -1.82971284e-02,  -1.04757033e-01,
     -3.51890782e-03,   3.44476290e-02,   1.47189414e-02,   4.69856746e-02,
      2.29034610e-02,   6.45522997e-02,  -5.54550886e-02,  -2.00927854e-01,
      2.46144123e-02,  -4.98476662e-02,   6.96840435e-02,   2.02716179e-02,
     -6.56781569e-02,   3.49642932e-01,   9.96183138e-03,  -1.11081518e-01],
   [ -1.71746403e-01,   4.32854518e-02,  -1.52379990e-01,  -5.63718453e-02,
     -1.55971572e-01,  -2.26288661e-01,   4.07271981e-02,  -1.78583652e-01,
      3.75498682e-02,   1.89939607e-02,  -9.60234180e-02,  -3.81516397e-01,
     -2.03502342e-01,   1.01003751e-01,   4.20839727e-01,   1.09765411e-03,
     -1.09838091e-01,  -2.28211656e-02,   1.12706274e-01,  -1.29355028e-01],
   [  1.71432998e-02,  -6.11758977e-03,  -3.51833738e-02,   2.20473371e-02,
      7.66511932e-02,   6.82375357e-02,   2.86598206e-02,  -6.23079343e-03,
      1.34586647e-01,  -1.96295008e-02,   2.09961683e-01,  -6.11463282e-03,
     -1.57231316e-01,  -2.77407080e-01,   1.88149456e-02,   3.90877910e-02,
     -6.93346038e-02,  -5.69657311e-02,   2.83904783e-02,   6.08747900e-02],
   [ -1.61658391e-01,  -1.69594690e-01,   9.84520558e-03,  -1.61283523e-01,
     -4.12394875e-04,   9.90330130e-02,   2.48203278e-02,   2.42381338e-02,
     -7.30718486e-04,   4.04053666e-02,   4.89765741e-02,  -5.96212409e-02,
      6.25926554e-02,   4.57177013e-02,  -1.96082518e-03,   2.55355728e-03,
     -1.39268890e-01,   7.56647512e-02,  -1.14571147e-01,   5.37022293e-01],],

  [[ -2.06794664e-01,  -8.81769732e-02,  -2.65066862e-01,  -1.70870751e-01,
     -3.18386331e-02,   4.84921411e-02,  -6.67188875e-03,   7.60158524e-02,
      8.60002451e-03,   7.09958896e-02,  -1.01643607e-01,   9.60424244e-02,
     -1.25782207e-01,   2.18802735e-01,  -1.92416593e-01,  -2.34542862e-02,
      6.26004040e-02,   1.85779277e-02,  -6.60845265e-02,   4.60201874e-02],
   [  8.22487928e-04,   1.87474247e-02,  -1.34725928e-01,  -2.98133194e-01,
      1.55428089e-02,  -1.78616509e-01,   1.45738646e-01,   2.03160904e-02,
     -6.31323755e-02,   1.22000746e-01,  -7.45231956e-02,   5.37032604e-01,
     -8.57632831e-02,  -4.23069149e-01,   8.62522423e-02,  -1.85269711e-03,
     -6.17817231e-03,  -1.27268597e-01,  -4.92010172e-03,   2.15753570e-01],
   [ -1.60068139e-01,   4.40617502e-02,   4.15983498e-02,  -8.69063362e-02,
      1.52489245e-01,  -1.75388947e-01,  -1.23260006e-01,   4.64787297e-02,
     -8.64424855e-02,   2.17939392e-02,  -3.11389640e-02,  -9.86768156e-02,
     -8.21479782e-02,  -4.71185558e-02,  -4.48165759e-02,   1.95431963e-01,
     -4.98664528e-02,  -1.51454899e-02,  -1.58980295e-01,   4.12952714e-02],
   [ -1.84266716e-01,   9.78747606e-02,  -6.08055182e-02,  -1.31195948e-01,
     -6.55115172e-02,   2.90586408e-02,  -2.79608101e-01,  -8.86128768e-02,
     -1.53819576e-01,   4.79676686e-02,  -4.27571079e-03,   2.85569131e-01,
     -7.22896457e-02,  -1.65084660e-01,  -1.31791383e-01,  -3.59839827e-01,
     -4.07311380e-01,  -5.76568618e-02,   1.19018830e-01,   2.94831721e-03],
   [ -8.44890401e-02,  -1.27135273e-02,  -2.04012275e-01,  -1.40313432e-01,
      5.74559979e-02,   4.54200655e-02,  -5.87636530e-02,  -1.07524447e-01,
     -6.10211771e-03,   1.48290228e-02,   1.73637196e-01,   5.27710244e-02,
     -5.21956496e-02,  -4.50505167e-02,  -5.74420132e-02,  -4.40668948e-02,
     -7.46628717e-02,  -2.97351390e-01,  -1.55627746e-02,  -1.46276727e-01],
   [  1.59193903e-01,  -8.30479115e-02,  -2.72322685e-01,  -2.44167998e-01,
      4.87310663e-02,  -3.33427101e-01,  -8.08146074e-02,  -1.65623933e-01,
     -2.89555997e-01,   8.48741531e-02,  -9.52885151e-02,  -4.84183505e-02,
     -1.27254412e-01,  -2.85219818e-01,  -1.37767732e-01,  -6.68999627e-02,
     -2.19868794e-01,   9.88831092e-03,   4.78399917e-02,  -1.20870590e-01],
   [  2.72482587e-03,  -8.41461718e-02,  -9.44072157e-02,  -2.64668554e-01,
