[[[[  7.86114633 e-01,   4.34762567 e-01,  -5.46409607 e-01,  -1.97064906 e-01,
     -3.51266235 e-01,   9.00998637 e-02,   3.62375706 e-01,   1.33877397 e-01,
     -3.47359627 e-02,  -6.33408785 e-01,   1.06410041 e-01,   1.54431939 e-01,
     -7.42999604 e-03,  -2.27486670 e-01,   3.09399784 e-01,  -2.55520016 e-01,
     -1.87879562 e-01,  -1.36596099 e-01,  -7.32181594 e-02,   2.78006673 e-01,
      6.94293156 e-02,  -2.71388382 e-01,   7.99216554 e-02,  -2.90386349 e-01,
      3.57888669 e-01,   3.61823380 e-01,   3.68978024 e-01,   8.89132917 e-02,
      3.05371750 e-02,  -1.48474440 e-01,  -3.92806977 e-01,  -3.09001356 e-02,
      1.55905843 e-01,   1.07369113 e+00,  -1.96440481 e-02,  -4.80043003 e-03,
      1.00505918 e-01,   4.13554698 e-01,  -1.31824300 e-01,   1.49974003 e-01,
      7.97286723 e-03,  -2.74388850 e-01,  -7.92000592 e-01,  -2.78195113 e-01,
      3.29367146 e-02,  -6.79808035 e-02,  -1.45563092 e-02,  -2.08342656 e-01,
      8.21528658 e-02,  -4.12880242 e-01,  -9.70935300 e-02,  -2.22492844 e-01,
      5.97947419 e-01,  -1.92275509 e-01,  -1.72161907 e-02,   5.25603235 e-01,
     -3.84683996 e-01,  -2.98056692 e-01,   1.40815169 e-01,  -6.63749427 e-02,
     -1.68574750 e-01,   1.70624793 e-01,   1.46443740 e-01,  -4.74861078 e-02],
   [ -2.29206279 e-01,   1.90413356 e-01,  -5.53164668 e-02,  -5.64579070 e-02,
      2.89404690 e-01,  -3.39893579 e-01,   4.00208294 e-01,   1.18932454 e-02,
      1.66514561 e-01,   1.59197256 e-01,   2.34710231 e-01,  -5.85980058 e-01,
     -3.90330255 e-02,  -8.14226549 e-03,  -5.63524723 e-01,  -3.40123385 e-01,
      2.57750124 e-01,  -1.63420793 e-02,  -1.96818322 e-01,  -1.00797720 e-01,
      1.12106819 e-02,  -3.56231391 e-01,   1.57302260 e-01,   1.22782812 e-01,
     -8.93843696 e-02,  -1.34140179 e-01,  -4.19857711 e-01,  -3.35979730 e-01,
     -3.54193091 e-01,   7.02724993 e-01,   1.20780908 e-01,  -1.35820126 e-02,
     -1.58016890 e-01,  -7.93751240 e-01,   4.27350476 e-02,   4.50982712 e-02,
      4.17758375 e-01,  -1.59326553 e-01,   3.37749451 e-01,  -3.22112329 e-02,
     -2.24927869 e-02,   1.91325303 e-02,   4.49612848 e-02,   1.90128028 e-01,
      1.05834357 e-01,  -2.15299532 e-01,   6.53854012 e-02,   1.94096521 e-01,
     -9.27451774 e-02,   4.50604558 e-02,   2.84992587 e-02,  -6.91843927 e-02,
     -5.27310595 e-02,   3.03401917 e-01,   3.02314728 e-01,  -1.00885995 e-01,
      2.52666265 e-01,   7.04655588 e-01,  -5.77014275 e-02,  -1.89070687 e-01,
      2.80746579 e-01,  -3.45734209 e-01,  -6.45171702 e-01,  -8.49420950 e-02],
   [ -6.30965948 e-01,  -6.98054969 e-01,   2.94048220 e-01,  -8.35292228 e-03,
     -3.86820108 e-01,  -3.90190423 e-01,  -1.03820441 e-02,  -4.06880789 e-02,
      2.75675189 e-02,  -2.19046667 e-01,   5.58796346 e-01,   2.63550729 e-01,
     -2.00086623 e-01,  -1.60360232 e-01,   1.22168586 e-01,  -7.31894821 e-02,
     -1.72587897 e-04,   2.03743830 e-01,  -8.92919675 e-02,  -5.96733168 e-02,
     -1.09574854 e-01,  -1.08084932 e-01,  -9.27515253 e-02,   1.77200198 e-01,
     -6.68710023 e-02,  -1.40460804 e-01,   4.37319010 e-01,   1.54392973 e-01,
     -1.41106183 e-02,  -1.05700612 e-01,   3.37739259 e-01,  -3.52309883 e-01,
     -1.88041367 e-02,  -7.33040631 e-01,  -1.36890739 e-01,  -2.38621175 e-01,
     -3.06521624 e-01,  -1.43450186 e-01,  -2.47441486 e-01,  -1.45522326 e-01,
     -1.18681222 e-01,  -5.29774845 e-01,   8.40508580 e-01,   2.00393237 e-03,
     -1.02256365 e-01,   9.57440734 e-02,  -1.07739456 e-02,   8.47097579 e-03,
      2.00914666 e-02,   2.10558996 e-01,   2.01311827 e-01,   2.40561754 e-01,
      1.37753487 e-01,  -3.32315296 e-01,  -1.95249051 e-01,  -5.02586603 e-01,
     -7.13612465 e-03,  -3.25899363 e-01,   2.41599202 e-01,   1.10842653 e-01,
     -4.51037258 e-01,  -6.31949771 e-03,   4.50386643 e-01,  -1.26193792 e-01],],

  [[  1.03407450 e-01,  -1.98735222 e-02,   6.06374405 e-02,   6.93394840 e-01,
      1.72680199 e-01,   4.24775928 e-01,   2.98257619 e-01,  -1.36810943 e-01,
     -8.90867040 e-02,  -5.80161691 e-01,   1.02333892 e-02,   2.62377739 e-01,
     -2.95124110 e-02,  -4.35983777 e-01,   1.45145103 e-01,   4.34864834 e-02,
      2.45916680 e-01,  -8.15190300 e-02,  -9.18796286 e-02,   1.53189614 e-01,
      8.20751041 e-02,  -6.97446316 e-02,   3.87023926 e-01,   1.23424590 e-01,
     -4.00106639 e-01,   3.78179461 e-01,   4.71253842 e-01,   1.29412487 e-01,
      5.34803756 e-02,  -2.71209508 e-01,   4.57141101 e-01,  -6.36387989 e-02,
     -1.67575553 e-02,   7.67791092 e-01,  -1.76102817 e-01,   3.54651868 e-01,
     -1.10410571 e-01,   3.37747455 e-01,  -5.07350005 e-02,   5.56418449 e-02,
      3.47744301 e-02,  -2.03763351 e-01,   4.16248471 e-01,  -2.67805964 e-01,
      1.52761713 e-01,  -8.34588483 e-02,  -3.44905794 e-01,  -8.55261505 e-01,
      1.07928872 e-01,  -4.78604168 e-01,   1.07537411 e-01,  -1.75733432 e-01,
      3.47301394 e-01,  -3.26392561 e-01,   3.24397581 e-03,   2.66356260 e-01,
     -1.11368820 e-01,  -2.93561608 e-01,   6.28518090 e-02,   2.71939069 e-01,
     -2.24933568 e-02,  -2.95266390 e-01,   8.92298936 e-04,   8.73834863 e-02],
   [ -2.09392339 e-01,  -4.05780077 e-02,  -8.31727535 e-02,   2.85649121 e-01,
      3.78347605 e-01,   1.94125682 e-01,   1.24501191 e-01,  -2.19174981 e-01,
      6.07971996 e-02,   1.39612719 e-01,  -7.58761764 e-02,  -5.67410469 e-01,
      2.97888041 e-01,   2.39586741 e-01,   1.62227079 e-01,  -2.56562114 e-01,
      2.29129627 e-01,   4.02696542 e-02,  -9.47486311 e-02,  -1.29998580 e-01,
     -1.04593121 e-01,  -6.57245070 e-02,   2.73923546 e-01,   9.53144580 e-03,
     -3.75991911 e-01,  -1.03849165 e-01,  -3.35743099 e-01,  -3.63557518 e-01,
     -3.60681266 e-01,   5.31410694 e-01,  -1.31786704 e-01,  -2.87354410 e-01,
     -2.86243588 e-01,  -5.00641227 e-01,  -2.21970573 e-01,   3.50106925 e-01,
      1.61223501 e-01,  -2.22731665 e-01,   1.70091018 e-01,  -1.46533847 e-01,
      2.80311126 e-02,   8.83852616 e-02,   2.43018717 e-01,   4.18528207 e-02,
      5.19443154 e-02,  -2.05806866 e-01,  -3.30854744 e-01,   6.88190460 e-01,
     -7.92835504 e-02,   8.67235959 e-02,  -3.70008856 e-01,  -9.28283110 e-02,
     -4.11582977 e-01,   4.44910139 e-01,   6.09111302 e-02,   5.67231849 e-02,
     -2.18257844 e-01,   3.15062761 e-01,  -2.30727553 e-01,  -4.31985520 e-02,
     -2.25611284 e-01,   4.07784507 e-02,   2.40811706 e-01,  -9.33375657 e-02],
   [  1.08546875 e-01,   9.43663716 e-02,  -8.69681709 e-04,  -1.46020064 e-02,
      2.52585977 e-01,   7.29124308 e-01,  -2.56829292 e-01,  -1.54946476 e-01,
      1.31776452 e-01,  -3.17832440 e-01,   1.95525050 e-01,   6.56752944 e-01,
     -2.12472811 e-01,  -8.93891454 e-02,  -4.31625694 e-01,   9.03208181 e-02,
     -4.54120815 e-01,   8.17301720 e-02,   1.29517585 e-01,  -4.61050540 e-01,
      1.38434857 e-01,   2.20388964 e-01,  -2.44952798 e-01,   2.30021566 e-01,
     -3.26904923 e-01,   8.96883309 e-02,   5.03711581 e-01,  -3.09010029 e-01,
     -1.05619123 e-02,  -1.28985003 e-01,  -5.09744108 e-01,  -3.58735353 e-01,
     -1.18354216 e-01,  -2.73666263 e-01,  -5.60377955 e-01,   6.40141368 e-02,
      1.33909643 e-01,  -1.95056647 e-01,  -3.14129293 e-01,  -8.71652588 e-02,
      1.44403800 e-01,  -3.72616917 e-01,  -2.08664732 e-03,  -6.57681301 e-02,
     -1.52520731 e-01,  -5.86121082 e-01,  -7.02920377 e-01,   2.30705261 e-01,
     -5.74721210 e-02,   7.45045304 e-01,   5.17401099 e-01,   7.05654144 e-01,
     -1.33250933 e-02,   1.53001055 e-01,   1.84352905 e-01,  -3.88711512 e-01,
     -9.57318068 e-01,   8.30754638 e-03,   1.76075608 e-01,   5.72939031 e-02,
     -6.91443831 e-02,   3.59612495 e-01,  -1.73080295 e-01,   2.16720719 e-02],],

  [[ -7.48462975 e-02,   1.07803553 e-01,   2.20425978 e-01,  -1.36143258 e-02,
      2.45886669 e-01,   6.10286221 e-02,   2.44839460 e-01,  -1.99109316 e-03,
     -6.12546876 e-02,  -5.66505075 e-01,  -1.13029309 e-01,   3.31904322 e-01,
      2.10150480 e-01,  -3.62204492 e-01,  -2.85639286 e-01,   9.88955125 e-02,
      3.91602665 e-01,  -2.65541643 e-01,   3.77976592 e-03,  -3.88341993 e-02,
      1.31684914 e-01,   2.38858357 e-01,   3.97597611 e-01,   4.86147225 e-01,
     -3.55792850 e-01,  -3.10441881 e-01,   2.25748613 e-01,   8.94620478 e-01,
      4.96673316 e-01,  -3.88871759 e-01,   2.80928850 e-01,  -4.58295494 e-01,
      3.98380905 e-01,  -3.65303755 e-01,   4.11083996 e-01,  -1.13270152 e+00,
      9.73943323 e-02,   3.70954216 e-01,  -4.08950329 e-01,   1.41036749 e-01,
     -8.93807113 e-02,  -5.57228439 e-02,   6.33424699 e-01,   9.87571999 e-02,
     -9.59481969 e-02,  -2.40924254 e-01,   3.40554565 e-01,  -8.89523625 e-01,
     -1.84553653 e-01,  -6.44702435 e-01,   1.01954974 e-01,  -7.24505961 e-01,
      1.49772421 e-01,  -3.85598660 e-01,   8.43829736 e-02,   3.50768089 e-01,
      9.74870145 e-01,  -5.50600961 e-02,  -1.05741940 e-01,   1.07905917 e-01,
      4.68612701 e-01,  -1.63831204 e-01,  -1.99172452 e-01,   1.81023359 e-01],
   [ -1.67890757 e-01,  -1.47153646 e-01,  -9.06171650 e-02,  -4.24837559 e-01,
      2.98855871 e-01,  -7.58332536 e-02,   2.00217471 e-01,  -1.21103056 e-01,
      2.53709763 e-01,  -4.74677831 e-02,  -2.01238200 e-01,  -7.92630911 e-01,
      2.23124802 e-01,   5.52058816 e-01,   4.26348746 e-01,  -4.94984426 e-02,
      1.63664639 e-01,   1.49479240 e-01,  -9.83906984 e-02,  -4.52882528 e-01,
     -3.54396373 e-01,   1.17395267 e-01,   2.41899088 e-01,  -2.52950519 e-01,
      5.01209199 e-01,  -5.09496629 e-01,  -7.71155238 e-01,   8.59473571 e-02,
     -1.84983835 e-01,   2.80160606 e-01,  -1.41189367 e-01,  -1.10633326 e+00,
      2.26016849 e-01,   1.00165019 e-02,   3.86060029 e-01,  -8.40823531 e-01,
     -1.12609513 e-01,  -1.82593942 e-01,   2.78275669 e-01,  -1.11466974 e-01,
     -6.97670951 e-02,  -4.52666909 e-01,  -2.40105703 e-01,   8.02960619 e-02,
     -5.90150058 e-02,  -2.34517902 e-01,   3.33626509 e-01,   9.29426432 e-01,
     -2.03140214 e-01,  -1.99542239 e-01,  -2.45484442 e-01,  -2.62077183 e-01,
     -3.31414849 e-01,   5.76454759 e-01,  -3.69037688 e-01,   1.78688139 e-01,
      7.70198047 e-01,   1.55787691 e-01,  -5.76815903 e-01,  -2.91240782 e-01,
     -2.78161883 e-01,   1.08668413 e-02,   3.92195344 e-01,   3.72700915 e-02],
   [  8.24680254 e-02,   1.78124592 e-01,   2.45818123 e-02,  -3.72801900 e-01,
      8.91358927 e-02,   2.57321715 e-01,  -1.08411334 e-01,   3.78134451 e-03,
      1.07656591 e-01,  -2.03769758 e-01,  -6.70734346 e-02,   6.41983211 e-01,
     -1.53314114 e-01,   5.49389124 e-02,  -1.26167044 e-01,   2.53493100 e-01,
     -4.53940719 e-01,   1.61386177 e-01,  -3.05027310 e-02,  -9.34612870 e-01,
      7.67266080 e-02,   2.74276167 e-01,  -2.05874220 e-01,  -2.98733890 e-01,
      9.21660304 e-01,   5.07235169 e-01,   2.27073371 e-01,  -1.13196540 e+00,
      1.22520849 e-01,   6.87740818 e-02,  -1.15582287 e-01,  -9.15045202 e-01,
      3.35417747 e-01,   5.98907650 e-01,   5.53023994 e-01,   8.05253267 e-01,
      4.07566130 e-01,  -1.10339694 e-01,   1.27459303 e-01,  -1.05333805 e-01,
      5.66042326 e-02,  -3.28931898 e-01,  -5.73204696 e-01,  -1.27940997 e-01,
      1.43860627 e-04,  -1.75189272 e-01,   3.07497829 e-01,  -5.95128201 e-02,
     -1.89356282 e-01,   6.55975878 e-01,   3.51332963 e-01,   1.00726330 e+00,
      8.59094858 e-02,   2.90744632 e-01,  -1.80740356 e-01,  -6.37401879 e-01,
      5.83840311 e-01,  -9.97031704 e-02,  -3.75971705 e-01,  -2.75485158 e-01,
      4.72887933 e-01,   1.38442457 e-01,  -1.65252283 e-01,   1.83888391 e-01],],

  [[  8.42909157 e-01,  -3.96128446 e-01,   6.44479021 e-02,  -4.34050053 e-01,
      2.48071268 e-01,  -3.15658152 e-02,   1.41777098 e-01,   1.41654357 e-01,
     -1.33475780 e-01,  -1.30612273 e-02,  -6.67923316 e-02,   4.37100679 e-01,
      9.47992802 e-02,  -2.72020340 e-01,  -2.10819870 e-01,  -1.75251439 e-01,
      7.81560421 e-01,  -6.71039000 e-02,  -1.17925890 e-02,   1.12023123 e-01,
     -2.41050646 e-01,   6.03763640 e-01,   4.13076162 e-01,  -4.53279495 e-01,
     -1.01797931 e-01,  -8.60401541 e-02,   3.75604928 e-01,   8.04232299 e-01,
      5.41642487 e-01,  -9.91523862 e-02,   2.06365794 e-01,   8.27139676 e-01,
     -1.98701397 e-01,  -2.28473127 e-01,  -4.00971085 e-01,   8.07896316 e-01,
      7.86197484 e-01,   1.47540659 e-01,  -3.87682080 e-01,   4.41649891 e-02,
      1.30239008 e-02,   1.71984211 e-01,   4.23152782 e-02,   1.70928612 e-01,
      2.51535885 e-02,  -3.14445913 e-01,  -8.88754055 e-03,  -2.59294063 e-01,
      3.23724568 e-01,  -6.37684107 e-01,   1.30708113 e-01,  -1.68134749 e-01,
      3.58598791 e-02,  -2.13558674 e-02,   1.88193068 e-01,   4.94873196 e-01,
     -6.65028930 e-01,  -4.60979968 e-01,  -2.17669338 e-01,   7.88883343 e-02,
      8.83557200 e-01,   1.66756753 e-02,   1.83118403 e-01,   3.55768427 e-02],
   [ -4.50072825 e-01,  -2.63199806 e-01,  -2.55758688 e-02,  -3.15440819 e-02,
      1.40274569 e-01,   1.61871269 e-01,   6.46448229 e-03,  -7.17238262 e-02,
      1.80291533 e-01,   8.02669004 e-02,   6.60867095 e-02,  -1.03233278 e+00,
      3.87728363 e-01,   5.71056545 e-01,   8.93408716 e-01,  -3.33605669 e-02,
      2.07330018 e-01,  -1.08406218 e-02,   5.08956388 e-02,  -3.65603566 e-01,
     -1.79152623 e-01,   2.46302336 e-01,   8.29336569 e-02,  -7.28546456 e-02,
     -2.17724219 e-01,  -1.58680052 e-01,  -3.97587955 e-01,   4.99208877 e-03,
     -5.32175228 e-02,   4.05047923 e-01,  -1.63265869 e-01,   2.23454051 e-02,
     -3.90998900 e-01,   7.83957765 e-02,   1.48277998 e-01,   1.59582496 e-01,
     -3.33253831 e-01,  -5.14835306 e-02,   2.75585443 e-01,   4.75833640 e-02,
      1.16548412 e-01,  -1.10412769 e-01,  -1.12515293 e-01,  -7.42099881 e-02,
     -1.15185790 e-01,  -2.33049914 e-01,   1.65232196 e-01,   6.70333624 e-01,
      4.39840227 e-01,   1.86584629 e-02,  -2.69672964 e-02,  -1.62500694 e-01,
     -7.14729279 e-02,   3.69525552 e-02,   9.82009098 e-02,   5.29691391 e-02,
     -2.43916228 e-01,   5.64820468 e-01,  -2.62122422 e-01,  -1.60176560 e-01,
     -5.41285038 e-01,  -6.95359111 e-02,  -4.79170859 e-01,   7.12557882 e-02],
   [ -6.08550727 e-01,   4.38135684 e-01,   1.13178745 e-01,   6.14205003 e-01,
     -2.03196377 e-01,  -2.53001660 e-01,  -7.24872053 e-02,   2.01152861 e-01,
     -1.32793561 e-01,  -1.47086710 e-01,   2.55563051 e-01,   7.03602612 e-01,
     -1.77813113 e-01,   1.69819891 e-01,  -4.68973964 e-01,   3.78879458 e-01,
     -7.02255487 e-01,   7.71860629 e-02,  -1.63467787 e-02,  -5.65115035 e-01,
      4.35720384 e-01,   4.07720506 e-01,  -2.02795759 e-01,  -1.10078789 e-01,
     -3.52060735 e-01,   4.77790320 e-03,   4.64904368 e-01,  -1.49852657 e+00,
      4.45300967 e-01,  -7.87037611 e-02,  -3.56823593 e-01,   2.23503456 e-01,
     -1.47217885 e-01,   1.75046742 e-01,   1.02346562 e-01,  -2.98533320 e-01,
      2.68855970 e-02,  -6.10167645 e-02,   4.35584597 e-02,   2.79491302 e-02,
     -5.09276167 e-02,   4.97054867 e-02,  -2.97881335 e-01,  -9.30335373 e-02,
      9.34389085 e-02,   6.81525245 e-02,   1.59936279 e-01,  -4.24731582 e-01,
      4.63039458 e-01,   6.62455261 e-01,  -4.01775748 e-01,   2.18172133 e-01,
     -2.87304688 e-02,  -9.36164916 e-01,  -7.00933188 e-02,  -5.38054168 e-01,
     -1.05790578 e-01,  -1.19114563 e-01,   9.39614549 e-02,   2.56943926 e-02,
      3.51700008 e-01,   2.82101542 e-01,   3.27122271 e-01,   1.41530886 e-01],],

  [[  6.88746631 e-01,  -9.91323888 e-02,  -1.60227846 e-02,  -4.35936125 e-03,
     -2.85193264 e-01,   1.17505975 e-01,   1.53526738 e-02,   1.75104424 e-01,
     -1.47731870 e-01,  -1.13638043 e-02,  -7.95912296 e-02,   3.53044987 e-01,
     -4.94063407 e-01,  -2.00469717 e-01,  -2.56628901 e-01,  -4.00774360 e-01,
      2.43665129 e-01,   9.34043061 e-03,  -1.85923316 e-02,   4.36340600 e-01,
      1.42169550 e-01,  -1.91917673 e-01,   2.70645648 e-01,  -3.49946320 e-02,
     -1.11915760 e-01,   6.74620271 e-02,   3.58461648 e-01,   2.48721614 e-01,
     -1.13381758 e-01,  -5.69655776 e-01,  -3.63119990 e-01,   3.11679542 e-01,
      1.69456720 e-01,   2.00330392 e-02,  -2.41583586 e-02,  -8.98581669 e-02,
      6.22340560 e-01,   1.82470873 e-01,  -3.09655190 e-01,   1.19130917 e-01,
      2.44000405 e-02,  -1.66827604 e-01,  -1.43853247 e-01,  -1.67538002 e-02,
     -9.80286077 e-02,   1.86017603 e-02,  -1.40577018 e-01,   2.77868181 e-01,
     -9.50834081 e-02,  -3.95952284 e-01,  -1.01441965 e-01,   2.92052001 e-01,
      6.74136775 e-03,   4.18754339 e-01,  -2.41831109 e-01,   1.82178333 e-01,
     -1.28745660 e-01,  -4.18710947 e-01,  -1.04598142 e-01,   5.39808422 e-02,
      8.62376764 e-02,   9.29271616 e-03,   4.75850292 e-02,  -3.01236492 e-02],
   [ -9.04830918 e-02,  -2.67502964 e-02,  -6.40988573 e-02,  -2.53817551 e-02,
      1.45271122 e-01,   1.23471595 e-01,   3.57515998 e-02,  -2.03682065 e-01,
      1.24143004 e-01,   2.03223322 e-02,   2.02357560 e-01,  -8.94155622 e-01,
      9.58085209 e-02,   5.06724000 e-01,   3.74404639 e-01,  -9.26694274 e-02,
      1.68963969 e-01,   3.12144756 e-01,   6.50927573 e-02,   1.89966157 e-01,
      1.63375765 e-01,   1.52268022 e-01,   2.25742042 e-01,   2.13302791 e-01,
     -1.27002746 e-01,   1.87406719 e-01,  -2.33098373 e-01,   1.62235796 e-01,
     -1.86134815 e-01,   4.12217714 e-02,   4.04093191 e-02,  -8.15942883 e-02,
     -2.28762656 e-01,   4.20726389 e-02,   1.79409832 e-02,   1.32767349 e-01,
     -3.90949428 e-01,  -1.91688195 e-01,   7.16009289 e-02,   6.86755450 e-03,
     -3.76291312 e-02,  -7.31822193 e-01,  -1.97540540 e-02,  -4.52791303 e-02,
     -2.98588611 e-02,   5.25274873 e-03,  -1.63707748 e-01,  -1.15448251 e-01,
     -2.83934742 e-01,  -2.34321281 e-02,   2.96650231 e-02,   1.90802719 e-02,
     -1.12264976 e-01,   1.17800303 e-01,   3.05719256 e-01,   1.20809842 e-02,
     -1.22573902 e-03,   5.74050784 e-01,   6.81746528 e-02,  -1.10599302 e-01,
     -6.49737775 e-01,  -2.23960966 e-01,  -2.85406001 e-02,   6.56875744 e-02],
   [ -5.16570032 e-01,   2.71668017 e-01,   1.26637384 e-01,  -1.63518377 e-02,
     -2.17873007 e-01,  -2.58163422 e-01,  -1.90853968 e-01,  -9.64038968 e-02,
     -1.73551753 e-01,  -1.29073963 e-01,   4.98108983 e-01,   2.96339303 e-01,
     -2.33670980 e-01,  -5.90687692 e-02,  -4.58875746 e-01,   7.86213949 e-02,
     -4.20225471 e-01,  -7.20152110 e-02,  -7.74906715 e-03,   1.15077198 e-01,
     -3.12862903 e-01,  -7.62196556 e-02,  -3.60852122 e-01,   1.65381998 e-01,
      1.19623393 e-02,  -6.94281608 e-02,   3.16010594 e-01,  -5.33642650 e-01,
     -1.50265202 e-01,  -5.98171838 e-02,   5.30566812 e-01,   1.89662296 e-02,
      1.90987796 e-01,   4.31369245 e-03,  -1.41575947 e-01,  -1.42135620 e-01,
     -4.20879036 e-01,   1.72982141 e-01,   2.63178527 e-01,  -1.89105511 e-01,
     -7.78682381 e-02,   1.53402314 e-01,   8.19893554 e-02,   2.69956619 e-01,
     -5.75210974 e-02,  -1.24992162 e-01,   1.26854226 e-01,  -1.53105348 e-01,
     -2.58491665 e-01,   3.47531736 e-01,  -1.74499065 e-01,  -3.96277905 e-01,
     -3.78868818 e-01,  -8.66441727 e-01,  -1.85175017 e-02,  -3.31382632 e-01,
      6.17336966 e-02,  -1.79465041 e-01,   3.19403708 e-01,   6.52884915 e-02,
     -5.48587814 e-02,   4.50205915 e-02,  -3.49315554 e-02,   9.54958498 e-02],],],


 [[[  5.68424463 e-01,   5.78343153 e-01,  -2.87618488 e-01,  -5.47959745 e-01,
      2.62182713 e-01,  -5.05529761 e-01,  -1.89455431 e-02,   1.65209383 e-01,
      4.46636882 e-03,  -2.34951451 e-01,  -1.77902162 e-01,  -5.55571020 e-02,
     -5.20257652 e-01,  -2.16234758 e-01,   2.43042558 e-01,   4.04925227 e-01,
     -7.42412448 e-01,  -1.45631042 e-04,   1.00759372 e-01,  -2.94375926 e-01,
      8.32809731 e-02,   7.67319649 e-02,   3.97351623 e-01,  -1.04035191 e-01,
      3.95165771 e-01,   2.07822457 e-01,   1.64277721 e-04,   2.43709572 e-02,
      9.64628339 e-01,   1.71834737 e-01,  -9.31106150 e-01,   9.66533273 e-02,
     -3.65906984 e-01,   9.94197369 e-01,   2.61277288 e-01,  -4.70672436 e-02,
     -1.11364312 e-01,   6.37404799 e-01,  -1.68214992 e-01,  -1.11124285 e-01,
     -6.06937744 e-02,   1.11045882 e-01,   3.46123904 e-01,  -4.03575957 e-01,
     -5.76789826 e-02,  -8.34437534 e-02,   2.01665953 e-01,   5.94777226 e-01,
     -1.24613345 e-01,   2.21062880 e-02,  -1.73563957 e-01,  -4.50827926 e-01,
      2.94494867 e-01,   3.42070498 e-02,  -1.44699126 e-01,   2.38504842 e-01,
     -7.13047534 e-02,  -2.19431117 e-01,   4.32601795 e-02,   3.89103889 e-02,
     -1.33667805 e-03,   1.61560997 e-01,  -6.06426954 e-01,  -7.91024193 e-02],
   [ -8.39911625 e-02,   1.77721113 e-01,   3.96200359 e-01,   3.01501472 e-02,
      2.86591202 e-01,  -3.26712638 e-01,   7.53634330 e-03,   5.14841676 e-01,
      8.56660008 e-02,   2.12790340 e-01,   7.46036172 e-02,   1.60863280 e-01,
     -1.29589960 e-02,   6.94352031 e-01,  -1.01768434 e+00,  -1.49611710 e-02,
     -1.27471760 e-01,   3.44222263 e-02,  -2.84139842 e-01,  -1.37956098 e-01,
     -9.64679271 e-02,   2.74120778 e-01,  -1.10644735 e-01,   2.04436839 e-01,
      1.44496664 e-01,  -1.63454980 e-01,  -2.53018677 e-01,   1.50341943 e-01,
      1.25167668 e-01,   1.60466701 e-01,   4.56221670 e-01,   2.58259505 e-01,
     -6.32991269 e-02,  -7.12054431 e-01,   2.88784772 e-01,  -2.57921610 e-02,
      2.78697431 e-01,  -1.86702281 e-01,   4.34620738 e-01,   2.33454347 e-01,
      3.28899473 e-02,   1.97655231 e-01,   2.23798528 e-01,   2.89371073 e-01,
     -1.58914536 e-01,   4.12771314 e-01,   1.05155185 e-01,  -3.55870306 e-01,
     -7.42737157 e-03,   1.20582342 e-01,  -1.42171383 e-01,  -1.19721666 e-01,
      5.21009825 e-02,  -6.09718785 e-02,   2.59644806 e-01,  -1.62667796 e-01,
     -2.12500900 e-01,   1.83426127 e-01,   4.83389311 e-02,  -1.50280669 e-01,
      6.14140987 e-01,  -4.32581156 e-02,   9.33435082 e-01,   1.50762707 e-01],
   [ -4.90304947 e-01,  -5.10826409 e-01,   4.07144725 e-02,  -1.25762135 e-01,
     -5.15418313 e-02,  -4.43219393 e-01,  -3.28260586 e-02,   7.00249732 e-01,
     -5.68249896 e-02,  -3.17215890 e-01,   2.73980439 e-01,  -3.01248759 e-01,
      1.10449046 e-01,   1.82593495 e-01,   7.82878876 e-01,   2.87282079 e-01,
      5.88332415 e-01,  -3.83563936 e-02,  -2.98829824 e-01,   3.99491847 e-01,
     -4.83395606 e-02,  -3.03816110 e-01,  -3.80771190 e-01,   5.40714189 e-02,
      2.21862957 e-01,   1.58051908 e-01,  -4.99904752 e-02,   2.37778008 e-01,
      2.08529919 e-01,   1.21687196 e-01,   8.19703102 e-01,   4.35080379 e-01,
      1.10930644 e-01,  -6.57230318 e-01,   4.50926095 e-01,  -4.42310691 e-01,
     -6.27105951 e-01,  -2.77328342 e-01,  -2.91604400 e-01,   2.82282718 e-02,
      5.85726202 e-02,  -1.50391743 e-01,   2.47843593 e-01,  -5.19000888 e-02,
     -4.08357084 e-02,   7.01422393 e-01,   5.58832884 e-01,  -2.52476275 e-01,
      3.15748565 e-02,  -1.30438596 e-01,  -2.73474604 e-01,   5.47033846 e-01,
      3.16249788 e-01,  -6.91491412 e-03,  -2.39933074 e-01,  -2.04016268 e-01,
     -7.24866569 e-01,   5.80546632 e-03,   9.98903066 e-02,   2.37670109 e-01,
     -1.43250763 e-01,  -2.42840961 e-01,  -4.14798617 e-01,  -1.03025716 e-02],],

  [[ -3.28794867 e-01,   1.05312956 e-03,  -4.85900253 e-01,   1.74834937 e-01,
      8.15657750 e-02,   1.95179403 e-01,  -1.62901402 e-01,   1.09916441 e-01,
      9.27128568 e-02,   7.03575388 e-02,   6.45917803 e-02,  -1.85249299 e-01,
     -6.47868514 e-01,   3.67153846 e-02,   1.35956720 e-01,  -3.52836810 e-02,
     -4.14729297 e-01,  -8.61169398 e-02,   3.88317369 e-02,  -1.33409381 e-01,
      9.33319628 e-02,  -5.44694774 e-02,   6.17563248 e-01,   4.18733180 e-01,
     -3.67490947 e-01,   5.49541563 e-02,   9.89398658 e-02,  -7.82388300 e-02,
      3.48901153 e-01,   7.49812499 e-02,  -4.81965132 e-02,  -4.20937501 e-02,
      4.87685114 e-01,   1.76634043 e-01,  -1.22674488 e-01,   5.58297873 e-01,
     -2.73463249 e-01,   6.57272995 e-01,  -1.38130262 e-01,  -8.65184814 e-02,
      1.99174415 e-02,   3.92530531 e-01,   6.61595345 e-01,   3.75614204 e-02,
      2.45822072 e-01,   3.17460775 e-01,   6.21503055 e-01,   3.49428877 e-02,
     -4.14847536 e-03,  -6.41872287 e-02,  -3.18305045 e-01,  -4.02328104 e-01,
     -1.00842848 e-01,  -2.83522874 e-01,  -3.66032839 e-01,   3.58034402 e-01,
      1.37916195 e+00,   4.22652602 e-01,   1.10908888 e-01,   2.65267938 e-01,
      1.56087577 e-01,  -1.51340574 e-01,  -8.70181501 e-01,   3.49606574 e-01],
   [ -1.48826092 e-01,   5.57758920 e-02,  -1.08391903 e-01,  -1.87316146 e-02,
     -1.68465942 e-01,   2.71859188 e-02,  -9.01598334 e-02,   4.04301852 e-01,
      2.36457270 e-02,   1.91414550 e-01,   4.30096947 e-02,  -9.68865380 e-02,
      1.46054804 e-01,   8.71934414 e-01,  -4.27677780 e-01,  -3.88151377 e-01,
     -1.20051526 e-01,  -7.43388236 e-02,  -1.12977043 e-01,   3.46473396 e-01,
     -2.48461843 e-01,  -3.57576162 e-02,   1.20487325 e-01,   2.46081412 e-01,
     -3.65880787 e-01,  -1.47856757 e-01,  -1.11872945 e-02,   4.13586646 e-02,
     -8.30522776 e-02,   1.73145413 e-01,   1.89786479 e-01,  -2.18688875 e-01,
      5.93816519 e-01,  -2.45742321 e-01,  -2.89338052 e-01,   6.16592109 e-01,
      2.22519398 e-01,   2.73201391 e-02,   2.01945573 e-01,   3.60892415 e-02,
      9.41945165 e-02,   4.07047510 e-01,  -3.05608183 e-01,   2.51041293 e-01,
      9.67980549 e-02,   8.78577173 e-01,   5.67997098 e-01,  -6.13594130 e-02,
      2.29819771 e-02,  -3.56334820 e-02,  -5.26037216 e-01,  -2.71146357 e-01,
     -1.21659316 e-01,  -6.53258264 e-02,  -2.08985552 e-01,  -8.73891264 e-03,
      1.25854194 e+00,  -1.14857352 e+00,   1.94917277 e-01,  -1.70788094 e-01,
      1.62587181 e-01,   1.18380480 e-01,   2.28659630 e+00,   1.73257992 e-01],
   [  4.20448214 e-01,  -2.39188354 e-02,  -1.13448486 e-01,   6.32397234 e-02,
      1.05300322 e-01,   3.49477977 e-01,   7.27669373 e-02,   2.61672169 e-01,
     -1.43050104 e-01,  -1.85450464 e-01,   2.84472778 e-02,  -4.43169057 e-01,
      4.31167670 e-02,   6.05453014 e-01,   3.07677060 e-01,  -1.60780832 e-01,
      1.44245699 e-01,  -2.09327772 e-01,  -1.01736911 e-01,   3.92041326 e-01,
      2.77196705 e-01,  -2.97419012 e-01,  -4.77828562 e-01,   9.19247717 e-02,
     -4.68294978 e-01,   2.54896551 e-01,   1.41556337 e-01,   3.52395147 e-01,
      2.53463775 e-01,  -2.54657656 e-01,   6.86257482 e-02,  -4.48439755 e-02,
      3.70396435 e-01,   2.98127413 e-01,  -4.09198821 e-01,   2.53211826 e-01,
     -2.27303192 e-01,  -2.94379387 e-02,  -1.33681133 e-01,   3.39258499 e-02,
     -1.57255307 e-03,   8.32616910 e-03,  -8.36528778 e-01,  -1.86912388 e-01,
     -1.05471604 e-01,   3.96041602 e-01,   8.19159687 e-01,   8.92159529 e-03,
      5.73477941 e-03,   1.89117774 e-01,  -4.22023088 e-01,   2.62518585 e-01,
      1.87375665 e-01,   2.81118274 e-01,   1.20964855 e-01,  -3.85113955 e-01,
      1.37765038 e+00,   5.68820715 e-01,   2.79974252 e-01,   1.34527329 e-02,
      2.87230402 e-01,   2.18453288 e-01,  -1.42446339 e+00,   9.98395085 e-02],],

  [[ -6.02687418 e-01,  -7.24754408 e-02,   3.60218048 e-01,   1.17498386 e+00,
     -1.03598344 e+00,   2.12171718 e-01,  -6.49511814 e-02,  -1.38830200 e-01,
     -1.53004736 e-01,  -2.08396520 e-02,  -1.11677289 e-01,   6.79766536 e-02,
     -4.36773777 e-01,  -1.08858839 e-01,  -6.49176687 e-02,   3.68430316 e-01,
     -6.22395836 e-02,  -2.22780615 e-01,   2.62313068 e-01,   2.26044118 e-01,
     -1.35572925 e-01,  -8.04993987 e-01,  -1.39251109 e-02,   1.25142187 e-01,
     -4.11336452 e-01,  -5.76904833 e-01,   1.37060344 e-01,  -2.50678398 e-02,
     -6.47009909 e-03,  -8.65389705 e-02,   2.08490536 e-01,   5.91434181 e-01,
     -8.07354033 e-01,  -9.44562376 e-01,  -4.02817369 e-01,  -1.34143353 e+00,
     -2.07942158 e-01,   6.90670967 e-01,  -3.77450049 e-01,  -1.93059728 e-01,
      2.23757345 e-02,   3.07265699 e-01,  -2.14303181 e-01,  -7.97546133 e-02,
     -2.24550720 e-03,   4.12423223 e-01,  -8.60277593 e-01,  -8.44779432 e-01,
     -1.36905655 e-01,   7.84970224 e-02,  -5.43171689 e-02,  -1.64799094 e-01,
     -1.57827035 e-01,  -1.82544634 e-01,   2.85705239 e-01,   5.42411149 e-01,
     -1.76939881 e+00,   9.42861617 e-01,   2.83179939 e-01,   2.54911244 e-01,
      2.85954207 e-01,  -3.07023466 e-01,  -8.01558852 e-01,   1.13516241 e-01],
   [  4.29024994 e-02,   1.69077590 e-01,   1.02507174 e-01,   1.81116119 e-01,
     -9.47835267 e-01,  -1.22847585 e-02,   3.89306387 e-03,   4.49211672 e-02,
     -1.32981807 e-01,   1.05080672 e-03,  -7.96680748 e-02,  -4.19153452 e-01,
     -7.50755798 e-03,   2.07125098 e-01,   2.18925938 e-01,   3.38900805 e-01,
      1.27390027 e-01,   2.02210397 e-01,  -2.73475535 e-02,   1.00426376 e+00,
     -5.87046504 e-01,  -6.31747901 e-01,   4.67185862 e-02,  -8.13191712 e-01,
      7.24938810 e-01,  -4.45600957 e-01,  -2.29522958 e-01,  -2.44647145 e-01,
     -1.90138981 e-01,  -9.58338287 e-03,  -1.83225989 e-01,   9.35703889 e-02,
     -9.55001414 e-01,   3.64492536 e-01,  -9.17852998 e-01,  -1.01411724 e+00,
      3.22499663 e-01,   1.68748707 e-01,   2.86466599 e-01,   1.07992001 e-01,
     -8.78787488 e-02,   1.12195194 e-01,  -5.84403753 e-01,  -1.75412759 e-01,
      1.68602522 e-02,   8.57249022 e-01,  -8.07291865 e-01,   4.96362865 e-01,
     -4.76702116 e-02,  -6.16039596 e-02,  -1.92175522 e-01,  -8.13765451 e-02,
     -2.06110001 e-01,   2.95426756 e-01,  -3.16172242 e-02,  -1.55153498 e-01,
     -1.46856594 e+00,  -1.55583787 e+00,   1.45215333 e-01,  -4.70338352 e-02,
     -8.06926250 e-01,  -4.14403528 e-02,   1.31786466 e+00,  -2.44188055 e-01],
   [  6.19253874 e-01,   1.74020324 e-02,   9.81632061 e-03,  -3.86537239 e-03,
     -1.87345609 e-01,   2.34237984 e-01,   2.94664651 e-01,  -1.63030773 e-01,
     -3.18490595 e-01,   1.30417392 e-01,  -8.18887800 e-02,  -2.07609072 e-01,
      1.54284239 e-01,   2.43251041 e-01,  -7.39760622 e-02,   4.53099698 e-01,
      7.39711449 e-02,   6.85432628 e-02,  -1.16800904 e-01,   7.92756140 e-01,
      6.79897308 e-01,  -1.39713898 e-01,  -1.19741894 e-01,  -5.86811364 e-01,
      6.40283465 e-01,   1.67109251 e-01,   3.57135236 e-02,  -5.42463601 e-01,
      8.58422834 e-03,  -1.75806537 e-01,  -2.84585267 e-01,   4.63509649 e-01,
     -1.05736148 e+00,   7.14609325 e-01,  -7.39529788 e-01,   7.15439260 e-01,
      6.75546169 e-01,   7.15119168 e-02,   1.44181112 e-02,   7.17237294 e-02,
     -2.30047479 e-01,  -1.92139402 e-01,  -6.97683454 e-01,  -3.07357490 e-01,
     -1.26472395 e-02,   4.09600496 e-01,  -1.12214851 e+00,   4.16537642 e-01,
     -1.86945319 e-01,   2.36267895 e-01,  -3.38792443 e-01,   4.19563591 e-01,
      2.68254783 e-02,   7.29537368 e-01,   6.36903167 e-01,  -7.17686474 e-01,
     -7.12067485 e-01,   4.03812915 e-01,  -9.73896757 e-02,  -6.78175539 e-02,
      1.11883059 e-01,   1.31008793 e-02,  -7.17627406 e-01,  -7.26568550 e-02],],

  [[  3.89456719 e-01,  -5.31657159 e-01,   6.40617087 e-02,  -7.09729254 e-01,
      3.59175205 e-02,  -2.85221606 e-01,   5.19550666 e-02,  -3.24341625 e-01,
      5.74868023 e-02,   1.14260323 e-01,  -2.73513436 e-01,   1.75542384 e-01,
      3.93135324 e-02,   1.08940691 e-01,  -4.71899092 e-01,  -5.01095831 e-01,
      6.64147139 e-01,   1.41571254 e-01,   2.94943273 e-01,  -1.76003277 e-01,
     -4.45640028 e-01,  -1.99655950 e-01,  -3.04624170 e-01,  -2.05825672 e-01,
      1.13099068 e-01,   1.97771370 e-01,   5.54320291 e-02,  -1.82091817 e-01,
     -8.07600200 e-01,  -8.27629343 e-02,   9.72142458 e-01,   4.20833141 e-01,
      1.06766450 e+00,  -2.56013125 e-01,   6.92181706 e-01,   9.71313477 e-01,
      3.94212395 e-01,   6.05185866 e-01,  -2.18049273 e-01,  -8.47621858 e-02,
     -1.15899965 e-02,   7.04736337 e-02,  -1.42588675 e-01,   4.74717498 e-01,
     -1.47249281 e-01,  -1.79712884 e-02,  -3.03439796 e-03,  -8.61829400 e-01,
      1.65800378 e-01,  -1.19131409 e-01,   2.67215908 e-01,   6.47555113 e-01,
     -1.37953058 e-01,  -7.38788992 e-02,   2.26630405 e-01,   5.34473300 e-01,
      7.57735297 e-02,  -4.75773886 e-02,  -1.91170305 e-01,   1.57392882 e-02,
      8.47726464 e-01,  -1.10617124 e-01,   2.29779214 e-01,  -1.28056044 e-02],
   [ -3.21707398 e-01,  -1.77708752 e-02,  -8.54816139 e-02,  -4.34858143 e-01,
     -2.54073620 e-01,   5.63765913 e-02,  -2.48177368 e-02,   4.63393331 e-02,
      1.65772617 e-01,  -8.57752934 e-02,  -1.92921177 e-01,  -5.98951519 e-01,
      2.39225611 e-01,  -2.94805527 e-01,   9.39614713 e-01,  -1.63583070 e-01,
      2.05565006 e-01,   2.47607026 e-02,   3.44403721 e-02,   1.98942229 e-01,
     -5.05861580 e-01,  -5.01625240 e-01,   1.00717001 e-01,   4.02619690 e-01,
     -9.08567905 e-02,   3.87696594 e-01,  -3.21281925 e-02,  -2.01978475 e-01,
     -7.46517837 e-01,   2.33686138 e-02,  -2.63468564 e-01,   1.97363243 e-01,
      7.59290397 e-01,   4.33528930 e-01,   8.72849405 e-01,   4.09523100 e-01,
     -1.98787212 e-01,  -9.87828597 e-02,   8.52385834 e-02,   2.49730155 e-01,
     -7.72259906 e-02,  -9.71742496 e-02,   4.52160925 e-01,   1.07322648 e-01,
     -2.26586923 e-01,   5.68748355 e-01,   7.44531751 e-02,   1.02599072 e+00,
      4.69727904 e-01,  -2.12200269 e-01,   3.67310107 e-01,  -1.50991231 e-02,
      1.37652636 e-01,  -1.44927964 e-01,  -1.44703642 e-01,  -1.80622846 e-01,
      1.84566692 e-01,  -2.32244283 e-01,  -3.68927777 e-01,   2.46390607 e-02,
     -6.33385241 e-01,  -2.96545941 e-02,  -6.73780859 e-01,  -3.14253151 e-01],
   [ -1.36795804 e-01,   4.55073863 e-01,  -1.13554664 e-01,  -2.42258757 e-01,
      4.42437500 e-01,  -3.13610584 e-01,   3.80843669 e-01,  -6.36804625 e-02,
      1.27630923 e-02,  -8.44500065 e-02,  -7.19696283 e-02,   2.94963241 e-01,
     -2.24006791 e-02,  -1.09215662 e-01,  -1.12837183 e+00,  -5.14802784 e-02,
     -5.86528122 e-01,  -1.82409436 e-02,  -1.68619558 e-01,   4.98256356 e-01,
      8.71349514 e-01,   2.85284877 e-01,   2.40904033 e-01,   1.92389488 e-01,
     -3.85985911 e-01,  -1.38973743 e-01,   1.68328747 e-01,  -6.62718415 e-01,
     -4.87263620 e-01,  -3.84617820 e-02,  -1.08042514 e+00,   5.95481277 e-01,
      1.05674016 e+00,  -8.23254734 e-02,   7.59166181 e-01,  -3.21275443 e-01,
      3.09436798 e-01,  -2.89789170 e-01,   1.32233545 e-01,   2.10923374 e-01,
      2.23678887 e-01,  -3.81949872 e-01,   5.93867421 e-01,   6.03725135 e-01,
      7.33820200 e-02,   3.77209872 e-01,  -2.31233120 e-01,  -1.99984118 e-01,
      3.22732508 e-01,   2.12566048 e-01,  -3.93569916 e-01,  -4.88889724 e-01,
      2.27209199 e-02,  -1.94399774 e-01,  -3.09177697 e-01,  -3.60891879 e-01,
      1.48726940 e-01,   3.12211424 e-01,  -6.03684843 e-01,   2.22990483 e-01,
      2.04610363 e-01,   1.16957448 e-01,   5.09971797 e-01,  -1.17210664 e-01],],

  [[  4.24179047 e-01,  -1.90139368 e-01,   1.46130964 e-01,  -1.83984086 e-01,
     -1.48507841 e-02,  -4.55415517 e-01,  -8.20013210 e-02,  -2.64538199 e-01,
      1.93987846 e-01,   1.31009385 e-01,  -1.50431961 e-01,   3.81754816 e-01,
     -6.29426837 e-01,   2.59104401 e-01,  -2.71474928 e-01,  -1.97768524 e-01,
      3.59438986 e-01,  -7.91028365 e-02,   2.29254693 e-01,  -5.23230851 e-01,
      1.27282694 e-01,   4.72532600 e-01,  -2.48093247 e-01,   6.87535629 e-02,
      1.07803583 e-01,  -1.62890881 e-01,  -5.58055937 e-02,   1.89427882 e-02,
     -5.12689471 e-01,  -3.90322387 e-01,   8.09510723 e-02,  -4.96050566 e-01,
     -3.91097665 e-01,  -2.25843832 e-01,  -1.87132910 e-01,  -2.09143966 e-01,
      2.58308172 e-01,   4.25781965 e-01,   1.54608890 e-01,   4.13250271 e-03,
     -3.25632021 e-02,   1.21581666 e-01,  -3.58619303 e-01,  -9.28084925 e-02,
     -1.77128330 e-01,   1.72616571 e-01,   2.15403810 e-01,  -1.54667526 e-01,
     -1.00059129 e-01,  -6.23194128 e-02,  -1.06879175 e-01,   5.42324185 e-01,
     -1.55696064 e-01,   1.28604531 e-01,  -1.83142364 e-01,   1.62352249 e-01,
      4.53454494 e-01,  -1.14176802 e-01,   6.58212528 e-02,   1.79567337 e-01,
      4.20141131 e-01,   1.79268867 e-01,   1.37915492 e-01,  -3.16286157 e-03],
   [ -7.76749998 e-02,  -5.14004678 e-02,  -3.31636406 e-02,   3.82976025 e-01,
     -1.72798932 e-01,  -2.16221958 e-01,   1.79579139 e-01,  -9.09782499 e-02,
      1.11905940 e-01,  -1.83464424 e-03,   1.99627981 e-01,  -4.10984218 e-01,
     -7.76080787 e-02,  -3.46736491 e-01,   9.76715207 e-01,   1.51897967 e-01,
      1.95615560 e-01,   8.13431218 e-02,   1.76017776 e-01,  -3.20693851 e-01,
     -8.28839689 e-02,   5.68235695 e-01,  -1.79642506 e-04,   1.69098824 e-01,
      8.81794915 e-02,   1.38268352 e-01,   1.02207609 e-01,   2.97601998 e-01,
      1.99579328 e-01,   1.12932183 e-01,  -1.73922911 e-01,  -2.11587012 e-01,
     -5.07417202 e-01,   3.26922536 e-01,  -1.36510029 e-01,   1.63379177 e-01,
     -5.05216539 e-01,  -2.43688852 e-01,  -1.82752073 e-01,   9.69868377 e-02,
     -6.54557943 e-02,  -4.14755225 e-01,   7.65293166 e-02,  -2.97076404 e-01,
     -2.32587159 e-02,   2.44249046 e-01,   1.46500826 e-01,   4.95696396 e-01,
     -2.60240823 e-01,  -1.17991105 e-01,   4.67088968 e-01,   1.05573468 e-01,
      2.20460910 e-02,  -1.29057258 e-01,   3.83198023 e-01,  -1.74083978 e-01,
      1.93412617 e-01,   2.18801126 e-01,   7.99714923 e-02,   5.98445609 e-02,
     -3.51044327 e-01,   7.25612566 e-02,  -2.87080139 e-01,  -1.75628588 e-01],
   [ -4.66888636 e-01,   5.99326640 e-02,  -2.20976606 e-01,   2.17031732 e-01,
      3.52019407 e-02,  -1.71015754 e-01,   2.47337207 e-01,   1.21915936 e-01,
      8.81480575 e-02,   6.76395223 e-02,   3.88588816 e-01,   3.64886254 e-01,
     -1.21814227 e-02,  -4.30055797 e-01,  -2.74664521 e-01,  -1.51922643 e-01,
     -3.67632806 e-01,  -3.14080894 e-01,  -7.29380548 e-02,   2.11867411 e-02,
      2.56046243 e-02,   4.16131675 e-01,   9.34854150 e-02,  -5.79038821 e-02,
      2.70558536 e-01,  -5.95540591 e-02,  -3.13717835 e-02,   1.03190780 e-01,
     -2.40213454 e-01,   4.40241694 e-02,  -4.95184101 e-02,   6.18210211 e-02,
     -3.45530033 e-01,  -1.09374158 e-01,  -1.79539934 e-01,  -1.97843537 e-01,
     -3.76302958 e-01,  -2.92741299 e-01,  -3.09190191 e-02,  -1.78286135 e-01,
     -3.71297821 e-02,  -2.99824476 e-01,   3.07910264 e-01,  -3.66004929 e-02,
      1.61418885 e-01,   9.10602452 e-04,  -1.17549255 e-01,  -3.34700108 e-01,
     -1.95717663 e-01,   6.40828609 e-02,   1.95377991 e-01,  -6.48786306 e-01,
     -2.14949787 e-01,  -5.81059575 e-01,  -1.34852752 e-01,  -2.62455910 e-01,
      6.64154887 e-02,  -3.92805822 e-02,   2.58481115 e-01,   3.07001397 e-02,
      8.99245292 e-02,  -8.30370113 e-02,   1.65638849 e-01,   1.10753790 e-01],],],


 [[[  2.91129827 e-01,   7.01182783 e-01,  -6.58950163 e-03,  -9.77592170 e-02,
      3.53974253 e-02,  -2.84696996 e-01,   2.76279580 e-02,  -2.24364966 e-01,
     -4.60903626 e-03,   4.05121684 e-01,  -2.96136320 e-01,  -4.13439609 e-02,
     -2.10844934 e-01,  -2.44070783 e-01,   6.79703891 e-01,  -4.23943847 e-02,
     -3.28664660 e-01,  -1.05218351 e-01,  -1.12212263 e-01,  -3.10878247 e-01,
      9.78278518 e-02,   3.69504154 e-01,   6.66347563 e-01,   9.77803543 e-02,
      4.19233680 e-01,   2.73373604 e-01,  -2.39198953 e-02,  -1.63787708 e-01,
      1.07957318 e-01,   1.69470802 e-01,  -9.30170417 e-01,  -1.93455160 e-01,
     -6.36853576 e-01,   8.43343198 e-01,  -2.68399507 e-01,   1.69741139 e-01,
     -2.14863047 e-01,  -3.08620512 e-01,  -5.98759413 e-01,  -1.86237469 e-01,
      1.65331051 e-01,  -6.21415377 e-02,   9.04020429 e-01,  -2.65548497 e-01,
      9.91284549 e-02,  -2.88544625 e-01,  -3.00485462 e-01,   7.35675573 e-01,
     -2.37913989 e-02,   4.18300569 e-01,   4.59313601 e-01,  -3.24649185 e-01,
      2.79137343 e-01,   3.11076880 e-01,   2.67513484 e-01,  -2.70897418 e-01,
      7.05148518 e-01,   1.94318786 e-01,  -2.88987008 e-04,   1.08847581 e-01,
     -3.15366358 e-01,  -3.03552717 e-01,  -8.62608969 e-01,  -5.64297915 e-01],
   [ -4.05511260 e-02,   7.37949237 e-02,   8.43116641 e-01,   5.53702593 e-01,
      1.52560547 e-01,  -5.70691638 e-02,   2.26334095 e-01,  -1.97656468 e-01,
     -4.33230437 e-02,   1.09826177 e-01,   4.57519032 e-02,   5.44005871 e-01,
      4.35463369 e-01,   5.45351207 e-01,  -8.22525620 e-01,  -2.16943532 e-01,
     -1.08396657 e-01,   1.59718797 e-01,  -1.65528297 e-01,  -1.02263913 e-02,
     -9.52509344 e-02,   3.68137836 e-01,  -4.35610086 e-01,   9.41383615 e-02,
      2.27945428 e-02,  -1.00750662 e-01,  -1.63876578 e-01,   7.76762217 e-02,
     -9.49797392 e-01,  -4.54209268 e-01,   5.75901985 e-01,   2.28016898 e-01,
     -2.46906534 e-01,  -6.95454061 e-01,  -2.52915144 e-01,  -8.50436650 e-03,
      2.42374748 e-01,   8.91443491 e-02,   4.55044180 e-01,   2.49237016 e-01,
      1.64337516 e-01,   3.54307681 e-01,  -1.45192325 e-01,   7.16477811 e-01,
     -4.73366007 e-02,  -8.43227506 e-01,  -6.58184290 e-01,  -7.74597406 e-01,
     -1.67383868 e-02,  -7.64328986 e-02,   5.52817643 e-01,  -5.18772244 e-01,
      2.29986295 e-01,  -3.12621206 e-01,   5.52305639 e-01,  -2.06355527 e-01,
      4.71751601 e-01,  -2.37966701 e-01,  -1.23260282 e-01,  -2.74755836 e-01,
      7.07103670 e-01,  -3.27466056 e-02,   1.48788893 e+00,  -3.42609107 e-01],
   [ -3.33251208 e-01,  -7.20376909 e-01,   4.06920940 e-01,   1.71017796 e-01,
     -5.47635630 e-02,  -5.91050535 e-02,   3.13888229 e-02,  -1.60055161 e-01,
      6.68009669 e-02,  -3.99476439 e-01,   2.72669345 e-01,  -1.02502808 e-01,
      6.78614318 e-01,   5.38782179 e-01,   9.95614052 e-01,   6.20533377 e-02,
      2.55279541 e-01,   2.85621643 e-01,  -4.95308906 e-01,   2.68588215 e-01,
      1.98769588 e-02,  -2.03228906 e-01,  -3.47853065 e-01,   1.34671479 e-01,
      1.22035354 e-01,   5.94783723 e-01,   3.14199328 e-01,  -1.40416101 e-01,
     -4.25439507 e-01,   2.57112950 e-01,   8.88272882 e-01,   9.64089334 e-02,
     -2.83875138 e-01,  -5.08648694 e-01,   2.36165691 e-02,  -5.73670566 e-01,
     -4.66980577 e-01,   2.16264859 e-01,   3.28729153 e-01,  -3.21194455 e-02,
      2.46602163 e-01,   1.25645429 e-01,  -6.09268486 e-01,  -3.47204149 e-01,
     -1.62895933 e-01,  -4.43732366 e-02,  -5.61760724 e-01,   7.52189606 e-02,
     -9.01918411 e-02,  -3.36548537 e-01,   2.00760111 e-01,   7.60789514 e-01,
      1.75315350 e-01,   1.07582040 e-01,  -4.53744441 e-01,   5.12102008 e-01,
      3.80828261 e-01,   1.29223764 e-01,  -9.36052874 e-02,  -2.73141055 e-03,
     -4.59301591 e-01,   2.09865719 e-01,  -7.60791779 e-01,  -3.29253823 e-01],],

  [[ -5.05720973 e-01,   3.43915582 e-01,  -9.82816577 e-01,  -1.12468374 e+00,
      8.26456904 e-01,   5.72314523 e-02,   1.37059450 e-01,   5.31024672 e-02,
      2.15845391 e-01,   2.78951049 e-01,  -1.65109307 e-01,  -4.48255651 e-02,
     -4.12652075 e-01,  -3.57668787 e-01,   2.45018434 e-02,   3.87044370 e-01,
     -2.48727068 e-01,   5.35798408 e-02,  -8.16502944 e-02,  -4.24453557 e-01,
      2.25939706 e-01,   3.05855811 e-01,   4.41414207 e-01,   5.39835155 e-01,
     -2.92861164 e-01,  -7.03238130 e-01,  -3.44036985 e-03,  -3.65908951 e-01,
     -8.88774619 e-02,   3.05555195 e-01,  -4.96607721 e-01,   5.35283163 e-02,
      2.66967088 e-01,  -8.81717913 e-03,   6.83906853 e-01,   5.08816838 e-01,
     -3.46314967 e-01,  -1.35172379 e+00,  -6.69108093 e-01,   3.49506624 e-02,
     -5.13680458 e-01,  -1.64451629 e-01,  -3.55345696 e-01,  -2.11337835 e-01,
      2.87647694 e-01,  -3.93926837 e-02,  -2.31305435 e-01,   6.82570636 e-01,
     -7.51000494 e-02,   3.85273069 e-01,   5.84526479 e-01,   8.25349241 e-02,
     -8.17624778 e-02,   1.36365041 e-01,  -5.14233392 e-03,  -2.16419041 e-01,
     -1.61769998 e+00,   1.39072335 e+00,  -9.57741737 e-02,   1.85029328 e-01,
     -4.63188738 e-01,  -7.31152534 e-01,  -8.70433450 e-01,  -6.14088066 e-02],
   [ -1.29111754 e-02,  -1.18124202 e-01,  -2.87542164 e-01,  -8.38596523 e-01,
      4.96225208 e-01,   4.76093069 e-02,   1.65233448 e-01,   1.89700574 e-01,
      1.97273761 e-01,  -3.89888026 e-02,   1.11216335 e-02,   6.78164721 e-01,
      3.78260195 e-01,  -3.59389812 e-01,  -1.06134033 e+00,   2.10948139 e-02,
     -3.75533253 e-02,   1.38587682 e-02,   7.89463744 e-02,   3.07823550 e-02,
     -3.35424244 e-01,   1.36592776 e-01,   4.80670668 e-02,   3.67940627 e-02,
     -4.46546972 e-01,  -6.66055679 e-01,  -7.38935396 e-02,   1.22054271 e-01,
     -6.13925636 e-01,   1.10579215 e-01,   1.16217062 e-01,   6.71602488 e-02,
      4.38973606 e-01,  -3.33093584 e-01,   7.68481374 e-01,   5.27745664 e-01,
      2.51121998 e-01,  -1.72425240 e-01,   3.50347579 e-01,   5.92630096 e-02,
     -4.66836572 e-01,  -7.07842223 e-03,  -7.21918702 e-01,  -2.39853486 e-01,
     -7.17845187 e-02,  -8.34060133 e-01,  -3.37614298 e-01,  -6.25879943 e-01,
      4.80960272 e-02,  -1.06246293 e-01,   7.72473335 e-01,  -3.00750017 e-01,
      2.77440158 e-05,  -3.79795372 e-01,   2.41092205 e-01,  -3.26643735 e-02,
     -1.26972318 e+00,  -2.06807637 e+00,  -1.67892531 e-01,  -2.80180573 e-01,
      2.26162121 e-01,  -2.09293887 e-01,   2.46894407 e+00,  -1.53132930 e-01],
   [  3.93366873 e-01,  -1.91276893 e-01,  -3.38121086 e-01,  -3.10811877 e-01,
      4.93122667 e-01,   5.43829203 e-01,  -4.77979891 e-02,  -3.56002033 e-01,
      3.09792936 e-01,  -2.00167835 e-01,   1.52609125 e-01,  -2.20439240 e-01,
      4.36870068 e-01,  -1.81880474 e-01,   3.82500142 e-01,   2.41593972 e-01,
      3.92746001 e-01,   7.86904693 e-02,  -6.73686638 e-02,  -1.19184712 e-02,
      1.65709615 e-01,  -4.02114034 e-01,  -5.02531119 e-02,   9.11320299 e-02,
     -4.02872026 e-01,   4.52932119 e-02,   2.36148730 e-01,   3.77002507 e-01,
     -1.95117474 e-01,   1.70886263 e-01,   5.29406190 e-01,  -5.12447171 e-02,
      5.07906854 e-01,   5.73604226 e-01,   5.90176404 e-01,   2.81865686 e-01,
     -1.64865151 e-01,   8.55035126 e-01,   2.44312569 e-01,   1.13715129 e-02,
     -6.39051557 e-01,  -7.04644024 e-02,  -8.49643409 e-01,  -6.68438315 e-01,
     -1.70242190 e-01,  -6.39513254 e-01,   1.76218897 e-01,  -5.61595745 e-02,
     -8.03856459 e-03,  -2.06983343 e-01,   3.08518589 e-01,   3.57461154 e-01,
      1.67247653 e-02,   8.03605020 e-02,  -3.43623906 e-02,   4.63913321 e-01,
     -4.72369730 e-01,   6.59246564 e-01,   9.62025374 e-02,  -7.94711113 e-02,
      6.80119842 e-02,   5.13809562 e-01,  -1.59014356 e+00,  -3.24083418 e-01],],

  [[ -7.65658557 e-01,  -2.40798041 e-01,   3.01785767 e-01,   1.32220125 e+00,
     -1.35425103 e+00,   1.28974140 e-01,  -1.61437616 e-02,   5.55322289 e-01,
      1.43648431 e-01,   3.85924816 e-01,  -7.59851262 e-02,   2.08382085 e-01,
     -2.20056355 e-01,  -2.32129738 e-01,   1.93051919 e-01,   2.53349751 e-01,
     -7.13530779 e-01,  -3.88742536 e-01,  -7.81098902 e-02,  -3.32133293 e-01,
     -2.22930700 e-01,   1.26848698 e-01,  -6.51199877 e-01,  -5.43913580 e-02,
     -4.64146316 e-01,  -1.24209046 e-01,  -7.93495402 e-02,  -4.03825343 e-01,
     -3.62801015 e-01,   1.42383114 e-01,  -3.61229897 e-01,   1.70969024 e-01,
      4.09943759 e-01,  -8.65397215 e-01,  -3.56077015 e-01,  -1.37433696 e+00,
     -4.33583617 e-01,  -1.92579615 e+00,  -6.86291158 e-01,   4.29424159 e-02,
      7.52203643 e-01,   1.11123202 e-02,  -1.16321869 e-01,   9.32721317 e-01,
      1.91496849 e-01,  -2.75393903 e-01,   1.16914797 e+00,  -1.82877347 e-01,
     -2.78148428 e-02,   3.83458197 e-01,   4.98141617 e-01,   1.40133455 e-01,
     -2.01198995 e-01,  -3.03333905 e-02,  -1.11757946 e+00,  -2.16480330 e-01,
      6.09120019 e-02,   1.94323456 e+00,   3.26977283 e-01,   3.40591818 e-01,
     -3.23916465 e-01,  -9.00594056 e-01,  -3.93008888 e-01,   4.11327899 e-01],
   [  2.47991532 e-01,   3.47841321 e-03,  -1.25423148 e-01,   1.65847614 e-01,
     -1.17386568 e+00,  -1.04419813 e-01,  -2.29406446 e-01,   5.64100027 e-01,
      3.03512454 e-01,  -5.71166947 e-02,   1.13017134 e-01,   6.66018009 e-01,
      1.60747781 e-01,  -8.36096466 e-01,  -8.12661871 e-02,   3.93335938 e-01,
     -1.07351251 e-01,   7.88913369 e-02,   1.12720817 e-01,   1.39333189 e-01,
     -4.51292574 e-01,   2.28492111 e-01,  -1.27487734 e-01,  -7.42868185 e-01,
      8.27635229 e-01,  -1.56039432 e-01,  -1.44796044 e-01,   3.98155838 e-01,
     -3.41664016 e-01,   1.03405640 e-01,  -6.34701774 e-02,  -4.71123494 e-02,
      3.23320299 e-01,   5.53007007 e-01,  -6.93495274 e-01,  -1.02710259 e+00,
      2.84119248 e-01,  -4.76130873 e-01,   1.85043499 e-01,  -3.13935168 e-02,
      6.02072120 e-01,   9.29075629 e-02,   6.82428956 e-01,   4.57867503 e-01,
     -4.42871545 e-03,  -8.40580225 e-01,   1.12161493 e+00,  -2.03888670 e-01,
     -1.84378847 e-01,  -1.43176764 e-01,   6.92833722 e-01,  -1.78150386 e-01,
     -9.27615464 e-02,  -2.99664587 e-01,  -1.30878961 e+00,   9.81966406 e-03,
      2.39996403 e-01,  -2.61622429 e+00,   3.37895513 e-01,  -1.83823600 e-01,
     -5.28160393 e-01,  -3.36718798 e-01,   7.87697375 e-01,   1.10103108 e-01],
   [  6.23266518 e-01,   1.67397350 e-01,   1.02297470 e-01,   3.35309267 e-01,
     -3.95353436 e-01,   1.14047900 e-01,  -1.56899601 e-01,  -2.16970369 e-01,
      3.93334031 e-01,  -4.73747775 e-02,   3.80657464 e-01,   1.36049539 e-01,
      1.92306101 e-01,  -5.20619273 e-01,   5.17524540 e-01,   5.87709665 e-01,
      4.97632384 e-01,   2.22669989 e-01,   1.60664573 e-01,   1.10341586 e-01,
      6.56234980 e-01,   1.04597576 e-01,   2.52200723 e-01,  -6.59292817 e-01,
      5.35903990 e-01,  -2.93942243 e-01,   2.03967065 e-01,   5.19659460 e-01,
     -1.32158935 e-01,  -2.08046325 e-02,   5.73910832 e-01,   2.81194955 e-01,
     -3.06186528 e-04,   6.81718290 e-01,  -7.34232664 e-01,   5.69586337 e-01,
      4.10609871 e-01,   5.37690282 e-01,   5.25393724 e-01,  -4.65823486 e-02,
      6.30506694 e-01,   1.85565993 e-01,   9.36582446 e-01,   8.41101706 e-01,
     -1.69330850 e-01,  -5.55324435 e-01,   1.48454738 e+00,   4.21580017 e-01,
     -3.14667314 e-01,  -3.21852475 e-01,   5.54554760 e-01,   9.68885724 e-04,
      3.16513935 e-03,   5.65207779 e-01,  -3.28427441 e-02,   3.25725168 e-01,
      4.22771275 e-01,   4.56380576 e-01,   5.52923262 e-01,  -3.12687337 e-01,
      8.93828049 e-02,   6.36931300 e-01,  -5.10542870 e-01,   1.97148427 e-01],],

  [[  3.09988201 e-01,  -6.59833372 e-01,   3.05754662 e-01,   3.16516399 e-01,
     -4.37307507 e-02,  -7.19817355 e-02,   8.14569518 e-02,   3.28148812 e-01,
     -1.55936688 e-01,   2.08690047 e-01,  -3.46568078 e-01,  -4.04638022 e-01,
      2.14386329 e-01,   4.84222889 e-01,  -2.36047566 e-01,  -7.24739730 e-01,
      2.60458827 e-01,  -2.40391679 e-02,  -9.97533128 e-02,  -3.47118378 e-01,
     -4.19120103 e-01,  -5.65126061 e-01,  -2.85257518 e-01,  -8.89282748 e-02,
      3.86256911 e-02,   5.16201794 e-01,  -1.77510127 e-01,  -5.21894693 e-01,
     -1.00313708 e-01,  -6.13308838 e-03,   9.40009475 e-01,  -3.80151272 e-01,
     -3.90414357 e-01,  -1.83176070 e-01,  -6.88249990 e-02,   9.07034636 e-01,
      1.57970890 e-01,  -3.56015265 e-01,  -3.24977413 e-02,  -1.64853886 e-01,
     -5.10642350 e-01,  -1.46633433 e-02,  -7.63043284 e-01,  -1.01858184 e-01,
     -1.31924927 e-01,  -2.38107622 e-01,  -1.26953438 e-01,  -1.19852602 e+00,
      2.80579150 e-01,   1.64878651 e-01,   8.50053355 e-02,   5.39506435 e-01,
      1.78954564 e-02,  -4.74690832 e-02,   7.47693241 e-01,  -2.39029765 e-01,
      1.22494888 e+00,   3.75558019 e-01,   1.89612322 e-02,  -6.00435585 e-02,
      2.50308484 e-01,  -7.26741493 e-01,   4.53930110 e-01,   4.88287717 e-01],
   [ -4.05554295 e-01,   9.31257010 e-02,  -2.08212912 e-01,  -1.04523048 e-01,
     -3.49389970 e-01,   2.81749368 e-01,  -1.09442890 e-01,   5.39759755 e-01,
     -1.26236165 e-02,  -1.98755637 e-01,  -1.14305831 e-01,  -6.18403479 e-02,
      1.32133529 e-01,  -5.30588686 e-01,   9.35652196 e-01,  -3.95875812 e-01,
      3.03274572 e-01,   4.58389483 e-02,   8.03711414 e-02,   2.39914600 e-02,
     -4.06901062 e-01,  -7.94372022 e-01,   2.83026788 e-03,   4.56078857 e-01,
      3.79355140 e-02,   4.98381436 e-01,  -1.59945354 e-01,   3.90532523 e-01,
      5.70248067 e-01,   3.29238981 e-01,  -1.76158875 e-01,  -1.17684871 e-01,
     -6.96485937 e-01,   4.74224478 e-01,  -1.58019304 e-01,   3.95199239 e-01,
     -4.98761237 e-01,   1.75916657 e-01,  -1.80311546 e-01,   1.43922284 e-01,
     -5.52559793 e-01,   1.57683678 e-02,   9.33669955 e-02,  -7.35465288 e-01,
     -9.88737196 e-02,  -5.66330552 e-01,   1.09702442 e-02,   6.21720731 e-01,
      4.10642713 e-01,  -9.51220281 e-03,   1.57641858 e-01,   1.79507155 e-02,
      2.06653103 e-01,  -2.98305079 e-02,  -2.18652084 e-01,  -1.75254211 e-01,
      8.04413199 e-01,  -5.54462075 e-01,  -3.33053440 e-01,  -2.37151787 e-01,
     -5.68866611 e-01,  -2.97470480 e-01,  -1.17530406 e+00,  -1.67109057 e-01],
   [ -2.25848973 e-01,   4.97100830 e-01,   1.08590789 e-01,  -3.75206590 e-01,
      1.80571094 e-01,  -1.25155091 e-01,  -1.46893682 e-02,   8.32537040 e-02,
      2.26685569 e-01,   3.96560840 e-02,  -9.42342803 e-02,   1.05852008 e-01,
     -1.13498874 e-01,  -3.32925022 e-01,  -9.07682061 e-01,  -6.79850876 e-01,
     -6.96772635 e-02,   1.04479045 e-02,   1.46261409 e-01,   3.69217634 e-01,
      7.97784150 e-01,  -1.37105450 e-01,   4.21140552 e-01,   3.55181426 e-01,
     -6.53408051 e-01,  -3.35793436 e-01,   3.10532629 e-01,   6.22864366 e-01,
      4.40984905 e-01,  -4.92104366 e-02,  -1.13060486 e+00,  -1.02898300 e-01,
     -7.06282079 e-01,  -3.56068224 e-01,  -1.71406433 e-01,  -1.20104246 e-01,
      3.40985432 e-02,   3.65419865 e-01,   1.32289678 e-01,   5.85867167 e-02,
     -1.65304974 e-01,  -7.45918229 e-02,   5.57369351 e-01,   2.12365091 e-01,
     -7.45961070 e-02,   1.39832394 e-02,  -5.54941475 e-01,   5.52328169 e-01,
      4.75215673 e-01,   4.96089691 e-03,   1.49366856 e-01,  -6.12972558 e-01,
     -2.71456361 e-01,   6.19263947 e-01,   5.10003090 e-01,   5.03356636 e-01,
      2.38024533 e-01,   3.02919626 e-01,  -4.92236942 e-01,  -1.75946355 e-01,
      2.75637060 e-01,   5.08769095 e-01,   8.82781684 e-01,  -3.77139589 e-03],],

  [[  7.47852921 e-01,  -2.50352502 e-01,   3.59541923 e-01,  -2.92875618 e-01,
      6.24413252 e-01,  -3.32624726 e-02,  -2.39708070 e-02,   5.21128714 e-01,
     -1.21517763 e-01,   1.57572746 e-01,  -2.79552370 e-01,  -2.00151607 e-01,
      2.15170577 e-01,   3.87498081 e-01,  -5.04031599 e-01,  -3.30863222 e-02,
      1.92167416 e-01,  -1.68359671 e-02,  -1.62529260 e-01,  -5.91160059 e-02,
      3.46524090 e-01,  -3.26955140 e-01,  -1.58331141 e-01,   1.94246899 e-02,
      1.04920223 e-01,  -7.22637996 e-02,  -2.10699245 e-01,  -5.35949051 e-01,
      1.44015431 e-01,  -1.69633865 e-01,   5.42980373 e-01,  -7.97475651 e-02,
      3.87176692 e-01,  -2.33814240 e-01,   4.91036735 e-02,  -1.17586650 e-01,
      2.37661630 e-01,  -9.17264223 e-02,   3.60110611 e-01,  -4.37380746 e-02,
      9.57858190 e-02,   9.12213251 e-02,   8.43487829 e-02,  -5.44626312 e-03,
     -1.35072559 e-01,   1.65470436 e-01,  -2.68977612 e-01,  -5.89643180 e-01,
     -1.55742228 e-01,  -2.28657216 e-01,  -2.72287399 e-01,   1.86674744 e-01,
     -2.20538870 e-01,   8.01125839 e-02,   2.65902400 e-01,  -1.24505952 e-01,
     -2.93645948 e-01,  -1.22613147 e-01,  -1.10026158 e-01,   7.98560157 e-02,
      2.10567545 e-02,  -4.70561355 e-01,   2.89231986 e-01,   4.31019455 e-01],
   [ -3.65349561 e-01,   1.26389503 e-01,   2.75746398 e-02,   1.89495817 e-01,
      1.61782205 e-01,   3.14285636 e-01,   2.48140708 e-01,   5.34633875 e-01,
     -3.65016729 e-01,  -1.00630365 e-01,   3.60049903 e-02,  -1.02284387 e-01,
      5.24934113 e-01,  -2.01162204 e-01,   9.55756307 e-01,   3.38214964 e-01,
      2.58063730 e-02,  -2.10211203 e-02,   3.26402128 e-01,  -5.93771823 e-02,
     -1.30987808 e-01,  -3.80031437 e-01,  -9.48902741 e-02,   2.27055699 e-01,
      1.10963620 e-01,   1.61413863 e-01,  -3.69019359 e-02,   1.53167531 e-01,
      1.01499903 e+00,   2.88554907 e-01,  -2.92768329 e-01,   2.97157526 e-01,
      3.10045213 e-01,   2.87409306 e-01,   2.29638100 e-01,   8.14515129 e-02,
     -2.17815623 e-01,   1.07710622 e-02,  -4.53395933 e-01,   2.36569852 e-01,
      2.04525054 e-01,  -1.96984336 e-01,  -5.62889874 e-03,  -3.08457255 e-01,
      6.29596710 e-02,  -3.77103925 e-01,  -1.80874728 e-02,   4.99425799 e-01,
     -3.69091362 e-01,  -2.39570469 e-01,  -1.31782174 e-01,   2.90895253 e-01,
      5.67033812 e-02,  -8.62650052 e-02,  -1.77196026 e-01,  -1.44018322 e-01,
     -5.78827620 e-01,   2.17503738 e-02,  -9.47894603 e-02,  -3.91247915 e-03,
     -3.46393526 e-01,  -8.90086517 e-02,  -4.54870403 e-01,  -2.02346042 e-01],
   [ -3.93256307 e-01,   1.22689577 e-02,   3.89255881 e-02,  -1.16382308 e-01,
      1.70695372 e-02,   3.64285022 e-01,  -3.57124582 e-02,   2.72934377 e-01,
     -1.75106958 e-01,   2.26798162 e-01,   2.40362555 e-01,  -8.05354305 e-03,
      7.30231404 e-01,  -1.99357942 e-01,  -4.40612912 e-01,  -2.91060358 e-01,
     -3.52486193 e-01,   5.54422801 e-03,   2.38064706 e-01,   1.37079537 e-01,
     -1.60928458 e-01,   2.13146523 e-01,   3.99360806 e-02,  -6.23405501 e-02,
      2.28453483 e-02,  -1.69743672 e-01,   2.68536419 e-01,   3.67250413 e-01,
      5.49296618 e-01,  -3.43085736 e-01,  -5.50095737 e-01,   7.70709962 e-02,
      5.50323129 e-01,  -1.37592167 e-01,   3.23821902 e-01,  -3.68809402 e-01,
     -2.52093107 e-01,   4.68113422 e-02,  -2.96944845 e-02,   1.30429696 e-02,
      7.79583864 e-03,  -5.15361037 e-03,   7.52459913 e-02,  -1.51540190 e-01,
     -8.38852860 e-03,  -5.77847473 e-02,  -4.67106819 e-01,   1.19976081 e-01,
     -1.65060714 e-01,   8.66880044 e-02,   1.35176750 e-02,  -4.15463835 e-01,
     -3.54782492 e-01,   2.20720112 e-01,  -2.67065525 e-01,   3.30337286 e-01,
     -5.63389719 e-01,  -2.58876383 e-02,  -2.39067927 e-01,   5.40221892 e-02,
      8.54673013 e-02,   2.84197271 e-01,   1.75880626 e-01,   1.55259997 e-01],],],


 [[[  7.12928995 e-02,   6.44386530 e-01,  -1.79402471 e-01,  -7.19756559 e-02,
     -6.99491680 e-01,  -8.68614316 e-02,  -1.43658310 e-01,  -3.92226100 e-01,
     -2.84767210 e-01,   1.69346184 e-01,  -3.71633768 e-01,  -3.15659136 e-01,
      2.92414814 e-01,  -3.17499965 e-01,   3.51259857 e-01,  -2.37783462 e-01,
      4.01574001 e-02,  -6.24912024 e-01,  -8.15921351 e-02,  -1.96148437 e-02,
     -6.50705099 e-02,  -4.79001626 e-02,   4.85246480 e-01,   3.80288959 e-02,
      4.32845354 e-01,  -2.74733990 e-01,  -1.89732179 e-01,   2.58917511 e-01,
     -2.18427911 e-01,  -1.13543712 e-01,  -2.21821040 e-01,  -7.37757012 e-02,
      6.86281323 e-01,   7.31851757 e-01,  -4.44540270 e-02,   7.03576356 e-02,
      9.50858891 e-02,  -2.31923908 e-01,  -4.58432406 e-01,   3.40938568 e-02,
      2.70167679 e-01,  -1.04259260 e-01,   1.62022069 e-01,  -2.38471821 e-01,
      1.65042967 e-01,   1.04518540 e-01,   5.55555761 e-01,   5.09811759 e-01,
     -9.74110961 e-02,   4.19679135 e-01,  -4.85907793 e-02,  -2.12757558 e-01,
      3.28914791 e-01,   1.09397173 e-01,  -6.86407536 e-02,  -2.53952384 e-01,
     -3.43266338 e-01,  -3.96120697 e-01,   2.41119228 e-02,  -4.62813936 e-02,
     -7.49325752 e-02,   5.46593487 e-01,  -7.32030720 e-02,   3.37166116 e-02],
   [  5.03510684 e-02,   8.80911276 e-02,   7.49151766 e-01,   3.16270024 e-01,
     -7.67060071 e-02,  -3.05364490 e-01,   7.76720271 e-02,  -4.04506236 e-01,
     -4.27643001 e-01,  -1.20894320 e-01,   6.41504824 e-02,   2.38592058 e-01,
     -2.58894801 e-01,  -1.62563562 e-01,  -8.83205175 e-01,  -1.37375459 e-01,
     -3.97287250 e-01,  -1.62145998 e-02,   3.70240249 e-02,  -7.08720237 e-02,
     -2.12313030 e-02,   1.85387600 e-02,  -1.18420511 e-01,   8.59598592 e-02,
     -1.67580321 e-01,  -4.32314456 e-01,   1.70078337 e-01,  -8.81967992 e-02,
     -1.82674214 e-01,  -8.24635327 e-01,   2.98933744 e-01,   1.59417167 e-01,
      1.07967246 e+00,  -6.41446710 e-01,  -1.38933048 e-01,   7.87060410 e-02,
      3.08454812 e-01,   1.75097078 e-01,   7.49279037 e-02,   1.61253393 e-01,
      1.74930111 e-01,   1.53748527 e-01,  -4.60541815 e-01,   2.96426833 e-01,
     -2.55107105 e-01,   1.16405666 e-01,   3.71979058 e-01,  -5.81893921 e-01,
     -3.05462796 e-02,  -9.29379165 e-02,  -2.46125549 e-01,  -4.71332878 e-01,
      2.43324697 e-01,  -1.31837621 e-01,   1.37251243 e-01,   2.58474238 e-02,
     -2.58433908 e-01,   6.01670861 e-01,  -2.55567841 e-02,   2.35754047 e-02,
      8.58337879 e-01,   3.09402160 e-02,  -8.69526714 e-02,   5.80485821 e-01],
   [ -8.93037468 e-02,  -7.91858852 e-01,   8.58160257 e-02,  -1.36093184 e-01,
     -2.47532532 e-01,  -4.72473651 e-01,   6.24365956 e-02,  -1.14308737 e-01,
     -2.19794810 e-01,  -4.51934431 e-03,   1.28747210 e-01,  -6.36970401 e-01,
     -2.51163989 e-01,  -1.11037754 e-01,   2.17649728 e-01,  -9.41259712 e-02,
     -2.33794320 e-02,   8.80073160 e-02,  -4.63604212 e-01,  -2.48348787 e-02,
      4.01066570 e-03,   3.83472852 e-02,  -9.48502421 e-02,   2.90734274 e-03,
     -3.67769301 e-02,   5.13096631 e-01,  -3.24028552 e-01,  -8.99699256 e-02,
      9.61328298 e-02,   1.50760651 e-01,   9.00573730 e-02,  -1.72817588 e-01,
      6.85524642 e-01,  -1.68748423 e-01,   9.47506353 e-03,  -3.10063630 e-01,
     -1.58448294 e-02,  -1.45361513 e-01,   3.37130755 e-01,   4.29498963 e-02,
      1.46485925 e-01,   1.63033321 e-01,  -7.33900070 e-01,  -8.37934315 e-01,
     -1.54492170 e-01,   2.53103286 e-01,   8.48355591 e-02,   1.74418315 e-02,
     -1.01606682 e-01,  -5.19662917 e-01,  -1.84653029 e-01,   8.04501712 e-01,
      1.25834957 e-01,   2.06454113 e-01,  -5.15310943 e-01,   1.59408122 e-01,
      2.84541976 e-02,  -1.34962857 e-01,  -1.14250511 e-01,   9.97445807 e-02,
     -8.42250228 e-01,  -1.53239682 e-01,   3.44067335 e-01,   3.47062260 e-01],],

  [[ -6.08506441 e-01,   4.34082657 e-01,  -8.59649837 e-01,  -5.97279131 e-01,
      1.61966383 e-01,   3.04204971 e-01,  -1.83773696 e-01,  -1.17905371 e-01,
     -5.84009588 e-01,   7.81180784 e-02,  -2.48226851 e-01,  -1.62703395 e-01,
      3.87889981 e-01,   2.83965021 e-01,   3.51070583 e-01,   5.00931516 e-02,
      2.15841718 e-02,  -6.46778420 e-02,   1.54369529 e-02,   3.29513252 e-01,
      4.04483601 e-02,   1.31410211 e-02,  -2.22825468 e-01,   2.23008186 e-01,
     -1.51459992 e-01,  -5.85893035 e-01,  -1.97677270 e-01,  -5.09593546 e-01,
      2.09507078 e-01,   5.99090680 e-02,  -8.05980340 e-02,  -4.60342616 e-02,
     -1.33748138 e+00,  -4.70019542 e-02,  -2.60260731 e-01,   1.99916616 e-01,
      3.21782716 e-02,  -3.94207507 e-01,  -6.90251775 e-03,   3.39206040 e-01,
     -6.79798186 e-01,   3.06998789 e-02,  -2.40830854 e-01,   5.85039318 e-01,
     -6.55410439 e-02,   5.27687371 e-01,  -1.85601890 e-01,   9.48672652 e-01,
      4.36485745 e-02,   5.06445646 e-01,  -4.67988193 e-01,   4.54762615 e-02,
     -1.91224650 e-01,   2.91213185 e-01,   6.32945001 e-01,  -4.64557827 e-01,
      3.20443958 e-01,   1.10943452 e-01,   2.90769860 e-02,  -1.83631897 e-01,
     -2.97271997 e-01,   6.41262352 e-01,   1.56428531 e-01,  -6.63073003 e-01],
   [  1.14264123 e-01,  -1.52354613 e-01,  -1.84595257 e-01,   2.19819352 e-01,
      3.77623677 e-01,  -1.39972940 e-03,  -6.18490316 e-02,  -3.43440026 e-01,
     -4.87724394 e-01,  -1.98498696 e-01,   6.74140528 e-02,   6.81594849 e-01,
      9.55278128 e-02,  -2.66873389 e-01,  -4.88668710 e-01,   2.54517645 e-01,
     -1.97609127 e-01,   5.02797961 e-01,   9.39851999 e-02,  -7.21709579 e-02,
     -2.39780941 e-03,  -4.01751511 e-02,  -5.96477650 e-02,  -2.43758336 e-01,
     -6.37412786 e-01,  -5.93720734 e-01,   3.54887843 e-02,  -1.73837408 e-01,
      3.56265306 e-01,  -6.03364944 e-01,   1.10142767 e-01,   1.23401999 e-01,
     -1.22216594 e+00,  -1.38864756 e-01,   5.17493002 e-02,   1.28353849 e-01,
      5.17905176 e-01,   3.78100455 e-01,  -1.24536134 e-01,   1.43835098 e-01,
     -6.51676655 e-01,   1.53361917 e-01,   7.03034043 e-01,   5.15116990 e-01,
     -1.89684540 e-01,   5.06124675 e-01,  -1.79587543 e-01,  -7.74382114 e-01,
      1.43001936 e-02,   2.82175336 e-02,  -4.26255554 e-01,  -1.82808340 e-02,
      1.55626647 e-02,  -2.37798989 e-01,   1.07364130 e+00,   1.76035613 e-01,
      1.92749456 e-01,  -4.20769751 e-01,   4.22137640 e-02,  -2.74997294 e-01,
      6.18558645 e-01,  -1.18573979 e-01,  -2.54157752 e-01,  -1.53859451 e-01],
   [  4.93267685 e-01,  -2.59930402 e-01,  -5.40107965 e-01,   2.92491555 e-01,
      2.20934659 e-01,   1.42550915 e-01,  -7.10970834 e-02,  -2.93117285 e-01,
      5.17450161 e-02,   2.48360127 e-01,   9.47661698 e-02,  -4.17154402 e-01,
     -2.91637212 e-01,  -3.40757549 e-01,   6.32683218 e-01,   4.64269727 e-01,
      1.97747424 e-01,  -1.39137292 e-02,  -1.87823400 e-02,  -1.46090895 e-01,
      1.02084309 e-01,  -3.84973399 e-02,   1.77814037 e-01,  -2.03010798 e-01,
     -1.20719135 e-01,  -4.13280845 e-01,  -2.90982932 e-01,   2.03261748 e-01,
      2.71121144 e-01,   3.27365667 e-01,   8.59606564 e-02,  -1.08353525 e-01,
     -1.25274241 e+00,   3.42809021 e-01,   9.52460542 e-02,   6.77107275 e-02,
     -1.88290644 e-02,   2.04524785 e-01,   1.12888766 e-02,   1.34343386 e-01,
     -6.47600591 e-01,   1.05652608 e-01,   6.54914200 e-01,   6.45816207 e-01,
     -1.30727053 e-01,  -6.64352328 e-02,  -4.71751541 e-01,  -2.45819762 e-01,
     -3.03120613 e-02,  -2.78922409 e-01,  -3.60755883 e-02,  -2.10151114 e-02,
      2.02370044 e-02,   2.17417404 e-01,  -1.45377830 e-01,   4.17339027 e-01,
      3.58608365 e-01,   3.18002820 e-01,  -8.03327933 e-02,  -2.76749045 e-01,
     -1.25631958 e-01,  -1.40478477 e-01,   5.81609979 e-02,  -1.84269831 e-01],],

  [[ -7.98232615 e-01,  -5.83252646 e-02,   3.19744259 e-01,  -3.46861184 e-01,
      6.99449301 e-01,   2.97100931 e-01,  -1.28572732 e-01,  -1.23569325 e-01,
     -4.28831220 e-01,   2.36014187 e-01,   2.39138491 e-02,  -9.23857167 e-02,
      5.91429114 e-01,   5.90211749 e-01,  -3.74467552 e-01,  -6.93185985 e-01,
     -7.50485599 e-01,  -7.64380574 e-01,  -2.60475248 e-01,   3.71493489 e-01,
     -3.63353431 e-01,   2.45235965 e-01,  -9.39573526 e-01,  -9.19247717 e-02,
     -2.70948201 e-01,   1.00105941 e+00,   1.37466716 e-03,  -2.65186101 e-01,
      1.75770685 e-01,   9.17193480 e-03,  -5.18081486 e-01,  -2.00360566 e-02,
      7.93070138 e-01,  -7.23991215 e-01,   3.36754411 e-01,  -8.46747100 e-01,
     -4.61945623 e-01,  -5.78238666 e-01,   1.85421690 e-01,   4.70498770 e-01,
      1.17087650 e+00,  -3.54621783 e-02,  -5.88548839 e-01,   9.45741385 e-02,
     -1.47217661 e-01,   2.11234540 e-01,  -8.60338628 e-01,   1.30390656 e+00,
      4.46173698 e-02,   1.57932833 e-01,  -4.83141810 e-01,   5.16313314 e-02,
     -5.65236881 e-02,   1.21369697 e-01,   1.04060814 e-01,  -6.77799582 e-01,
      8.71228933 e-01,   5.06193578 e-01,  -4.91924882 e-02,   1.44493580 e+00,
     -7.44633615 e-01,   7.12814748 e-01,   3.66439909 e-01,  -3.40444058 e-01],
   [  4.42179829 e-01,  -1.75329909 e-01,  -3.52659196 e-01,  -6.27290785 e-01,
      3.07244748 e-01,  -1.91967428 e-01,   8.73252749 e-03,  -3.20582271 e-01,
     -6.30824208 e-01,  -3.33178997 e-01,   1.97925553 e-01,   7.11637974 e-01,
     -1.10866055 e-02,   1.01528510 e-01,  -9.80137765 e-01,  -1.01750560 e-01,
     -4.09840047 e-02,   1.12111963 e-01,  -9.03922468 e-02,  -1.86307460 e-01,
     -1.06382325 e-01,   1.05503656 e-01,  -2.36174673 e-01,  -4.78880644 e-01,
      6.75645471 e-01,   7.08984733 e-01,   1.00611843 e-01,   4.71350223 e-01,
      4.35342401 e-01,  -2.83635765 e-01,  -1.15704499 e-01,   1.70434982 e-01,
      9.50980961 e-01,   3.73343974 e-01,   3.01717639 e-01,  -4.19917613 e-01,
      2.60805041 e-01,   4.37514663 e-01,  -3.50444853 e-01,   3.88967209 e-02,
      9.98173833 e-01,   2.56015137 e-02,   3.00226599 e-01,  -6.87192917 e-01,
     -7.67934620 e-02,   3.80353391 e-01,  -1.10912871 e+00,  -9.63331640 e-01,
     -6.36852682 e-02,  -2.42313758 e-01,  -5.38223445 e-01,   2.67368674 e-01,
     -8.26285183 e-02,  -6.59655392 e-01,   3.83476287 e-01,   2.53080755 e-01,
      4.05193537 e-01,  -5.95076144 e-01,   1.89419419 e-01,   7.25162208 e-01,
      5.96002378 e-02,   3.45607214 e-02,  -9.74963009 e-01,  -2.90684223 e-01],
   [  5.97841024 e-01,   1.17964514 e-01,   1.47025213 e-01,   1.87354878 e-01,
      2.59284765 e-01,   2.73291860 e-03,   1.93639532 e-01,  -4.21519369 e-01,
     -6.65110499 e-02,   2.53705531 e-01,   7.26182386 e-02,  -6.36685014 e-01,
     -5.54005623 e-01,   1.85019836 e-01,   4.59208459 e-01,  -7.97406510 e-02,
      5.57086527 e-01,  -1.40957404 e-02,   3.28840733 e-01,  -2.82298416 e-01,
      4.68070686 e-01,  -2.65325934 e-01,   5.94149888 e-01,  -2.47045636 e-01,
      7.50016809 e-01,   1.57675534 e-01,  -4.13292527 e-01,   1.22124963 e-01,
      1.24024756 e-01,   3.52564454 e-01,   7.12028563 e-01,   1.88455164 e-01,
      9.91790652 e-01,   2.67605633 e-01,   1.90781608 e-01,   6.09324872 e-01,
      7.95802921 e-02,   3.52441855 e-02,  -5.68779632 e-02,  -7.15247393 e-02,
      1.09399545 e+00,   1.04241796 e-01,   4.55820918 e-01,   3.68599862 e-01,
     -5.94639480 e-02,   1.16788924 e-01,  -5.12994647 e-01,  -2.61358678 e-01,
     -2.25542396 e-01,  -8.07759881 e-01,  -1.64516613 e-01,  -4.19046879 e-01,
     -1.61085663 e-05,   4.43005800 e-01,   5.55980504 e-01,   5.90796590 e-01,
      2.21518040 e-01,   3.38840634 e-01,   3.64773721 e-01,   6.28380954 e-01,
      2.87962914 e-01,  -2.71027774 e-01,   7.89780378 e-01,  -3.92895937 e-01],],

  [[  9.42296013 e-02,  -5.65128863 e-01,   4.77191627 e-01,   8.03361654 e-01,
      5.74956954 e-01,   2.40432963 e-01,  -8.04132968 e-02,  -2.99607277 e-01,
     -2.43348882 e-01,   6.44223392 e-02,   3.31027865 e-01,  -2.41330087 e-01,
      7.65469670 e-01,   4.27431464 e-01,   2.81211317 e-01,  -2.83256531 e-01,
     -2.53471255 e-01,   3.80035043 e-02,   3.06736585 e-02,   2.17417195 e-01,
     -3.26443583 e-01,   3.53871763 e-01,  -3.74484569 e-01,  -2.02094242 e-01,
      1.88376501 e-01,   7.32567981 e-02,   5.32843880 e-02,  -3.10595125 e-01,
      7.97416866 e-02,  -5.12076821 e-03,   2.35158965 e-01,  -6.61929250 e-02,
     -3.07578266 e-01,  -1.48574263 e-01,  -6.75574765 e-02,   4.74565297 e-01,
      2.39966616 e-01,   3.32198709 e-01,   7.95786977 e-01,   1.45481110 e-01,
     -8.64170194 e-01,  -9.99784693 e-02,  -3.24019879 e-01,  -5.38045347 e-01,
      4.62872768 e-03,  -3.28420699 e-02,   2.47896895 e-01,   3.26287061 e-01,
      1.37911111 e-01,   4.34639752 e-01,  -2.38446444 e-01,   4.69368130 e-01,
     -1.12847045 e-01,  -4.85063158 e-02,  -7.19021380 e-01,  -6.57455027 e-01,
     -7.97357321 e-01,  -7.01519191 e-01,   1.26269579 e-01,   5.28289974 e-01,
     -1.28147051 e-01,   4.57743943 e-01,   6.62635982 e-01,  -2.49048978 e-01],
   [ -2.37496331 e-01,   8.24647918 e-02,  -3.33465755 e-01,   1.13785602 e-01,
      6.79403022 e-02,   9.87902582 e-02,  -9.89294052 e-02,  -2.84120739 e-01,
     -4.59747016 e-01,  -1.46560952 e-01,   2.89950728 e-01,   6.62949324 e-01,
     -1.62738740 e-01,  -3.99626404 e-01,   7.54598975 e-01,   1.72698677 e-01,
      4.12937887 e-02,   3.67937326 e-01,  -2.21381728 e-02,  -1.63165554 e-01,
     -1.32702932 e-01,   1.77137837 e-01,  -8.82057771 e-02,   2.66985297 e-01,
     -3.40122990 e-02,   2.52457023 e-01,   1.72834694 e-01,   1.96289495 e-01,
      4.83081490 e-01,   2.50770211 e-01,  -5.85490093 e-02,   1.87994584 e-01,
     -3.49671125 e-01,   3.86538565 e-01,  -2.37357780 e-01,   1.32417381 e-01,
     -6.69517368 e-03,   3.90374720 e-01,  -6.96542978 e-01,   9.94285755 e-03,
     -9.26427782 e-01,  -1.34491906 e-01,  -9.74406376 e-02,  -8.66053760 e-01,
     -1.78392988 e-03,   2.00040579 e-01,   4.21476513 e-01,  -3.63657594 e-01,
      2.75762290 e-01,   1.26196459 e-01,  -4.41840798 e-01,   3.07828218 e-01,
     -5.65217957 e-02,  -9.79567766 e-02,  -1.20881510 e+00,   1.52777657 e-01,
     -9.12416041 e-01,   5.62000155 e-01,   7.63701648 e-02,   1.42998144 e-01,
      9.62466151 e-02,   2.11389214 e-02,  -1.52422154 e+00,  -4.53424662 e-01],
   [ -6.26796484 e-02,   6.32534802 e-01,   2.70760626 e-01,   5.09932265 e-02,
     -8.44225436 e-02,  -6.38649583 e-01,   2.21994549 e-01,  -2.82533765 e-01,
     -1.83631539 e-01,   3.57043087 e-01,  -1.34140834 e-01,  -3.17128122 e-01,
     -7.27552176 e-01,   1.32783398 e-01,   1.93681773 e-02,  -3.07487190 e-01,
      1.71127260 e-01,  -1.10828727 e-01,   4.17128414 e-01,   4.00778241 e-02,
      4.97002214 e-01,   1.87338740 e-01,   2.91564584 e-01,   2.71925718 e-01,
     -5.66099226 e-01,  -2.86448389 e-01,  -4.27502468 e-02,   3.72886777 e-01,
      7.18029216 e-02,   4.95773032 e-02,  -3.55627149 e-01,  -1.05360962 e-01,
     -5.29703140 e-01,  -2.70537794 e-01,  -2.31625512 e-01,  -2.01989278 e-01,
      8.98160487 e-02,  -2.09392458 e-01,  -4.01071995 e-01,  -7.22357482 e-02,
     -8.09883237 e-01,  -1.25514835 e-01,   2.89654315 e-01,  -2.36966774 e-01,
     -2.58121155 e-02,   1.02765806 e-01,   6.68562055 e-01,   4.54655886 e-02,
      3.93585116 e-01,  -1.74483687 e-01,  -1.03966869 e-01,  -5.89811683 e-01,
     -1.85411990 e-01,   8.19477379 e-01,  -5.75629883 e-02,   7.01416016 e-01,
     -8.57680082 e-01,   1.01146363 e-01,   2.68503368 e-01,   2.54975528 e-01,
      6.52162313 e-01,  -2.33635396 e-01,   8.80141795 e-01,  -4.15537864 e-01],],

  [[  6.05358541 e-01,  -2.39460960 e-01,   3.51450920 e-01,  -4.65237349 e-02,
     -2.20107496 e-01,  -1.22217417 e-01,   1.84007082 e-02,  -4.01519798 e-02,
      3.71723086 e-01,  -1.50688469 e-01,   1.10575063 e-02,  -1.15022302 e-01,
      3.40570748 e-01,   7.86020085 e-02,  -4.75179851 e-01,   7.75120556 e-02,
      1.52908310 e-01,  -3.35601300 e-01,   6.09887019 e-02,   1.40175670 e-01,
      4.16138470 e-01,  -1.04719743 e-01,  -9.69822109 e-02,  -9.37706679 e-02,
      1.99440539 e-01,  -2.95195431 e-01,  -3.22408415 e-02,  -3.80381823 e-01,
     -5.04690707 e-01,   1.73931733 e-01,   3.71996999 e-01,   3.48543115 e-02,
      8.76161680 e-02,  -8.51641968 e-02,   2.61297114 e-02,  -7.39822537 e-02,
      3.12644392 e-01,   2.35597184 e-03,   8.29351664 e-01,  -1.94759786 e-01,
      1.54759809 e-01,   2.95810364 e-02,   4.98376131 e-01,   8.58405009 e-02,
      3.41416560 e-02,  -5.38490005 e-02,  -7.68122748 e-02,   1.15056336 e-01,
      5.38965017 e-02,   2.14690909 e-01,   6.45063445 e-02,  -1.54936373 e-01,
     -1.49108946 e-01,  -4.84183058 e-02,   1.90710500 e-01,  -3.31913948 e-01,
      6.82524741 e-02,  -2.82789677 e-01,  -1.71001088 e-02,  -2.36420915 e-01,
     -1.13770440 e-01,   2.49265403 e-01,   3.14247400 e-01,   3.95715833 e-01],
   [ -3.87843817 e-01,  -1.33459657 e-01,  -1.88521832 e-01,  -1.82043552 e-01,
     -1.49951100 e-01,  -1.09637730 e-01,   2.86126196 e-01,  -1.00409105 e-01,
     -2.18349725 e-01,  -2.17607901 e-01,   2.41347719 e-02,   6.00986183 e-01,
     -3.81650090 e-01,  -3.31346691 e-02,   3.93604279 e-01,   3.11859310 e-01,
     -7.91672617 e-02,   1.51549742 e-01,   1.27659589 e-01,  -1.62599042 e-01,
      7.81625062 e-02,  -2.70556360 e-01,  -2.77932826 e-02,   1.31172150 e-01,
     -2.12342396 e-01,   1.85557425 e-01,  -8.23888090 e-03,  -2.01142132 e-02,
     -6.08645193 e-03,   6.79838717 e-01,  -8.54718462 e-02,   5.52331731 e-02,
      2.17632651 e-02,   1.61283761 e-01,   5.17968647 e-02,   5.41996695 e-02,
     -1.24610299 e-02,  -5.78745157 e-02,  -6.00968957 e-01,   5.32109663 e-02,
      4.89657342 e-01,  -1.03649795 e-01,  -2.08112016 e-01,   3.84121150 e-01,
      6.87739179 e-02,   5.02231419 e-02,   2.73781389 e-01,  -1.51980966 e-01,
     -2.71620333 e-01,  -1.33554712 e-01,  -3.16876695 e-02,   4.50179189 e-01,
      2.01284721 e-01,  -1.64629757 e-01,  -2.66921401 e-01,   2.66629130 e-01,
      3.96998376 e-01,   4.68173623 e-01,  -2.50728935 e-01,  -2.72614658 e-01,
     -3.61442454 e-02,   8.30659866 e-02,  -5.85788369 e-01,  -4.29541022 e-01],
   [ -3.21111828 e-01,   3.22053671 e-01,  -1.41602695 e-01,  -2.05849677 e-01,
     -2.73749053 e-01,  -5.38438022 e-01,   5.39327115 e-02,  -2.08958551 e-01,
     -2.48082846 e-01,   2.15708911 e-01,  -7.29080379 e-01,  -2.92561829 e-01,
     -2.98152715 e-01,   1.00415654 e-01,  -5.83751917 e-01,  -1.97413191 e-01,
     -5.26163466 e-02,   2.96472102 e-01,   1.83911160 e-01,  -1.01349592 e-01,
     -4.42432255 e-01,  -6.94406852 e-02,  -1.09078167 e-02,  -1.52846768 e-01,
      8.01936984 e-02,   2.00985633 e-02,  -3.26592058 e-01,   2.62136698 e-01,
     -6.82665527 e-01,  -2.46575028 e-01,  -3.04870248 e-01,  -2.77671903 e-01,
      8.92995521 e-02,  -9.05853808 e-02,   3.04351677 e-03,   7.47433398 e-03,
     -1.44556180 e-01,  -2.21919507 e-01,  -4.96274203 e-01,   8.84383619 e-02,
      1.59420967 e-01,  -1.66539043 e-01,  -2.16648608 e-01,   1.08841099 e-01,
     -2.03160971 e-01,  -1.41213655 e-01,   4.45541382 e-01,  -7.86823314 e-03,
     -3.06550367 e-03,   8.40999261 e-02,   7.17761666 e-02,  -4.26939309 e-01,
     -1.94497824 e-01,   6.05629444 e-01,   2.44182095 e-01,   2.88005650 e-01,
      5.35869062 e-01,   9.20280293 e-02,  -4.94215518 e-01,  -9.77251828 e-02,
      3.76579881 e-01,  -1.65998638 e-01,   3.08520615 e-01,  -1.54254436 e-01],],],


 [[[  4.32609729 e-02,   4.44973767 e-01,  -6.64127022 e-02,   4.68077920 e-02,
     -1.67092115 e-01,  -2.62312498 e-02,  -4.89896117 e-03,   6.99833129 e-03,
      3.34811866 e-01,   1.68701306 e-01,  -5.14760852 e-01,   4.96994033 e-02,
      3.25209677 e-01,   1.23501316 e-01,   1.98057368 e-01,   9.09212828 e-02,
      4.57656533 e-01,   1.36441022 e-01,  -4.44359839 e-01,  -1.61171257 e-01,
      1.62020177 e-01,  -1.47703052 e-01,   3.36080752 e-02,  -5.19015864 e-02,
      4.83636975 e-01,  -9.65669155 e-02,  -3.69730264 e-01,   4.21410382 e-01,
      4.86785322 e-02,  -2.85673328 e-02,   9.16655213 e-02,  -2.25501209 e-02,
     -2.31830418 e-01,   4.10355061 e-01,  -5.83965704 e-02,   1.30641863 e-01,
     -1.77804798 e-01,   1.16409838 e-01,   3.19184922 e-02,   1.22133948 e-01,
     -5.12880981 e-02,  -6.31156340 e-02,  -7.44260699 e-02,   1.39088452 e-01,
     -2.28878900 e-01,  -2.18716204 e-01,  -3.69590104 e-01,  -6.04274094 e-01,
     -7.85621330 e-02,   1.80485889 e-01,   1.16462655 e-01,   5.19036539 e-02,
     -2.04893216 e-01,  -2.61314064 e-02,  -2.07542539 e-01,  -6.07886948 e-02,
      2.23979965 e-01,  -8.01273286 e-02,  -1.60705000 e-01,  -2.74158627 e-01,
     -1.06399050 e-02,   2.03879625 e-01,   2.29564250 e-01,  -2.17740238 e-01],
   [  2.20974967 e-01,   4.40548569 e-01,   4.29521292 e-01,   1.66781738 e-01,
      4.02488053 e-01,  -3.16542208 e-01,   1.58849210 e-01,  -8.47418606 e-02,
      5.68927675 e-02,   1.36992559 e-01,   1.91788912 e-01,  -6.67551607 e-02,
     -2.66829789 e-01,  -7.51220286 e-02,  -3.04669261 e-01,   8.93884823 e-02,
     -2.21502990 e-01,  -4.96561110 e-01,   4.24920544 e-02,  -9.49680507 e-02,
      1.39620781 e-01,   1.95468932 e-01,   8.91031045 e-03,   1.51474848 e-01,
     -1.14229128 e-01,  -5.40164113 e-01,   4.23680902 e-01,  -2.39986539 e-01,
      2.16376424 e-01,  -5.23581147 e-01,   7.41262734 e-02,   6.79803640 e-02,
     -1.54411331 e-01,  -2.48525694 e-01,   1.28219128 e-01,   2.08663773 e-02,
     -2.06608862 e-01,  -9.76813678 e-03,  -2.50236303 e-01,  -1.27410702 e-02,
     -1.19832128 e-01,   2.27433756 e-01,  -1.63835604 e-02,   3.19052368 e-01,
     -4.20556337 e-01,  -1.38472952 e-02,  -1.81416929 e-01,   4.34819669 e-01,
      1.73638165 e-01,   3.66476715 e-01,   2.85728578 e-03,  -1.70598462 e-01,
      2.49191329 e-01,  -4.48437631 e-02,   3.82390339 e-03,  -1.50386384 e-02,
     -2.32586846 e-01,   3.42184246 e-01,   4.77282591 e-02,   4.53079551 e-01,
      6.78458810 e-01,   9.56152454 e-02,  -2.76419938 e-01,   4.40877765 e-01],
   [ -2.06877261 e-01,  -6.64155126 e-01,  -8.33803862 e-02,  -2.45274767 e-01,
      1.93539351 e-01,  -2.49702949 e-02,   1.88691005 e-01,   2.26509109 e-01,
      2.24480748 e-01,   7.08489642 e-02,   3.81495953 e-01,   2.11437587 e-02,
      1.92691050 e-02,   1.50814448 e-02,  -1.04175203 e-01,  -1.50048628 e-01,
      2.01618761 e-01,   3.27579975 e-01,  -1.78329095 e-01,   1.43450066 e-01,
     -2.36983582 e-01,   3.11790295 e-02,  -5.15814591 e-03,   1.93405852 e-01,
     -1.10027574 e-01,  -2.14653358 e-01,  -7.78186858 e-01,  -1.72875121 e-01,
      1.36186719 e-01,   1.87549725 e-01,  -2.51268119 e-01,  -1.67950675 e-01,
     -4.65996623 e-01,  -2.17525929 e-01,  -1.36138489 e-02,  -2.06115156 e-01,
     -3.16765279 e-01,  -7.20738545 e-02,   1.61470503 e-01,   4.76518348 e-02,
      1.51653579 e-02,   5.72135210 e-01,   1.76331043 e-01,  -1.41204983 e-01,
     -1.61787253 e-02,   1.99484482 e-01,   9.97260138 e-02,   1.84066921 e-01,
      3.05439711 e-01,  -5.33521950 e-01,  -3.27535152 e-01,   7.22645149 e-02,
     -2.35176355 e-01,   1.02849849 e-01,   1.89272627 e-01,   2.76546739 e-02,
      1.12732634 e-01,  -2.73804694 e-01,  -1.22847825 e-01,   1.69326290 e-01,
     -7.85582781 e-01,  -3.43581915 e-01,  -6.90457076 e-02,  -1.07290171 e-01],],

  [[ -6.80808723 e-01,  -9.17706043 e-02,   9.88338888 e-03,  -1.25231102 e-01,
     -2.70800412 e-01,   1.13386288 e-01,   1.19914245 e-02,   1.30677586 e-02,
      2.33572185 e-01,  -1.73145190 e-01,  -2.71726966 e-01,  -1.66770533 e-01,
      6.49616239 e-04,   1.92133814 e-01,   5.47847450 e-01,  -2.54554152 e-01,
      1.92019030 e-01,   1.17406614 e-01,   9.06989723 e-02,   1.78215697 e-01,
      2.61026323 e-01,  -5.39875962 e-02,  -5.67481339 e-01,  -1.94099441 e-01,
     -1.79987103 e-01,   6.95880830 e-01,  -9.31227505 e-02,   3.82198989 e-02,
     -1.44744575 e-01,   2.30133668 e-01,   1.96296036 e-01,  -9.40712914 e-02,
      5.88072419 e-01,  -1.37705192 e-01,  -1.19438909 e-01,   1.98821515 e-01,
     -3.97626013 e-01,   3.16044331 e-01,   5.00609457 e-01,  -3.59514058 e-01,
      1.15555320 e-02,  -1.45177141 e-01,  -6.24675930 e-01,   1.68882266 e-01,
      5.77516891 e-02,   6.36638775 e-02,   2.38040060 e-01,   8.52363184 e-02,
      1.71689317 e-02,  -1.48306549 e-01,  -1.34502342 e-02,   2.46813223 e-01,
     -4.95980456 e-02,   1.89924747 e-01,  -2.75418878 e-01,   1.95328146 e-02,
      2.10391074 e-01,  -4.36276764 e-01,   1.55580640 e-02,  -4.46625113 e-01,
      2.07849592 e-01,   2.89241701 e-01,   4.22228277 e-01,  -2.09514409 e-01],
   [  2.57390887 e-01,   1.96831971 e-02,   8.61946419 e-02,   5.34754813 e-01,
      1.16822012 e-01,  -2.15939999 e-01,   1.55239254 e-01,  -1.77688263 e-02,
     -1.25582576 e-01,   9.46303755 e-02,   8.52673277 e-02,   2.37642527 e-01,
     -3.56969312 e-02,  -8.24764669 e-02,  -2.75163680 e-01,   1.30770117 e-01,
     -5.04030824 e-01,  -2.55367935 e-01,  -5.76246008 e-02,  -1.58177495 e-01,
      2.22294137 e-01,   9.73509178 e-02,  -3.18254642 e-02,  -1.53696790 e-01,
     -5.42990923 e-01,   3.86249423 e-01,   7.12139904 e-01,  -1.09808706 e-01,
      3.06111306 e-01,  -5.60672045 e-01,  -1.11583443 e-02,   9.63833556 e-02,
      5.85889220 e-01,   5.01015522 e-02,   4.54802848 e-02,   2.53024567 e-02,
     -1.07002154 e-01,  -6.14599744 e-03,  -5.47746241 e-01,  -7.91162789 e-01,
      1.39583677 e-01,   3.37605402 e-02,   3.11863571 e-01,  -2.55442381 e-01,
      9.25271288 e-02,   5.05201109 e-02,   2.60210693 e-01,  -7.70375654 e-02,
     -8.88108537 e-02,   4.67946231 e-01,  -1.37983739 e-01,   2.62248933 e-01,
      1.12540811 e-01,  -3.32427323 e-01,   5.23646213 e-02,   3.88626717 e-02,
     -6.09125756 e-02,   4.10372376 e-01,   1.14212461 e-01,   6.24405369 e-02,
      8.03098440 e-01,   1.92158416 e-01,  -7.64039397 e-01,   5.05582929 e-01],
   [  1.48568988 e-01,   2.79180314 e-02,  -4.21217382 e-02,  -7.74815828 e-02,
      1.74139012 e-02,   4.50092524 e-01,   1.70272887 e-01,   2.07899258 e-01,
      1.88261941 e-01,  -1.11660458 e-01,   8.36875737 e-02,   4.56155054 e-02,
     -8.39280337 e-02,  -2.47113511 e-01,   1.09327845 e-02,  -1.48898631 e-01,
     -1.36397127 e-02,   2.11565718 e-01,   2.02781074 e-02,   9.90217105 e-02,
     -5.07595062 e-01,   1.63228475 e-02,   2.40304276 e-01,  -3.26253176 e-01,
     -2.59472340 e-01,  -2.59663850 e-01,  -4.53125447 e-01,   3.03656936 e-01,
     -2.19953895 e-01,   8.99364054 e-02,  -2.02081650 e-01,  -2.84562372 e-02,
      4.80008662 e-01,   1.02207601 e-01,   1.88401759 e-01,   1.24919966 e-01,
     -3.73231977 e-01,  -3.08231354 e-01,  -1.24253534 e-01,  -7.18008161 e-01,
      6.54693618 e-02,   6.27649128 e-02,   5.24552822 e-01,   4.99319077 e-01,
      1.72286391 e-01,  -4.02325630 e-01,   7.21394718 e-02,  -1.02715619 e-01,
     -2.16987152 e-02,  -3.05608567 e-02,   1.93356887 e-01,  -7.06203103 e-01,
     -5.02437465 e-02,  -1.97371885 e-01,  -5.07686496 e-01,   5.64421788 e-02,
     -2.21787676 e-01,  -2.90347245 e-02,  -2.02145606 e-01,  -2.32371777 e-01,
     -4.00927633 e-01,  -3.08653384 e-01,   3.89032692 e-01,   7.58270994 e-02],],

  [[ -7.38850355 e-01,  -1.88341364 e-01,   2.38262117 e-01,  -4.20836449 e-01,
      4.04743165 e-01,   4.94861528 e-02,   5.95602244 e-02,   9.51653048 e-02,
      5.47002137 e-01,   5.63974082 e-02,  -4.07382436 e-02,  -2.61835545 e-01,
      1.43726617 e-01,  -4.14264724 e-02,   6.84260428 e-02,  -3.72497112 e-01,
     -3.74237984 e-01,  -7.91053325 e-02,   9.10768956 e-02,   3.21472615 e-01,
      9.80315879 e-02,  -2.02537421 e-02,  -4.05591160 e-01,  -8.55434462 e-02,
     -2.57726729 e-01,   3.36757094 e-01,  -3.95818591 e-01,   5.43035492 e-02,
     -2.20483020 e-01,   4.60751764 e-02,   5.35729807 e-03,  -1.11792326 e-01,
     -7.25802481 e-01,  -4.71029133 e-01,  -1.40953332 e-01,  -4.47262317 e-01,
     -7.76906788 e-01,   1.14452749 e-01,   6.40874505 e-01,  -5.31539679 e-01,
      1.53644443 e-01,  -1.18951807 e-02,   6.28129989 e-02,  -2.80765176 e-01,
     -5.35431623 e-01,  -1.41902223 e-01,   2.91937262 e-01,   6.98901474 e-01,
      3.65124159 e-02,  -1.10470101 e-01,   1.21177975 e-02,   2.59316526 e-02,
      3.62901762 e-02,   3.31357270 e-01,   4.04178083 e-01,  -3.53389569 e-02,
     -1.82179376 e-01,  -3.13333184 e-01,   1.14913248 e-02,   2.96549171 e-01,
     -6.22291625 e-01,   4.12363559 e-01,   4.27666247 e-01,   1.95027869 e-02],
   [  6.92923307 e-01,  -8.99156649 e-03,  -4.69429940 e-01,  -1.93046361 e-01,
     -2.52823144 e-01,  -1.12986751 e-01,   7.46382922 e-02,  -4.60305549 e-02,
      1.05482250 e-01,   3.40662189 e-02,   7.24827796 e-02,   4.26088899 e-01,
     -1.93101764 e-01,  -2.50384033 e-01,  -4.44753468 e-01,   1.34605259 e-01,
     -2.35800326 e-01,  -6.48330897 e-02,  -5.09484448 e-02,  -4.11430061 e-01,
      1.30862057 e-01,   1.21154696 e-01,  -2.01217942 e-02,  -1.49645284 e-01,
      5.44048309 e-01,   2.85070032 e-01,   3.13329011 e-01,   1.62858129 e-01,
      1.09298274 e-01,  -6.10217750 e-01,  -1.13697723 e-01,   9.25852135 e-02,
     -5.48584640 e-01,   4.28984910 e-01,   8.77263024 e-03,  -1.17533661 e-01,
      1.26266748 e-01,   6.90833256 e-02,  -4.91683483 e-01,  -1.18332577 e+00,
     -3.56864855 e-02,   1.31820023 e-01,   4.15809685 e-03,  -9.16470826 e-01,
     -8.24266449 e-02,   9.85712931 e-03,   2.26788342 e-01,  -6.63296044 e-01,
     -4.34681848 e-02,   1.68019608 e-01,  -2.09241472 e-02,   3.72479767 e-01,
     -1.28403842 e-01,  -5.44167340 e-01,   4.10410941 e-01,   2.83848606 e-02,
     -2.48805135 e-01,   4.98144537 e-01,   1.05008714 e-01,   3.01804513 e-01,
      1.16436824 e-01,   3.17835033 e-01,  -7.40942895 e-01,   7.14366376 e-01],
   [  2.78778940 e-01,   1.66597500 e-01,  -3.75269689 e-02,   8.36879313 e-02,
     -1.70810625 e-01,   4.55818832 e-01,   2.82987148 e-01,   1.54292524 e-01,
      1.76133439 e-01,   1.55001553 e-02,  -2.77111650 e-01,  -2.49625653 e-01,
      6.43717200 e-02,  -1.98507756 e-02,   6.15294874 e-01,  -2.40683347 e-01,
      3.38980943 e-01,   2.78076947 e-01,   7.77871981 e-02,  -1.49264887 e-01,
     -2.94488192 e-01,  -9.01710093 e-02,   4.52658176 e-01,   8.87092650 e-02,
      6.10152125 e-01,  -2.61904001 e-01,  -7.56116152 e-01,  -2.43886914 e-02,
     -3.59382004 e-01,  -4.33228761 e-02,   2.36790806 e-01,   1.41321957 e-01,
     -1.79852590 e-01,   1.52920932 e-01,  -2.15037595 e-02,   2.83253878 e-01,
      7.60376006 e-02,  -2.67641425 e-01,  -1.26747072 e-01,  -1.03052723 e+00,
      4.34078602 e-03,   2.34591797 e-01,  -1.91065129 e-02,  -1.98063016 e-01,
      6.25675470 e-02,  -6.10391796 e-02,   2.52269715 e-01,  -8.72614756 e-02,
     -4.50669974 e-01,  -4.77994561 e-01,   2.15946034 e-01,  -3.05383146 e-01,
      1.43503353 e-01,  -1.97325960 e-01,  -1.47815362 e-01,  -6.78972388 e-03,
     -4.87300754 e-01,  -1.90156490 e-01,   1.46467676 e-02,  -3.47657166 e-02,
     -2.48675361 e-01,  -5.74496984 e-01,   2.94052452 e-01,   1.30413547 e-01],],

  [[ -3.38087499 e-01,  -2.98729658 e-01,   1.18744113 e-01,   2.76139408 e-01,
      2.31802255 e-01,  -5.83480932 e-02,   3.15817818 e-02,   2.30243355 e-02,
      4.73966539 e-01,   2.41083633 e-02,   4.28561300 e-01,  -3.55411828 e-01,
      2.29483381 e-01,   1.75105572 e-01,  -1.95407033 e-01,   2.85634607 e-01,
     -3.36966723 e-01,   4.12889451 e-01,   5.78571334 e-02,  -4.87191379 e-02,
      3.64081077 e-02,   9.20107588 e-02,   1.01201214 e-01,  -2.72735566 e-01,
      2.00600281 e-01,  -4.48781341 e-01,  -3.02483067 e-02,   9.50528458 e-02,
      1.19283468 e-01,   1.76427022 e-01,  -4.42126207 e-02,  -6.08330220 e-02,
      1.45924538 e-01,  -4.40835990 e-02,   7.71756321 e-02,   2.39347577 e-01,
      2.89086550 e-02,   1.01453654 e-01,   9.11692798 e-01,   1.37565508 e-01,
     -1.40640303 e-01,  -5.55438250 e-02,   5.22409260 e-01,   1.61004454 e-01,
     -1.86134040 e-01,  -1.58102810 e-01,  -1.86890990 e-01,   4.06414628 e-01,
      1.22225203 e-01,   2.67038554 e-01,   6.86955899 e-02,   8.64426717 e-02,
     -1.82632077 e-02,   1.96113542 e-01,   9.86229405 e-02,  -1.51222154 e-01,
      6.31324202 e-02,  -5.29744565 e-01,   1.22971900 e-01,  -4.33240563 e-01,
     -2.37042174 e-01,   2.04599991 e-01,   2.66866297 e-01,  -5.80054335 e-02],
   [  1.65985242 e-01,  -1.24543831 e-01,  -1.83230519 e-01,  -1.81808621 e-01,
     -1.66302230 e-02,   1.14737883 e-01,  -2.03577653 e-01,  -9.95100215 e-02,
      1.85638621 e-01,   4.41911444 e-02,   3.78681272 e-01,   2.90330023 e-01,
     -3.25824142 e-01,  -3.79779458 e-01,  -4.11290564 e-02,   4.08201933 e-01,
     -1.49864420 e-01,  -8.98949653 e-02,   3.43174525 e-02,  -3.74114931 e-01,
     -4.62226793 e-02,   6.36707991 e-02,  -6.38675690 e-02,   1.48388579 e-01,
     -8.02894905 e-02,   1.23578599 e-02,   5.41977167 e-01,  -2.48163566 e-02,
     -3.03179231 e-02,   8.86644796 e-02,   2.93203183 e-02,   8.03607628 e-02,
      3.61036390 e-01,   3.01051259 e-01,  -8.45860541 e-02,  -6.03312217 e-02,
      1.17715657 e-01,   2.71233767 e-01,  -5.94117165 e-01,  -1.65151477 e-01,
     -1.54460832 e-01,  -1.15075350 e-01,  -6.97957948 e-02,   4.51801628 e-01,
      1.15983874 e-01,  -5.01938239 e-02,  -4.10159141 e-01,  -3.92772943 e-01,
      5.04888773 e-01,   5.06220102 e-01,   2.05917314 e-01,   2.46220946 e-01,
     -1.77412689 e-01,  -2.79859275 e-01,  -2.45766435 e-03,  -1.42163798 e-01,
      3.79627585 e-01,   5.88390708 e-01,   1.77591577 e-01,  -2.04685807 e-01,
      1.49377272 e-01,   4.13448185 e-01,  -4.95243937 e-01,   5.33828080 e-01],
   [ -4.10286672 e-02,   1.88775152 e-01,  -1.39888842 e-02,   7.01829642 e-02,
     -2.11078927 e-01,  -9.97188017 e-02,  -2.10225396 e-02,   1.48301765 e-01,
      7.54259005 e-02,   2.52990574 e-01,  -5.54625213 e-01,  -2.40654990 e-01,
     -5.42887673 e-02,   2.09212571 e-01,  -3.76799852 e-02,  -4.61641997 e-02,
      1.63515151 e-01,  -7.90843964 e-02,   5.09729274 e-02,  -5.88950813 e-02,
     -3.08400765 e-03,  -9.25168470 e-02,  -8.14920962 e-02,   2.71307498 e-01,
     -4.24390614 e-01,  -5.54890037 e-02,  -1.79718673 e-01,   2.81910032 e-01,
     -4.23398405 e-01,   7.84395039 e-02,   6.54816180 e-02,  -1.28959924 e-01,
      3.51769626 e-01,  -2.87851125 e-01,  -4.53165025 e-02,  -1.67604744 e-01,
      6.35079384 e-01,  -1.67709738 e-01,  -3.93402159 e-01,   1.71442315 e-01,
     -3.68880294 e-02,   6.01957850 e-02,  -3.69999290 e-01,   1.81520253 e-01,
      1.49319366 e-01,   1.69450268 e-01,  -2.27263287 e-01,  -2.68810112 e-02,
      4.23936874 e-01,  -3.34545046 e-01,  -9.18552801 e-02,  -4.92298245 e-01,
      6.58552796 e-02,   2.56356865 e-01,   3.20302010 e-01,  -2.82455478 e-02,
      5.78866959 e-01,  -6.65243194 e-02,   3.45277816 e-01,  -3.75377297 e-01,
      3.18267673 e-01,  -2.93710828 e-01,   1.39807969 e-01,   1.73896909 e-01],],

  [[  2.49591678 e-01,   3.84361118 e-01,  -5.69381006 e-02,   2.30882481 e-01,
     -1.38428628 e-01,  -3.41663286 e-02,   2.98509955 e-01,  -2.84737907 e-02,
      3.29818070 e-01,   5.48974052 e-03,   1.70955166 e-01,  -1.31641924 e-01,
     -1.78320900 e-01,  -2.88969964 e-01,  -9.61872563 e-02,   2.45907679 e-01,
      6.37824833 e-02,  -3.09186596 e-02,   3.49933863 e-01,  -7.82631859 e-02,
      3.24111849 e-01,   1.54203326 e-01,   5.21346591 e-02,  -4.29248735 e-02,
      1.35930687 e-01,  -1.98925555 e-01,  -2.78600931 e-01,   9.64665860 e-02,
      9.84967723 e-02,   3.97768468 e-01,  -2.86705673 e-01,   1.55963888 e-02,
     -4.99645760 e-03,  -9.45745930 e-02,   1.17764391 e-01,   1.32938713 e-01,
     -1.73964977 e-01,  -2.41075411 e-01,   5.32820880 e-01,  -3.66164446 e-01,
      2.04149652 e-02,   1.06052972 e-01,   4.16577846 e-01,  -1.13637440 e-01,
     -1.79671556 e-01,   1.81471899 e-01,   1.86276317 e-01,   7.84360468 e-02,
     -2.26644725 e-01,  -1.29790738 e-01,  -1.97270796 e-01,  -2.26629436 e-01,
     -1.40439585 e-01,   8.40104744 e-02,   6.85473979 e-02,  -9.38444806 e-04,
     -2.10074037 e-01,   2.60003209 e-01,   1.51087031 e-01,   1.57116372 e-02,
     -2.28015631 e-01,   7.63425231 e-02,   1.11557610 e-01,  -2.59779394 e-01],
   [  7.95238242 e-02,  -2.94495672 e-01,  -8.31726715 e-02,  -8.02028626 e-02,
      1.30857468 e-01,   1.31021321 e-01,   1.09442562 e-01,  -1.36819288 e-01,
      2.54667521 e-01,   3.00964862 e-01,  -8.45984295 e-02,   5.42549968 e-01,
     -5.88279188 e-01,   6.01560995 e-02,   4.00737852 e-01,  -2.23556980 e-02,
     -1.64351854 e-02,  -3.80698085 e-01,   3.65865678 e-02,   5.55887669 e-02,
      6.38354570 e-02,  -4.70087193 e-02,   5.51277846 e-02,   1.57438532 e-01,
     -1.90834492 e-01,   5.11455238 e-02,   4.37772125 e-01,  -2.18184456 e-01,
      2.67555863 e-01,   6.89768016 e-01,   8.97387639 e-02,  -1.00181907 e-01,
     -1.23449378 e-01,   6.61392957 e-02,  -1.85266823 e-01,   8.98535773 e-02,
     -1.81512505 e-01,   7.04216287 e-02,  -3.82989347 e-01,  -2.37196267 e-01,
      2.22213790 e-01,  -1.27556529 e-02,  -2.73980767 e-01,   2.63636082 e-01,
      1.96107045 e-01,   5.21754622 e-02,  -1.06217012 e-01,  -1.92509994 e-01,
     -2.91573733 e-01,   9.67787579 e-02,   1.39013052 e-01,   3.12321752 e-01,
     -1.05936401 e-01,  -2.71094292 e-01,  -3.73255402 e-01,   2.83070832 e-01,
      4.58047949 e-02,  -1.41958013 e-01,  -5.39765991 e-02,   1.89973727 e-01,
     -6.24495074 e-02,   2.30876103 e-01,  -4.02427614 e-02,   3.12452167 e-02],
   [ -2.33829662 e-01,   8.05608556 e-02,   2.62442976 e-02,   8.91390815 e-02,
      5.20824492 e-02,  -2.96383705 e-02,  -2.73033231 e-01,  -6.02941550 e-02,
     -7.31485933 e-02,   1.10990219 e-01,  -1.22684860 e+00,  -1.22439325 e-01,
      1.50315285 e-01,   1.28307968 e-01,  -2.05156893 e-01,  -1.32543355 e-01,
     -2.29939949 e-02,   1.43765315 e-01,  -1.91438764 e-01,   7.52036422 e-02,
     -4.16086465 e-01,  -8.88859704 e-02,  -6.96209744 e-02,   6.13473915 e-02,
     -5.58782928 e-03,   1.52951926 e-01,  -1.80524349 e-01,   5.44043537 e-03,
     -5.95446527 e-02,  -2.58809865 e-01,   2.81152427 e-01,  -1.46202803 e-01,
     -3.57927024 e-01,   6.42231107 e-02,   4.17255312 e-02,  -3.42245474 e-02,
      8.53942782 e-02,   1.03983089 e-01,  -1.41502991 e-01,   5.07996142 e-01,
     -5.86699992 e-02,  -4.01743613 e-02,  -3.84047508 e-01,  -2.53994316 e-01,
      1.81512117 e-01,  -1.05600059 e-01,  -1.70794159 e-01,   1.45991817 e-01,
     -1.70985967 e-01,  -4.98805605 e-02,  -1.25508368 e-01,  -4.32054773 e-02,
      8.67104009 e-02,   1.75372645 e-01,   2.57865727 e-01,  -4.31331061 e-02,
     -1.05275311 e-01,  -3.15244198 e-01,  -1.84723377 e-01,   1.70227394 e-01,
      2.35135287 e-01,  -3.99552315 e-01,  -3.28137726 e-02,  -5.52317917 e-01],],],],