[[[[  9.35113151e-03,  -1.51121795e-01,  -3.47703546e-01,   5.94705939e-02,
      2.51790555e-03,   5.58351800e-02,   1.24391124e-01,  -9.57281981e-03,
      4.05203998e-02,  -6.80608079e-02,  -1.10019982e-01,   1.98013693e-01,
      1.07727833e-01,   6.57554194e-02,   1.73337549e-01,   4.50475328e-02,
     -1.06528737e-01,  -1.74183697e-01,   1.93117931e-01,  -2.15019092e-01,
      1.62254035e-01,   1.22692585e-01,   4.25993316e-02,  -1.58949256e-01,
     -7.24383965e-02,   9.19156969e-02,   2.46437103e-01,   6.62074611e-02,
      3.55434865e-02,  -3.31808835e-01,  -1.02379911e-01,  -9.95421037e-03],
   [  1.80533364e-01,   5.82272075e-02,   2.70876527e-01,  -1.27589017e-01,
      1.89326871e-02,   2.12506533e-01,   2.42479859e-04,  -1.26980737e-01,
     -3.27512845e-02,   1.32018164e-01,  -4.21682838e-03,   8.33422504e-03,
      1.03646666e-01,  -1.35118971e-02,  -2.01539695e-01,  -2.13133078e-02,
      2.39084855e-01,   1.28633171e-01,  -1.05361030e-01,  -3.48580152e-01,
      3.65625741e-03,  -1.48854047e-01,  -1.20070301e-01,   3.74956941e-03,
     -4.92691323e-02,  -3.90579820e-01,  -1.06971875e-01,  -1.69888332e-01,
      7.90446699e-02,   1.90332979e-01,  -1.22571616e-02,  -1.09905414e-01],
   [  1.30058229e-01,   1.24493517e-01,   3.72916818e-01,   5.04685640e-02,
      1.04967646e-01,  -1.37116686e-01,   6.96792305e-02,   7.84564838e-02,
      8.88796374e-02,   1.39767125e-01,   1.93397492e-01,  -3.66233736e-02,
     -2.46969773e-03,  -3.09462938e-02,   4.08320241e-02,   1.09097511e-02,
      1.07230008e-01,   5.55637702e-02,   1.59419462e-01,   1.42843589e-01,
     -8.82551223e-02,  -2.02762652e-02,  -7.87755027e-02,   1.86439604e-01,
     -8.41779932e-02,   3.97838861e-01,   1.74998894e-01,  -3.16331327e-01,
      6.51201326e-03,   1.73273146e-01,  -1.56233713e-01,  -1.17350055e-03],
   [  1.05721541e-01,   1.65890321e-01,  -2.17683196e-01,  -2.64127180e-02,
     -1.15424350e-01,   3.92807722e-02,  -1.70484737e-01,   1.57336622e-01,
     -1.04268536e-01,   5.11854850e-02,   8.72210935e-02,   1.19024172e-01,
      3.46804075e-02,   7.72320619e-03,   1.20470434e-01,  -2.01220084e-02,
     -2.71907866e-01,  -4.24344130e-02,   1.30107224e-01,  -3.64864975e-01,
     -6.08593076e-02,   3.17441046e-01,  -1.45998612e-01,  -4.94884215e-02,
      2.53433511e-02,  -2.16443092e-02,  -1.33363351e-01,  -5.93177825e-02,
      2.83947855e-01,  -1.31608158e-01,  -5.53403348e-02,  -1.28311828e-01],
   [ -1.37849376e-01,  -8.90047774e-02,   4.90530550e-01,   2.35041425e-01,
      4.22062844e-01,   9.08212885e-02,  -1.60105169e-01,   2.88227368e-02,
      2.18855992e-01,   2.82785147e-01,   1.83479920e-01,  -2.32422128e-01,
      1.04209870e-01,  -1.22981146e-01,   1.97824463e-01,   1.15497082e-01,
     -1.70582667e-01,  -3.45980152e-02,   3.89224142e-02,   1.16242655e-01,
      1.37137666e-01,   1.34940585e-02,   2.28445277e-01,   1.39415875e-01,
      7.33900368e-02,   2.08514258e-01,  -6.79601282e-02,   5.24213873e-02,
     -1.68421179e-01,   1.47033930e-01,   1.33948997e-01,   1.37297079e-01],
   [  6.02981821e-02,   2.86543444e-02,   8.18833634e-02,   1.95184071e-02,
     -2.13162359e-02,   2.87378609e-01,   1.96217000e-01,   4.11382783e-03,
      1.28355222e-02,   1.01375557e-01,   5.37019176e-03,   1.23887010e-01,
     -1.32608533e-01,   2.00080127e-02,   7.63857439e-02,   1.81181729e-01,
     -1.13311512e-02,  -4.94918853e-01,   2.30592638e-01,  -6.60550222e-02,
      7.63215572e-02,   1.43502638e-01,   4.50464338e-02,   2.91938335e-02,
      6.10938221e-02,   2.88213283e-01,   4.61714529e-02,  -6.55666143e-02,
      1.24313518e-01,   6.92951307e-02,  -1.33632988e-01,   1.71834946e-01],
   [  1.53751299e-01,  -1.20148957e-02,   1.15728348e-01,   8.91133025e-03,
      1.02554850e-01,  -1.89730376e-01,   2.03155540e-02,   4.04271036e-02,
      8.60376563e-03,  -2.19664164e-02,   4.03662696e-02,  -1.24870546e-01,
     -3.48593086e-01,  -1.02902755e-01,   3.63837592e-02,   1.65318906e-01,
     -2.54760653e-01,   3.14787716e-01,  -1.20334744e-01,  -1.21447824e-01,
      3.50101084e-01,  -1.36839487e-02,   1.66973382e-01,  -2.02816620e-01,
      2.12927237e-02,   1.23764545e-01,   1.15965337e-01,  -5.38324751e-02,
     -1.53213650e-01,   1.87139049e-01,  -3.16309035e-01,   2.21615937e-02],
   [ -7.12631736e-03,  -5.23884073e-02,  -1.17359161e-01,  -1.96656540e-01,
     -8.39978456e-02,  -9.72547010e-02,  -7.25648925e-02,  -7.95478597e-02,
      4.44991561e-03,   1.17173739e-01,  -4.33678813e-02,   2.76989080e-02,
      7.21813887e-02,  -3.29648554e-02,   1.20199740e-01,  -3.75010312e-01,
     -1.19454868e-01,   1.56808481e-01,   2.67523006e-02,   1.56260297e-01,
     -2.18443960e-01,  -1.89542666e-01,   2.07744405e-01,  -4.72914614e-02,
      1.37706935e-01,  -7.21190423e-02,  -6.99023679e-02,   2.09658012e-01,
     -2.29899492e-02,  -1.95224181e-01,  -1.35064691e-01,   5.84521471e-03],
   [  1.12287149e-01,  -1.61021411e-01,  -2.16112942e-01,  -2.13918854e-02,
     -3.78963262e-01,   2.73268041e-03,   2.34734342e-01,   5.47659807e-02,
     -7.14895651e-02,  -8.80424008e-02,   7.63752088e-02,  -2.35009238e-01,
     -5.98836765e-02,   3.20035145e-02,   1.48257419e-01,   1.25717446e-01,
      1.30328625e-01,  -2.50712782e-01,  -1.75351184e-02,   1.38984974e-02,
     -3.70461881e-01,  -1.23726137e-01,   1.14841297e-01,   2.52736807e-02,
      2.53598522e-02,  -5.67279868e-02,  -6.20779656e-02,   2.08912984e-01,
     -6.79415241e-02,  -7.96178635e-03,  -6.61432669e-02,  -1.19826078e-01],
   [ -1.80778615e-02,  -1.31050393e-01,   7.82990605e-02,   1.42610222e-02,
     -7.53072351e-02,  -3.15219700e-01,  -5.68891950e-02,  -5.48292957e-02,
     -1.21733375e-01,  -7.85021260e-02,  -2.15783671e-01,  -9.79841799e-02,
     -6.03529997e-02,  -2.03612391e-02,  -1.27913177e-01,   2.33146533e-01,
     -2.68079191e-01,   3.16762775e-01,  -1.23646073e-01,   1.46664485e-01,
     -7.68846124e-02,   1.02325983e-01,   3.11559081e-01,   1.39658213e-01,
      2.85552323e-01,  -6.41804636e-02,   7.24596828e-02,  -3.17885652e-02,
      1.15812957e-01,  -3.12408447e-01,   1.94640383e-01,   7.44932815e-02],
   [ -1.54353932e-01,   1.45195112e-01,   7.34307319e-02,   1.89490542e-01,
     -1.20618083e-01,  -7.73116425e-02,  -3.18372548e-02,   5.73966801e-02,
      9.78751630e-02,  -5.71100339e-02,   2.34383926e-01,   2.05978349e-01,
     -3.28434616e-01,   5.80811910e-02,   2.51806438e-01,   1.71351776e-01,
      1.55842796e-01,   8.14636797e-02,  -1.26965880e-01,  -1.51409432e-01,
      4.40629236e-02,   2.67079566e-02,  -2.16269121e-03,   1.11759387e-01,
     -4.65376787e-02,  -2.89019436e-01,   2.21816689e-01,   1.67891473e-01,
      1.44411251e-01,  -1.44498482e-01,  -7.99628496e-02,   3.07901073e-02],
   [  7.58429244e-02,   8.14764388e-03,  -1.10877976e-01,  -2.32902497e-01,
     -9.08596441e-02,  -1.03723228e-01,  -5.21643534e-02,   2.56217755e-02,
     -2.46404242e-02,   6.25018179e-02,  -3.64695378e-02,   1.82205603e-01,
      3.80620360e-01,   9.62597802e-02,  -9.56891701e-02,  -1.41269311e-01,
      3.72399390e-01,   1.95184544e-01,   3.96309942e-02,  -1.81099530e-02,
      3.90069224e-02,  -1.43583715e-01,   1.34263203e-01,   2.36905576e-03,
      2.37916067e-01,   8.93843174e-02,  -8.88287574e-02,   3.55809815e-02,
     -3.40584442e-02,  -6.43406510e-02,  -2.21499711e-01,   5.81606105e-02],
   [ -1.17505074e-01,  -2.72493839e-01,  -8.97606984e-02,   9.78771076e-02,
      5.40881529e-02,   1.59212813e-01,   1.06157260e-02,  -9.76448283e-02,
      3.80919874e-02,  -1.87613040e-01,  -9.49021503e-02,  -5.33956215e-02,
     -2.08016410e-01,   1.11872023e-02,   1.51882544e-01,   6.08310886e-02,
     -1.44966766e-01,  -3.93025845e-01,  -3.51186097e-01,   1.37535676e-01,
      9.44499299e-02,  -1.07361138e-01,   2.85108760e-03,   4.10814062e-02,
     -6.86641484e-02,  -8.08451921e-02,   4.20269370e-02,   4.16096188e-02,
      1.15618870e-01,  -2.54584342e-01,  -1.52331054e-01,   1.48991019e-01],
   [ -4.55266126e-02,  -2.97496676e-01,   9.21369717e-02,  -5.51263541e-02,
      2.05079496e-01,   1.17431618e-01,   1.16768457e-01,  -3.39180827e-01,
      2.10912768e-02,  -7.53500909e-02,  -4.20812443e-02,   1.58223271e-01,
      1.28815755e-01,   2.35836759e-01,  -1.97670497e-02,   1.86389729e-01,
      1.01504602e-01,  -1.64684176e-01,  -2.67171562e-02,   9.92397219e-02,
     -6.40986860e-02,   8.55749696e-02,   1.56852022e-01,  -1.81088209e-01,
      5.73644973e-02,  -4.39301878e-02,   1.34998322e-01,  -1.38272122e-02,
      5.43198958e-02,   3.41834128e-02,   1.92518696e-01,  -2.94841845e-02],
   [  4.12218869e-02,   1.51963308e-01,  -1.72772020e-01,  -8.73914361e-02,
      8.86780024e-02,  -4.72063832e-02,  -1.26946360e-01,   5.29685095e-02,
     -8.41789991e-02,   6.18331470e-02,   1.70622721e-01,   4.16349210e-02,
      2.07448602e-01,  -1.24285378e-01,   2.97472756e-02,   1.20148361e-02,
      4.98048253e-02,  -1.77229017e-01,   2.01545089e-01,  -4.06203978e-02,
      1.09344333e-01,   7.95702040e-02,   3.86440270e-02,  -2.95736074e-01,
     -2.44730208e-02,   3.16863321e-02,   5.80098070e-02,   1.21860288e-01,
     -1.24183185e-02,   6.02748729e-02,  -6.67184871e-03,  -2.57255018e-01],
   [ -1.51423037e-01,   3.45478430e-02,  -2.88020670e-02,   1.18910827e-01,
     -2.31773600e-01,  -3.81242088e-03,   2.04588667e-01,  -1.56861156e-01,
      1.24546185e-01,   1.37824476e-01,   4.81304601e-02,  -6.25991030e-03,
     -1.58004507e-01,  -7.45321214e-02,   6.16674079e-03,  -3.80848125e-02,
     -1.30442739e-01,   1.32213473e-01,   1.12522235e-02,   2.61894286e-01,
      1.12571813e-01,   3.30472626e-02,  -1.30657092e-01,   6.36933669e-02,
     -1.87556222e-01,  -1.28534421e-01,  -2.32777551e-01,  -1.74825639e-01,
      1.68418093e-03,   3.95880081e-02,   4.09731492e-02,  -8.69057793e-03],
   [  1.20278239e-01,   3.47648002e-02,   2.80860007e-01,  -3.98378298e-02,
     -2.67467827e-01,   1.22348808e-01,  -4.91315387e-02,   2.33007409e-02,
     -3.59404117e-01,   1.92756534e-01,   9.14508104e-02,   5.58526218e-02,
      2.61443406e-01,  -5.87414466e-02,   1.17218904e-01,  -1.63703099e-01,
      7.54556444e-04,   1.11242838e-01,   1.42866775e-01,   3.14057805e-02,
      6.24048039e-02,   2.70794760e-02,   7.70646781e-02,   2.66395975e-03,
      1.26696020e-01,   2.26576701e-02,  -1.52856216e-01,   6.57770783e-02,
      5.72834350e-02,  -1.29415989e-01,   1.64019376e-01,  -8.99605080e-02],
   [  1.76970378e-01,  -9.57744196e-02,   2.50282764e-01,  -3.07199866e-01,
     -1.90776587e-01,  -2.01740116e-01,   5.00836613e-05,   4.66272682e-02,
      1.28762454e-01,   1.92360714e-01,  -8.15647990e-02,  -1.86208710e-01,
     -4.11260277e-01,   7.61806220e-02,  -7.28794485e-02,   7.32129673e-03,
     -1.15612611e-01,   2.91373760e-01,   6.53475225e-02,  -1.58408493e-01,
      1.07122898e-01,  -3.25820893e-01,  -3.82597446e-02,  -3.02973092e-01,
     -6.30769506e-02,   2.69918382e-01,  -2.95675658e-02,  -1.85276672e-01,
     -1.76592737e-01,  -7.83632100e-02,  -7.27339163e-02,  -1.88333914e-02],
   [ -7.91678056e-02,   1.18230321e-01,   2.96884179e-01,  -2.10371524e-01,
     -4.23534866e-03,   1.13669179e-01,   1.83999464e-01,   4.37532216e-02,
     -8.86492059e-02,  -2.09551901e-01,   2.54950132e-02,  -1.21282473e-01,
      1.90070525e-01,  -1.14717714e-01,  -3.00971627e-01,   1.15841655e-02,
      4.17362154e-01,  -1.72145158e-01,   7.01914728e-02,  -1.64691627e-01,
      4.72520329e-02,  -1.14824377e-01,   8.06087703e-02,  -2.41797209e-01,
     -8.17782655e-02,  -1.43870607e-01,  -1.44121900e-01,  -1.20855577e-01,
     -1.44384857e-02,  -8.73325467e-02,  -1.04858913e-03,  -1.45881981e-01],
   [ -5.62622361e-02,  -1.15997374e-01,   1.00345105e-01,  -6.56523108e-02,
     -1.82301804e-01,  -9.66326222e-02,   2.70195365e-01,  -6.95068762e-02,
     -6.65370896e-02,   1.27619714e-01,  -7.20662400e-02,  -8.14777836e-02,
     -2.80057322e-02,   1.78587630e-01,   5.61996028e-02,   1.80138033e-02,
     -1.58794656e-01,   1.44871734e-02,   2.83828527e-02,   7.87599087e-02,
     -3.98131102e-01,  -8.74194428e-02,   9.07524526e-02,  -3.92228752e-01,
     -4.55714911e-02,   1.16451122e-01,  -1.85338333e-02,  -1.38427988e-01,
     -1.16604567e-01,  -2.74292734e-02,  -1.00475803e-01,   1.02042772e-01],
   [  1.59056649e-01,   9.91227571e-03,   2.55169541e-01,  -1.81376904e-01,
     -1.51593074e-01,   5.70697375e-02,   6.68915659e-02,  -3.87900881e-02,
      2.19252169e-01,  -4.50930446e-02,  -1.49538696e-01,   5.81453107e-02,
     -2.66006947e-01,   3.37880254e-01,   1.05993055e-01,   2.51859725e-01,
     -1.08712412e-01,  -2.80968249e-01,   1.04463294e-01,  -9.88125578e-02,
      8.81744921e-03,   2.93141693e-01,  -5.93344029e-03,  -1.86581597e-01,
     -1.61337061e-03,  -6.57768473e-02,   6.64584190e-02,   3.80798042e-01,
     -2.08315820e-01,  -1.04137003e-01,  -1.68806851e-01,  -1.41391352e-01],
   [  1.45877421e-01,   1.28664121e-01,   1.45503908e-01,  -7.87953809e-02,
      6.38680980e-02,   6.61745593e-02,   1.26548171e-01,  -7.40365684e-02,
      3.43769938e-01,   1.33889988e-01,   8.81926939e-02,   3.14120591e-01,
      5.73668703e-02,  -2.97787180e-03,   5.11021800e-02,  -2.22077966e-01,
      8.13569427e-02,   3.64560813e-01,  -1.37512619e-02,  -2.45292217e-01,
     -6.78081438e-02,   4.53676879e-02,   5.13220094e-02,  -2.59684138e-02,
      9.26300138e-03,   5.02315573e-02,  -5.04160225e-02,   4.25928049e-02,
      9.82098505e-02,   3.33693296e-01,  -3.20374854e-02,   1.13323862e-02],
   [  1.71861071e-02,  -2.87762165e-01,  -4.11190838e-02,   5.72201423e-02,
     -2.48545796e-01,  -1.33819833e-01,   6.05495386e-02,  -6.45168349e-02,
      4.31725159e-02,  -1.89377189e-01,  -9.39318165e-02,   8.14044699e-02,
      5.21388985e-02,   8.87352601e-02,   5.25274351e-02,   1.77051619e-01,
     -1.69110030e-01,   2.96931043e-02,  -2.91852415e-01,  -6.30430803e-02,
      2.90470481e-01,   1.51676476e-01,  -1.07986905e-01,  -8.45637769e-02,
      1.14609823e-01,   1.58415139e-01,   1.04948469e-01,   2.55829841e-02,
     -1.63666740e-01,   7.05069164e-03,  -2.05362812e-01,  -5.52006289e-02],
   [  3.27761993e-02,   6.25696629e-02,  -1.31958008e-01,  -1.33860365e-01,
     -1.68127283e-01,  -3.12761456e-01,  -2.67920550e-02,  -1.00835823e-01,
     -1.28648430e-01,  -9.03354958e-03,  -1.76887602e-01,  -3.87679115e-02,
      3.61711174e-01,  -5.16433269e-02,  -1.27210026e-03,   3.54071885e-01,
      4.32170555e-03,  -1.49032936e-01,   3.82250249e-02,  -6.73492327e-02,
      1.35336202e-02,  -6.05683625e-02,   3.00855599e-02,   2.64068067e-01,
     -1.91550180e-01,  -2.01279655e-01,   1.20280713e-01,   1.76079959e-01,
     -1.72150567e-01,  -3.12098354e-01,  -3.53404433e-01,  -1.73352599e-01],
   [  6.93254778e-03,  -2.20459476e-02,  -2.26247624e-01,  -1.25612855e-01,
     -6.66784197e-02,   9.29830223e-02,   4.15302329e-02,  -1.19935712e-02,
     -2.65385453e-02,   1.66326016e-01,  -1.82680935e-01,  -1.30766824e-01,
     -1.95813552e-01,  -1.75880730e-01,   1.31719708e-01,   8.30063820e-02,
     -7.41780028e-02,  -3.29324640e-02,   1.30653307e-01,   3.99133042e-02,
      4.03721295e-02,  -2.10343033e-01,   8.38700160e-02,   1.31115377e-01,
     -6.94267079e-02,   3.46466377e-02,  -1.19893462e-03,   7.10665137e-02,
      7.84774125e-02,   7.38124996e-02,  -1.33644775e-01,  -7.71646947e-02],
   [  1.02983102e-01,  -4.63995934e-02,  -7.80806392e-02,   7.93163702e-02,
     -3.91920581e-02,  -2.27007136e-01,   1.49103001e-01,  -1.66156828e-01,
      5.01069836e-02,  -1.78312182e-01,   1.04377687e-01,   1.97507903e-01,
      2.73757689e-02,   1.51389420e-01,   2.40665358e-02,   7.88407847e-02,
     -4.67698485e-01,   8.18025246e-02,   4.48409207e-02,   1.41126886e-01,
     -1.01291485e-01,  -6.83557838e-02,  -2.09359124e-01,  -3.39266993e-02,
     -2.64753610e-01,  -8.30672383e-02,  -1.47507980e-01,   1.62829943e-02,
     -2.43358985e-02,  -2.34377027e-01,   2.15713382e-02,  -3.99830863e-02],
   [  9.56592113e-02,   1.39732823e-01,  -3.12901229e-01,   2.48753205e-01,
      1.82177842e-01,   9.47599486e-02,  -1.86865404e-02,  -6.09657615e-02,
      7.56863356e-02,  -1.04692660e-01,  -5.78114539e-02,   1.30965784e-01,
     -1.71858788e-01,  -6.54140208e-03,  -1.21704340e-02,  -8.31816196e-02,
     -3.57656479e-01,   1.02714837e-01,   1.13207094e-01,  -4.47634906e-02,
     -1.58264726e-01,  -6.21889047e-02,   8.61924142e-02,  -2.15548038e-01,
      3.28528851e-01,  -1.09120131e-01,   6.11798279e-02,   1.39033616e-01,
     -2.77592521e-02,  -2.06767961e-01,   1.63111180e-01,  -2.08336040e-01],
   [ -3.46413068e-02,   1.38688246e-02,  -2.71774501e-01,   1.33171260e-01,
      2.77055278e-02,  -1.09251356e-02,  -2.64152866e-02,   1.22408681e-02,
      9.94588882e-02,   4.29431766e-01,  -1.75045565e-01,   1.51858225e-01,
      6.88069090e-02,   1.16557293e-02,   1.71113551e-01,   3.35990191e-02,
     -2.45981514e-01,   2.61769861e-01,   1.14753833e-02,   1.26082245e-02,
     -3.28858227e-01,   8.71059522e-02,   4.18538833e-03,  -5.78013621e-02,
      2.90772575e-03,   3.37533712e-01,  -1.27062321e-01,  -5.77218942e-02,
      9.06077400e-02,  -1.21533833e-01,  -1.01710856e-01,   3.66275534e-02],
   [  9.13197473e-02,   1.24000765e-01,   9.97771323e-03,   2.19425634e-01,
     -7.24826008e-03,   8.43339134e-03,  -1.86146438e-01,  -1.96689948e-01,
     -1.08121917e-01,  -7.61656836e-02,   3.07530742e-02,   1.21847779e-01,
      2.88972259e-01,   9.15987268e-02,   8.97983760e-02,  -2.05776002e-02,
      1.17221652e-02,  -2.06756383e-01,  -6.88624233e-02,  -9.94347408e-02,
     -1.10043950e-01,  -8.88515711e-02,   9.24355537e-02,  -1.51663441e-02,
      3.45399797e-01,   5.23833744e-02,   5.84342256e-02,  -8.08769166e-02,
     -2.33037267e-02,  -2.89979223e-02,  -8.24428126e-02,  -1.95194423e-01],
   [  5.26403040e-02,   3.97365764e-02,   1.88304365e-01,  -1.06057197e-01,
     -1.99055299e-01,   1.51021361e-01,  -2.28195544e-02,   3.81582603e-03,
     -2.30908431e-02,   1.62054032e-01,  -8.77179056e-02,   4.84354012e-02,
      1.44295827e-01,   1.11590184e-01,  -6.66404143e-02,  -8.01190212e-02,
     -5.99241145e-02,   1.87595546e-01,   1.25372559e-02,  -1.64364263e-01,
      1.47879710e-02,   5.74481115e-02,  -1.73017159e-01,  -1.80666611e-01,
     -2.16307625e-01,   4.25167866e-02,  -6.19236678e-02,  -2.27255151e-01,
     -4.97329645e-02,   1.32440925e-01,   1.91839933e-01,   1.56668082e-01],
   [  1.53687775e-01,   2.46561058e-02,  -1.67137787e-01,  -4.07242000e-01,
     -8.00460652e-02,  -9.85173229e-03,  -3.86472023e-03,  -4.41084467e-02,
      1.51099581e-02,  -1.89410806e-01,  -7.75466561e-02,  -1.58156052e-01,
     -1.40510295e-02,   7.72158504e-02,  -1.63683683e-01,  -1.55064553e-01,
      3.47242445e-01,  -1.65295467e-01,  -1.02793299e-01,  -4.33439314e-01,
     -3.37304473e-02,  -2.23134711e-01,  -1.35248616e-01,  -1.50648504e-01,
      7.99414515e-02,   2.09129184e-01,  -3.30019712e-01,  -4.65778448e-02,
      1.11070141e-01,   1.39425442e-01,   1.15925550e-01,  -1.04776518e-02],
   [ -1.17857074e-02,  -8.45559910e-02,   6.86020032e-02,  -1.00415528e-01,
      6.27279729e-02,  -1.18754461e-01,   4.27110605e-02,   2.32187100e-03,
      3.24868336e-02,   1.45932823e-01,   8.34970325e-02,  -1.27020806e-01,
     -2.96199694e-02,   1.97975889e-01,   1.31340057e-01,   8.20305422e-02,
      5.26269153e-02,   1.23017564e-01,  -9.49433371e-02,  -1.81019932e-01,
     -3.85509133e-02,  -2.42177323e-02,  -5.25094569e-02,  -1.35265604e-01,
      3.26931685e-01,   6.51361421e-02,  -4.60595936e-02,  -3.18723880e-02,
     -9.29654166e-02,  -1.82607621e-01,   9.74320713e-03,   1.16576746e-01],
   [ -9.78874043e-03,  -2.68866122e-02,   1.07130177e-01,   2.36849517e-01,
     -1.48384804e-02,   2.52223182e-02,  -1.49056405e-01,   4.99175265e-02,
      1.75358653e-01,   4.44288403e-01,   1.75041437e-01,   9.09602549e-03,
     -2.51231790e-01,   1.83256194e-02,   2.55235106e-01,   3.12568009e-01,
     -1.38835711e-02,  -2.36869350e-01,   3.21636587e-01,   6.81390092e-02,
     -1.18491806e-01,  -2.27654457e-01,  -2.39919707e-01,   4.75125425e-02,
      1.42822772e-01,  -3.24549899e-02,  -8.32324401e-02,   7.44977547e-03,
     -6.77294135e-02,  -5.32936528e-02,   1.11345612e-01,  -6.79511800e-02],
   [ -1.52191455e-02,  -5.93778715e-02,   1.92988604e-01,   1.56723987e-02,
      2.03044996e-01,  -1.12428749e-02,   5.99609166e-02,  -1.97315216e-01,
      2.69621968e-01,  -1.34812474e-01,  -1.66786518e-02,  -1.36621445e-01,
     -1.28834859e-01,  -1.08745225e-01,   5.42135462e-02,  -1.11978943e-03,
     -1.69898897e-01,  -2.76223004e-01,  -1.22024462e-01,  -1.62436619e-01,
      8.11991282e-03,  -8.42544064e-02,   2.49495640e-01,  -2.10161150e-01,
      2.56556123e-01,  -5.58814779e-02,  -1.62375480e-01,   7.30290413e-02,
     -4.59281094e-02,  -2.80678689e-01,   7.98724685e-03,   1.99199557e-01],
   [  1.96981549e-01,   1.30023852e-01,  -3.39766949e-01,  -8.25462118e-02,
     -3.27176183e-01,   3.65934172e-03,  -1.16575122e-01,   6.24556132e-02,
     -8.66983086e-02,   1.79383293e-01,   6.73044324e-02,   3.63127261e-01,
     -7.34173656e-02,  -1.88764706e-01,   5.30932359e-02,   1.25449933e-02,
     -1.95415124e-01,   1.78310677e-01,   1.61226898e-01,  -1.01932824e-01,
      1.61500707e-01,   2.00729854e-02,  -4.21673711e-03,  -2.16893256e-01,
      1.93803627e-02,  -1.91945583e-01,  -3.03244796e-02,   1.42800942e-01,
      3.89336675e-01,   1.27564482e-02,  -3.23698260e-02,  -4.03244421e-02],
   [ -6.17529340e-02,  -5.16209640e-02,  -8.74423012e-02,  -1.12469070e-01,
     -7.96962753e-02,  -8.54777917e-02,  -2.23191947e-01,  -3.05334955e-01,
     -1.21631902e-02,  -7.59607404e-02,  -5.03789485e-02,  -1.34241199e-02,
     -1.49599552e-01,  -1.94402471e-01,  -2.71691054e-01,  -2.11917222e-01,
      1.89962566e-01,   2.16347165e-03,  -1.54685333e-01,   5.55437207e-02,
      1.88170106e-03,  -3.60613465e-02,   4.44172993e-02,  -1.21915400e-01,
      1.83177739e-01,   2.12716147e-01,  -1.03933647e-01,  -9.19570327e-02,
     -6.79334924e-02,   4.90998589e-02,  -3.00988778e-02,  -7.85062462e-02],
   [ -1.21435374e-01,  -1.67357221e-01,  -1.04990095e-01,  -9.31189209e-02,
     -4.37636562e-02,   7.41508901e-02,  -2.15068739e-02,   2.18212247e-01,
     -2.23685876e-01,   1.62344858e-01,   7.97053874e-02,  -3.77884954e-01,
      1.63394913e-01,  -2.69427560e-02,   1.78452954e-01,  -2.62300402e-01,
      2.75553763e-01,   2.26236045e-01,   8.48114565e-02,  -1.80966616e-01,
      3.41179758e-01,  -5.75181022e-02,   8.22770223e-02,   5.45942448e-02,
     -4.09369264e-03,   3.36840272e-01,  -6.75266758e-02,  -1.41339600e-01,
      1.00072429e-01,  -2.01104894e-01,  -5.58843799e-02,  -1.62443236e-01],
   [ -1.29596174e-01,  -5.17776646e-02,   2.55666137e-01,   1.21821508e-01,
      8.89779851e-02,  -2.11219817e-01,  -4.14612405e-02,  -1.43575534e-01,
      2.08632454e-01,   1.11476652e-01,   5.30417562e-02,   6.60364702e-02,
     -1.55502364e-01,   9.66021717e-02,  -1.72943175e-01,   1.57404378e-01,
      1.73987355e-02,   2.43429720e-01,  -4.22061831e-02,  -1.15529411e-01,
     -5.98360375e-02,  -5.47022633e-02,   2.09159940e-01,   9.05654132e-02,
      4.32432489e-03,  -3.39235328e-02,  -4.90364730e-02,   3.10260449e-02,
     -1.92643180e-01,  -8.77008960e-03,  -3.88646536e-02,  -2.61774603e-02],
   [  1.89378798e-01,   5.40874340e-02,  -1.18125550e-01,   2.27543451e-02,
      2.49999061e-01,  -1.35302469e-01,   3.14940996e-02,  -8.75794962e-02,
     -1.51873574e-01,   3.05994693e-02,   1.18829072e-01,   1.06667131e-01,
     -1.17071792e-01,   1.49925709e-01,  -8.47884119e-02,   1.19297877e-01,
     -1.03065833e-01,   1.27123117e-01,  -1.53862759e-01,   1.95490986e-01,
     -2.27265239e-01,   1.38541371e-01,   8.39499459e-02,   2.18045972e-02,
      1.15784761e-02,  -5.69390692e-02,   2.06461716e-02,  -2.44099692e-01,
     -3.46814424e-01,   9.44578573e-02,   8.54027644e-03,   5.13198636e-02],
   [  9.90376398e-02,  -5.72900586e-02,  -6.84628785e-02,  -1.77042440e-01,
      4.84143704e-01,   1.10664211e-01,  -1.60768434e-01,   1.11538455e-01,
      1.22271955e-01,   2.14299545e-01,  -4.01723534e-02,   3.43603902e-02,
     -7.93585628e-02,  -8.85589719e-02,  -4.71790209e-02,   5.32572158e-02,
     -5.56814969e-02,   8.09669718e-02,  -6.07592873e-02,   1.97310686e-01,
      1.92925394e-01,   7.46409409e-03,  -1.13538355e-02,   6.21595979e-03,
      8.78102183e-02,  -5.39753474e-02,   9.55286995e-02,   2.99629480e-01,
      1.68233261e-01,  -2.00241402e-01,  -2.21194416e-01,  -4.39841785e-02],
   [ -1.08548887e-02,   9.18629467e-02,  -1.65266559e-01,  -1.32340282e-01,
     -5.09882905e-02,  -8.58616531e-02,  -1.61435585e-02,  -7.15026334e-02,
     -1.19376123e-01,  -1.24962091e-01,  -2.68173546e-01,   1.68780908e-02,
      8.55304152e-02,  -5.87371662e-02,  -1.05630502e-01,  -6.64723068e-02,
      2.25213751e-01,  -1.89352036e-01,  -8.22691694e-02,  -5.27303703e-02,
      2.03409437e-02,  -1.02949552e-01,   3.96677144e-02,  -4.18490954e-02,
      8.03234503e-02,  -1.15286279e-03,  -2.02150121e-02,  -8.33301917e-02,
     -6.64475709e-02,   6.80363029e-02,  -1.92938056e-02,  -3.12343389e-02],
   [  1.33180290e-01,   2.78853495e-02,  -1.23893037e-01,  -9.84580535e-03,
      3.36247087e-02,   5.69598556e-01,   4.80437204e-02,   3.13826472e-01,
      3.79057787e-02,   6.86697736e-02,  -1.33814037e-01,  -4.19065263e-03,
     -9.73668694e-02,  -1.80411056e-01,   9.29550752e-02,  -1.64029181e-01,
     -2.74139673e-01,  -3.49502005e-02,  -1.69094112e-02,   7.57627413e-02,
     -2.08970085e-01,   4.95170355e-02,   1.02701239e-01,  -3.14065427e-01,
      1.40383898e-03,  -2.11737961e-01,  -2.52038330e-01,   6.90482408e-02,
     -3.13005298e-01,   2.29618460e-01,  -5.32584116e-02,  -1.35390922e-01],
   [  1.27527401e-01,  -1.11815944e-01,   1.31230010e-02,   2.35663638e-01,
      8.15176815e-02,  -1.19043939e-01,   7.40208924e-02,  -3.84793073e-01,
      2.94717271e-02,  -2.80629724e-01,  -7.44010061e-02,  -4.67656292e-02,
      9.93264690e-02,   1.58845738e-01,  -7.15809762e-02,   2.56161660e-01,
     -8.28835927e-03,   2.06036009e-02,   3.52051109e-02,   1.05351515e-01,
      9.97554585e-02,  -1.28364727e-01,  -3.17567825e-01,   8.38369876e-02,
     -1.48428217e-01,  -4.32357229e-02,   8.31743404e-02,   3.45194936e-02,
     -1.52604982e-01,  -2.67153740e-01,  -7.74936527e-02,   9.07235369e-02],
   [ -4.67183851e-02,   1.28420353e-01,   1.96207702e-01,  -1.82235464e-01,
     -1.59320042e-01,  -9.05508250e-02,  -1.59804553e-01,  -1.36810929e-01,
      2.29461230e-02,  -2.26146653e-01,  -4.51302342e-02,  -2.15848401e-01,
      8.97465199e-02,   4.05270979e-02,  -4.94538993e-02,   1.20119341e-01,
     -5.77466898e-02,   4.41225730e-02,   1.26775980e-01,   7.58675337e-02,
     -2.12140560e-01,   1.70802534e-01,  -1.63890451e-01,  -8.32811892e-02,
      9.55775753e-02,   1.25751510e-01,  -8.87838900e-02,  -9.70005766e-02,
      4.10221051e-03,  -8.31145048e-02,   1.43423170e-01,   1.38101250e-01],
   [ -1.24544002e-01,   1.17585354e-01,  -2.71781117e-01,  -1.01257123e-01,
      7.56995454e-02,   5.51902540e-02,  -2.21339032e-01,   9.65472385e-02,
      1.52096838e-01,  -2.42290661e-01,   2.02824846e-02,  -9.35542136e-02,
     -3.05177540e-01,  -8.43138993e-02,   3.68332475e-01,   5.97968176e-02,
     -2.79891402e-01,   1.31856531e-01,  -7.40732998e-02,   1.48066267e-01,
     -2.76616421e-02,  -2.29251906e-01,   2.09571570e-02,   3.76064368e-02,
      3.50563228e-01,  -1.49652511e-01,   1.58226211e-02,  -1.48136750e-01,
     -1.91138357e-01,  -2.77667702e-03,   3.76143456e-02,  -1.75342837e-03],
   [  2.99899150e-02,  -2.76859909e-01,  -2.26043552e-01,   3.17322426e-02,
      8.08442757e-02,  -1.06732443e-01,  -2.57047325e-01,  -3.14234011e-02,
      4.86278832e-02,  -1.95812397e-02,  -7.95443356e-02,  -2.47443065e-01,
     -1.95468739e-01,  -1.42162949e-01,  -2.04202428e-01,  -2.06065521e-01,
     -2.20802560e-01,  -1.47454083e-01,  -1.00970887e-01,   9.48336497e-02,
      1.75874963e-01,   8.73075426e-02,   5.69191165e-02,   1.33691847e-01,
     -9.96114612e-02,  -1.51203960e-01,  -3.20289731e-02,  -7.54193440e-02,
     -1.50512412e-01,   3.26209925e-02,   5.83164133e-02,   4.01236005e-02],
   [ -2.49725282e-02,   1.80474333e-02,  -3.52930546e-01,  -1.60158008e-01,
      5.23457751e-02,   2.62977839e-01,   6.48866408e-03,  -2.44172424e-01,
     -3.41387242e-02,   2.02794760e-01,  -2.86992360e-02,   9.57920253e-02,
     -3.21471661e-01,   5.12811840e-02,  -2.29681544e-02,   8.69451538e-02,
     -1.02362111e-01,   1.49387360e-01,  -4.14493158e-02,  -1.40623093e-01,
      2.22495392e-01,  -1.57993510e-01,   1.41316533e-01,  -3.63056399e-02,
      4.29896936e-02,   5.09105176e-02,  -2.77253054e-02,   5.13568856e-02,
      1.17502436e-01,  -1.26487717e-01,   2.27468371e-01,  -2.02430129e-01],
   [  2.03819796e-01,  -4.27493043e-02,   1.38302714e-01,  -2.16997787e-01,
     -2.11887047e-01,  -1.21404426e-02,  -1.85986131e-01,   9.73982178e-03,
     -1.36675104e-01,   3.22103560e-01,  -1.86413333e-01,  -5.22352159e-02,
      3.72619852e-02,  -2.55461130e-03,   2.44891923e-02,  -1.07104748e-01,
     -1.57794431e-01,   2.86490828e-01,   1.85747176e-01,  -1.42782688e-01,
      1.70492992e-01,  -4.60127788e-03,   1.72098204e-02,  -1.22633830e-01,
      1.94290146e-01,   1.55125380e-01,  -9.84842405e-02,   8.87267441e-02,
      3.08335811e-01,   6.12463132e-02,  -3.26519459e-01,  -2.28493378e-01],
   [  1.52267069e-01,  -5.46608819e-03,  -4.98074181e-02,   7.63653219e-02,
      3.72208208e-02,  -4.79821824e-02,  -5.05165495e-02,  -6.29958063e-02,
     -5.38791493e-02,   1.70931697e-01,  -1.01762705e-01,   1.14171706e-01,
     -1.75897077e-01,  -1.19541302e-01,  -4.59015816e-02,  -2.45763734e-01,
      1.94277853e-01,  -2.32376531e-01,  -1.61839232e-01,   2.59806544e-01,
      3.80906202e-02,   3.57655972e-01,  -6.18705899e-02,  -1.04638822e-01,
      9.22050551e-02,   1.23334996e-01,  -4.12189700e-02,  -1.23514451e-01,
      1.20961585e-03,   7.78394565e-02,  -2.46321365e-01,   1.28178913e-02],
   [ -9.02139489e-03,  -1.48060262e-01,  -1.22685777e-02,   2.31114700e-02,
     -7.81811699e-02,   1.10700307e-02,   8.28924030e-03,   1.12425059e-01,
     -1.71698913e-01,  -2.37769540e-02,   1.64000079e-01,  -3.23942266e-02,
     -2.68033326e-01,  -1.54534236e-01,   1.53653219e-01,   2.67569333e-01,
     -1.30608350e-01,   1.02703422e-02,  -8.37653205e-02,  -1.95549309e-01,
      6.94133490e-02,   2.91716103e-02,  -1.47787809e-01,  -1.78242519e-01,
      7.92728886e-02,   1.42699659e-01,   1.95666686e-01,   1.01514094e-01,
      7.60705993e-02,   1.42507240e-01,  -6.84997588e-02,  -2.00481415e-01],
   [ -1.19794413e-01,   1.16236486e-01,   6.27494138e-03,   1.46538064e-01,
      4.67736274e-02,  -5.37970364e-02,  -3.50747444e-02,  -1.90063231e-02,
      1.20568722e-01,   3.41659412e-03,  -1.29972333e-02,   4.43610102e-02,
     -3.22498649e-01,   2.64047328e-02,   1.11222845e-02,  -8.18306059e-02,
      6.97300583e-02,  -2.80392110e-01,  -2.75549833e-02,  -1.19267359e-01,
     -4.23686355e-02,   1.79515436e-01,   4.32992578e-02,   2.38168109e-02,
     -3.57076749e-02,  -1.51537806e-01,   1.18704841e-01,   1.24560215e-03,
     -7.13548884e-02,  -2.81394929e-01,   2.66851597e-02,   1.11904964e-02],
   [ -3.86955077e-03,  -2.61700481e-01,   9.14767608e-02,   1.48086861e-01,
      2.44249836e-01,  -2.46557385e-01,   1.36250675e-01,  -1.39178798e-01,
     -2.69200951e-02,   1.06508825e-02,  -3.18202749e-02,   7.31066093e-02,
      8.46425444e-02,   1.77368984e-01,  -2.07072034e-01,   5.85970208e-02,
      2.30893284e-01,  -1.80855021e-01,  -1.37288973e-01,  -5.33382632e-02,
     -1.22161001e-01,   1.56795353e-01,   2.14183450e-01,   5.10424227e-02,
      2.58277744e-01,  -2.74841511e-03,  -2.27936339e-02,  -1.66871637e-01,
      5.97209707e-02,  -5.75170666e-02,   3.64190377e-02,   7.68528730e-02],
   [ -2.80574448e-02,   7.61152655e-02,   2.25029483e-01,   9.09880921e-02,
     -1.59087732e-01,   8.76748040e-02,   3.19185168e-01,  -9.04631764e-02,
     -2.53669471e-01,   3.88757139e-02,   6.52058199e-02,  -2.42829788e-02,
      1.18627772e-02,   1.32748663e-01,   5.02269156e-03,  -7.10041896e-02,
      1.61454961e-01,  -1.59399822e-01,   1.24919958e-01,  -2.79007107e-01,
     -6.13702498e-02,   1.22443937e-01,  -7.72518516e-02,  -2.93977559e-01,
     -1.61414722e-03,  -1.54084146e-01,   3.47050317e-02,  -2.46593028e-01,
     -2.79377028e-03,   1.60678968e-01,   9.13084149e-02,  -1.27486382e-02],
   [ -1.37558684e-01,  -2.41206940e-02,   2.26144254e-01,   1.03254378e-01,
     -1.83872566e-01,  -1.07004635e-01,  -1.17917970e-01,   1.09442540e-01,
     -1.04897961e-01,   3.34728688e-01,  -2.70194112e-04,  -4.22253180e-03,
      9.40172821e-02,  -5.60557097e-02,   1.16723754e-01,   2.61201024e-01,
      2.45969757e-01,   6.63442984e-02,   1.33838609e-01,   4.95822467e-02,
      1.16783589e-01,   3.02443537e-03,  -3.35340318e-03,   5.82240038e-02,
     -1.10735886e-01,   7.89625496e-02,  -1.51234254e-01,  -1.46746457e-01,
     -1.20815272e-02,   1.58501733e-02,  -7.64234662e-02,   9.79915336e-02],
   [  1.02997094e-01,   1.17345462e-02,  -1.66005835e-01,  -6.84008002e-02,
      3.46526764e-02,   3.32389586e-02,  -1.61341354e-02,   1.47566438e-01,
     -1.46475479e-01,  -4.22594063e-02,   1.09616309e-01,   8.81275535e-02,
      5.67294993e-02,  -8.18444416e-02,  -1.70961134e-02,   3.37056629e-02,
      5.44586033e-03,  -1.82347313e-01,   3.26921269e-02,  -1.88848063e-01,
     -2.07279436e-02,  -1.24769872e-02,   4.04078960e-02,  -1.04019374e-01,
      7.02364324e-03,   5.98989986e-02,   1.78231835e-01,  -6.49572089e-02,
     -9.76751894e-02,   1.58687115e-01,  -8.92282054e-02,  -4.51183505e-02],
   [ -2.75724903e-02,  -3.53847474e-01,  -3.60163867e-01,  -1.79972202e-02,
     -2.02993393e-01,  -2.39429280e-01,   2.30503827e-02,   9.53516066e-02,
     -1.05177708e-01,  -6.82656914e-02,  -2.31386289e-01,  -2.69072026e-01,
     -3.10978770e-01,   2.19308715e-02,  -4.91213314e-02,  -8.00894126e-02,
     -1.86024383e-01,   2.00933903e-01,  -2.44799815e-02,  -1.19014971e-01,
      7.91260158e-04,  -1.00568354e-01,   5.22643477e-02,  -1.41211167e-01,
      4.86688875e-02,  -6.67738616e-02,  -1.02606853e-02,  -1.66253932e-02,
     -6.58552796e-02,  -2.87548423e-01,  -9.43855420e-02,   1.16687544e-01],
   [ -2.73934510e-02,  -3.35437506e-01,   2.37805024e-01,  -1.46380827e-01,
     -6.50135102e-03,  -4.29835506e-02,  -7.84425586e-02,  -3.90474111e-01,
      1.03164650e-01,  -5.34866489e-02,   4.76256385e-02,  -2.17028148e-02,
     -1.90039538e-02,   9.84653458e-02,   9.75853726e-02,   1.80717424e-01,
      2.58600384e-01,   2.43254453e-01,  -5.46619929e-02,   3.63499373e-01,
     -1.20170347e-01,   5.40056936e-02,  -1.03461146e-01,   1.05595812e-01,
      2.10955483e-03,  -1.97894475e-03,   4.54691797e-02,   1.78491369e-01,
     -4.08422172e-01,  -1.04547217e-01,   4.01471645e-01,   2.49100193e-01],
   [  7.36085549e-02,  -2.62987286e-01,   5.28998412e-02,   2.33646315e-02,
      7.60864615e-02,  -2.92386740e-01,  -2.43849028e-02,   6.10479414e-02,
      2.45683029e-01,  -1.65844783e-02,  -3.83898169e-02,   2.69190729e-01,
      3.22251797e-01,  -7.20355287e-02,  -9.11717396e-03,   2.06409588e-01,
     -8.01348872e-03,   1.12416692e-01,   3.97700667e-01,   1.64000228e-01,
      1.35302722e-01,   4.04326320e-02,   7.58382753e-02,   2.22008049e-01,
     -1.01158191e-02,   1.37604043e-01,   1.63395315e-01,  -7.70507008e-02,
      4.00277600e-02,  -2.47602500e-02,  -8.89968723e-02,   1.50089487e-01],
   [  4.37997431e-02,   1.70601323e-01,  -3.22478823e-02,   1.86336875e-01,
     -3.02539170e-02,  -1.43747926e-01,  -6.06176443e-02,   1.61540985e-01,
      5.98080410e-03,   5.23693860e-02,   1.02074623e-01,   3.20224106e-01,
     -3.47807445e-02,  -2.71054227e-02,  -5.68080740e-03,   2.13377681e-02,
     -2.43772373e-01,  -1.67119168e-02,  -1.54199349e-02,  -9.28083062e-02,
      2.96392798e-01,   1.93581581e-01,  -1.73437446e-01,  -1.45714805e-01,
      6.13065399e-02,   1.56104848e-01,  -8.12942386e-02,   1.50801629e-01,
      1.63417850e-02,   1.90075278e-01,   3.98156494e-02,  -1.42792597e-01],
   [ -1.17594460e-02,  -1.80649683e-01,  -7.94173554e-02,   8.70916173e-02,
     -6.91352114e-02,   2.05385499e-02,   8.84328270e-04,   5.45355119e-02,
      1.04650538e-02,   4.21011224e-02,   3.00975502e-01,   2.09483445e-01,
     -9.84103456e-02,  -6.05737381e-02,   2.26086721e-01,  -1.40242934e-01,
      2.62514949e-01,   8.58339146e-02,  -2.31405184e-01,   7.65200779e-02,
      2.73864754e-02,  -4.94932421e-02,   2.93319702e-01,   1.18507661e-01,
      4.01110724e-02,  -1.71369866e-01,  -2.15952709e-01,   1.52436838e-01,
      9.52061489e-02,   3.23967189e-02,  -1.95994034e-01,   3.09412722e-02],
   [  1.32465288e-02,   2.52248347e-01,   9.17960610e-03,   1.16676711e-01,
      1.88075736e-01,   6.54050731e-04,   3.89555842e-01,   2.04863325e-02,
     -2.01854780e-02,   1.17235459e-01,   1.09769359e-01,  -1.69472411e-01,
      2.50218391e-01,  -1.04816005e-01,   7.80866966e-02,  -1.48885086e-01,
      1.47083446e-01,  -4.95769829e-02,   1.15205133e-02,  -1.30763829e-01,
     -1.77302420e-01,  -1.87352374e-01,  -4.59446609e-02,   6.33161291e-02,
      1.41146928e-01,  -1.49970166e-02,   7.20844269e-02,   5.58438413e-02,
      7.69666210e-02,   1.08365484e-01,  -8.19586217e-03,  -6.33418784e-02],
   [  2.46218830e-01,   5.94886998e-03,   1.89017162e-01,  -2.47303322e-02,
     -5.38874686e-01,  -4.03213203e-02,   1.50343820e-01,  -1.09143019e-01,
     -1.82024151e-01,  -2.46629506e-01,   8.61421376e-02,   1.15705103e-01,
      8.54718387e-02,   4.99582291e-02,  -1.46263734e-01,  -9.70030725e-02,
     -1.56173408e-01,  -2.94330388e-01,  -3.19615871e-01,   5.03691211e-02,
     -1.59703389e-01,  -5.15441131e-03,   8.43057930e-02,  -4.82635051e-02,
      1.11496322e-01,   2.42363378e-01,   2.46538848e-01,   9.83256847e-02,
     -1.67416409e-01,  -1.06923983e-01,  -2.87185535e-02,   1.52525887e-01],
   [  2.77597848e-02,  -2.26212472e-01,  -1.34202570e-01,   3.24864954e-01,
     -9.98375043e-02,  -2.97453225e-01,   1.47077769e-01,  -2.34675586e-01,
      7.59657985e-03,  -3.22487444e-01,  -1.46401674e-01,   1.28331169e-01,
     -3.91760170e-02,   9.31061953e-02,  -1.52904540e-01,   4.69341278e-01,
      2.11192057e-01,  -3.14562619e-01,  -5.03186524e-01,  -9.03820693e-02,
      1.03658803e-01,   8.38997737e-02,  -1.39719471e-01,  -3.95249985e-02,
      9.59531665e-02,  -3.06349158e-01,  -1.16871543e-01,  -1.91908315e-01,
      1.14493877e-01,   1.81845546e-01,   2.58954704e-01,   2.35495530e-03],
   [ -3.07946447e-02,  -2.00936660e-01,  -3.51822615e-01,  -2.10591760e-02,
      1.23613968e-01,   1.26641393e-01,   3.32010314e-02,   1.76493123e-01,
     -5.63809425e-02,   1.69977829e-01,   1.26787499e-01,   1.12505466e-01,
      2.35487610e-01,  -6.55052364e-02,   5.05712628e-02,  -1.09271459e-01,
     -2.18480408e-01,   2.52513707e-01,   9.91511047e-02,  -8.85918662e-02,
     -2.58529752e-01,  -8.87318701e-02,   1.70323789e-01,  -1.14466891e-01,
     -1.35876656e-01,   8.82133283e-03,  -1.41980678e-01,  -7.78802857e-02,
     -5.23756742e-02,  -1.56589206e-02,  -3.14097434e-01,  -3.22905965e-02],],

  [[  1.70286983e-01,  -2.09103957e-01,  -7.32003385e-03,   4.66450788e-02,
      2.35104393e-02,   2.51656502e-01,   1.67931631e-01,  -1.22903451e-01,
      1.69796169e-01,  -1.79668143e-01,  -2.35976018e-02,   1.22856729e-01,
      5.28700709e-01,   1.71638086e-01,   3.72364819e-01,  -1.53512463e-01,
      1.60558924e-01,  -3.89260739e-01,  -2.66820729e-01,  -2.42745742e-01,
     -1.86748281e-02,  -1.91704999e-03,   8.83457735e-02,   2.54556816e-02,
     -4.21482734e-02,  -3.85007411e-02,   1.05202042e-01,   3.38668972e-02,
     -6.33031055e-02,  -2.95176804e-01,  -1.65493324e-01,  -1.64023638e-02],
   [ -5.18282093e-02,   3.04087013e-01,   2.40852967e-01,  -3.00211757e-01,
      2.19974011e-01,   2.69799083e-01,  -1.64099917e-01,  -4.86383168e-03,
      7.51980394e-02,  -8.93278047e-02,   1.23326875e-01,   1.58311427e-02,
     -1.16727069e-01,   1.93148032e-01,   2.56532460e-01,  -1.99949831e-01,
      3.32834393e-01,   2.46348158e-01,   6.06194660e-02,  -1.33326158e-01,
     -6.52784035e-02,  -5.24551384e-02,  -2.67590061e-02,   4.65990715e-02,
     -2.17737943e-01,   1.79624200e-01,  -7.68241584e-02,  -3.33497599e-02,
     -1.80810690e-01,   1.98283881e-01,   1.53798163e-01,  -1.03171691e-02],
   [ -8.69194940e-02,   8.59727263e-02,  -1.03783332e-01,   1.39913812e-01,
      5.37658036e-02,   9.47786793e-02,   1.66069181e-03,   5.56436460e-03,
     -2.63561577e-01,   2.83583939e-01,   4.75976393e-02,   1.14522889e-01,
      1.06483266e-01,  -4.75174673e-02,   2.09589705e-01,  -2.75695622e-01,
     -2.63114236e-02,   3.67729664e-01,   1.24917999e-01,  -1.75767660e-01,
     -5.99746406e-02,  -2.51842141e-01,   1.73413679e-01,   7.40590738e-03,
     -8.16937834e-02,   4.93755862e-02,   9.93968621e-02,  -5.58565184e-02,
     -1.26472771e-01,  -7.58225173e-02,   1.32782012e-01,  -3.19653839e-01],
   [ -5.30852973e-02,  -5.07213734e-02,  -5.21646142e-02,  -1.62994102e-01,
     -8.95694941e-02,  -5.91391735e-02,  -1.37151852e-01,   9.88485068e-02,
      2.40546972e-01,   1.61148980e-01,  -4.03796881e-02,   1.12598568e-01,
      1.00375511e-01,   4.22456674e-02,   2.61359364e-02,  -2.56465878e-02,
     -1.32143170e-01,   1.32010996e-01,   2.57955849e-01,  -9.55011994e-02,
     -2.59984702e-01,   1.23849101e-01,   6.17956333e-02,   3.54339667e-02,
      4.88722809e-02,   2.64659096e-02,   5.10105081e-02,  -2.93419242e-01,
      1.39408922e-02,   5.71955666e-02,   1.53213695e-01,   7.39055648e-02],
   [ -6.13472797e-02,   5.37993051e-02,   1.54896170e-01,  -2.29317304e-02,
     -1.12201877e-01,   1.27922490e-01,  -1.08746458e-02,   9.12027359e-02,
      2.35064654e-03,   3.50382745e-01,  -1.55544966e-01,  -9.13999602e-03,
      9.48738307e-02,   1.03435535e-02,   1.46230981e-01,  -2.24877641e-01,
     -7.36132115e-02,  -1.96498036e-01,  -2.64283657e-01,   4.04386073e-02,
      2.52265930e-01,  -1.97031233e-03,   6.74719214e-02,   1.78905845e-01,
     -1.24183288e-02,  -2.91077606e-02,   4.97351587e-02,   1.52406231e-01,
     -2.60135233e-01,   1.37643203e-01,   1.37031391e-01,  -1.71338797e-01],
   [  9.72899571e-02,   1.05838440e-01,   7.60168955e-02,   6.38414873e-04,
      1.65589824e-02,   1.44308969e-01,  -8.19095895e-02,   1.65293831e-02,
     -1.45931572e-01,   1.76767722e-01,  -2.99473554e-02,  -2.96505690e-01,
     -1.90994814e-01,   1.28714547e-01,   7.84337744e-02,  -5.80216683e-02,
      1.57443210e-01,  -3.40549529e-01,   4.32355516e-03,   1.00532873e-02,
      5.77396601e-02,   9.02238712e-02,   1.28119931e-01,   6.15315251e-02,
     -2.68110167e-02,   1.04390956e-01,  -2.68564194e-01,  -1.67560622e-01,
      1.95190236e-02,   3.56227122e-02,   8.50362629e-02,  -4.05837931e-02],
   [  2.58887559e-01,  -1.24366079e-02,   7.47775212e-02,   1.28240094e-01,
     -6.16496094e-02,   1.46985486e-01,  -4.81531806e-02,  -1.72128141e-01,
     -1.60101235e-01,  -1.54342666e-01,   9.43110883e-02,   5.83745423e-04,
      1.42313898e-01,  -2.02942282e-01,   4.48080897e-02,  -8.80357027e-02,
      3.81059013e-02,   7.27411211e-02,  -1.23617232e-01,  -1.11737333e-01,
     -7.68321455e-02,   8.52298588e-02,   6.16100207e-02,  -4.17428762e-02,
      1.35355353e-01,   1.69335723e-01,   1.33960666e-02,   1.24345072e-01,
     -1.12208635e-01,   1.37768596e-01,  -6.81679249e-02,   1.91909611e-01],
   [ -5.50716333e-02,  -1.66015580e-01,  -5.82534149e-02,  -9.96320546e-02,
      1.47739753e-01,   9.49910842e-03,  -1.90958753e-01,   5.40402010e-02,
      2.32015088e-01,  -2.47294202e-01,  -3.71061489e-02,   1.18002161e-01,
     -1.28643647e-01,   6.58109412e-02,  -5.21573704e-03,   9.01636668e-03,
      1.12553621e-02,  -1.66905709e-02,  -2.82492399e-01,   2.21051797e-01,
      6.35040030e-02,   1.31880224e-01,   9.44091380e-02,  -2.53070928e-02,
     -4.65115979e-02,  -4.91032936e-02,  -4.08730917e-02,   6.15996867e-02,
      3.09826490e-02,  -2.90211827e-01,  -1.22189596e-01,  -1.22763269e-01],
   [ -3.73973064e-02,  -2.56326199e-01,  -7.21203238e-02,   2.12358814e-02,
     -2.69597113e-01,   2.34192312e-02,  -3.23802754e-02,  -8.44748691e-03,
      3.01764403e-02,  -1.24836423e-01,  -1.09110437e-01,  -2.23683700e-01,
      1.78881913e-01,  -9.72313061e-02,  -3.97733338e-02,   1.64171547e-01,
     -2.75985268e-03,   8.77490118e-02,   5.06212264e-02,   1.56275146e-02,
     -3.38559806e-01,  -3.27675790e-02,  -2.33733803e-01,   8.73246789e-02,
      1.30317867e-01,   6.49384335e-02,   1.03174873e-01,   3.19107883e-02,
     -2.15570465e-01,   2.93291390e-01,  -1.99245945e-01,  -1.22367166e-01],
   [  4.81124818e-02,  -9.28514358e-03,   8.77428353e-02,   6.17708126e-03,
      1.75621435e-01,  -3.72400135e-01,   1.12395056e-01,   1.15824424e-01,
     -3.30558360e-01,  -1.81321546e-01,   2.52735317e-02,  -3.60356085e-03,
      5.96512258e-02,   4.77064811e-02,   4.86275926e-02,   7.21049234e-02,
     -1.66335195e-01,   5.90458848e-02,  -4.71653715e-02,   1.37776643e-01,
      6.67636469e-02,  -1.22444324e-01,  -8.95730704e-02,   1.82465345e-01,
      1.78621337e-01,  -5.51379286e-02,   1.29986525e-01,  -9.34629738e-02,
      5.00272401e-02,  -8.81685168e-02,   1.81498080e-02,   3.99329327e-02],
   [ -3.47641408e-02,  -9.94637758e-02,  -1.12000279e-01,   1.86749771e-01,
     -1.94032133e-01,   2.33112331e-02,  -8.77241492e-02,   1.59247622e-01,
     -1.13811806e-01,  -2.15914443e-01,   3.79155949e-02,  -1.10624686e-01,
      8.95337015e-02,  -4.46740910e-02,  -6.83817174e-03,  -1.71996951e-02,
      3.02107483e-01,   1.04222275e-01,  -6.32423908e-02,  -1.77711576e-01,
     -4.27704975e-02,   4.62093204e-03,   2.58467882e-03,  -1.39461845e-01,
      7.79614747e-02,  -2.16381490e-01,   1.06736638e-01,  -1.15695588e-01,
      1.87304884e-01,  -4.62269448e-02,   1.43112168e-01,  -9.65731964e-02],
   [  2.38953754e-02,  -1.65154710e-01,  -2.17046767e-01,   9.05831985e-04,
      1.31692216e-01,  -1.59710571e-02,  -6.48542773e-04,  -2.22135216e-01,
     -1.28392369e-01,   6.77747503e-02,  -2.81048566e-01,  -6.83939159e-02,
     -2.07382143e-01,   1.38470270e-02,  -4.90628332e-02,  -2.77802553e-02,
     -1.42871635e-02,   9.19681042e-02,   2.46674772e-02,   6.24714978e-02,
     -1.12425834e-01,  -1.19412705e-01,  -2.91523598e-02,   1.21215440e-01,
     -6.91859871e-02,   4.75162268e-02,  -6.81570172e-02,  -1.55301005e-01,
      1.45884290e-01,  -3.89313512e-03,  -1.12680040e-01,   5.57704382e-02],
   [ -1.46410584e-01,   5.62284663e-02,  -5.76182716e-02,  -7.51298666e-02,
     -2.74796009e-01,  -1.71113491e-01,  -1.50412321e-01,  -9.24490690e-02,
      6.50800182e-04,  -3.28578353e-01,  -1.57914922e-01,  -4.64747325e-02,
     -1.43891398e-03,  -1.27658863e-02,  -4.14911807e-02,   7.49606192e-02,
     -3.71970944e-02,   1.06006965e-01,  -2.14465693e-01,   5.47567159e-02,
      1.51048809e-01,  -6.22882582e-02,  -1.46830723e-01,  -2.32139044e-02,
     -1.73901349e-01,   2.54198983e-02,  -1.26632124e-01,   1.35073468e-01,
      1.87725082e-01,  -3.03134024e-02,  -4.71544564e-02,  -4.25660657e-03],
   [  1.02361679e-01,   3.64998765e-02,  -2.32883886e-01,  -4.60084490e-02,
     -3.49734612e-02,  -4.43506651e-02,   2.07478013e-02,  -1.75619885e-01,
     -2.58560143e-02,   7.55994767e-02,   4.50277366e-02,   1.22163258e-01,
      1.03147596e-01,   1.61618829e-01,   4.81483042e-02,  -5.28485253e-02,
     -5.81168048e-02,  -1.02948375e-01,  -8.35980475e-02,  -1.84467077e-01,
      4.34367239e-01,  -1.89988121e-01,   2.22161766e-02,  -1.41190365e-01,
     -2.95052286e-02,   6.61386475e-02,  -9.57275182e-02,  -3.15759331e-02,
      1.21848695e-01,   7.41558298e-02,   5.08382544e-02,  -7.55104199e-02],
   [  2.91387081e-01,   2.15737671e-01,  -1.72230572e-01,  -8.63805600e-03,
     -1.37938425e-01,   3.00534274e-02,  -1.37992753e-02,   1.85116708e-01,
      1.68236881e-01,  -2.04212680e-01,   1.12834573e-01,   1.88837171e-01,
     -7.90667757e-02,   7.35248029e-02,  -1.02908053e-01,  -2.92094499e-01,
      2.89128674e-03,   1.68791506e-03,   1.25659242e-01,   1.29139379e-01,
      3.33589278e-02,   6.36156499e-02,   1.41077399e-01,  -1.89060308e-02,
     -8.47520605e-02,   8.59027635e-03,   1.18710898e-01,   3.82789448e-02,
      1.21713005e-01,   1.93214551e-01,   8.94276351e-02,  -1.61708131e-01],
   [ -4.92480397e-02,  -1.38174772e-01,   3.37087959e-02,  -1.20891333e-02,
      1.05258800e-01,  -9.62622985e-02,   1.10687781e-02,  -3.33489962e-02,
      2.10209880e-02,   1.94154754e-01,  -1.68202266e-01,   8.70296285e-02,
     -2.18226448e-01,  -8.66472628e-03,  -8.18097591e-02,   4.85904375e-03,
      3.67905349e-02,   3.09685022e-01,   2.31015645e-02,   1.29485622e-01,
     -9.22326222e-02,  -4.70629446e-02,  -2.10517302e-01,  -1.52861610e-01,
     -2.46060379e-02,  -4.26432304e-02,  -2.01474741e-01,  -4.60889600e-02,
      4.47615050e-02,   1.59369692e-01,   1.23618148e-01,  -1.19273528e-01],
   [  6.96609495e-04,  -6.90861940e-02,  -1.55417800e-01,  -1.06881320e-01,
      2.64749769e-02,  -2.25732494e-02,   1.07948229e-01,   8.58549103e-02,
      1.72218919e-01,   3.71720269e-02,   2.20980510e-01,  -1.81846495e-03,
     -4.91495989e-02,  -1.66027859e-01,   5.22968918e-03,  -9.36526433e-03,
      1.61467135e-01,   1.09827584e-02,   1.73281372e-01,   1.23871125e-01,
     -1.29368035e-02,  -3.30844596e-02,   8.48787799e-02,   1.08748727e-01,
      6.65550604e-02,  -3.16723213e-02,  -3.77585217e-02,   6.88186139e-02,
      7.21780732e-02,  -9.93739441e-02,   1.85109081e-03,   6.59162402e-02],
   [  2.14758143e-01,   7.06854649e-03,  -7.91669860e-02,  -1.85195744e-01,
     -6.72443211e-02,   7.80175999e-02,   1.23948772e-02,   1.94860294e-01,
      1.08712137e-01,  -3.00576568e-01,  -1.37526169e-01,  -4.12571542e-02,
     -2.12468430e-02,  -7.79146552e-02,  -2.95210063e-01,  -5.48037291e-02,
     -3.31624970e-02,   9.47891250e-02,   1.38668388e-01,   2.78981596e-01,
      2.34247893e-01,  -1.55848369e-01,  -4.39497270e-02,  -4.88702767e-02,
      1.54614951e-02,   7.95023814e-02,   7.34007880e-02,  -1.07088231e-01,
      1.30718783e-01,  -1.03447586e-01,  -1.67167038e-02,  -1.46952003e-01],
   [  2.39967462e-02,   1.22302696e-01,  -5.14476411e-02,  -7.90367350e-02,
     -1.22862853e-01,   1.83848869e-02,   2.85981953e-01,   1.38130635e-02,
     -8.30789283e-02,  -2.75126159e-01,   2.08560303e-01,  -3.79979879e-01,
     -7.86262229e-02,  -4.80702072e-02,   2.19915975e-02,   1.63122952e-01,
      2.13344917e-01,   4.12183441e-02,   9.11606699e-02,  -2.77026117e-01,
      1.99805200e-01,  -1.34008199e-01,   6.94976375e-02,   1.00860424e-01,
     -2.16782600e-01,   9.38550830e-02,  -1.19403414e-01,  -1.47876859e-01,
     -3.29357758e-02,   6.23693466e-02,   3.03181466e-02,  -1.24862790e-01],
   [ -1.18837245e-01,  -7.56036043e-02,  -4.54468541e-02,   4.83686104e-02,
     -2.15638548e-01,   2.09680974e-01,   3.91225778e-02,   1.24460936e-01,
     -3.43135819e-02,  -1.64416641e-01,  -3.71233970e-02,  -2.11739942e-01,
     -1.75486386e-01,  -2.09238417e-02,   1.49964482e-01,   5.77972755e-02,
      1.52670398e-01,   8.13155472e-02,   2.75135040e-01,  -1.47793710e-01,
     -2.27687776e-01,   2.32350198e-03,  -8.92135203e-02,  -3.13990146e-01,
      4.54640426e-02,   5.89037053e-02,  -5.58120832e-02,  -1.21119828e-03,
      1.10922746e-01,   7.48656318e-02,  -1.16685517e-01,   1.60091743e-02],
   [ -2.06544757e-01,   8.11414570e-02,   7.96705931e-02,  -1.12208426e-01,
     -1.84779279e-02,   7.69897029e-02,   5.76694272e-02,   2.10294828e-01,
      1.99209392e-01,  -2.60280520e-01,  -2.52212942e-01,   9.98882875e-02,
     -2.74884373e-01,   4.78034429e-02,  -4.22480106e-02,  -1.49127454e-01,
     -8.68532658e-02,  -2.20065996e-01,   1.75972328e-01,   1.57562390e-01,
     -4.11497168e-02,   7.81499408e-03,   1.28077149e-01,   1.17817242e-02,
     -7.09261820e-02,  -1.92897674e-02,   1.49037793e-01,   2.75757313e-01,
     -2.09470659e-01,  -9.83952731e-02,   8.86215717e-02,  -8.71764645e-02],
   [  2.27193505e-01,  -5.71505949e-02,   1.66784257e-01,   9.89676267e-02,
      2.07391724e-01,   7.25753531e-02,   2.17564747e-01,  -8.15919638e-02,
      1.13396280e-01,  -6.17206022e-02,   7.78109282e-02,   1.47693560e-01,
      5.05563438e-01,   4.15160358e-02,  -5.62869664e-03,  -9.46094245e-02,
      1.80388272e-01,   1.14704981e-01,   1.76654413e-01,  -2.46234285e-03,
     -1.38764128e-01,  -3.04879975e-02,   3.83206233e-02,   1.15266047e-01,
      1.23981647e-02,   7.75054842e-02,   1.33641092e-02,   1.15413731e-02,
      9.29081440e-02,  -6.10736869e-02,  -1.13324568e-01,  -1.25295799e-02],
   [ -2.37652913e-01,   1.13968126e-01,   1.63189888e-01,  -6.60615042e-02,
     -1.50906056e-01,   5.46520762e-02,  -1.04990471e-02,   1.31262705e-01,
     -2.17067882e-01,   8.18191171e-02,   1.32347504e-02,  -1.27284035e-01,
      2.01846026e-02,  -9.61313955e-03,   5.42947650e-03,   4.23201248e-02,
      1.90837812e-02,  -1.49578512e-01,  -1.20095655e-01,   5.92217855e-02,
      3.15015733e-01,   1.99295640e-01,  -1.44631356e-01,  -4.52736057e-02,
     -7.95535371e-02,   3.24005373e-02,  -8.56363308e-03,  -1.00270338e-01,
      1.49895176e-01,  -5.81883602e-02,  -3.47646140e-02,   3.92214395e-02],
   [ -7.68035203e-02,   2.57178962e-01,  -5.48780756e-03,  -4.89736460e-02,
     -2.37306710e-02,   6.15031421e-02,   2.50663050e-02,  -9.70336124e-02,
     -2.11926550e-01,   1.17365874e-01,   6.70387922e-03,  -2.08217934e-01,
      2.09593415e-01,  -4.05644923e-02,   1.46364225e-02,  -7.07317069e-02,
     -1.86137147e-02,   2.35489130e-01,   1.97110802e-01,  -1.87553003e-01,
      2.90468354e-02,  -7.09061995e-02,   7.59139135e-02,  -8.63951817e-02,
      1.29560828e-01,  -7.63638988e-02,   1.97847765e-02,   4.83778454e-02,
      3.32564898e-02,  -3.27071875e-01,  -1.90113172e-01,  -1.76782499e-03],
   [  1.16537035e-01,  -2.13612430e-02,   8.09940919e-02,   2.01569349e-01,
      7.34340027e-03,  -1.53089697e-02,   7.34936818e-02,  -8.12471807e-02,
      1.41514493e-02,   1.48356527e-01,  -1.61517605e-01,  -1.69307098e-01,
     -1.52111053e-01,  -3.37307155e-02,   4.56804819e-02,  -2.06130415e-01,
      3.41902822e-02,   1.18752174e-01,   1.92400351e-01,   9.04705450e-02,
     -3.02124210e-02,   7.28967041e-02,   1.04173824e-01,   5.94107360e-02,
      6.50336444e-02,   1.26288339e-01,   7.01601356e-02,   1.31916538e-01,
      1.16369121e-01,  -1.67760864e-01,   8.44571274e-03,  -4.50371532e-03],
   [  4.78530116e-02,  -2.54591376e-01,   1.64062232e-01,  -3.14728804e-02,
      6.12068288e-02,  -3.12052727e-01,   6.02460541e-02,  -8.07638392e-02,
     -1.03859812e-01,  -3.96060321e-04,   1.32898390e-01,   1.53988212e-01,
     -1.37693048e-01,  -6.79322109e-02,   3.67600322e-02,   1.98707074e-01,
     -3.28801014e-02,  -5.74332811e-02,  -3.01100989e-03,  -2.77380854e-01,
      1.24211453e-01,   2.30864529e-02,  -1.71901226e-01,  -2.86605265e-02,
     -8.69459510e-02,   2.36409791e-02,   2.14486513e-02,   1.16619378e-01,
     -5.77853397e-02,  -7.88976923e-02,   5.08413464e-02,  -1.48735732e-01],
   [  1.09067999e-01,  -1.19978879e-02,  -8.13515410e-02,   2.94997431e-02,
      6.12048879e-02,  -3.11981495e-02,   4.52630073e-02,   2.52829376e-03,
     -1.58426195e-01,  -2.89406598e-01,  -1.20818220e-01,  -3.42549458e-02,
     -4.43826944e-01,   8.38694051e-02,  -1.34870252e-02,   1.69879019e-01,
     -2.36561149e-01,  -1.03583433e-01,   1.60712823e-01,   4.99783829e-02,
     -7.79165104e-02,   1.93873048e-01,   1.21130586e-01,   1.98163435e-01,
      1.13807388e-01,  -2.79857308e-01,   1.94427803e-01,  -1.64510250e-01,
      8.91466141e-02,   1.10760555e-01,  -5.13402140e-03,  -1.85826812e-02],
   [ -1.10698998e-01,  -2.54114240e-01,  -2.39032373e-01,   4.74567115e-02,
      1.18996978e-01,   1.39647927e-02,  -5.90367503e-02,  -4.74486314e-02,
      1.86505720e-01,   1.04594029e-01,   1.57246683e-02,   2.62965839e-02,
     -2.48728961e-01,  -3.03113814e-02,  -3.67905907e-02,  -1.39500558e-01,
     -1.16559220e-02,  -5.59906773e-02,  -4.15898375e-02,   5.75798675e-02,
      1.07474722e-01,   4.34733145e-02,  -1.65217206e-01,  -1.21774197e-01,
     -1.31345317e-01,   2.29719058e-01,   5.84634729e-02,  -5.82807660e-02,
      2.82885134e-01,   1.02512620e-01,  -2.15041950e-01,  -1.17667548e-01],
   [  1.74244404e-01,   2.75601335e-02,   9.53809097e-02,   1.30755916e-01,
      2.17030987e-01,  -1.22611958e-03,   3.02546918e-02,  -1.72857031e-01,
      2.34453175e-02,   1.96615281e-03,  -1.96524024e-01,  -2.60010511e-02,
      2.52097934e-01,  -4.75126654e-02,  -4.19709980e-02,   1.56169534e-01,
      1.61149189e-01,  -1.26343131e-01,  -3.69311357e-03,  -2.46636912e-01,
     -2.93375477e-02,  -1.32737964e-01,  -1.75081849e-01,   9.53786597e-02,
      6.14274852e-02,   2.47709956e-02,  -7.58063793e-02,  -1.50914133e-01,
     -2.84995168e-01,   9.91351753e-02,  -7.21532330e-02,  -1.46679178e-01],
   [ -3.38209467e-03,   6.41781464e-02,  -6.54232726e-02,  -1.80345830e-02,
      2.33120814e-01,  -3.84124070e-02,  -7.91878849e-02,  -1.23825066e-01,
      3.21670562e-01,  -1.14259548e-01,  -1.08168133e-01,   2.10474089e-01,
     -2.07502037e-01,   1.35017991e-01,  -1.55219346e-01,   3.70638594e-02,
      3.39572653e-02,   1.58785209e-01,   5.81855811e-02,   1.09415706e-02,
      7.14812353e-02,  -6.52434826e-02,  -1.74916342e-01,  -1.04680203e-01,
     -8.33869725e-02,   7.23559707e-02,  -1.80680647e-01,  -4.11194563e-01,
     -3.52520645e-02,  -5.30943051e-02,   2.64757752e-01,  -1.90988444e-02],
   [  3.20436001e-01,  -3.83496024e-02,  -4.71225344e-02,  -4.84259546e-01,
      1.95273280e-01,   1.07562780e-01,   1.10978059e-01,  -1.92310005e-01,
     -2.40132138e-02,  -2.55606771e-01,  -2.28520837e-02,   5.46480007e-02,
     -5.02385013e-02,  -1.26433447e-01,  -6.93806261e-02,   1.16438745e-03,
      5.20204864e-02,   1.60936281e-01,  -8.66331756e-02,  -1.06412217e-01,
     -3.41492631e-02,   1.92281976e-02,  -1.01830326e-01,  -2.61429548e-02,
      5.72702736e-02,  -3.88281094e-03,  -8.49200636e-02,  -1.07819736e-02,
     -2.02910244e-01,   1.14910334e-01,   3.59839462e-02,  -6.02251962e-02],
   [ -9.65742320e-02,  -1.09789088e-01,   2.54394442e-01,   7.02598840e-02,
     -4.49960902e-02,  -3.08569856e-02,  -1.00224949e-02,   8.05997923e-02,
      7.82094225e-02,   1.92124516e-01,  -6.09247498e-02,   8.62708539e-02,
     -5.08753769e-02,  -7.54051208e-02,   7.36434162e-02,   2.66258791e-03,
      2.78934408e-02,  -2.34974489e-01,  -2.56868303e-01,  -3.56039196e-01,
      1.01799406e-01,   1.38687238e-01,  -1.47441134e-01,  -7.79338479e-02,
      6.92602918e-02,   1.25856549e-01,   3.49490307e-02,  -1.38514668e-01,
     -8.63854513e-02,   1.16013344e-02,   7.11658224e-02,  -9.62849334e-02],
   [ -1.48396986e-02,   3.31322223e-01,   1.57329172e-01,  -3.41890156e-02,
     -1.01349644e-01,  -1.30878672e-01,  -6.80383742e-02,   1.13310702e-02,
      1.04520842e-01,   1.74352825e-01,  -1.80028789e-02,  -3.75484973e-02,
     -2.90516555e-01,   1.44854993e-01,   1.18274853e-01,  -5.01672029e-02,
      8.42121150e-03,   3.64995189e-02,   2.02834368e-01,  -4.15694714e-02,
     -1.59879625e-01,  -1.65274382e-01,  -1.57742932e-01,   2.15433821e-01,
      4.68096137e-02,  -6.67176247e-02,   3.41801718e-02,  -1.17968090e-01,
      2.31068492e-01,   1.03315646e-02,  -4.61381637e-02,   2.98364218e-02],
   [  5.58888167e-02,  -7.78834365e-05,  -3.40123884e-02,  -2.88313553e-02,
      2.72042543e-01,  -1.83012888e-01,  -4.85688783e-02,  -1.79976210e-01,
     -6.18367502e-03,  -1.69043139e-01,   1.45936817e-01,  -2.03742757e-02,
      9.34153497e-02,   1.32615700e-01,  -1.27628282e-01,  -2.00134128e-01,
     -2.96579264e-02,   3.59828547e-02,  -3.40166271e-01,  -1.93434522e-01,
      1.65633604e-01,  -4.94028907e-03,  -6.90917894e-02,  -1.38696641e-01,
     -5.76134287e-02,  -2.01812368e-02,   4.02267799e-02,   1.89558491e-01,
      6.85669705e-02,   4.48993742e-02,   3.41688722e-01,  -1.10284379e-02],
   [ -4.50874865e-03,  -3.66830244e-03,  -5.83260804e-02,  -6.23967275e-02,
      2.23840051e-03,  -2.43006676e-01,  -9.64651778e-02,  -2.94351816e-01,
      2.76167333e-01,   8.82303566e-02,   1.72943071e-01,   1.44600764e-01,
      3.96914296e-02,  -2.71155566e-01,   3.23904641e-02,  -8.80998820e-02,
     -1.38685375e-01,   4.57372695e-01,   2.48562768e-01,  -5.08594997e-02,
     -3.84788550e-02,  -7.96334296e-02,  -8.13128278e-02,   2.35512197e-01,
      7.00036958e-02,   4.64325957e-02,  -5.09325936e-02,   4.15025093e-03,
      2.60325819e-01,  -3.88576090e-02,  -2.82263756e-03,   2.36922540e-02],
   [  2.38586888e-02,   7.38644451e-02,  -1.79062843e-01,  -1.01957500e-01,
     -5.85471978e-03,  -9.12321284e-02,  -3.46730426e-02,  -3.48310471e-01,
     -4.85549718e-02,   1.84770107e-01,  -7.11107776e-02,   3.06279566e-02,
     -3.53747495e-02,   8.33467990e-02,   5.11740409e-02,  -3.17939728e-01,
      1.22036599e-01,   3.04541379e-01,  -3.48301083e-02,  -2.74158847e-02,
     -6.57854527e-02,   5.70852086e-02,  -6.72068298e-02,   1.89801734e-02,
      1.17727578e-01,   1.41957849e-01,   9.15153921e-02,  -4.35596071e-02,
     -1.70373380e-01,   6.91866502e-02,  -2.21712381e-01,   3.15607414e-02],
   [ -1.90720916e-01,  -7.20966235e-02,  -1.03860013e-01,  -1.92279726e-01,
      3.36908698e-02,  -2.33654473e-02,  -2.00292189e-02,  -5.67812957e-02,
      2.46729311e-02,   1.70557410e-01,   3.59653197e-02,  -8.17592293e-02,
     -1.87302589e-01,   6.59089386e-02,  -2.12807432e-01,  -4.44465280e-02,
      1.39228985e-01,   1.01505212e-01,  -1.37071759e-01,  -2.56739557e-02,
      2.29530126e-01,   9.08517744e-03,   3.04885227e-02,   3.34327854e-02,
     -7.53540825e-03,   1.33410692e-02,   9.26119387e-02,   1.03666009e-02,
     -3.98710743e-02,  -1.23090632e-01,  -1.37072593e-01,   3.29011232e-02],
   [  7.98189566e-02,  -1.05610371e-01,   1.97036304e-02,   2.55083349e-02,
      9.30242017e-02,   2.14400925e-02,  -2.94665508e-02,  -1.01380430e-01,
      3.94828096e-02,  -1.05952606e-01,  -1.50520369e-01,   9.18940082e-02,
      2.08618298e-01,   4.20148410e-02,  -4.16225269e-02,   6.93062739e-03,
     -2.05839053e-01,  -1.51030421e-01,  -3.08735594e-02,  -6.32556155e-02,
      8.16929862e-02,   6.16234019e-02,  -1.38893023e-01,   3.24861765e-01,
     -7.30950758e-02,  -3.25743407e-02,  -4.54152375e-02,   2.94103418e-02,
     -9.44604278e-02,   1.04283534e-01,  -5.42951301e-02,  -7.58620203e-02],
   [  1.16846681e-01,   6.32829145e-02,  -5.14166094e-02,   1.71040948e-02,
      1.62621737e-01,  -1.78309947e-01,  -7.80834630e-02,  -1.46734461e-01,
     -1.26724392e-01,   8.70391726e-02,   9.38233454e-04,  -2.77408841e-03,
     -6.45437911e-02,  -7.03034401e-02,   1.62578419e-01,  -7.44820535e-02,
      1.23301946e-01,  -6.30590916e-02,   7.13378191e-02,   8.37888792e-02,
     -1.14017785e-01,  -7.97775611e-02,  -6.58406764e-02,  -1.64535403e-01,
      6.44821525e-02,   1.46337345e-01,  -1.72198251e-01,  -5.35501316e-02,
     -2.04306901e-01,   8.71182680e-02,   3.00024748e-01,  -6.58445731e-02],
   [  8.93313661e-02,   1.87133309e-02,  -1.71030298e-01,  -7.81393275e-02,
      3.56448233e-01,  -1.40188886e-02,   3.18571180e-02,   1.85849145e-01,
      1.26431257e-01,   6.85611218e-02,  -1.17192514e-01,   2.17935815e-01,
     -9.42432061e-02,   4.77729514e-02,   7.90685043e-03,  -1.04146205e-01,
      1.23717055e-01,   2.13746093e-02,   7.03248847e-03,   2.59801298e-01,
      2.39089817e-01,   3.21150050e-02,  -7.78408870e-02,   4.15888876e-02,
      2.73958296e-02,  -1.02963746e-02,   1.32181421e-01,   9.62061733e-02,
      1.08157024e-02,  -9.69224870e-02,  -1.43814877e-01,  -1.82448477e-01],
   [  4.62452620e-02,   1.25804380e-01,   1.86808761e-02,  -8.50310698e-02,
     -5.52082025e-02,  -1.58163756e-01,   1.29941115e-02,  -8.10463578e-02,
     -1.90417811e-01,   1.37018278e-01,   8.12876821e-02,  -6.42025918e-02,
      1.91375047e-01,   5.26203327e-02,   2.74987400e-01,   3.52278724e-02,
      9.93931592e-02,   3.44262868e-01,  -2.01390728e-01,  -1.17325306e-01,
      7.65779102e-03,   2.05457598e-01,   5.72307482e-02,  -1.03865504e-01,
      1.04323654e-02,   2.93845415e-01,   1.63368825e-02,   1.13268614e-01,
     -1.01851381e-01,  -1.31435484e-01,   7.50492439e-02,  -4.50247452e-02],
   [  7.22529665e-02,  -3.75443734e-02,  -1.20632306e-01,  -1.52998924e-01,
      3.56166251e-03,   4.93062437e-01,   3.73026617e-02,   2.68470645e-01,
     -1.16167173e-01,  -1.92782208e-01,   7.52726942e-02,   3.89239751e-02,
      2.77173538e-02,  -9.65830535e-02,   1.84011012e-01,   1.09763101e-01,
      2.96495438e-01,  -1.21462196e-01,   4.72580269e-02,   2.42969766e-02,
     -7.09148422e-02,   7.65912309e-02,   1.31374523e-01,   1.78944215e-01,
     -8.12783372e-03,  -2.62977123e-01,   8.84875357e-02,   3.05781066e-01,
     -6.91136569e-02,   1.56123012e-01,  -2.10768342e-01,  -1.25210937e-02],
   [  5.45303896e-03,  -9.10873488e-02,   2.37415060e-01,  -7.31569976e-02,
     -9.55016632e-03,  -9.78313163e-02,  -2.82522235e-02,  -9.82916653e-02,
     -2.27165118e-01,  -2.06303317e-02,  -1.30354082e-02,   1.03241980e-01,
      1.34042501e-01,  -5.37684299e-02,  -1.79939240e-01,   1.16349190e-01,
      7.57572521e-03,   2.12914348e-01,  -2.57468909e-01,  -5.94349653e-02,
     -3.84900831e-02,   5.94956800e-02,  -3.30232084e-01,   2.38375902e-01,
      2.17010193e-02,   1.55955374e-01,  -2.17198849e-01,  -5.10740094e-02,
     -5.30427583e-02,  -9.64746717e-03,  -6.73421398e-02,   1.14506081e-01],
   [  1.10048354e-01,   7.25113079e-02,   2.51827866e-01,  -2.25116774e-01,
      1.91677153e-01,   4.51104250e-03,  -9.94002968e-02,   3.90405804e-02,
     -2.13058829e-01,   1.67997569e-01,   1.07253671e-01,   5.45829795e-02,
      3.76024306e-01,   7.90611003e-03,   9.64865927e-03,   5.78618683e-02,
      7.77683929e-02,   1.31141558e-01,   1.86874092e-01,  -1.03512250e-01,
      7.95856770e-03,   2.54424632e-01,  -1.01634823e-01,  -8.74796808e-02,
     -5.73310070e-03,   5.67390583e-02,   1.00690812e-01,  -7.61512518e-02,
     -1.39742896e-01,  -4.75631058e-02,   1.87559664e-01,   1.12601444e-01],
   [  3.41154635e-02,  -8.67291614e-02,  -1.17284976e-01,  -1.41982958e-01,
      2.00453728e-01,  -6.02207519e-02,   9.77884233e-03,   1.44289970e-01,
      2.09620073e-02,  -1.31895885e-01,  -1.31875008e-01,   1.22779019e-01,
      3.32512595e-02,   7.02278987e-02,   2.79805064e-01,  -1.08866189e-02,
      2.51775503e-01,  -9.47702443e-04,  -6.96236594e-03,  -4.66950350e-02,
      4.21403795e-02,   6.50663003e-02,  -2.30488391e-03,   6.03337437e-02,
      5.18418700e-02,  -6.14483617e-02,  -1.22343283e-02,  -2.39190564e-01,
      1.11327544e-01,  -6.83537200e-02,   1.39651969e-01,  -3.76761630e-02],
   [ -4.06279303e-02,  -1.84635431e-01,  -1.00575864e-01,   7.08898753e-02,
      3.21121179e-02,   6.12219423e-02,   6.50373101e-02,   2.16428265e-02,
      5.15338518e-02,  -1.96047515e-01,  -6.14347681e-02,  -1.50221214e-01,
      9.96656716e-02,  -2.45596431e-02,  -1.61221325e-01,   6.78685680e-02,
     -2.19940528e-01,   9.00539085e-02,   3.06495582e-03,  -6.41683862e-02,
     -6.60453662e-02,   2.16434021e-02,  -8.97634104e-02,   1.38891548e-01,
     -9.82309654e-02,   4.43115830e-04,  -5.84119074e-02,   2.91162599e-02,
      9.35491845e-02,   1.84472308e-01,  -7.00468272e-02,  -3.23927663e-02],
   [  2.65058111e-02,  -6.47027269e-02,  -3.95896919e-02,   6.00789562e-02,
      4.53968309e-02,  -1.02097970e-02,   1.29163250e-01,  -2.60379195e-01,
     -2.02354550e-01,   1.22180190e-02,  -1.13211758e-01,   4.30335067e-02,
     -2.01658860e-01,  -1.02316521e-01,  -2.12931260e-02,   4.59461398e-02,
     -1.68917507e-01,   1.69394270e-01,   1.47211671e-01,   2.12197512e-01,
     -6.07809499e-02,  -2.55264901e-02,   5.77433687e-03,   1.33641455e-02,
      1.22756600e-01,   9.34685245e-02,  -9.35466215e-02,  -3.51331793e-02,
     -5.45478389e-02,   1.36891246e-01,   1.09980971e-01,   3.00263792e-01],
   [  4.74066511e-02,   1.68242261e-01,   2.10327253e-01,   3.65710002e-03,
     -4.42566834e-02,  -1.34957939e-01,   1.72494903e-01,  -1.75234005e-01,
     -3.19099240e-03,  -6.60318285e-02,   6.01252951e-02,   1.02412507e-01,
      2.17598118e-02,  -3.49099934e-03,  -1.78949967e-01,  -2.28308022e-01,
     -6.23969845e-02,   1.58799917e-01,   2.45169818e-01,  -1.01064816e-01,
     -3.72771733e-02,  -7.11626634e-02,  -2.66609248e-02,   1.82715952e-01,
     -1.47146257e-02,  -7.99373165e-02,  -1.84180543e-01,  -6.30066618e-02,
      3.65120471e-02,   9.22866315e-02,  -4.32635769e-02,   2.87627839e-02],
   [ -4.74176044e-03,   9.73841995e-02,   2.80037224e-01,  -2.77087353e-02,
      5.01986481e-02,   2.14592129e-01,  -1.92335010e-01,  -8.95878151e-02,
     -1.07895106e-01,   4.31341439e-01,  -8.62681866e-02,  -9.15041342e-02,
      3.92438322e-02,  -1.36121109e-01,   1.25937685e-01,  -3.42531532e-01,
      4.63850610e-02,   1.72510445e-01,   1.74912773e-02,   1.14743754e-01,
     -5.72549626e-02,   5.44150174e-02,   4.91027944e-02,   1.50607992e-02,
      1.21909842e-01,   8.60378370e-02,  -2.01310873e-01,   7.04971924e-02,
      4.99449596e-02,   1.51975483e-01,   6.24245312e-03,   8.90477374e-02],
   [  2.74643265e-02,  -6.62096813e-02,  -1.18455127e-01,  -1.52414078e-02,
     -5.59140109e-02,  -6.66641444e-02,   2.79650744e-02,  -1.30718991e-01,
     -1.64807394e-01,   8.97236913e-02,   1.85426131e-01,  -1.02445491e-01,
     -7.89064467e-02,  -1.18753657e-01,   9.65353772e-02,   7.00687170e-02,
     -1.62771508e-01,  -2.30384350e-01,  -1.26109589e-02,   1.03780203e-01,
      5.43947630e-02,   1.87473819e-01,  -8.33929107e-02,   4.95781600e-02,
     -1.03505999e-01,   2.21021667e-01,   6.90590870e-03,   1.42059587e-02,
     -1.20116524e-01,  -3.83156240e-02,  -8.23737159e-02,  -1.52211279e-01],
   [  8.58763382e-02,  -1.15441605e-01,  -2.26293981e-01,   1.99643932e-02,
     -4.77280468e-02,   1.48913994e-01,   9.31954309e-02,   2.14324161e-01,
     -3.38632390e-02,  -1.44274533e-01,  -6.74997792e-02,  -4.40853946e-02,
      1.17400326e-01,  -1.75884143e-01,  -1.82672530e-01,   5.14305905e-02,
      5.82255945e-02,  -4.17818800e-02,  -7.09031001e-02,   6.21289164e-02,
      3.02564097e-03,  -4.48799059e-02,  -2.24324480e-01,   2.57936478e-01,
      9.69527662e-02,   9.45909694e-02,   3.68424170e-02,   6.20873682e-02,
     -1.30549774e-01,   1.62416235e-01,  -1.54465258e-01,  -3.55555452e-02],
   [ -7.12788403e-02,   2.96837687e-01,   1.49840605e-03,   2.80719906e-01,
      7.68619329e-02,   5.16290637e-03,  -1.86740205e-01,   1.73209482e-04,
     -5.68938367e-02,   1.28639907e-01,  -4.55700234e-02,  -9.45197716e-02,
      2.12637298e-02,  -3.12708952e-02,   2.49644026e-01,   1.17032319e-01,
      1.89937994e-01,   8.53448808e-02,  -6.58640563e-02,  -1.74819276e-01,
      7.15129748e-02,  -8.83965939e-02,  -1.18447565e-01,  -3.54272090e-02,
     -1.86788499e-01,   1.95633918e-01,  -9.86235887e-02,  -1.47998601e-01,
     -1.45698830e-01,   2.30316166e-02,   2.72100180e-01,  -8.53783339e-02],
   [  3.57205747e-03,   1.78578094e-01,  -1.97517470e-01,   1.22396559e-01,
      2.86134213e-01,  -5.48524633e-02,  -8.75409842e-02,  -4.91282605e-02,
      1.42703652e-01,  -2.50878595e-02,  -1.21595943e-02,  -4.55699787e-02,
      1.53807148e-01,   3.24151181e-02,  -8.27679597e-03,  -1.91877354e-02,
      3.47390957e-02,  -2.72904951e-02,   9.32278782e-02,  -1.89593330e-01,
      7.63770863e-02,   1.00236200e-01,  -8.00887123e-02,  -5.43235987e-02,
      3.86709832e-02,  -2.28865877e-01,  -1.75596863e-01,   1.11179851e-01,
      1.18688397e-01,   2.20079631e-01,   8.22248906e-02,  -2.23688915e-01],
   [ -3.85384224e-02,  -7.37101287e-02,  -4.11018878e-02,   7.59421557e-04,
     -1.04790494e-01,   2.37764772e-02,  -7.48434812e-02,  -5.37239239e-02,
      1.17849045e-01,   2.81590084e-03,  -2.24274658e-02,  -2.81949807e-02,
     -6.78374097e-02,  -1.67086020e-01,  -6.49720132e-02,   1.78500116e-01,
      4.98151407e-02,  -1.63662598e-01,   1.65453460e-02,   2.78169811e-01,
      7.56416395e-02,  -1.52397364e-01,  -3.07594854e-02,   2.85292298e-01,
      1.22472057e-02,   1.04923926e-01,  -6.33559451e-02,   2.81534121e-05,
     -8.83475021e-02,  -1.59026951e-01,  -1.22221122e-02,   5.31871384e-03],
   [  6.75573871e-02,   6.29910966e-03,  -4.06373620e-01,   1.60811529e-01,
      1.57058626e-01,   1.81494117e-01,   9.53325033e-02,  -2.82367188e-02,
     -1.67517632e-01,  -1.87427878e-01,  -4.97633070e-02,  -8.97122454e-03,
      4.25021827e-01,  -8.77175406e-02,  -1.91715017e-01,   2.02361550e-02,
      1.05426051e-01,   4.31333594e-02,   2.97274004e-04,   4.33843359e-02,
     -5.94025031e-02,  -6.48904890e-02,   1.24655716e-01,   1.66957840e-01,
     -1.24799170e-01,   7.87431002e-02,   8.34105760e-02,  -2.13047042e-01,
     -2.12807488e-02,  -2.20096499e-01,   1.73688456e-02,   6.23206086e-02],
   [  4.17580046e-02,   1.48643509e-01,  -1.67795405e-01,  -7.75292814e-02,
      6.75536692e-02,  -2.51737565e-01,   3.06441449e-02,   4.68108477e-03,
     -8.95118937e-02,  -3.74018133e-01,  -7.47509673e-02,  -1.74495969e-02,
     -2.17081666e-01,   3.49482782e-02,  -1.59640655e-01,   8.01105425e-02,
     -1.86882213e-01,  -1.14497416e-01,   9.01349857e-02,  -5.30874953e-02,
      1.50998354e-01,   1.03904707e-02,   1.54896900e-01,  -1.43161744e-01,
     -7.53824562e-02,  -2.67406642e-01,  -2.49105059e-02,  -1.13622099e-01,
      2.54316609e-02,  -1.44055579e-02,   2.10199896e-02,   6.58537745e-02],
   [ -1.20160699e-01,  -3.24246198e-01,   2.24035874e-01,   5.81405498e-03,
      9.72056463e-02,  -1.24459274e-01,  -1.07242465e-01,  -1.66151226e-01,
     -1.34445205e-01,   1.46800563e-01,  -1.34857684e-01,  -6.05536960e-02,
      1.42310873e-01,   7.39113986e-02,  -8.48249793e-02,   3.63172203e-01,
     -3.32936756e-02,   3.64180416e-01,   1.54061951e-02,  -7.43167028e-02,
      7.35265091e-02,   9.93057787e-02,  -1.71322793e-01,   1.47272035e-01,
     -4.05175723e-02,  -1.97390363e-01,  -5.40655814e-02,   1.83242440e-01,
     -4.16127473e-01,   1.66044101e-01,  -7.23801479e-02,   1.20346053e-02],
   [  2.01531574e-02,  -2.51107309e-02,  -3.92366201e-02,  -4.87301536e-02,
     -2.23491728e-01,  -4.17208076e-02,  -6.52662367e-02,   8.60605687e-02,
      2.65462101e-01,  -2.08283979e-02,  -5.88467531e-02,  -2.78473878e-03,
     -3.44831228e-01,   9.19027328e-02,   8.74953046e-02,  -1.99082583e-01,
     -6.89846948e-02,  -1.22750588e-01,  -1.81766376e-01,   2.12255374e-01,
      7.38109462e-03,   5.22504151e-02,   5.25863245e-02,   2.60737449e-01,
     -1.05246447e-01,  -3.21234241e-02,   3.11681122e-01,   5.40650748e-02,
     -7.85490349e-02,  -1.20201290e-01,  -3.09618432e-02,   8.79267529e-02],
   [ -1.22775242e-01,  -2.50603212e-03,  -3.95701267e-02,  -8.24814588e-02,
      3.23116668e-02,  -5.73411100e-02,   1.22006439e-01,  -5.91036305e-02,
      8.54626894e-02,   4.07652743e-02,   5.59999757e-02,   2.65875280e-01,
     -5.87050058e-02,  -4.00200002e-02,  -1.32918358e-01,  -3.66964936e-02,
     -1.89080641e-01,  -1.09924525e-02,   1.94124475e-01,  -5.03366664e-02,
      1.25265807e-01,   2.46819239e-02,   7.09185973e-02,   1.20212615e-01,
      1.05439886e-01,   5.49490079e-02,  -2.03955412e-01,   5.29410243e-02,
      1.21173956e-01,  -1.77344382e-01,   1.44358188e-01,   2.20975280e-02],
   [  1.11097328e-01,  -9.62511599e-02,   2.40458861e-01,   6.72223861e-04,
     -3.23585957e-01,  -1.59653705e-02,   1.22152582e-01,  -1.01791039e-01,
      1.30485773e-01,   9.06151440e-03,   2.72482336e-01,  -1.10219624e-02,
     -1.40029743e-01,  -1.72436714e-01,   8.62433165e-02,   1.04836889e-01,
      4.19059128e-01,  -1.01275042e-01,  -1.65800542e-01,  -5.49902953e-02,
     -5.61628826e-02,  -1.35231450e-01,   2.04058692e-01,   1.16042934e-01,
      4.73192185e-02,  -1.48294076e-01,   7.56570026e-02,  -7.17682764e-02,
     -1.59462139e-01,  -7.32076243e-02,  -2.89911637e-04,   4.04735208e-02],
   [ -2.65911929e-02,   3.81228104e-02,  -1.77736208e-01,   7.19877258e-02,
      1.66790783e-01,   2.95455337e-01,  -4.38084453e-02,  -7.41253095e-03,
      1.65468335e-01,  -8.50250348e-02,   1.30322307e-01,   4.67668101e-02,
     -5.61304167e-02,  -2.64330301e-02,  -2.56796628e-01,  -1.47428468e-01,
      3.19829702e-01,  -1.39891431e-01,  -1.97861940e-01,  -4.73915450e-02,
      2.87357643e-02,  -6.91761449e-02,  -1.83749989e-01,  -1.30807444e-01,
     -7.11137801e-02,   9.59690362e-02,   9.60748792e-02,  -3.74687836e-02,
      4.00533937e-02,   4.13543843e-02,  -1.71908647e-01,   2.20951736e-02],
   [  1.41767005e-03,  -7.03611448e-02,  -6.61468655e-02,   1.67235777e-01,
     -8.04057643e-02,  -1.82005651e-02,   2.56421734e-02,   1.00591406e-02,
     -3.72479767e-01,  -3.07769150e-01,  -8.50425810e-02,   4.24685180e-02,
      4.21842150e-02,  -6.23596124e-02,   9.27363709e-02,   2.95121036e-02,
     -5.94236888e-02,   7.78473020e-02,   3.03179473e-01,   1.55781582e-01,
     -1.43028069e-02,  -5.33595160e-02,  -8.47649276e-02,   1.20886713e-01,
      5.65285906e-02,  -3.74765284e-02,   1.41722769e-01,  -1.32147968e-01,
     -1.07866578e-01,  -1.09525651e-01,  -1.07780330e-01,   1.70361605e-02],
   [ -9.94360149e-02,   7.87110552e-02,  -6.23785146e-03,  -4.99080047e-02,
      7.90604204e-02,   1.37785748e-01,   1.52819268e-02,  -6.20831437e-02,
     -1.48041636e-01,  -1.98097035e-01,  -9.19434056e-03,   3.02727669e-02,
     -4.09819484e-01,   8.66537616e-02,   3.78609821e-02,  -1.06004454e-01,
     -4.59735543e-02,   8.02034214e-02,  -3.06745023e-01,   7.53659010e-02,
      1.67939886e-01,  -2.88044214e-02,  -1.84204102e-01,   2.44629711e-01,
     -1.04939185e-01,  -1.14536799e-01,   3.09320726e-02,   4.99691367e-02,
      3.28489505e-02,   1.46429271e-01,  -7.97163770e-02,  -6.73052296e-02],
   [ -6.53852671e-02,  -1.16123907e-01,  -2.45933279e-01,  -9.72607061e-02,
      1.89506307e-01,  -5.39985746e-02,   1.09231979e-01,   6.85088485e-02,
     -4.95065600e-02,  -2.87185833e-02,  -1.39127403e-01,  -1.82402223e-01,
     -3.07437852e-02,  -6.27658665e-02,  -1.81959309e-02,   1.35801747e-01,
      1.19488779e-02,   1.16105832e-01,  -1.20654956e-01,   4.25776094e-02,
     -2.63664216e-01,  -8.71819556e-02,  -1.05961166e-01,  -1.93166453e-02,
     -6.00533411e-02,  -5.81992604e-02,   1.16339631e-01,   7.70443399e-03,
     -1.28598183e-01,  -3.20109166e-02,  -1.41982719e-01,   4.13655117e-02],],

  [[  4.95408960e-02,  -1.10084914e-01,   6.48122802e-02,  -1.33234849e-02,
     -1.83741488e-02,   4.22185175e-02,  -1.65095739e-02,  -4.35478278e-02,
      7.40249828e-03,  -1.97353095e-01,  -3.95632386e-02,   8.89833644e-02,
      2.16526315e-01,   6.47269189e-02,   1.62941460e-02,  -1.53987706e-01,
      4.00063992e-02,  -2.89325505e-01,  -2.04871625e-01,  -7.57644549e-02,
      2.56986544e-02,  -1.14256318e-03,   2.83646886e-03,   1.02758750e-01,
      6.18705936e-02,   3.36482227e-02,   7.69535303e-02,  -2.04690367e-01,
      1.29133612e-01,  -1.29927844e-01,  -7.04862699e-02,   2.81423658e-01],
   [  2.38479093e-01,  -6.93965182e-02,   9.86464471e-02,  -8.05292353e-02,
      4.01570797e-01,  -1.95381604e-02,  -9.08505544e-02,   1.49311334e-01,
      3.66490260e-02,   1.26724929e-01,   4.35571745e-02,   2.66186744e-01,
     -3.66855741e-01,   9.74735618e-02,   2.89658397e-01,   1.25664011e-01,
      1.79798737e-01,   1.30247474e-01,   1.76426098e-02,  -2.21478522e-01,
     -5.69027811e-02,   1.74915135e-01,  -2.10813005e-02,  -8.86843354e-02,
      9.19975340e-03,  -2.92594489e-02,  -1.77906066e-01,   2.61380393e-02,
     -3.77982967e-02,   8.30513239e-02,  -7.95729160e-02,  -3.37571561e-01],
   [ -1.79611668e-02,  -2.36072794e-01,  -9.89646763e-02,   1.46835104e-01,
     -6.91779032e-02,  -1.34183615e-01,   9.80075728e-03,  -1.39287964e-01,
     -1.20741054e-01,  -8.25271010e-02,  -9.91796404e-02,   1.58122376e-01,
      1.36615962e-01,   1.95250250e-02,  -1.87521242e-02,  -1.37021184e-01,
     -1.23249993e-01,   2.00716004e-01,   8.05608258e-02,  -4.37536724e-02,
      8.36144537e-02,  -1.48805916e-01,   1.16114030e-02,   2.36584917e-01,
     -1.42676070e-01,  -1.49033636e-01,  -9.42021832e-02,  -2.08345111e-02,
     -1.09418273e-01,  -4.12585735e-02,  -7.92531148e-02,  -1.02462418e-01],
   [  1.85049906e-01,   2.29951739e-01,  -8.41731031e-04,  -2.73637548e-02,
      2.95129508e-01,  -1.24501057e-01,  -8.65790099e-02,  -2.19109461e-01,
     -1.02507539e-01,  -9.42335501e-02,  -2.90321484e-02,   3.24126109e-02,
      1.57402202e-01,   1.45556688e-01,  -3.04964185e-01,  -2.95440610e-02,
     -1.37480974e-01,   5.82042299e-02,  -3.20287123e-02,  -6.84308168e-03,
     -2.06565231e-01,   3.19118947e-02,  -3.90320182e-01,   2.39810407e-01,
      3.92306261e-02,  -1.66117728e-01,   6.59225807e-02,  -1.13455869e-01,
     -1.45963654e-01,   2.46414274e-01,  -2.54133120e-02,   2.25509793e-01],
   [ -2.40284696e-01,  -1.50381014e-01,   6.32599816e-02,   8.60614106e-02,
     -1.26314566e-01,   2.67723560e-01,  -1.43472776e-01,  -1.62100922e-02,
     -2.00676709e-01,   7.81029388e-02,  -5.37993684e-02,   1.87684134e-01,
      4.26467687e-01,  -3.35324295e-02,   8.66683386e-03,  -1.58394232e-01,
     -8.36796463e-02,  -1.13734141e-01,  -2.42649063e-01,   9.01819393e-02,
      3.28857780e-01,   2.23039724e-02,  -1.14577450e-02,  -1.44739645e-02,
      1.79946721e-01,  -3.28249559e-02,   1.12980427e-02,   1.33886084e-01,
     -3.25255282e-02,   2.92298198e-02,   1.47780171e-03,  -5.39426655e-02],
   [ -5.32529913e-02,   1.03708796e-01,   5.81280701e-02,   2.66481116e-02,
      3.91636044e-02,   4.75612842e-02,  -3.00306194e-02,  -1.78335920e-01,
     -3.07617430e-02,   2.72907726e-02,  -1.06867850e-01,  -1.02876164e-01,
     -6.35285079e-02,   4.92327139e-02,   2.25746661e-01,  -6.74532875e-02,
      1.24791875e-01,  -7.03128278e-02,  -6.54820353e-02,   1.51874140e-01,
     -3.00342217e-03,   2.05454692e-01,   4.32066500e-01,  -9.67109874e-02,
      5.75977191e-02,   1.16477301e-02,   3.37978709e-03,   7.51766041e-02,
     -2.00774238e-01,  -2.61387527e-01,   1.16025887e-01,  -2.36700419e-02],
   [  3.66949081e-01,   1.21045634e-01,  -2.46363077e-02,  -1.80351615e-01,
     -9.17861164e-02,  -2.47325341e-04,   2.43862858e-03,  -6.95687681e-02,
     -2.07750462e-02,   1.14597745e-01,  -1.54133961e-01,   4.49923351e-02,
     -9.45786908e-02,  -2.21410394e-01,   6.92955777e-02,  -2.14061439e-01,
      3.16399425e-01,   2.47453406e-01,   6.29832894e-02,   6.36935681e-02,
     -2.24057302e-01,  -3.59858014e-02,  -5.48340529e-02,  -1.53226495e-01,
      1.11217342e-01,  -3.50184858e-01,   1.41652271e-01,   1.11671239e-01,
     -9.01835188e-02,  -1.78659946e-01,  -2.03416068e-02,   1.46903187e-01],
   [  1.14117943e-01,   9.15849656e-02,  -1.04734143e-02,  -1.08165041e-01,
      1.24379978e-01,   1.14022836e-01,  -1.58698037e-01,   1.27460465e-01,
     -1.24260016e-01,  -8.00028667e-02,   1.23834714e-01,  -6.22412041e-02,
      1.07504793e-01,   6.87389299e-02,   1.77108869e-01,  -1.13179728e-01,
      7.30153397e-02,  -4.43548799e-01,  -1.35415286e-01,   9.07885563e-03,
      1.68722406e-01,   4.16901447e-02,   7.90983438e-02,  -1.23252340e-01,
     -3.82770412e-02,  -2.11204365e-02,   3.22484635e-02,   1.44373134e-01,
      3.00755829e-01,   9.28679407e-02,  -1.32788554e-01,  -6.06505871e-02],
   [ -7.86968842e-02,  -1.35518327e-01,   5.66047058e-02,  -9.21499729e-02,
     -2.61469215e-01,   8.72845575e-02,  -7.05521554e-02,  -5.60406223e-02,
      6.48352429e-02,   1.16743505e-01,  -1.23424821e-01,  -2.07175180e-01,
      2.09868327e-01,  -1.10746227e-01,  -9.23964754e-02,   9.44301039e-02,
      2.22653463e-01,   1.34321451e-01,  -7.76257813e-02,  -8.15798491e-02,
     -2.54897028e-01,   1.74003154e-01,  -1.80078462e-01,   1.45198368e-02,
      1.66481897e-01,  -3.04452796e-02,  -8.11762065e-02,  -5.31244576e-02,
     -2.43660837e-01,  -6.86299205e-02,  -3.17189246e-02,  -8.29826146e-02],
   [  2.83194840e-01,  -3.31098363e-02,   5.08315936e-02,  -2.35187300e-02,
      2.48230528e-02,   1.00077465e-02,  -5.81784220e-03,   2.02530269e-02,
      1.82321817e-02,  -3.18124369e-02,   6.74732700e-02,  -8.28617066e-02,
     -6.42764196e-02,   7.86901265e-02,  -4.96496744e-02,  -2.60291755e-01,
      1.75729141e-01,   8.86219367e-02,   1.70536608e-01,   1.71965912e-01,
      1.36218458e-01,   1.88166544e-01,  -1.08361654e-01,  -2.05969512e-01,
      1.61353156e-01,  -1.39534086e-01,   1.47480190e-01,   6.79932088e-02,
     -1.52544603e-01,   8.88167024e-02,  -1.97441690e-02,  -4.49621789e-02],
   [  4.64314550e-01,  -3.08921393e-02,  -1.47796273e-01,   5.08758985e-02,
     -9.52210054e-02,   8.76799747e-02,   1.52857825e-01,  -2.42242813e-02,
      9.74417627e-02,  -1.45465940e-01,  -2.55354512e-02,  -1.44193009e-01,
      8.41755643e-02,   6.73983172e-02,  -3.72709990e-01,   1.92918945e-02,
      3.45177725e-02,  -2.57759597e-02,   8.76209438e-02,   1.44651784e-02,
     -2.14071330e-02,  -6.93448111e-02,  -1.80478543e-01,  -8.77208263e-02,
      9.35932919e-02,   6.13294616e-02,   1.66967139e-01,   3.81730124e-02,
     -5.14279120e-03,   9.15910229e-02,  -7.64082149e-02,  -9.70570967e-02],
   [ -8.88305604e-02,  -9.72155705e-02,  -1.54967010e-01,  -5.93126155e-02,
      4.69382927e-02,  -6.63712323e-02,  -3.50975506e-02,  -1.55220702e-01,
     -3.91751621e-03,   5.11970967e-02,   4.66059484e-02,   1.80499822e-01,
     -3.62049043e-01,  -1.78972453e-01,  -1.65888846e-01,   6.40144125e-02,
     -1.76313624e-01,  -8.18222314e-02,   1.00205094e-01,  -3.28903757e-02,
     -2.02001095e-01,  -1.79044127e-01,   5.74923400e-03,   6.72028884e-02,
     -4.31318060e-02,  -3.64492312e-02,  -3.82529423e-02,   1.48393726e-02,
      9.44682658e-02,  -8.30893144e-02,  -2.56645739e-01,   4.45433855e-02],
   [  1.09745987e-01,   6.68777749e-02,  -9.86754745e-02,   2.19915994e-02,
     -9.41553116e-02,  -1.15863308e-01,  -3.60588878e-02,  -1.50362447e-01,
     -1.00985676e-01,   9.24830586e-02,   4.60145017e-03,   2.50684489e-02,
      4.30388570e-01,  -3.92890386e-02,   1.45584017e-01,  -1.62845284e-01,
      3.88240702e-02,   4.02807519e-02,   2.14187782e-02,  -1.53548820e-02,
      5.45486575e-03,  -1.88962564e-01,  -1.14283368e-01,  -4.00300808e-02,
     -8.01445842e-02,  -1.17174596e-01,  -7.03092217e-02,  -1.34712160e-01,
      2.32819229e-01,   6.91820830e-02,  -9.75608826e-02,  -1.21150896e-01],
   [  6.66520000e-02,   1.71752155e-01,  -1.28059924e-01,   2.11548060e-01,
      1.22731430e-02,  -6.32984936e-02,   2.56939940e-02,  -2.54255056e-01,
      3.56174037e-02,  -5.70058115e-02,   8.40765610e-02,   3.26503105e-02,
     -3.02039832e-03,   1.07884102e-01,  -8.56675487e-03,   6.25230819e-02,
      8.72033313e-02,   1.64199024e-02,   8.47611353e-02,   9.27483812e-02,
      1.42492294e-01,  -1.16620548e-01,  -1.18266478e-01,  -1.78072155e-01,
     -9.45012718e-02,   2.25336701e-01,  -2.16260776e-01,   8.36749654e-03,
      2.50038534e-01,  -4.25578095e-02,   8.70629624e-02,   1.15360670e-01],
   [  1.86674744e-02,   1.50445446e-01,  -2.00111568e-01,   7.92897642e-02,
      2.32728794e-02,  -8.98890421e-02,  -1.16228864e-01,  -2.13071033e-02,
     -6.48913383e-02,  -7.66466046e-03,   6.01319149e-02,   2.85995781e-01,
     -2.18492851e-01,   1.87249050e-01,  -1.03029147e-01,  -2.59369105e-01,
     -3.56817216e-01,  -1.92734823e-01,  -1.93771794e-01,  -1.68535247e-01,
     -5.85007966e-02,   1.05300814e-01,   6.76762089e-02,  -3.46785694e-01,
     -2.32655317e-01,   7.36669600e-02,  -5.27663119e-02,   1.69065297e-01,
      1.25530392e-01,  -5.05054034e-02,   2.18795255e-01,   1.86988026e-01],
   [ -1.92920864e-01,   9.76269599e-03,  -4.13270146e-02,   7.37251565e-02,
      4.18910310e-02,   5.21585047e-02,  -1.81268409e-01,   4.22566459e-02,
      1.16677448e-01,   1.00053504e-01,   9.23757330e-02,   1.58425853e-01,
      4.47152704e-02,  -4.61846180e-02,  -2.68713888e-02,   1.58534318e-01,
      2.01923586e-02,   3.27527002e-02,   2.18211398e-01,   9.77491885e-02,
     -6.59975260e-02,  -1.62034616e-01,  -1.49475455e-01,  -6.98675513e-02,
     -1.71351880e-01,  -3.11402138e-02,  -2.71049002e-03,  -7.96440616e-02,
     -1.63109563e-02,  -1.31303584e-02,  -1.31799579e-01,  -5.54828756e-02],
   [ -1.18614331e-01,   8.33483785e-02,   8.84317458e-02,  -1.90993905e-01,
     -7.24101886e-02,  -8.14946275e-03,   3.25225666e-03,  -1.00545689e-01,
      5.35552278e-02,  -1.70895219e-01,  -2.63661221e-02,   6.27545267e-02,
      8.78788307e-02,   5.72053827e-02,   2.10546881e-01,  -7.98705369e-02,
      1.44116297e-01,  -1.97239190e-01,   3.85309085e-02,  -7.19613358e-02,
      3.39543592e-04,  -1.10988326e-01,   1.70071498e-01,   6.41524345e-02,
      1.56738684e-01,  -1.26640975e-01,  -1.39368027e-01,  -2.25911047e-02,
      1.66751780e-02,  -1.45182908e-01,   1.14444859e-01,   2.96606630e-01],
   [ -3.74201909e-02,  -1.36900529e-01,  -1.35974348e-01,   9.70287621e-02,
     -2.74134666e-01,  -9.33030769e-02,   1.64244279e-01,   2.01156214e-01,
      6.55695423e-02,   3.38054568e-01,  -1.60654530e-01,  -6.45094784e-03,
      1.99674949e-01,  -6.45406246e-02,  -3.17765534e-01,  -1.48440152e-01,
      3.38113979e-02,  -5.80628216e-03,   1.59475967e-01,   1.65348560e-01,
      1.75156370e-01,  -1.82547435e-01,   1.71584755e-01,  -2.71780670e-01,
      3.42748649e-02,  -3.21012408e-01,   5.03423475e-02,  -8.45994502e-02,
      6.20841756e-02,  -6.37597218e-02,   1.65300399e-01,   1.30570963e-01],
   [  2.75508732e-01,   1.19557679e-02,  -1.45684049e-01,   2.63228845e-02,
      2.70984232e-01,   2.39316329e-01,   5.98381944e-02,   2.45198295e-01,
     -6.88558770e-03,   3.19705456e-02,   8.94834697e-02,  -9.05230269e-02,
     -2.66896874e-01,  -4.97975796e-02,   2.43150908e-02,   7.74288625e-02,
     -5.02339527e-02,   5.75843826e-02,   6.68732375e-02,  -8.75561461e-02,
     -7.63227325e-03,  -9.00413916e-02,   1.23559333e-01,  -2.27174744e-01,
     -3.47483635e-01,  -1.05078787e-01,  -1.01546958e-01,   4.40816879e-02,
      4.01644930e-02,   1.23562887e-01,  -1.62992865e-01,  -1.25196837e-02],
   [  2.15858500e-03,  -1.13403648e-01,  -9.66837183e-02,   2.26965696e-01,
     -4.58091237e-02,   1.33289605e-01,  -9.40791368e-02,   1.38543278e-01,
      1.15069449e-01,   2.01109588e-01,   7.35880584e-02,  -9.30299014e-02,
     -1.76309109e-01,  -5.07064024e-03,   3.80431041e-02,   1.89462572e-01,
      6.68386891e-02,   5.24333399e-03,   3.82854342e-02,  -1.36854574e-01,
     -3.00044954e-01,  -2.16406398e-02,   2.05674805e-02,  -2.38799587e-01,
      2.23798439e-01,   9.80398655e-02,   3.68967392e-02,   6.41831681e-02,
      2.13241391e-02,   1.54323667e-01,  -8.27788115e-02,  -8.16412419e-02],
   [ -4.22942728e-01,   2.57330894e-01,   7.81074613e-02,  -9.54582542e-03,
     -4.12356295e-03,  -5.40672569e-03,   9.61816087e-02,   1.44374102e-01,
      1.01900861e-01,   3.43653977e-01,   4.06955332e-02,   1.50180995e-01,
      8.59300643e-02,   2.56026676e-03,  -2.38184139e-01,  -1.99570224e-01,
     -2.67465543e-02,  -9.05749276e-02,   1.05468042e-01,   1.54353827e-01,
     -2.45302588e-01,   2.05763519e-01,   2.23429680e-01,   4.40657921e-02,
      1.75998941e-01,  -1.64300114e-01,  -3.41269858e-02,   2.26886824e-01,
     -2.55161852e-01,   8.79787207e-02,  -2.35067904e-02,  -7.87438303e-02],
   [  1.45507976e-01,   5.87958321e-02,   4.53023314e-02,  -1.03826784e-01,
      2.16222763e-01,   4.23277766e-02,   9.97284800e-02,   3.86366248e-02,
      1.19663671e-01,  -4.11057919e-02,   6.92353174e-02,   9.51363146e-02,
      2.34087184e-02,   5.86363785e-02,  -1.22182190e-01,  -4.46614102e-02,
     -5.69870956e-02,  -1.43780470e-01,  -8.13767463e-02,  -5.23078479e-02,
     -1.84033751e-01,   3.27943191e-02,   2.23898813e-01,  -2.88642079e-01,
      7.79374391e-02,  -1.10060401e-01,  -2.61162847e-01,  -5.08682802e-02,
     -6.52664080e-02,   9.25910380e-03,   4.19043079e-02,  -4.99615259e-02],
   [ -2.05768555e-01,   2.55678356e-01,  -8.37705508e-02,   1.24305710e-01,
     -2.45504692e-01,  -1.15240537e-01,   3.29392962e-02,   1.60945758e-01,
     -1.41764626e-01,   4.47019190e-02,  -1.51529327e-01,  -2.18193173e-01,
     -1.98072448e-01,   1.61822215e-01,   8.29850063e-02,   6.92947768e-03,
     -3.05923019e-02,  -1.05004735e-01,   2.81625569e-01,   1.08494043e-01,
      5.43223508e-02,  -8.18098560e-02,  -7.87180439e-02,  -3.48199069e-01,
     -1.63594969e-02,  -1.49526656e-01,   7.30325058e-02,  -8.12985674e-02,
     -6.82027219e-03,  -2.47761339e-01,  -9.57336873e-02,   3.19796056e-02],
   [  7.41100013e-02,  -1.16723366e-01,  -1.63319544e-03,   3.02687973e-01,
      7.28691965e-02,   7.23753572e-02,  -4.71362993e-02,   2.01703608e-01,
      4.50173505e-02,  -1.55678853e-01,  -6.40889406e-02,   1.23203181e-01,
      8.15576836e-02,  -4.54054549e-02,   2.37827241e-01,  -9.43814591e-02,
     -1.77836344e-02,   6.42524585e-02,   1.25024855e-01,  -1.33334234e-01,
      1.20705649e-01,   2.11859494e-01,  -1.13275282e-01,   1.60964221e-01,
     -3.56709324e-02,  -4.76781316e-02,   1.05970338e-01,  -6.73022568e-02,
     -3.37822437e-02,  -1.33773878e-01,  -9.37400088e-02,  -6.58519417e-02],
   [ -1.89319313e-01,   2.91900933e-01,  -1.92576237e-02,   5.28070852e-02,
     -8.39127302e-02,  -2.28934824e-01,  -2.76649613e-02,  -1.55447602e-01,
      2.68782172e-02,   8.84247199e-02,  -1.92776859e-01,   8.45434740e-02,
     -1.58180892e-01,  -3.18175741e-02,  -1.05667345e-01,  -1.29920870e-01,
      9.50806290e-02,   9.78356674e-02,  -3.46861295e-02,   1.17255397e-01,
     -8.72004032e-02,  -5.57561815e-02,   1.12206854e-01,   6.12110645e-02,
     -3.56093757e-02,  -1.21020883e-01,  -1.25095202e-02,  -5.53257875e-02,
      2.87880540e-01,  -9.43091512e-03,   9.37471986e-02,   2.47746110e-02],
   [  1.82501644e-01,  -5.17889783e-02,   4.68412712e-02,  -4.86977659e-02,
     -3.02233070e-01,  -1.71174869e-01,   1.08736113e-01,  -2.27681309e-01,
      9.27771330e-02,   1.12417519e-01,   1.21084772e-01,   9.01961699e-02,
      3.62699293e-02,   8.92875716e-03,   3.13473642e-01,   2.35538885e-01,
      2.38928810e-01,  -1.73655227e-01,   6.26314373e-04,  -1.58035576e-01,
      6.28504306e-02,  -1.45617640e-02,  -8.31103995e-02,  -1.47471964e-01,
     -1.43229619e-01,  -6.87543824e-02,  -2.05543488e-01,   1.13707550e-01,
      1.47978768e-01,   3.90403792e-02,   2.48161256e-02,  -2.77039465e-02],
   [ -1.39321893e-01,  -7.81914964e-02,  -4.80527338e-03,  -1.67221338e-01,
     -1.72832802e-01,  -1.78739250e-01,  -9.11612436e-02,   6.08158074e-02,
     -7.33905286e-02,   1.62359491e-01,  -1.31280661e-01,  -1.92379177e-01,
     -2.01228768e-01,  -2.54515707e-01,   5.16581871e-02,  -1.05684616e-01,
     -1.83679208e-01,  -2.48385340e-01,   2.00520158e-01,   1.42404512e-01,
     -2.09819406e-01,  -5.06878644e-03,   7.36731887e-02,  -1.49040550e-01,
     -2.54127383e-02,  -6.89642653e-02,   6.48329826e-03,  -2.33743131e-01,
      1.30831286e-01,   1.85375705e-01,   2.25455165e-01,  -1.76776350e-02],
   [ -1.11544974e-01,   4.77867341e-03,   2.94150948e-03,   2.45432660e-01,
      2.29278862e-01,   4.75548161e-03,  -2.21887738e-01,  -3.40881906e-02,
      2.95084808e-02,   1.06973343e-01,  -8.31825286e-02,  -1.70782760e-01,
     -3.64387780e-01,  -5.05267568e-02,   1.72107928e-02,  -6.90205693e-02,
      8.10070708e-02,   2.91509908e-02,  -1.49707831e-02,   7.21908510e-02,
     -7.88506470e-04,  -8.80948454e-02,   2.89194137e-01,  -3.00823838e-01,
     -1.54370964e-01,   5.31513849e-03,  -5.23601286e-02,  -5.42403273e-02,
      2.91363508e-01,   1.13866232e-01,  -3.15882444e-01,   1.41836137e-01],
   [  1.66832194e-01,  -1.04292519e-01,  -1.42583519e-01,  -4.89918776e-02,
      1.37727126e-01,  -6.09938651e-02,   2.80015357e-02,  -6.47730231e-02,
     -7.45327324e-02,   2.41826512e-02,   1.64171159e-02,  -1.74671598e-02,
     -9.38517228e-02,   7.36111775e-02,   4.56509255e-02,   1.06367096e-02,
      7.53381476e-02,   1.07615210e-01,   4.23177518e-02,   5.93603924e-02,
     -9.32477936e-02,  -8.76360387e-03,  -1.46165825e-02,  -8.20965134e-03,
      1.24615386e-01,  -1.21425251e-02,   4.47595678e-03,   1.06028505e-01,
     -1.72353446e-01,   7.88266361e-02,  -3.64047065e-02,  -5.80602419e-03],
   [ -2.52590120e-01,   2.97699701e-02,   1.23717926e-01,  -5.88568999e-03,
     -5.70496731e-02,  -3.84617001e-02,   5.62653737e-03,   1.08489364e-01,
     -9.57518891e-02,   1.97318360e-01,  -1.50633276e-01,   9.02381092e-02,
     -3.85113090e-01,   1.01154007e-01,   1.72776788e-01,   1.77425534e-01,
      5.42591978e-03,  -2.10335746e-01,   2.19189420e-01,  -2.20211923e-01,
      1.55070499e-01,  -2.55801827e-01,  -2.17435315e-01,  -1.69998080e-01,
     -1.31346598e-01,   1.05487868e-01,  -6.64938390e-02,  -7.50373155e-02,
      3.70484851e-02,  -6.71792962e-03,   1.51101593e-02,   2.56960969e-02],
   [ -4.25872728e-02,  -4.83579487e-02,   3.63170318e-02,  -3.24426681e-01,
      9.69394520e-02,   1.30979151e-01,   2.14607269e-01,  -1.47394359e-03,
      1.42387763e-01,  -1.42270029e-01,   5.61943417e-03,   1.19681366e-01,
     -9.10208300e-02,   8.95107910e-02,  -1.36242881e-01,   4.40325961e-02,
      1.13474317e-02,   7.73681253e-02,  -4.32963185e-02,   5.61560132e-02,
      6.96322694e-02,   1.58406630e-01,  -8.95823389e-02,   1.76008210e-01,
      1.13624282e-01,   1.39428467e-01,  -3.69071960e-01,  -4.20801863e-02,
     -3.49585503e-01,  -3.99101585e-01,  -6.61032423e-02,   9.80294198e-02],
   [ -1.94702838e-02,  -3.46474499e-02,   1.19263753e-01,   5.02868854e-02,
      7.63087496e-02,   2.87292510e-01,  -1.60724193e-01,   1.55850932e-01,
      5.95228709e-02,   2.37708852e-01,   1.61641762e-02,   6.41041696e-02,
      1.66540239e-02,  -1.26080409e-01,   3.46391760e-02,  -1.93647742e-01,
      7.20687583e-02,  -1.17328875e-01,   1.72817009e-03,  -1.59826308e-01,
      8.59516859e-02,   1.66924313e-01,   4.41068001e-02,  -8.61548781e-02,
     -5.36634121e-03,  -2.58322477e-01,   5.34474514e-02,  -4.29806672e-02,
     -1.70362890e-01,  -1.46905601e-01,   9.61005688e-02,  -1.06883183e-01],
   [ -2.39183396e-01,   1.43117756e-02,   5.48519455e-02,  -1.34805009e-01,
     -1.14692785e-01,  -6.52785506e-03,  -1.03195772e-01,   7.19238296e-02,
     -2.66780257e-01,  -1.80724636e-01,  -8.95665661e-02,   1.02892555e-01,
     -2.24482194e-02,  -9.20227021e-02,  -2.62640063e-02,  -2.33289078e-02,
     -1.19986832e-01,   2.74016082e-01,  -4.87348028e-02,   6.14125952e-02,
     -1.27779052e-01,   6.63697794e-02,   1.51647804e-02,   5.98899499e-02,
      4.46757153e-02,  -2.85272929e-03,  -2.88203117e-02,   3.45481560e-02,
      5.73021919e-02,   3.07449460e-01,  -2.54478037e-01,   2.09088493e-02],
   [  6.41650036e-02,   9.04606506e-02,   1.92941159e-01,   1.02983929e-01,
      1.49013221e-01,  -9.52101424e-02,  -3.33314128e-02,  -2.25828379e-01,
     -8.87394920e-02,   3.97916883e-01,   1.48384809e-01,  -1.15168922e-01,
      4.57432717e-02,  -3.69238816e-02,   2.56398581e-02,  -3.02922651e-02,
     -2.03855172e-01,   1.08647548e-01,   9.46094021e-02,  -3.99959832e-01,
      2.14789912e-01,   1.64676726e-01,   2.77431868e-02,  -5.57610318e-02,
      1.24131672e-01,   5.69672659e-02,  -3.23573267e-03,   3.23252976e-01,
     -3.15625399e-01,  -1.69351161e-01,   1.22361146e-01,  -6.52378947e-02],
   [  1.64977312e-01,   1.45755827e-01,   1.49312820e-02,  -1.34417176e-01,
      2.23424345e-01,  -1.06747568e-01,  -1.34164216e-02,  -1.63013846e-01,
     -4.28150445e-02,  -1.48725808e-01,   1.58454522e-01,   6.19412772e-02,
      8.86021554e-02,   3.34577933e-02,  -1.56822369e-01,   6.90590814e-02,
      1.07832454e-01,   2.22931609e-01,   6.32785708e-02,  -3.96806933e-02,
     -4.74708192e-02,   1.49590462e-01,   1.21600024e-01,   2.82593787e-01,
     -2.65095141e-02,   1.12529084e-01,  -1.01143569e-01,  -5.83143681e-02,
     -9.08847060e-03,   1.38728648e-01,   9.56022739e-03,  -5.82345538e-02],
   [  1.84163541e-01,   1.07448407e-01,  -1.44429326e-01,  -2.24083662e-02,
      1.44933954e-01,  -3.32744002e-01,  -1.37144566e-01,   5.82391992e-02,
      2.40469888e-01,   6.53526038e-02,  -1.59155652e-02,  -1.35505032e-02,
     -1.01212367e-01,   5.35815582e-02,   1.68672919e-01,  -2.68904686e-01,
     -4.28542905e-02,   2.40675315e-01,  -1.15659416e-01,   1.71184108e-01,
     -1.19663246e-01,   2.35234931e-01,   2.58159012e-01,   1.75038144e-01,
     -2.40625441e-03,   1.48945376e-01,   6.51647002e-02,  -1.15332760e-01,
      2.66107805e-02,   7.20532313e-02,   2.40462929e-01,   1.68808565e-01],
   [ -3.47691000e-01,   1.76167011e-01,   9.49256644e-02,  -1.68627083e-01,
