[[  7.12834951e-03,  -1.26871821e-02,   7.15327589e-03,  -5.66092087e-03,
    2.17440967e-02,   2.77764015e-02,  -3.95245142e-02,   1.03912510e-01,
   -5.08716516e-02,  -1.68601200e-02],
 [  8.31402745e-03,   4.86927573e-03,  -4.46954407e-02,  -3.14741321e-02,
   -2.27962583e-02,  -3.82551663e-02,   2.37406716e-02,  -1.14881778e-02,
    1.60892189e-01,   3.34342895e-03],
 [  2.25919019e-02,  -2.81303115e-02,  -1.71318613e-02,   1.17433339e-01,
    1.39790419e-02,   9.32593644e-02,   3.72709073e-02,   3.47427316e-02,
   -5.08468300e-02,  -4.69006486e-02],
 [ -2.34062169e-02,   9.53882784e-02,  -1.85886417e-02,  -8.62934254e-03,
   -1.11573571e-02,   8.20877589e-03,   4.99382010e-03,  -3.12813185e-02,
   -1.41879299e-03,   1.67339426e-02],
 [ -9.26282164e-03,   2.46241521e-02,  -2.26445738e-02,   8.14398658e-03,
   -2.06782464e-02,  -2.29118764e-02,  -3.42716947e-02,  -4.58209217e-03,
    7.93878809e-02,   1.93156041e-02],
 [ -3.19299847e-02,  -6.20953040e-03,  -9.92177334e-03,   1.11273378e-01,
    7.43799610e-04,   4.14673286e-03,  -4.92682494e-03,  -1.92598850e-02,
   -4.39866039e-04,   3.66849941e-03],
 [ -2.84111537e-02,  -1.27030886e-03,  -1.06285848e-02,   2.79538194e-03,
    1.06683152e-03,   1.22817099e-01,  -1.71273071e-02,   2.03608703e-02,
   -2.59602964e-02,  -1.89499017e-02],
 [ -3.06366035e-03,   5.09754755e-02,  -1.32564800e-02,   8.42337962e-03,
    1.21994309e-01,  -2.07733531e-02,  -3.68487835e-02,  -3.07055954e-02,
   -1.78519338e-02,   1.51561096e-03],
 [  8.57642479e-03,  -2.83568609e-03,   1.03896052e-01,  -1.09312562e-02,
   -1.33884959e-02,  -2.68475190e-02,  -8.29559192e-03,  -8.84537352e-04,
    6.00159168e-03,   1.51615711e-02],
 [  6.32592961e-02,  -9.94403847e-03,   9.57462639e-02,  -4.02670875e-02,
    1.33628678e-03,  -3.98693830e-02,  -9.31774848e-04,  -9.47858673e-03,
   -4.18577017e-03,   2.36952361e-02],
 [  7.59550510e-03,  -5.85536938e-03,   8.21657628e-02,   3.87420170e-02,
   -4.20612618e-02,   9.04542506e-02,   4.84427111e-03,  -4.02119048e-02,
    1.32611766e-02,  -4.20152023e-02],
 [ -8.61204937e-02,  -3.80787924e-02,   9.27914977e-02,   6.41354844e-02,
    1.20626681e-01,   9.50702801e-02,   5.85011244e-02,   4.81821783e-02,
   -7.18840063e-02,  -6.90354407e-02],
 [  5.50341867e-02,   5.33564985e-02,  -5.34737743e-02,  -1.07952720e-02,
   -2.90433671e-02,  -3.46381851e-02,  -1.02407597e-02,  -3.79249267e-02,
    3.01472191e-02,   8.80534351e-02],
 [ -6.18814863e-03,  -1.21444808e-02,   1.51628945e-02,   8.28906149e-02,
    3.35340505e-03,  -5.62280510e-03,  -4.40361165e-02,  -1.46236867e-02,
    3.35259996e-02,   2.29668804e-02],
 [  1.18408523e-01,  -1.14867631e-02,   1.22153731e-02,  -7.50632631e-03,
    2.57548504e-02,  -2.44840998e-02,   4.84611932e-03,  -1.92063525e-02,
   -6.73213787e-03,  -1.14501920e-02],
 [ -1.23587810e-02,  -9.69816116e-04,   2.57791728e-02,  -9.58864053e-04,
   -2.88365763e-02,  -1.69753917e-02,   1.01520240e-01,  -1.38079645e-02,
    6.25032466e-03,  -1.20217716e-02],
 [ -1.69958305e-02,  -1.82946939e-02,  -2.08119527e-02,  -8.28254968e-03,
    5.41086658e-04,   6.89456984e-03,  -1.28899589e-02,   1.42453372e-01,
    5.23550576e-03,   6.58910954e-03],
 [  2.65888753e-03,  -9.30433441e-03,  -6.14829548e-03,  -1.85331691e-03,
    1.18277736e-01,   2.61714426e-03,   1.89187587e-03,  -1.03191389e-02,
   -1.58006307e-02,  -9.43642948e-03],
 [ -2.44802851e-02,  -3.16311885e-03,   1.49928126e-02,  -4.74052911e-04,
   -1.49346776e-02,  -1.73941702e-02,  -3.53948586e-02,  -3.18999365e-02,
    2.26856712e-02,   1.19633399e-01],
 [  1.36778850e-04,  -3.43311043e-03,  -2.87368707e-02,   5.99005446e-02,
   -1.97700188e-02,   9.45856795e-02,  -5.65189496e-03,   4.97295260e-02,
   -1.75450102e-03,  -2.43513603e-02],
 [  3.24232015e-03,   9.04232822e-03,   7.06983218e-03,  -6.58222241e-03,
    1.44227296e-02,   6.70870487e-03,  -3.47280987e-02,   5.77378832e-02,
   -1.50601128e-02,  -1.14609115e-03],
 [  3.34366672e-02,   5.68469707e-03,  -2.50931550e-02,  -2.26819664e-02,
    2.16520224e-02,  -1.53444717e-02,  -2.20254865e-02,  -2.57614721e-03,
    4.82323766e-02,  -8.87234043e-03],
 [  3.77371535e-03,  -1.18351672e-02,  -3.20348255e-02,   8.25637355e-02,
    3.65652866e-03,   8.23889598e-02,  -1.43852029e-02,   3.77460532e-02,
   -2.23881546e-02,  -4.26350720e-02],
 [  5.52592054e-03,   6.21599779e-02,  -1.98858157e-02,  -1.66798346e-02,
   -2.41560508e-02,  -8.73895176e-03,   2.55822530e-03,  -3.28580150e-03,
    2.89516151e-03,   2.20587812e-02],
 [  3.37746143e-02,  -7.54763605e-04,  -4.24418151e-02,   2.38191290e-03,
   -1.17770331e-02,  -3.60754244e-02,  -3.08707403e-03,  -8.79988354e-03,
    7.22981468e-02,   1.22585250e-02],
 [ -1.05222631e-02,  -1.34247355e-02,   2.60246452e-03,   7.48013929e-02,
    1.08938916e-02,   1.23286471e-02,  -1.19659305e-02,  -1.30185392e-02,
   -8.27768259e-03,  -1.14614191e-02],
 [ -3.14734429e-02,   5.20444848e-03,   5.44238649e-03,   5.43783139e-03,
    2.55645905e-02,   9.05051902e-02,  -4.33616620e-03,   6.95155142e-03,
   -2.98573226e-02,  -2.04696096e-02],
 [ -1.32893287e-02,   2.76531633e-02,   3.45813716e-03,  -3.59394168e-03,
    8.45780149e-02,   4.74883569e-03,  -1.01116858e-02,  -7.63321202e-03,
   -1.06575396e-02,  -3.78559493e-02],
 [  1.26684355e-02,   8.44199397e-03,   7.34008327e-02,  -8.64088908e-03,
   -3.34958080e-03,  -1.36201316e-02,   1.31191904e-04,   1.00566857e-02,
   -1.44337434e-02,  -1.23629149e-03],
 [  6.21236823e-02,  -5.36671374e-03,   2.26635206e-02,  -4.59544770e-02,
   -1.31165935e-02,  -7.71272415e-03,  -3.46815214e-03,  -3.67704942e-03,
    1.21036060e-02,   1.78416092e-02],
 [ -1.74342804e-02,   1.91004202e-02,  -1.84035003e-02,  -1.63366385e-02,
   -2.09420323e-02,   7.19982246e-03,  -1.28545128e-02,  -3.29218432e-02,
    7.38626420e-02,   4.05989364e-02],
 [ -3.19507606e-02,  -1.58798806e-02,   4.86056060e-02,   8.31195153e-03,
    8.26728120e-02,  -1.75096598e-02,   5.96411340e-02,   1.22061716e-02,
   -4.60303165e-02,  -1.55095831e-02],
 [  6.60376670e-03,   1.01282215e-02,  -4.88181319e-03,   7.45001342e-03,
   -2.49124579e-02,  -1.76817197e-02,  -1.46971960e-02,  -2.03642957e-02,
    1.19181201e-02,   5.97860441e-02],
 [ -1.27255125e-02,  -2.28773318e-02,   1.17019890e-02,   5.79631962e-02,
   -6.77214563e-03,   1.39799183e-02,   1.52197713e-02,  -2.13862164e-03,
    1.87299252e-02,  -3.76397185e-03],
 [  2.49577928e-02,   1.36163998e-02,   4.02023259e-04,  -3.70285027e-02,
   -1.82637554e-02,  -5.61343459e-03,  -2.10640226e-02,  -7.63624161e-03,
    4.58706282e-02,   4.70370194e-03],
 [ -4.62620752e-03,  -2.54328409e-03,   1.80500317e-02,  -2.93380814e-03,
   -2.02738657e-03,   1.02275005e-02,   1.48595825e-01,  -3.18374336e-02,
   -1.32745476e-02,  -1.32413702e-02],
 [ -3.13786417e-02,  -1.83810834e-02,  -4.01990023e-03,  -2.69601541e-03,
    4.96953167e-03,  -3.21049313e-03,  -2.10911166e-02,   1.30709976e-01,
   -7.23403459e-03,   2.41420623e-02],
 [  1.71898324e-02,  -1.49966422e-02,  -6.61743921e-04,  -3.12458165e-03,
    9.36589018e-02,   5.13121625e-03,  -8.64803139e-03,  -3.95665586e-04,
    6.87036850e-03,  -1.22471256e-02],
 [ -1.02521535e-02,   2.68178750e-02,  -2.61338539e-02,  -3.51425144e-03,
   -3.00164782e-02,   2.16101017e-03,  -2.41601523e-02,  -2.67149769e-02,
    1.54152652e-02,   1.21076025e-01],
 [ -2.07182858e-02,  -1.34289758e-02,  -1.47018991e-02,   6.00718223e-02,
   -2.61404943e-02,   5.35684861e-02,  -1.77715253e-02,   2.88490485e-02,
    1.56457946e-02,  -2.70125945e-03],
 [ -2.39498653e-02,   4.27939147e-02,   1.29654044e-02,  -1.34264138e-02,
    8.44056811e-03,   3.73082701e-03,  -4.19755057e-02,   5.69991656e-02,
   -2.69301794e-02,   4.72705327e-02],
 [  9.45792720e-02,  -1.42704109e-02,  -1.23902196e-02,  -2.42304076e-02,
    1.85505562e-02,  -7.50773959e-03,  -2.39375103e-02,   2.54195416e-03,
    1.39324469e-02,  -1.88379474e-02],
 [ -3.11266407e-02,  -5.44206891e-03,  -2.58211754e-02,   6.52724728e-02,
    1.92582589e-02,   5.08780591e-02,  -1.12424511e-02,   2.96424553e-02,
   -3.92238162e-02,   4.10629029e-04],
 [  2.79440582e-02,   5.97364157e-02,  -1.25159174e-02,  -1.17647713e-02,
   -1.34572797e-02,  -6.76057208e-03,  -1.31824915e-03,  -6.28290325e-03,
   -2.02415325e-02,   1.07467908e-03],
 [ -3.47860041e-03,   2.05362886e-02,  -3.88809033e-02,  -2.00027414e-02,
   -1.61328260e-02,  -3.63760255e-02,  -9.34376498e-04,  -1.60407426e-03,
    1.11500338e-01,   2.85859592e-02],
 [  5.49319610e-02,  -3.01596522e-02,   3.41752358e-02,   3.97316702e-02,
   -9.82862711e-03,   2.78858803e-02,   9.15259961e-03,  -2.05601659e-03,
   -2.14423127e-02,  -4.20414880e-02],
 [ -8.62268452e-03,  -9.66403540e-03,   3.19074513e-03,  -1.32256215e-02,
    5.06337360e-03,   9.34319422e-02,  -5.58921648e-03,   1.33035695e-02,
   -2.00738758e-02,  -1.87617652e-02],
 [  5.68905100e-02,   6.32831128e-03,  -9.82087944e-03,  -9.56997834e-03,
    3.42728458e-02,  -2.22466514e-02,   3.98029611e-02,  -6.82941312e-03,
    2.06077658e-03,  -2.16083825e-02],
 [ -1.83522347e-02,  -1.36018917e-02,   8.58916119e-02,   2.06724908e-02,
   -6.57115190e-04,   1.59444269e-02,   4.58274269e-03,   4.65715397e-03,
   -1.71980076e-02,  -4.29592514e-03],
 [  1.00142561e-01,  -2.04646289e-02,  -1.49761373e-02,  -4.44832072e-02,
   -2.68263891e-02,  -5.23643345e-02,  -4.65534180e-02,   7.84833543e-03,
    8.89081210e-02,   5.37906475e-02],
 [  1.48067940e-02,   3.00855506e-02,  -2.88998969e-02,  -3.49017903e-02,
   -2.74143051e-02,  -2.20972840e-02,  -1.24534257e-02,  -3.01322751e-02,
    6.77992404e-02,   6.34723082e-02],
 [ -6.02819733e-02,   3.58390287e-02,   4.97302748e-02,   2.62316549e-03,
    6.45330846e-02,   1.30015565e-02,   4.01322879e-02,  -2.02869833e-03,
   -1.83364954e-02,  -1.58221200e-02],
 [ -8.18222575e-03,   3.94857861e-02,  -1.77231561e-02,   1.42198261e-02,
   -2.33493745e-02,  -5.93865616e-03,  -1.07964743e-02,  -3.20248194e-02,
    1.31212818e-02,   4.40202579e-02],
 [ -8.48128088e-03,  -1.13664959e-02,   1.13710167e-03,   7.24773929e-02,
    8.61987751e-03,  -2.73115244e-02,   9.03618615e-03,  -4.76736575e-03,
    2.49285577e-03,  -9.90311243e-03],
 [ -3.12261656e-03,   1.37536861e-02,  -2.79706754e-02,  -2.41445024e-02,
   -1.49225453e-02,  -3.58198360e-02,   4.64504287e-02,   1.65246776e-03,
    5.43879159e-02,   1.12040779e-02],
 [ -1.77563652e-02,  -6.62994571e-03,   3.59481499e-02,  -1.32227421e-03,
   -1.03229284e-02,  -8.33040103e-03,   8.80354270e-02,  -1.03751905e-02,
   -1.69524476e-02,  -2.00739950e-02],
 [ -2.15252973e-02,  -1.56323835e-02,  -2.42124144e-02,  -1.63330007e-02,
    1.62472408e-02,  -7.03926990e-03,  -1.38886711e-02,   9.44931060e-02,
    2.18061153e-02,   1.66596693e-03],
 [ -1.23499632e-02,  -2.69385031e-03,  -1.40338754e-02,  -6.19779946e-03,
    8.87644812e-02,   2.32201605e-03,   2.08922494e-02,  -2.42895707e-02,
   -5.18866070e-03,  -1.64783094e-02],
 [ -1.26663027e-02,   2.95184460e-02,  -1.54481381e-02,  -8.48102011e-03,
   -1.48743764e-02,  -1.93500482e-02,  -3.53033878e-02,  -1.79972183e-02,
    1.35299824e-02,   1.15364380e-01],
 [  5.60841151e-02,   5.60014546e-02,   5.02077863e-02,   5.38703986e-03,
   -4.60907854e-02,  -3.37948017e-02,   1.24175160e-03,  -7.58892223e-02,
    4.12953831e-02,   1.65120244e-03],
 [ -2.30961032e-02,  -2.49325540e-02,  -3.61738093e-02,  -7.93360360e-03,
   -4.29023430e-03,   3.32018286e-02,  -1.72293279e-02,   1.66225314e-01,
   -1.64670702e-02,  -2.45569274e-02],
 [  1.23043824e-02,   2.70210709e-02,  -1.70351025e-02,  -2.78547453e-03,
   -3.07776071e-02,  -4.24681976e-02,  -8.15071166e-03,  -3.90966609e-02,
    1.18186973e-01,   1.99400708e-02],
 [  6.79693697e-03,  -9.36052855e-03,  -4.25778003e-03,  -3.54163758e-02,
   -1.31381759e-02,  -2.13312060e-02,   9.16088000e-02,  -2.49776524e-02,
   -4.26248321e-03,   5.56827411e-02],
 [  7.10864086e-03,   1.14637554e-01,  -3.30806673e-02,  -1.08122388e-02,
   -3.68844569e-02,  -1.94677785e-02,  -5.33629116e-03,  -2.86023337e-02,
    1.15101701e-02,   1.24688679e-02],
 [ -1.08878212e-02,  -2.65370365e-02,  -1.11135878e-02,  -1.28073115e-02,
    4.81789671e-02,   7.20030628e-03,  -3.00533953e-04,   3.21548320e-02,
    4.01932709e-02,  -1.81218348e-02],
 [ -1.10201947e-02,   5.05433604e-03,  -2.50446121e-03,   7.00032115e-02,
   -3.96344252e-03,   1.76089033e-02,  -4.30613663e-03,  -1.53106507e-02,
    5.90770785e-03,  -7.65543245e-03],
 [ -9.02856514e-03,   7.15592504e-03,  -3.02015860e-02,   2.54998840e-02,
    1.31631494e-02,   6.48477077e-02,  -3.43834274e-02,   8.31111986e-03,
   -1.26098637e-02,  -4.49462282e-03],
 [ -2.75045224e-02,   9.62381717e-03,  -5.15696406e-03,   2.00435761e-02,
    3.03673483e-02,  -4.22805140e-04,   6.96443114e-03,  -8.79319443e-04,
   -1.92784593e-02,   2.20414111e-03],
 [  9.72670969e-03,   6.52997848e-03,   5.79179786e-02,  -8.74743238e-03,
   -8.93725175e-03,  -1.09974258e-02,  -8.25576484e-03,   6.78299088e-03,
    4.65638330e-03,  -1.95860751e-02],
 [  5.96734844e-02,   5.08000422e-03,   7.17961416e-02,  -4.36421447e-02,
   -3.18209128e-03,  -3.36384885e-02,   2.21222434e-02,  -2.81333886e-02,
    1.32651534e-02,  -5.55124646e-03],
 [ -3.56538408e-02,  -1.51999900e-02,   9.25000757e-02,   1.34831583e-02,
   -1.99924130e-02,   3.98494527e-02,   1.75080784e-02,  -2.18451545e-02,
    5.84983313e-03,  -4.07284983e-02],
 [ -1.67749673e-02,  -2.95119975e-02,  -1.53046558e-02,  -4.50663560e-04,
   -2.05761008e-03,  -7.80211203e-03,   1.05695903e-01,  -1.93671715e-02,
   -1.61371175e-02,   2.76784636e-02],
 [  2.12471206e-02,   5.83990514e-02,  -6.48545101e-02,  -1.93359926e-02,
   -4.76225726e-02,  -2.47268938e-02,  -5.34411008e-03,  -1.45093566e-02,
    6.32279739e-03,   1.06084704e-01],
 [  1.37211417e-03,  -2.83296462e-02,   7.80194923e-02,  -2.54685823e-02,
    3.03274710e-02,  -7.57826678e-03,   8.36181175e-03,   1.05150938e-02,
   -6.20034477e-03,  -1.13378372e-02],
 [  1.02719828e-01,  -8.68485309e-03,   2.27801204e-02,  -1.06358621e-02,
    8.73326673e-04,  -3.15979645e-02,  -2.79872539e-03,  -1.48668326e-02,
   -3.64980404e-03,  -2.64834450e-03],
 [  6.77767792e-04,   1.77255608e-02,  -7.71072926e-03,  -5.00208093e-03,
    1.89207564e-03,  -8.37217644e-03,   6.23476207e-02,  -2.51449719e-02,
   -3.06563694e-02,   7.57991243e-03],
 [ -2.06912234e-02,  -1.52798509e-03,   1.32094848e-03,   6.64380612e-03,
   -8.50679167e-03,  -4.73721279e-03,   1.88741030e-03,   3.74892280e-02,
    1.56436674e-02,  -4.03122744e-03],
 [ -1.29817007e-02,  -2.68931706e-02,   9.22220643e-04,   3.16656660e-03,
    8.98512527e-02,   1.11967577e-02,  -1.79224610e-02,   1.10333157e-03,
   -3.66124650e-03,  -1.52682187e-02],
 [  1.05243633e-02,  -9.95400921e-03,   3.46620521e-03,  -4.59764991e-03,
   -1.02463458e-02,  -2.98703108e-02,  -1.62994713e-02,  -1.64037291e-02,
    3.15411128e-02,   7.47489780e-02],
 [  3.73535906e-03,   7.77434632e-02,  -2.87253736e-03,   1.66600402e-02,
   -5.26675731e-02,  -1.41210156e-02,  -1.99263021e-02,  -9.56032658e-04,
   -1.55814532e-02,   2.36358102e-02],
 [ -2.18954985e-03,  -2.30958741e-02,  -2.62635071e-02,   4.26339963e-03,
    1.72087960e-02,   2.17331611e-02,  -1.96628813e-02,   8.69852528e-02,
   -1.58391166e-02,  -6.29241485e-03],
 [  5.54433055e-02,   2.79866476e-02,  -1.53628632e-03,  -1.24150328e-02,
    1.14305969e-02,  -2.99407132e-02,  -3.35742347e-02,  -3.33592147e-02,
    1.57450438e-02,   1.60640925e-02],
 [ -2.36725900e-02,  -2.15668920e-02,  -2.36291513e-02,   3.10177710e-02,
    1.63077284e-02,   9.06450558e-04,  -3.55355849e-04,   1.57442521e-02,
   -1.49562024e-02,   3.14069167e-02],
 [ -9.47511662e-03,   9.66686010e-02,  -8.30333401e-03,  -2.26218607e-02,
   -2.73738913e-02,  -1.85508858e-02,  -1.17568197e-02,  -1.40805552e-02,
    2.57695410e-02,   9.85601731e-03],
 [  4.26109275e-03,  -1.88968610e-03,  -4.20837151e-03,  -3.07157785e-02,
    2.38964520e-02,  -3.52681475e-03,   3.51586170e-03,   8.20908695e-03,
    4.62921858e-02,  -2.44759191e-02],
 [  1.58156827e-02,  -1.48928375e-03,   7.62895355e-03,   5.58743551e-02,
   -1.48744071e-02,   2.04004813e-02,  -6.48126192e-03,  -1.15780383e-02,
   -5.41995279e-03,  -2.81696804e-02],
 [ -1.75413657e-02,  -5.09703625e-03,  -1.65936183e-02,   1.93971880e-02,
    6.60206145e-03,   6.70953542e-02,  -2.26512253e-02,   8.21484718e-03,
    8.53002444e-03,  -9.00528673e-03],
 [ -5.21186367e-02,   1.23349519e-03,  -2.88318563e-02,   7.89854210e-03,
    1.55862048e-02,   1.63219478e-02,   8.20966735e-02,  -7.82653503e-03,
   -1.04572605e-02,  -1.46913703e-03],
 [ -5.95529424e-03,  -3.43889743e-02,   5.69534674e-02,  -1.32879633e-02,
    1.67195518e-02,  -4.91653848e-03,  -1.40154045e-02,  -5.99724380e-03,
   -1.17493700e-02,   2.62406748e-02],
 [  1.06075883e-03,  -5.30439336e-03,  -1.64465569e-02,   2.88637839e-02,
   -6.30091270e-03,   4.51874845e-02,   1.17291631e-02,  -1.78313758e-02,
   -1.09786782e-02,  -6.84554549e-03],
 [ -1.77840423e-02,  -2.55271252e-02,   5.42573212e-03,  -1.46056805e-02,
    1.44318519e-02,  -1.22753698e-02,   7.15047121e-03,   1.45938233e-04,
    6.80241808e-02,  -1.54876588e-02],
 [ -1.83327161e-02,  -1.04983170e-02,  -9.30523407e-03,   1.35929724e-02,
   -1.34428563e-02,  -4.51010885e-03,   1.01000570e-01,   2.79116281e-03,
   -2.71860454e-02,  -9.69722774e-03],
 [  1.46443034e-02,   3.88939530e-02,  -3.38000357e-02,   3.80765204e-03,
   -3.17495875e-02,  -1.98772419e-02,  -1.31006856e-02,  -3.04162838e-02,
   -1.40298635e-03,   8.06402117e-02],
 [ -5.62635623e-03,  -2.92343404e-02,   7.89651498e-02,  -1.70047320e-02,
    4.27564755e-02,   5.87640237e-03,   6.56893710e-03,   8.28288309e-03,
   -1.81235634e-02,  -2.29698345e-02],
 [  4.43626158e-02,   2.28111595e-02,  -3.58390398e-02,  -5.13375849e-02,
   -9.12413653e-03,  -1.80432219e-02,  -2.56642718e-02,   7.42774038e-03,
    5.01327254e-02,   9.76970326e-03],
 [  2.94096884e-03,   2.27491353e-02,  -1.23174246e-02,   3.17382882e-03,
   -5.70679968e-03,   9.24241822e-03,   5.42680435e-02,  -3.23135667e-02,
   -9.94733069e-03,  -1.06276823e-02],
 [ -1.24303605e-02,   7.73948478e-03,  -1.36425178e-02,  -9.06311255e-03,
    4.15232684e-03,  -2.42751255e-03,  -6.21762360e-03,   3.30684483e-02,
    3.05861118e-03,   1.50590148e-02],
 [ -1.08960820e-02,  -5.52004064e-03,  -1.18808728e-02,  -7.34183844e-03,
    7.21877813e-02,   5.91263874e-03,  -2.34242547e-02,   3.71750764e-04,
    7.92667363e-03,  -2.31331168e-03],
 [ -1.31212594e-02,   2.52701528e-02,  -1.11497557e-02,   6.47524744e-03,
   -2.75088064e-02,  -3.21135437e-03,  -3.65414247e-02,  -2.09808606e-03,
    1.39178410e-02,   6.79238960e-02],
 [ -1.90738891e-03,   8.63656625e-02,  -3.46114114e-03,  -2.92892251e-02,
   -2.29166765e-02,  -1.75374486e-02,  -1.88059080e-02,   5.09800017e-03,
   -3.09319030e-02,   3.46374996e-02],
 [ -1.88465286e-02,  -1.18807489e-02,  -1.23014599e-02,  -1.42775467e-02,
   -3.51942098e-03,   4.12853668e-03,  -5.65678719e-03,   4.04394232e-02,
    1.51385749e-02,   2.56434549e-02],
 [  5.82496002e-02,  -1.25612356e-02,   2.63749138e-02,   8.15543998e-03,
    9.98562854e-03,  -4.33722511e-02,  -1.02337524e-02,  -4.72839829e-03,
   -1.13351392e-02,   1.06400326e-02],
 [ -5.60131222e-02,  -4.39733677e-02,   1.85608659e-02,   3.43951657e-02,
    4.22468856e-02,   1.95905715e-02,   4.22642045e-02,   2.26854384e-02,
   -2.15968676e-02,   1.55535119e-03],
 [  1.40613643e-02,   6.50346950e-02,  -3.89050297e-03,   1.06303645e-02,
   -1.44927567e-02,  -2.60866601e-02,  -2.40088403e-02,  -8.64879042e-03,
   -1.96512174e-02,   9.09139216e-03],
 [ -3.45296450e-02,   1.73199102e-02,  -5.27294027e-03,  -1.42862154e-02,
    1.38397608e-03,  -2.32549924e-02,  -2.37877183e-02,  -2.70331441e-03,
    8.89609158e-02,   2.85921395e-02],
 [ -2.09181570e-03,  -2.16878206e-02,   2.08025519e-02,   3.37973163e-02,
   -1.72291212e-02,   4.99742897e-03,  -1.39801437e-02,   2.52445620e-02,
    2.51322165e-02,  -4.29849187e-03],
 [ -1.14829261e-02,  -2.40625741e-04,  -4.67456644e-03,   1.46043310e-02,
   -1.65176615e-02,   6.58509210e-02,  -1.10444902e-02,  -7.60769891e-03,
   -2.74523832e-02,   1.42952595e-02],
 [ -3.27542797e-02,  -4.22526896e-03,   5.35861403e-03,   1.41316047e-02,
   -2.22796444e-02,   2.46620015e-03,   1.02620892e-01,  -1.58025622e-02,
   -1.05464063e-03,  -3.12901312e-03],
 [ -1.92261524e-02,  -1.78569481e-02,   8.23775753e-02,  -9.70781501e-03,
    4.05949401e-03,   1.65809244e-02,  -1.85211841e-02,   1.30025055e-02,
   -2.17442941e-02,   3.50020337e-03],
 [  1.29037257e-02,  -1.08233420e-02,  -1.28624961e-02,   1.60338432e-02,
    5.14787901e-03,   5.17443493e-02,   3.17349285e-03,  -3.71758128e-03,
   -2.56704148e-02,  -3.24534141e-02],
 [ -8.68777512e-04,   6.11610385e-03,  -2.86305486e-03,   3.81183764e-03,
   -2.76007000e-02,   3.67491017e-03,  -1.16056753e-02,  -2.83643194e-02,
    8.10946897e-02,  -1.31061682e-02],
 [ -3.66862938e-02,   3.54272276e-02,   5.03067262e-02,   1.62474345e-02,
    4.35103523e-03,  -4.34554517e-02,   2.70818323e-02,  -1.37014911e-02,
   -6.32686960e-03,  -1.46598946e-02],
 [  6.81402627e-03,   3.57850716e-02,  -2.90861633e-02,  -4.31635883e-03,
   -2.65228655e-02,  -3.12526450e-02,   7.62665737e-03,  -2.07800455e-02,
   -1.19989086e-02,   7.53579065e-02],
 [ -2.71055885e-02,  -1.74875930e-02,   4.22169380e-02,  -6.67824689e-03,
    1.74773466e-02,   1.00708324e-02,  -5.65543480e-04,   1.14330533e-03,
   -3.15891951e-03,  -8.35806597e-03],
 [  2.30097529e-02,   2.32841205e-02,  -1.01477550e-02,  -3.95903885e-02,
    9.71472356e-03,  -3.66257913e-02,  -1.25409383e-02,  -2.43403204e-03,
    6.25753626e-02,   1.29932426e-02],
 [  6.68645743e-03,   1.38921458e-02,  -1.56447967e-03,   1.04059028e-02,
    3.44671332e-03,   9.38216876e-03,   2.02149916e-02,  -7.48768123e-03,
   -3.48359197e-02,  -9.25895758e-03],
 [ -3.75037640e-02,   3.74497846e-02,   6.94647850e-03,  -8.50746874e-03,
    4.96431021e-03,  -1.60391920e-03,  -3.73238325e-02,   2.28445567e-02,
    2.71827336e-02,  -9.36225709e-03],
 [ -1.01498598e-02,  -2.89891344e-02,   6.44077361e-03,  -4.45596920e-03,
    4.42631021e-02,  -5.53750945e-03,  -7.33364932e-03,   7.52732996e-03,
    1.12929605e-02,  -2.17338023e-03],
 [  1.77611113e-02,   1.63314193e-02,  -2.18714401e-03,  -8.36363761e-05,
   -8.84352624e-03,  -2.84738727e-02,  -4.11584452e-02,  -1.05185611e-02,
    2.64054779e-02,   5.62843345e-02],
 [  3.38328220e-02,   7.21571147e-02,   1.09875137e-02,  -1.40643101e-02,
   -4.16577980e-02,  -4.25762087e-02,  -2.42232326e-02,  -1.28868995e-02,
    1.25076929e-02,   3.37203220e-02],
 [ -6.49533560e-03,  -2.76760515e-02,  -1.57468598e-02,   8.59735534e-03,
    1.25150643e-02,   5.68906590e-03,   3.31915624e-04,   9.08364281e-02,
   -2.95877531e-02,  -1.73622388e-02],
 [  6.34818599e-02,   1.11051453e-02,   1.17742382e-02,  -3.62120159e-02,
    9.95252747e-03,  -3.53301316e-02,  -4.60747220e-02,  -8.14849325e-03,
    4.67386879e-02,   9.61533468e-03],
 [ -5.45394188e-03,  -2.32882872e-02,   1.77817121e-02,   5.51797857e-04,
    1.45637337e-02,  -2.68655922e-02,   1.35571167e-01,  -3.78132910e-02,
    1.66339148e-02,  -9.77149885e-03],
 [  1.00328103e-02,   1.00165248e-01,  -2.46174354e-02,  -8.82557407e-03,
   -2.43766997e-02,  -1.08856820e-02,  -1.98626369e-02,  -6.14262652e-03,
   -8.40552524e-03,  -1.22161524e-03],
 [ -3.69110480e-02,  -4.80788350e-02,   6.97464915e-03,   7.41537241e-03,
    1.76691353e-01,   8.42354149e-02,   3.97837441e-03,   6.86014667e-02,
   -5.96746132e-02,  -3.43036540e-02],
 [ -1.67900529e-02,  -2.64811330e-02,   1.87746175e-02,   4.61731739e-02,
    1.17578160e-03,   1.11144241e-02,  -2.05003191e-02,  -1.54155791e-02,
    1.05912760e-02,   2.85509182e-03],
 [ -8.02830837e-05,  -1.82749238e-02,  -1.94723159e-02,   1.14967478e-02,
    4.81626242e-02,   3.75433080e-02,  -2.88544130e-02,   4.40198109e-02,
   -2.59405188e-02,  -2.14450783e-03],
 [ -3.52481790e-02,  -1.84897315e-02,  -1.06775919e-02,   5.30351438e-02,
   -2.92963488e-03,   2.54808702e-02,  -2.60931766e-03,   4.50125262e-02,
   -7.13480869e-03,  -8.36915337e-03],
 [  2.04083063e-02,   4.32796553e-02,   3.58481565e-03,  -3.08635104e-02,
   -1.46127110e-02,  -2.84816232e-02,  -2.32455283e-02,  -4.00466323e-02,
    1.02144644e-01,  -5.48186665e-03],
 [  6.36017770e-02,  -4.41489555e-02,   6.16095811e-02,   2.32725535e-02,
   -2.83796880e-02,   5.40873744e-02,   6.42363131e-02,  -9.13051888e-03,
   -3.79859619e-02,  -4.66120057e-02],
 [ -1.33077633e-02,   6.87340721e-02,   4.83306199e-02,  -2.61299778e-02,
   -1.35264387e-02,   2.67982781e-02,  -2.46122815e-02,  -2.73380876e-02,
   -2.81971078e-02,   9.63448826e-03],
 [  2.98161851e-03,  -2.00668462e-02,  -7.01307785e-04,  -3.88596603e-03,
   -1.04399845e-02,   1.60435261e-03,   6.97383732e-02,  -1.33148516e-02,
   -1.79210473e-02,   1.00255078e-02],
 [  1.23803355e-02,   7.88232014e-02,  -4.48204242e-02,  -3.28143016e-02,
   -2.62157321e-02,  -2.95397174e-02,  -3.46026942e-02,  -2.28279848e-02,
   -1.37797110e-02,   1.34329826e-01],
 [ -7.19324965e-03,   1.61875486e-02,   8.77705589e-02,   6.30018767e-03,
    1.23463841e-02,  -1.77105702e-02,   1.31219700e-02,  -1.08731184e-02,
   -5.29395556e-03,  -3.93926129e-02],
 [  7.04375133e-02,  -1.01437122e-02,  -5.44346310e-03,  -4.55633085e-03,
    1.54984239e-02,  -1.66557766e-02,  -9.35074314e-03,  -3.73640843e-02,
    1.54025005e-02,   2.55013467e-03],
 [  5.73607497e-02,   1.09335640e-02,   3.62271778e-02,  -1.73736922e-02,
    6.65073632e-04,  -3.58568877e-02,  -4.29356918e-02,   8.57219473e-02,
   -4.66013551e-02,   3.06009483e-02],
 [  9.81671549e-03,   4.09462005e-02,  -3.71672697e-02,   2.37952974e-02,
   -3.07444930e-02,  -1.01224380e-03,  -1.11355297e-02,  -7.84374867e-03,
    5.92052341e-02,   6.09350344e-03],
 [ -9.63035226e-03,  -2.42754095e-03,   1.29880449e-02,  -1.12451073e-02,
    3.48657779e-02,  -2.34671142e-02,  -1.99082610e-03,  -3.82846175e-03,
    9.64857638e-04,   1.03810616e-02],
 [  4.16170657e-02,  -2.97798053e-03,   1.00372262e-01,  -2.50290595e-02,
    1.40725514e-02,  -6.43225238e-02,  -5.23632355e-02,  -5.05143125e-03,
    6.40415624e-02,  -3.02588381e-02],
 [ -3.07672638e-02,   1.16014242e-01,  -2.58254651e-02,  -2.87669315e-03,
   -2.29057018e-02,  -1.68473758e-02,  -3.59117351e-02,  -2.14256644e-02,
   -1.82216782e-02,   6.21205270e-02],
 [  2.38186936e-03,   6.45164214e-03,  -3.84571850e-02,   1.03784073e-03,
    2.58964044e-03,   1.37489038e-02,  -4.63477056e-03,   5.19149452e-02,
   -2.62068827e-02,   1.35753751e-02],
 [  6.98096901e-02,   1.05593987e-02,   1.61710326e-02,  -1.65267270e-02,
    1.13694947e-02,  -4.53818887e-02,  -1.60705261e-02,  -9.04784724e-03,
    1.00522507e-02,   7.44449790e-04],
 [ -1.52181368e-02,  -4.22376841e-02,   2.75621191e-02,   3.73060703e-02,
    6.16504289e-02,  -1.12673109e-02,   3.26889306e-02,  -1.44924307e-02,
   -2.42469311e-02,  -1.26608135e-02],
 [ -1.18456921e-02,   1.02661915e-01,  -1.57274492e-02,  -4.38409485e-03,
   -2.13279780e-02,  -1.49156721e-02,  -1.22118201e-02,  -1.68297477e-02,
   -3.97160556e-03,   1.07082324e-02],
 [ -2.45529041e-02,  -1.18928058e-02,   1.08555052e-02,   2.46180911e-02,
    9.12246853e-02,   2.35265009e-02,  -2.87056006e-02,   3.45084965e-02,
   -2.46905610e-02,  -3.44485901e-02],
 [  1.34978667e-02,  -2.99007017e-02,   3.45495646e-03,   4.38634194e-02,
   -8.54177121e-03,   2.09097285e-02,  -1.49372760e-02,  -8.98471288e-03,
    3.70429654e-04,  -1.46420300e-02],
 [ -5.34406630e-03,   2.13934196e-04,  -7.51487911e-03,   2.39377450e-02,
    1.76400933e-02,   6.19583577e-02,  -2.77115591e-02,  -5.49965492e-03,
   -2.46796981e-02,  -6.47751428e-03],
 [ -4.35918048e-02,  -3.10983812e-03,  -2.66872253e-03,   2.84348745e-02,
   -1.02396393e-02,   1.80686302e-02,   9.39652622e-02,  -1.17394060e-03,
   -1.70817450e-02,  -3.06696836e-02],
 [ -1.44095272e-02,  -4.63125762e-03,   5.24280360e-03,   1.17640942e-03,
   -8.53089057e-03,  -6.65513752e-03,   1.00483457e-02,   9.81616229e-03,
   -7.25577411e-05,   7.85691198e-03],
 [  1.21454597e-02,  -2.45855879e-02,  -1.79957990e-02,   8.00625235e-02,
   -5.74091729e-03,   9.19887200e-02,   3.79447043e-02,  -2.00149100e-02,
   -4.88070175e-02,  -1.48625290e-02],
 [  4.52541746e-03,  -1.50390044e-02,   6.91396557e-03,  -2.92074238e-03,
   -6.22509839e-03,  -3.29635269e-03,  -8.10798351e-03,  -5.50242607e-03,
    6.14025742e-02,  -2.07372215e-02],
 [  3.59242735e-03,  -3.06393206e-02,  -9.79162473e-03,   7.07904669e-03,
   -2.73004137e-02,  -8.36621155e-04,   8.25718492e-02,   6.19686954e-03,
    1.12325056e-02,  -2.66186874e-02],
 [  1.17502036e-02,   3.83201241e-02,  -1.35546376e-03,  -2.89497804e-02,
   -3.29970717e-02,  -2.39051469e-02,  -2.62942258e-02,  -1.25999236e-02,
    4.37300839e-03,   9.12542641e-02],
 [ -9.84069519e-03,  -2.10883562e-03,   8.54050592e-02,   7.62194861e-03,
    2.01611817e-02,   6.49222918e-03,   1.84740573e-02,  -6.91740680e-03,
   -1.81240663e-02,  -4.42862660e-02],
 [ -2.16279756e-02,   4.82064486e-03,  -2.07255799e-02,  -1.10723302e-02,
   -2.35332474e-02,  -2.36024074e-02,   1.35591822e-02,   1.55606903e-02,
    7.69172758e-02,   8.39446392e-03],
 [  3.90995592e-02,   9.20428603e-04,  -1.84284691e-02,  -1.77057832e-02,
   -4.37166262e-03,  -6.42192783e-04,  -1.06256697e-02,   6.55902997e-02,
   -2.72703972e-02,   1.76881012e-02],
 [  2.50282921e-02,  -2.63646971e-02,  -4.52079587e-02,  -1.18473135e-02,
    1.37175256e-02,   3.99740413e-03,  -1.55999493e-02,   1.00841047e-02,
    3.02522238e-02,   7.90651608e-03],
 [ -3.68831120e-02,   1.69323068e-02,  -6.89710677e-03,  -7.46753905e-03,
    4.58559021e-02,  -2.25994941e-02,  -7.87831284e-03,   1.55632375e-02,
    1.50185972e-02,  -2.77814077e-04],
 [ -1.21704387e-02,   2.53083222e-02,  -2.86435778e-03,   1.93315733e-03,
    8.91295820e-03,  -1.14212092e-02,  -2.85503790e-02,  -1.92284696e-02,
    5.48542477e-02,   4.49493434e-03],
 [  8.65027960e-03,   1.14631623e-01,  -4.53830287e-02,  -4.74014468e-02,
   -3.74743901e-02,  -2.95099579e-02,  -6.82855491e-03,  -1.05987098e-02,
    7.18963938e-03,   3.75330895e-02],
 [ -1.98927354e-02,  -5.70528815e-03,  -4.34332378e-02,   8.03389214e-03,
   -2.79024569e-03,   1.86901838e-02,  -5.02078887e-03,   3.48767713e-02,
    5.91388950e-03,   1.75504051e-02],
 [  9.93025750e-02,  -3.94884199e-02,   3.77007313e-02,  -1.06902828e-03,
   -3.73860635e-03,  -3.45315263e-02,   4.95594274e-03,   1.61946088e-03,
   -2.09385669e-03,  -1.05283000e-02],
 [ -4.70095798e-02,  -4.39468324e-02,   6.57722130e-02,   3.27719301e-02,
    8.58002380e-02,   2.81271152e-02,   6.49674311e-02,  -1.41325668e-02,
   -4.98473942e-02,   2.84611667e-03],
 [  1.73959918e-02,   5.24150431e-02,  -4.54077031e-03,  -1.43593010e-02,
   -2.69065090e-02,  -2.46904604e-02,  -1.73809212e-02,   7.94177037e-03,
   -6.20498974e-03,   2.22171601e-02],
 [ -4.84673455e-02,  -5.57662547e-02,   2.65456419e-02,   3.96235427e-03,
    8.16894993e-02,   2.86226626e-02,  -2.76070926e-03,   2.17414927e-02,
   -2.80280523e-02,   5.22400672e-03],
 [ -1.79117341e-02,  -3.67938243e-02,   7.97630101e-02,   9.22981743e-03,
    4.17815186e-02,   7.54191168e-03,  -2.64369156e-02,   9.85612869e-02,
   -4.37934659e-02,  -3.15525904e-02],
 [ -8.10896512e-03,   1.80586092e-02,  -3.08819935e-02,   7.54442066e-03,
    3.05971634e-02,   1.77620817e-02,  -2.54125819e-02,   8.61796364e-03,
   -2.67594773e-02,   1.02915065e-02],
 [ -4.24318165e-02,  -3.53033817e-03,   1.96053796e-02,   1.82511713e-02,
   -1.34127075e-02,   1.37692578e-02,   1.03708498e-01,  -1.52568500e-02,
   -1.48566384e-02,  -1.80220604e-02],
 [  1.07701262e-02,  -1.57375410e-02,   2.30921749e-02,  -1.46998279e-02,
   -8.30883440e-03,  -1.30683277e-02,   7.51444744e-03,   2.01437529e-03,
    1.10889021e-02,   1.19186915e-03],
 [ -1.42318383e-02,   6.87788287e-03,  -2.25345604e-02,   2.70011947e-02,
    6.41153706e-03,   7.49244019e-02,  -4.79343534e-03,  -5.64138545e-03,
   -4.37986292e-03,  -1.44846011e-02],
 [ -5.92875574e-03,  -4.16482100e-03,  -4.83695790e-03,   1.12960013e-02,
   -1.92785393e-02,  -4.60641738e-03,   8.36586580e-03,  -9.38506424e-03,
    6.77835718e-02,  -1.98707208e-02],
 [ -2.05170158e-02,   3.37823927e-02,   3.71142812e-02,   1.05432784e-02,
    1.67517979e-02,  -3.09991501e-02,  -5.14860172e-03,  -1.25146890e-02,
    1.59181301e-02,  -3.18143293e-02],
 [  1.64989736e-02,   1.06842639e-02,  -2.58615036e-02,  -7.29692960e-03,
   -4.31510583e-02,  -8.88945721e-03,  -3.82072548e-03,   5.71887940e-03,
   -1.31084379e-02,   1.01170234e-01],
 [ -2.87034530e-02,   1.06797060e-02,   6.26665205e-02,   5.29521564e-03,
    5.74358460e-03,  -9.44817439e-03,   1.24483081e-02,  -5.01187285e-04,
   -2.22716238e-02,  -2.74052713e-02],
 [  1.06400548e-04,   3.91177535e-02,  -4.83293878e-03,  -2.62141414e-02,
   -2.98740957e-02,  -3.21749933e-02,  -1.35760428e-02,  -2.80121062e-02,
    1.18279576e-01,   2.54371632e-02],
 [  4.06122468e-02,  -5.73990820e-03,   7.96016422e-04,  -2.92400215e-02,
    2.77632312e-03,  -3.03971814e-03,  -1.99869648e-02,   3.73947136e-02,
    1.07815331e-02,   1.61877759e-02],
 [ -3.35400866e-04,  -9.85119771e-03,  -9.93007142e-03,   6.64211484e-03,
   -1.76157337e-02,  -9.48475767e-03,  -4.16978672e-02,  -1.53668132e-02,
    1.03407495e-01,  -2.44166725e-03],
 [ -2.56876294e-02,   1.13338314e-03,   2.00094413e-02,  -2.33720392e-02,
    1.68690626e-02,   4.18730080e-02,  -1.55429812e-02,   2.99615931e-04,
   -1.84971777e-05,  -4.86354623e-03],
 [ -1.32170157e-03,   4.83160205e-02,   2.65563931e-02,  -7.42510287e-03,
    6.08751504e-03,  -4.07306664e-02,  -1.01433625e-03,  -3.08751967e-02,
    2.08110996e-02,   9.55908187e-03],
 [  1.77336193e-03,   1.00166246e-01,  -3.99376266e-02,  -2.76351022e-03,
   -6.28355518e-02,  -5.06094890e-03,  -1.24882562e-02,  -1.10333841e-02,
    7.71816121e-03,   3.31286825e-02],],
