[[[[  3.04412186e-01,  -1.07822858e-01,   3.60201806e-01,   5.12894280e-02,
     -3.73987019e-01,  -2.36354426e-01,  -9.54317227e-02,  -4.68078181e-02,
      1.42933235e-01,   2.27665275e-01,  -9.45078954e-02,  -1.39915645e-01,
     -1.56010995e-02,   1.44240022e-01,  -1.09477498e-01,   5.88386618e-02,
      5.34611046e-01,  -1.01538844e-01,   1.29631758e-01,  -1.10574655e-01],
   [ -5.97798377e-02,  -2.43079513e-02,   6.32645339e-02,  -3.67592782e-01,
      1.58264823e-02,  -2.15778351e-01,  -3.11445057e-01,   3.02067846e-01,
     -1.12709731e-01,  -2.54468787e-02,  -1.10332087e-01,   1.63904965e-01,
     -3.39212716e-01,   2.10466236e-01,  -4.81495522e-02,  -5.63961789e-02,
     -2.44043112e-01,  -2.17783928e-01,  -5.05899340e-02,  -2.34284118e-01],
   [ -4.70321566e-01,  -2.00205728e-01,  -1.53188318e-01,  -1.05043650e-01,
      1.54913053e-01,   9.60414931e-02,   1.55571669e-01,   9.50777158e-02,
     -4.15073544e-01,   5.31831868e-02,   2.30895858e-02,   1.32539496e-02,
     -7.05447644e-02,  -6.50831461e-02,   1.67012006e-01,  -1.64730340e-01,
      6.19978979e-02,   1.70341626e-01,  -1.81701884e-01,  -2.66385645e-01],
   [ -2.78892964e-02,   1.80514738e-01,  -3.64060640e-01,  -8.67863819e-02,
      1.27923325e-01,  -8.67355019e-02,   8.33899155e-03,   2.63467040e-02,
     -2.03790590e-01,  -1.88352481e-01,  -5.26235532e-03,  -9.64947119e-02,
     -3.07152659e-01,   1.07425824e-01,  -3.95643488e-02,  -3.13454509e-01,
     -4.09905203e-02,   5.64719103e-02,  -1.90546713e-03,  -8.46967697e-02],
   [  1.95320696e-01,   4.37004603e-02,   8.03561658e-02,   3.49503569e-02,
      3.37880775e-02,   2.97245502e-01,   2.11533308e-01,   1.02131672e-01,
      2.80374616e-01,   1.52848378e-01,   3.45226288e-01,   3.28567475e-01,
      1.04777217e-01,   6.11750707e-02,   8.02415535e-02,  -1.57995112e-02,
      1.08242616e-01,   2.45891109e-01,   1.10117368e-01,   1.64970949e-01],
   [  1.25557899e-01,   3.61032009e-01,  -2.14291677e-01,  -1.45216778e-01,
     -3.00180644e-01,   7.71639124e-02,  -6.05397344e-01,  -1.81248561e-01,
     -9.30814147e-02,  -7.88681656e-02,  -8.47921371e-02,   7.12550730e-02,
     -3.59537713e-02,  -4.69103642e-02,   9.71589386e-02,   1.64833769e-01,
      5.65687986e-03,   3.89668435e-01,  -1.47671402e-02,  -8.65177587e-02],
   [  4.89329398e-02,   9.79731791e-04,  -1.68877870e-01,   9.69015732e-02,
     -2.48073861e-01,   8.27619433e-02,  -2.84471244e-01,  -1.17748864e-01,
     -4.20213165e-03,  -2.37284042e-02,   2.28604823e-02,  -3.45736146e-02,
     -3.44527036e-01,   1.16739698e-01,  -7.63659552e-02,  -7.23598078e-02,
     -8.07616636e-02,   5.16459197e-02,   4.22613546e-02,  -9.23678279e-02],
   [ -2.27005333e-01,  -2.14800611e-01,  -7.76552856e-02,  -1.71802402e-01,
     -2.06388399e-01,   3.61756951e-01,  -2.69544244e-01,   8.99146199e-02,
      2.94929951e-01,  -2.84741044e-01,   1.10766470e-01,  -4.77440134e-02,
      4.11170581e-03,  -4.52253483e-02,  -1.51306421e-01,   1.78701580e-01,
     -1.89964160e-01,   2.29754791e-01,  -2.80061495e-02,  -2.03005821e-01],
   [  7.91032240e-02,  -3.23755473e-01,  -3.91656458e-02,  -1.65087372e-01,
      8.60618800e-02,  -6.42663762e-02,  -9.02956501e-02,   6.14064001e-02,
     -2.48674065e-01,  -1.38488472e-01,  -9.75903962e-03,  -3.75499278e-01,
      6.70688925e-04,  -1.10402815e-01,  -1.22596443e-01,  -4.40163881e-01,
     -1.86092767e-03,  -1.32386517e-02,   1.41065121e-01,   6.50732368e-02],
   [ -1.12744302e-01,   1.58397481e-01,  -9.71489102e-02,  -1.67044491e-01,
      3.61135274e-01,   1.53308809e-01,  -9.03400108e-02,  -2.24387407e-01,
     -1.33745641e-01,  -1.43233970e-01,  -3.83659631e-01,   4.65675145e-02,
      9.31841061e-02,   1.03824489e-01,  -2.36687567e-02,  -4.33927216e-02,
      2.43677795e-02,  -7.72635192e-02,   1.63065061e-01,  -2.48280004e-01],
   [ -1.64460093e-02,   2.06340607e-02,   1.83505062e-02,   1.23350203e-01,
      1.40467331e-01,   6.16940744e-02,  -1.56991966e-02,  -2.13725686e-01,
     -1.14823304e-01,  -9.76027846e-02,  -8.20706338e-02,  -1.29818410e-01,
      3.57850045e-01,   8.95390734e-02,   1.18090115e-01,  -3.50542292e-02,
      5.89131862e-02,   4.01413679e-01,  -3.35131794e-01,  -4.58640791e-02],
   [  2.04402171e-02,  -6.98408559e-02,  -1.44019108e-02,  -6.77856505e-02,
      1.38570033e-02,  -2.06449822e-01,  -5.24355710e-01,  -1.70138180e-01,
     -1.99767947e-01,  -1.21160448e-01,  -1.53226987e-01,  -5.64581454e-02,
     -1.68980762e-01,   4.06876020e-02,  -8.61526281e-03,  -7.95187131e-02,
      6.16024546e-02,  -1.56874791e-01,   6.45525828e-02,  -8.66800025e-02],
   [ -1.22373112e-01,   1.23279341e-01,  -1.02915731e-03,  -4.63004649e-01,
      8.74780342e-02,  -1.14116818e-01,   2.85735160e-01,  -2.64801115e-01,
      1.69113904e-01,   1.38500333e-01,   1.07586771e-01,  -1.51923120e-01,
     -1.07613266e-01,   9.50480849e-02,  -2.78207213e-01,  -5.52260363e-03,
     -6.79472908e-02,   3.85964774e-02,   1.69042066e-01,  -1.80931255e-01],
   [  1.36063294e-03,  -1.24216788e-01,   9.08157825e-02,  -6.20315894e-02,
     -1.54506326e-01,   2.94829030e-02,  -4.80586253e-02,  -1.18378974e-01,
      5.15053608e-03,  -2.93031216e-01,   8.39441270e-02,  -4.39054146e-02,
     -7.31923655e-02,   3.51978317e-02,   2.30011657e-01,  -7.32305124e-02,
      1.20138220e-01,   3.69431525e-02,  -4.86437157e-02,  -1.77704673e-02],
   [  2.65562925e-02,   2.16744095e-01,   1.54572893e-02,  -2.55103171e-01,
      2.07224324e-01,   1.02071449e-01,  -7.17653707e-02,   1.72266573e-01,
      3.41866873e-02,   1.31625282e-02,  -3.07163417e-01,   2.22430050e-01,
     -1.55671984e-01,   4.33687344e-02,  -3.12153548e-02,  -2.10902065e-01,
      3.61376703e-02,  -2.00140536e-01,   1.00112423e-01,  -1.42210856e-01],
   [ -2.66145140e-01,   6.68497533e-02,   1.75825417e-01,  -1.69862643e-01,
      5.04750200e-02,   1.97324753e-01,  -1.01581000e-01,  -5.88913299e-02,
      2.77796447e-01,   6.61697984e-02,   1.79449573e-01,  -1.04013152e-01,
     -1.95942670e-02,   1.51335329e-01,   2.50790901e-02,   2.34064370e-01,
      7.46240541e-02,  -7.29389191e-02,  -1.01645023e-01,  -1.76546782e-01],
   [  1.85553551e-01,  -2.21673533e-01,  -1.08046815e-01,   2.66340771e-03,
     -2.08091274e-01,   2.79541481e-02,  -8.55649337e-02,  -1.73424497e-01,
      2.38173231e-02,  -1.13185078e-01,   1.63111195e-01,  -1.43138906e-02,
     -8.53788778e-02,  -1.45218432e-01,  -2.30332930e-02,   4.30517346e-02,
     -9.40798372e-02,   2.84739621e-02,  -1.96684450e-01,  -2.17583165e-01],
   [ -1.34933293e-02,  -4.59294319e-01,  -2.22946913e-03,  -6.57284930e-02,
     -2.10547507e-01,  -9.59376097e-02,  -1.51956618e-01,  -1.70285329e-01,
     -5.37574105e-02,  -1.71468824e-01,  -1.22856721e-01,  -5.57682961e-02,
     -2.70129949e-01,  -4.28730296e-03,  -1.49295360e-01,  -3.59482646e-01,
     -1.76995844e-02,   3.84875499e-02,  -1.16795097e-02,  -1.36146605e-01],
   [ -3.27879220e-01,  -2.10706800e-01,  -1.53239548e-01,  -1.41640693e-01,
      4.25979421e-02,   9.67871398e-02,  -2.72427257e-02,  -9.38541293e-02,
     -5.08760847e-02,   3.17117460e-02,  -1.29334077e-01,  -2.22625136e-02,
     -6.38128817e-02,   9.15139839e-02,   2.58753031e-01,  -1.65487616e-03,
     -1.84638917e-01,   4.37775776e-02,   8.54222998e-02,  -1.62695318e-01],
   [  6.37950227e-02,  -1.35956049e-01,   5.62715381e-02,  -1.24427967e-01,
      8.16470385e-02,   6.92169443e-02,   3.26818496e-01,  -8.26794878e-02,
     -1.16628021e-01,   9.01221111e-02,  -2.93411333e-02,  -1.07499905e-01,
     -2.64549434e-01,  -1.18439876e-01,  -7.31641129e-02,  -6.04467690e-02,
     -9.91019309e-02,  -1.40072823e-01,  -1.74988676e-02,  -2.02112645e-02],
   [  1.80482641e-02,  -1.84091404e-01,  -1.55875338e-02,   2.37997875e-01,
     -2.66553879e-01,   5.64190932e-02,   3.00545961e-01,  -4.46991585e-02,
     -2.13700626e-02,   4.34582867e-02,   4.08878662e-02,  -8.88460055e-02,
     -1.85705230e-01,  -1.62429392e-01,   8.21518078e-02,  -3.35996687e-01,
      8.95560160e-02,   7.18690008e-02,   8.01656097e-02,   1.28962412e-01],
   [  1.73529163e-01,   8.31549093e-02,  -2.08777636e-02,  -2.90976614e-02,
      9.11800265e-02,  -2.98161451e-02,   1.22284941e-01,   5.29961213e-02,
     -3.11897844e-02,  -3.90395033e-03,   2.29553357e-01,   6.07519560e-02,
     -3.07147712e-01,   7.26448148e-02,  -3.01009715e-01,  -1.97703451e-01,
     -6.99718297e-02,  -3.39294150e-02,   3.19741249e-01,  -2.06157371e-01],
   [  1.54315889e-01,   5.80404215e-02,  -5.09372205e-02,  -3.60014260e-01,
     -2.02864721e-01,   6.92835152e-02,   1.27171846e-02,   3.20041180e-02,
     -2.85479337e-01,   9.69053060e-02,  -1.09818883e-01,   2.45477576e-02,
      2.40317091e-01,  -3.04087289e-02,  -3.73077393e-01,   1.86677188e-01,
     -1.99352920e-01,  -1.13611780e-01,  -1.62726730e-01,   6.60458058e-02],
   [ -1.35611713e-01,   8.70165899e-02,  -9.15690809e-02,  -2.50290334e-01,
      1.38395756e-01,   5.64728864e-02,  -5.60958125e-02,  -4.42397641e-03,
     -3.02453339e-02,   1.25988141e-01,  -1.67221949e-01,   1.59247350e-02,
      8.43287185e-02,   5.58165796e-02,   4.01604697e-02,   6.88772649e-02,
      4.33869734e-02,  -1.26528934e-01,   2.54399586e-03,  -1.32932365e-01],
   [ -3.33477199e-01,  -1.32388309e-01,  -5.19387200e-02,   4.06557322e-02,
     -3.68871464e-04,  -1.25044003e-01,  -1.22627616e-01,  -9.84516665e-02,
     -2.31553726e-02,  -1.75506294e-01,   8.03417191e-02,  -1.49192736e-01,
      2.69685294e-02,   7.03849196e-02,  -7.15091974e-02,  -9.05730501e-02,
      1.00144587e-01,  -2.08419368e-01,   1.79245889e-01,  -9.46883559e-02],
   [ -6.14345670e-02,  -7.03880370e-01,  -9.71764624e-02,  -5.47360219e-02,
     -2.83959080e-02,  -1.33332133e-01,   1.58551022e-01,  -6.45201951e-02,
      2.14537889e-01,   2.52867401e-01,   8.47809538e-02,  -3.28393057e-02,
     -2.58421957e-01,  -1.69686675e-02,   1.08063065e-01,  -9.78045389e-02,
     -1.02043256e-01,  -1.73150852e-01,  -2.02996001e-01,  -1.38231397e-01],
   [ -2.33039126e-01,  -1.28907666e-01,  -2.35289112e-01,  -3.17310721e-01,
     -2.38817353e-02,  -3.42087112e-02,  -2.11839885e-01,  -9.33017358e-02,
      9.41774920e-02,  -7.20237717e-02,   1.45777082e-02,   1.36309147e-01,
     -3.76201309e-02,   3.30646266e-03,   1.18344374e-01,  -4.06197039e-03,
     -2.03414515e-01,  -8.21373239e-02,  -1.65824778e-02,  -2.08078604e-02],
   [ -1.05301559e-01,  -2.52974063e-01,   1.26493931e-01,   7.45461881e-02,
      2.10479125e-01,  -1.70661479e-01,   2.12885216e-01,  -1.25840187e-01,
      5.77046946e-02,   2.41282079e-02,  -1.22531755e-02,   1.79303020e-01,
      4.88208905e-02,  -1.14751142e-02,  -1.13692358e-01,   2.37018727e-02,
     -1.13116086e-01,   2.48648897e-02,   1.35690216e-02,  -1.38941377e-01],
   [  5.49539886e-02,  -1.06143214e-01,  -9.83285680e-02,  -1.92528203e-01,
     -1.30967736e-01,   1.29424348e-01,  -4.54561472e-01,  -1.87826023e-01,
     -4.67966571e-02,  -1.05890758e-01,   1.33535430e-01,  -7.92428758e-03,
      1.25024486e-02,  -4.28935066e-02,   1.87417984e-01,  -2.81345882e-02,
     -4.95645925e-02,   4.53431644e-02,  -1.57728955e-01,  -1.47677466e-01],
   [  1.78064212e-01,  -1.12468809e-01,   2.19864368e-01,  -4.93740775e-02,
     -2.00521797e-01,   3.68189737e-02,   1.93037987e-02,  -1.56059980e-01,
     -2.15769753e-01,  -4.86095734e-02,   1.17785279e-02,  -6.89130723e-02,
      1.01375222e-01,   1.89345386e-02,  -1.13842003e-01,  -1.26968712e-01,
      1.37404469e-03,  -6.59036264e-02,  -3.15331519e-01,   3.93743187e-01],
   [  2.02874802e-02,   4.83923882e-01,  -3.97478551e-01,   6.26362786e-02,
      1.83443308e-01,  -6.00894578e-02,   7.36169666e-02,  -7.68608078e-02,
     -3.49361837e-01,  -1.04646243e-01,  -2.15719759e-01,   2.21186858e-02,
     -1.38821781e-01,   5.77917919e-02,  -1.91157967e-01,   1.60623163e-01,
     -1.88668147e-01,   6.71200529e-02,   1.65159628e-01,  -2.94166833e-01],
   [ -1.58687025e-01,  -8.84335488e-02,  -1.05232261e-01,   1.89672187e-01,
      2.87392940e-02,  -2.84503996e-01,   4.05937955e-02,  -2.95260429e-01,
     -7.21916258e-02,   9.31471437e-02,  -3.03895120e-02,  -2.39518091e-01,
      1.44293398e-01,  -5.96180707e-02,  -5.79441547e-01,  -8.04694965e-02,
      1.46950454e-01,  -3.32908273e-01,   1.38260379e-01,  -1.12999916e-01],],

  [[ -2.46804178e-01,  -1.73252538e-01,   3.05326045e-01,   3.44904675e-03,
      4.07688096e-02,  -1.26965597e-01,   1.32633537e-01,  -1.63290352e-01,
     -1.68159287e-02,   1.75634786e-01,  -1.36686638e-01,  -1.53695971e-01,
     -1.06823854e-02,  -3.62544917e-02,  -6.03790283e-02,  -2.25051627e-01,
      1.43506601e-01,   2.50582337e-01,  -1.53363124e-01,   2.15400234e-01],
   [ -2.90862530e-01,  -1.85296550e-01,   1.27624879e-02,  -2.34563231e-01,
     -1.77559346e-01,   1.03995994e-01,   1.85625345e-01,  -4.58798893e-02,
     -9.60179418e-02,  -7.31164292e-02,   9.64658633e-02,  -6.81058884e-01,
     -1.41310304e-01,  -1.86813138e-02,  -3.11310031e-02,   2.32657846e-02,
      1.00724779e-01,  -1.30470514e-01,   3.42436135e-02,   3.25071245e-01],
   [ -7.09213465e-02,   3.48914564e-02,  -1.41680717e-01,   2.13731620e-02,
      9.52007696e-02,  -1.70723140e-01,   7.10394979e-02,  -3.53536084e-02,
     -7.93806240e-02,   7.35349953e-03,  -2.04116583e-01,  -1.22180350e-01,
      3.19929328e-03,  -1.66473761e-01,  -1.41521350e-01,   1.07147589e-01,
     -2.03856304e-01,   6.62423894e-02,  -1.56578850e-02,  -1.29187644e-01],
   [ -3.72086987e-02,   1.38314059e-02,  -2.13961065e-01,  -2.14717939e-01,
     -1.89768314e-01,  -1.12333149e-01,   8.85843560e-02,  -5.31678870e-02,
      1.15256712e-01,  -2.88543086e-02,  -8.63940343e-02,  -5.45132123e-02,
     -7.80901387e-02,   2.09403113e-01,   4.09298502e-02,   1.47819966e-01,
      7.59821758e-02,   1.09827161e-01,  -7.01446086e-02,   1.04611017e-01],
   [  1.58770550e-02,   1.30680799e-01,   1.50354668e-01,   4.63025793e-02,
      1.70458078e-01,   1.26821652e-01,  -3.53657790e-02,   6.95298761e-02,
      8.92040730e-02,  -7.72103667e-02,  -4.79420796e-02,  -1.68181416e-02,
      1.89929187e-01,   1.12469187e-02,  -8.77050161e-02,   7.27819353e-02,
     -1.52519256e-01,   1.62629604e-01,  -1.13771193e-01,  -6.91295834e-03],
   [ -3.93760484e-03,  -4.22705114e-02,  -1.53162703e-01,   7.58156851e-02,
     -4.30971354e-01,  -3.07802051e-01,  -2.02610642e-01,  -1.70445219e-01,
     -1.00510120e-01,   6.36626184e-02,  -1.09831437e-01,   3.00744772e-01,
      4.07310277e-02,  -3.44614610e-02,  -1.62337467e-01,   5.07425368e-02,
      3.53156514e-02,   6.14552014e-02,   1.01360552e-01,  -1.57998592e-01],
   [ -1.04839884e-01,   2.32337907e-01,  -2.65998989e-01,   2.32895352e-02,
      8.72828141e-02,  -4.77416143e-02,  -1.78644985e-01,  -3.89754176e-02,
     -2.51648039e-01,  -4.55923118e-02,   3.12153623e-02,   4.37963195e-02,
      9.80335325e-02,   4.92882505e-02,  -1.12885078e-02,  -1.24760903e-02,
      2.54261158e-02,  -6.41983598e-02,   2.31518298e-02,   1.49614245e-01],
   [  2.99357157e-02,  -2.61673510e-01,  -1.63596392e-01,   5.89532815e-02,
     -1.63034141e-01,  -5.33302486e-01,  -4.56091553e-01,  -1.47493988e-01,
     -1.69844523e-01,  -1.22425742e-02,  -8.63238871e-02,   2.96181500e-01,
     -1.23355895e-01,   3.04870367e-01,  -1.28936887e-01,  -3.21287394e-01,
      9.08068269e-02,   2.08403915e-01,  -3.49008858e-01,  -8.71178657e-02],
   [ -3.04676816e-02,  -1.20443530e-01,   9.86385718e-03,  -1.82877868e-01,
      9.25659109e-03,   1.13295436e-01,  -1.04779527e-01,  -1.46854222e-01,
     -2.37382561e-01,  -7.37318164e-03,  -1.25886783e-01,  -2.69893050e-01,
      1.32407114e-01,  -1.58766940e-01,  -2.78382957e-01,  -2.24726409e-01,
      8.72028396e-02,  -2.77155340e-01,  -8.45358893e-02,   7.88265392e-02],
   [ -8.55895728e-02,  -1.40216589e-01,  -1.11472756e-01,  -2.24768624e-01,
      5.51181585e-02,   5.91596626e-02,  -8.28748643e-02,  -5.75032473e-01,
     -1.20799504e-01,  -8.03577155e-02,  -3.77114154e-02,   1.19796537e-01,
     -1.10858954e-01,  -1.17709883e-01,  -4.87882048e-02,  -3.48580450e-01,
      5.51291406e-02,  -2.80755997e-01,  -1.59638096e-03,  -1.38606817e-01],
   [ -9.94319543e-02,  -1.60007954e-01,   1.81861043e-01,  -4.05574858e-01,
     -1.64159626e-01,  -2.61349261e-01,  -1.40763745e-01,  -3.55323553e-01,
     -3.84858102e-02,  -2.99112707e-01,   7.65960962e-02,   2.70597432e-02,
     -4.97211032e-02,  -1.65762588e-01,   2.89906889e-01,  -1.54238150e-01,
      3.23347817e-03,   6.56390712e-02,  -7.51257911e-02,  -4.27600406e-02],
   [ -6.68428242e-02,   8.65717381e-02,  -6.69092834e-02,  -1.80233151e-01,
      1.50199840e-02,  -1.78356275e-01,   1.03950314e-01,  -2.40304872e-01,
     -4.71649840e-02,  -2.87648682e-02,   1.42632827e-01,  -5.08184619e-02,
     -1.07558914e-01,  -1.35462806e-01,  -3.80595505e-01,  -4.64320630e-02,
     -7.55997896e-02,  -7.35966444e-01,   3.09740543e-01,   2.33101904e-01],
   [  1.43556863e-01,   3.04182456e-03,  -3.86697501e-02,  -1.96567103e-01,
     -1.24177523e-01,  -2.60542125e-01,   1.92969352e-01,  -8.07603225e-02,
     -2.69456941e-04,   1.02468908e-01,  -3.92447114e-02,  -1.12970062e-01,
     -1.38669804e-01,  -2.06584856e-02,  -7.08420724e-02,   2.01125339e-01,
      7.78126065e-03,  -2.10165128e-01,  -6.38385024e-03,   3.06938529e-01],
   [  3.98457497e-02,  -3.26834209e-02,   1.08102188e-01,   5.16313612e-01,
     -6.98975623e-02,   2.11412743e-01,  -1.71543047e-01,   2.31062286e-02,
      1.32221077e-02,  -3.97388756e-01,  -9.29092914e-02,  -1.20977648e-01,
      1.57417245e-02,  -5.62229566e-02,   8.26870278e-02,   1.26873612e-01,
     -1.86086521e-02,  -5.30853085e-02,  -1.20739318e-01,   2.84753442e-02],
   [  1.29363239e-01,  -9.96003076e-02,  -6.38189763e-02,   9.64368731e-02,
     -4.04145345e-02,  -3.48645627e-01,   3.66460115e-01,  -1.34378552e-01,
      2.32658032e-02,   9.00374427e-02,  -2.63235588e-02,   2.19462723e-01,
      6.78642467e-03,  -1.02085315e-01,   1.44660575e-02,   1.95839014e-02,
      3.90030295e-02,  -3.05782676e-01,  -2.52510421e-02,   7.53198052e-03],
   [  5.58823310e-02,   5.64152859e-02,   1.22775823e-01,  -8.55337754e-02,
      1.19945228e-01,  -1.41314641e-01,   1.32348165e-01,  -1.73523530e-01,
      2.91545726e-02,  -1.13536999e-01,  -8.74050856e-02,   8.83033872e-02,
     -9.21059176e-02,  -3.58987711e-02,  -2.93694288e-01,  -1.55212358e-01,
     -7.15934709e-02,  -2.48351485e-01,  -2.07597077e-01,  -2.31035650e-01],
   [ -1.00441873e-02,  -7.97974616e-02,  -1.62586406e-01,   6.83810115e-02,
      7.02459291e-02,  -9.89761278e-02,  -1.39663354e-01,  -7.31582474e-03,
     -1.74956173e-02,   3.20613291e-03,   1.38807539e-02,   4.78413329e-02,
      5.38116954e-02,  -1.07118420e-01,  -2.73555890e-02,   1.43173978e-01,
     -7.14895353e-02,   8.73938143e-01,  -8.86809900e-02,   3.53855789e-02],
   [ -8.38659797e-03,  -1.68692842e-01,  -5.02842888e-02,  -1.85924947e-01,
      1.04568116e-01,  -1.12205282e-01,  -1.57368287e-01,  -1.53124593e-02,
      1.06467687e-01,  -2.73304246e-02,  -1.78840280e-01,  -4.04794514e-02,
     -2.58278877e-01,   1.75326183e-01,  -6.28764778e-02,   6.51665479e-02,
     -1.93490043e-01,   1.46416903e-01,  -1.30315617e-01,   1.54629856e-01],
   [ -2.14975089e-01,  -1.44312993e-01,  -7.97722139e-04,   4.78452742e-02,
     -9.04310495e-02,  -3.10945451e-01,  -9.23176184e-02,   1.49673551e-01,
      3.33546964e-03,   6.84053749e-02,   1.16357461e-01,   2.20239442e-02,
      9.75869298e-02,   4.24803384e-02,  -3.87794934e-02,  -6.35759905e-03,
     -6.07228838e-02,  -3.81885290e-01,  -9.59569588e-03,  -1.42602712e-01],
   [ -1.36252612e-01,  -2.28501752e-01,   3.36062014e-02,  -2.05036104e-01,
      1.26601994e-01,  -6.33342266e-02,  -3.46004888e-02,   9.81383324e-02,
      2.56134141e-02,   9.11158472e-02,  -1.64405346e-01,  -1.27737179e-01,
     -1.47683278e-01,  -2.63215303e-02,  -1.03929795e-01,   6.25680983e-02,
     -2.26353593e-02,  -1.49231821e-01,  -3.22813094e-02,  -7.84795508e-02],
   [  1.89683884e-02,   2.21421033e-01,   2.01294675e-01,  -4.12691146e-01,
     -1.48581788e-01,  -1.83957845e-01,  -2.97529325e-02,  -1.72332153e-01,
      1.73351854e-01,   3.41668678e-03,   8.95623192e-02,  -1.25416880e-02,
     -3.24275047e-01,   1.00506492e-01,  -1.33073470e-02,   3.37219387e-01,
      2.08434407e-02,   1.99922159e-01,  -6.15757629e-02,   6.35429472e-02],
   [  1.40177384e-01,   1.02816530e-01,  -5.21653928e-02,  -1.58704311e-01,
      1.67595986e-02,  -2.33810201e-01,   2.69286577e-02,  -4.02772129e-02,
      2.55846847e-02,   9.83334929e-02,  -1.56078935e-01,   3.93634178e-02,
     -1.99261621e-01,  -6.38964474e-02,  -1.31175220e-01,   6.08633518e-01,
     -1.47405481e-02,   7.85067603e-02,  -1.86372370e-01,   8.79418328e-02],
   [ -1.28030935e-02,   1.12309828e-01,  -6.06370205e-03,  -1.57177940e-01,
      3.01063567e-01,   3.43320340e-01,   2.50567108e-01,  -9.17260349e-02,
      1.69947203e-02,   9.93093550e-02,   4.13486898e-01,  -1.36117488e-01,
     -1.37369618e-01,  -2.91685648e-02,  -9.67514664e-02,   6.96595982e-02,
      2.10822485e-02,   8.20331275e-02,   3.61586027e-02,   7.88891688e-02],
   [  8.12733620e-02,  -3.30876112e-02,   4.80041467e-02,  -1.28996044e-01,
     -1.34100601e-01,   9.93347466e-02,  -1.79069296e-01,   5.07390015e-02,
      5.94756100e-04,   1.46426946e-01,  -2.14183465e-01,  -2.42574170e-01,
     -1.20005213e-01,  -4.98476662e-02,  -1.01644993e-01,   5.07291127e-03,
     -8.57704058e-02,   1.41979021e-04,   8.88677500e-03,   1.02549478e-01],
   [ -4.87313904e-02,  -4.22963267e-03,   2.97187213e-02,  -1.52152805e-02,
     -3.72658297e-02,   3.47551554e-01,  -1.29820138e-01,  -1.57921836e-02,
      9.56740230e-02,  -5.53312004e-02,   2.07215980e-01,  -3.11168730e-01,
      1.52500555e-01,  -1.54173180e-01,   1.26036495e-01,   4.38405126e-02,
      5.07707633e-02,  -2.24499121e-01,   7.50963017e-02,   2.91648686e-01],
   [  9.88814682e-02,  -3.43246847e-01,  -3.32619390e-03,  -1.66235000e-01,
      1.10775493e-01,   1.10563330e-01,   4.97002900e-02,   5.18736243e-02,
     -2.18632802e-01,   1.81481376e-01,  -2.98364162e-02,  -4.27247435e-02,
     -6.99946880e-02,  -1.10861789e-02,   8.74652714e-02,   2.51186593e-03,
      9.08602029e-02,  -1.81853287e-02,  -3.14891636e-01,   2.48888172e-02],
   [  2.19928622e-02,  -1.78071499e-01,  -1.45708948e-01,  -1.31701902e-01,
      1.25577658e-01,   1.20190182e-03,  -1.13301780e-02,   8.50944072e-02,
     -1.26429006e-01,   6.16308488e-02,   2.75180228e-02,  -3.01407903e-01,
     -1.21268027e-01,  -1.98665746e-02,   4.71380912e-03,  -1.50729358e-01,
      5.00760153e-02,  -2.78323591e-01,  -2.83292472e-01,   1.14588544e-01],
   [ -7.80520067e-02,  -3.68892789e-01,  -1.42778143e-01,  -5.75900860e-02,
     -5.58714904e-02,  -1.57621708e-02,   5.83365113e-02,   2.23206311e-01,
     -2.66742706e-02,   6.91043586e-02,   1.58747688e-01,   1.08178174e-02,
      1.16570458e-01,  -1.08466864e-01,   2.05891564e-01,   8.60618427e-02,
     -2.92565450e-02,  -1.79405615e-01,   2.48010650e-01,   1.82729766e-01],
   [ -1.06903620e-01,   6.04693256e-02,  -2.25356638e-01,   1.26089811e-01,
     -1.41002715e-01,  -5.53037450e-02,  -1.49992004e-01,  -1.96916923e-01,
     -1.51348766e-02,  -1.12251773e-01,  -2.33498871e-01,   9.54538807e-02,
     -1.19254090e-01,  -6.41997978e-02,  -5.43804877e-02,   2.13080123e-02,
     -1.18098766e-01,  -3.09858561e-01,   7.93956518e-02,  -1.45403892e-01],
   [  1.07371077e-01,   6.53305501e-02,  -1.12735061e-02,   1.24339208e-01,
     -2.68280834e-01,  -2.30131581e-01,  -6.60927817e-02,  -1.58898041e-01,
      1.32589296e-01,  -9.37982202e-02,  -3.39681625e-01,  -4.19026949e-02,
     -4.96945493e-02,   8.38858262e-02,  -6.09942116e-02,   2.18871236e-02,
     -1.72855973e-01,  -5.74282333e-02,   2.93160453e-02,   5.56944124e-02],
   [  9.55981687e-02,  -2.23193243e-01,  -5.14739513e-01,  -1.34210079e-03,
      2.00740010e-01,  -1.42010897e-01,   1.21028736e-01,   1.41346276e-01,
     -3.19271713e-01,  -2.16874331e-02,  -2.13223726e-01,   1.64816335e-01,
     -9.55768675e-02,   1.86310396e-01,  -1.00846425e-01,   1.70452371e-02,
     -2.45830521e-01,  -2.15600487e-02,  -1.90193623e-01,  -2.56053686e-01],
   [ -1.96262300e-01,   5.99811785e-02,  -1.66454688e-01,   1.21615827e-01,
      1.12953559e-01,  -3.92243266e-01,  -3.57892215e-02,  -1.35015041e-01,
     -1.72223195e-01,   4.98572215e-02,   8.63045454e-02,  -2.08164886e-01,
      1.86640583e-02,   4.68363948e-02,   3.12222596e-02,  -1.08265765e-01,
      1.41635522e-01,  -1.63247630e-01,  -6.10687494e-01,  -5.30605651e-02],],

  [[ -3.43873985e-02,   1.79715872e-01,   4.15382743e-01,  -1.98135208e-02,
      9.54138935e-02,   3.12066317e-01,  -2.57420152e-01,   1.53862834e-01,
      5.97681999e-01,  -2.78087020e-01,   9.32225287e-02,   7.49723464e-02,
      8.27928856e-02,   3.21304381e-01,  -8.98237079e-02,   1.28753439e-01,
     -2.73548868e-02,   9.45698246e-02,  -1.83808744e-01,   3.10191326e-03],
   [ -2.11443469e-01,   2.27347419e-01,  -4.30931561e-02,   1.06544159e-01,
      6.12077564e-02,  -1.13177218e-01,  -1.78384259e-01,   3.51258337e-01,
     -1.71928674e-01,  -3.40847492e-01,  -1.44830137e-03,   2.75981992e-01,
     -2.41787583e-01,  -3.64937410e-02,   2.35553697e-01,  -3.38049047e-02,
      1.55800998e-01,  -2.78731406e-01,   1.91617887e-02,  -7.34877139e-02],
   [ -7.46586248e-02,   3.32322121e-02,  -1.81798354e-01,  -1.04169957e-01,
     -1.66379973e-01,  -3.67357671e-01,  -3.99197005e-02,   2.12889448e-01,
      1.10286186e-02,   1.15882851e-01,  -2.99103528e-01,   3.94548383e-03,
     -6.15256839e-02,  -3.96641016e-01,  -1.37609899e-01,   8.49357247e-02,
      3.99748087e-02,  -3.87827754e-01,   3.63331556e-01,  -2.20915824e-01],
   [  1.56455729e-02,  -1.48506984e-01,  -1.49550840e-01,  -1.16544798e-01,
     -1.05248772e-01,   1.05438434e-01,  -1.12266883e-01,  -7.93501809e-02,
      2.54428815e-02,  -2.32517883e-01,   1.49044871e-01,  -1.29729152e-01,
     -4.85160761e-02,  -2.31115744e-01,   6.06892444e-02,   1.57167688e-02,
     -1.75473586e-01,   4.52287272e-02,   1.14821725e-01,   4.09881324e-02],
   [ -1.54640183e-01,  -3.53946909e-02,   3.42512354e-02,  -5.51573336e-02,
     -4.47656997e-02,   1.27026781e-01,   3.63586158e-01,   2.11017340e-01,
      2.36146096e-02,   1.08861357e-01,   3.02078009e-01,   7.18948171e-02,
      1.29522994e-01,   8.89239088e-02,  -2.46513456e-01,   1.38751000e-01,
      7.76699046e-03,   2.16650784e-01,   2.41523474e-01,   1.28784180e-01],
   [ -2.11800516e-01,  -5.15846498e-02,  -4.49731201e-03,  -1.61327366e-02,
     -2.84492999e-01,  -6.44766018e-02,  -3.22009623e-01,   1.00150019e-01,
     -7.07658231e-02,   8.09853449e-02,  -9.36832279e-02,  -9.90544409e-02,
     -4.84595560e-02,   3.90941910e-02,  -1.35855556e-01,  -5.14892153e-02,
      9.75003559e-03,  -3.34899992e-01,  -9.23257619e-02,   5.77787310e-02],
   [ -5.96875958e-02,  -2.21610023e-03,  -2.40670800e-01,  -4.23972756e-01,
     -7.21576884e-02,   2.97081351e-01,  -2.39270121e-01,  -1.74501643e-01,
     -1.07735373e-01,  -1.67075634e-01,   4.61867712e-02,  -1.40487418e-01,
     -2.42333580e-03,  -1.06871892e-02,   1.40052335e-02,   7.26707629e-04,
     -1.20834373e-01,   4.99741845e-02,   6.40463606e-02,  -2.13250160e-01],
   [ -1.41181633e-01,  -2.11843938e-01,  -1.18964501e-01,  -2.46913373e-01,
     -1.05936810e-01,   1.49528459e-01,  -4.44405168e-01,   1.98695302e-01,
     -1.53599501e-01,  -1.29224181e-01,  -1.40929714e-01,  -2.44603187e-01,
     -3.21988598e-03,   1.23505823e-01,   1.75361544e-01,  -2.05620348e-01,
      1.73141249e-02,  -1.45401433e-01,  -1.99523345e-01,  -2.72148728e-01],
   [  7.90168270e-02,   6.65278286e-02,  -1.50894597e-01,  -6.27867281e-02,
      9.44613591e-02,  -1.97002351e-01,   2.64739633e-01,  -3.77680689e-01,
     -9.56285000e-02,  -2.85029113e-02,  -1.35586128e-01,  -9.71880034e-02,
     -1.16342120e-02,  -3.71512681e-01,  -1.85619935e-01,  -1.00914564e-03,
     -6.17920682e-02,  -2.23334119e-01,  -7.17403814e-02,  -1.54862046e-01],
   [ -1.83496043e-01,  -1.02061152e-01,  -1.98150098e-01,   1.94652259e-01,
      6.95419535e-02,   7.14165941e-02,  -1.33705035e-01,  -5.88267207e-01,
     -2.55321562e-01,  -7.20322430e-02,   1.67708769e-01,   1.75544962e-01,
     -7.01640472e-02,  -3.19577128e-01,   3.03923357e-02,  -9.89607424e-02,
      3.92278507e-02,   1.68752924e-01,   5.89793082e-03,  -1.46826342e-01],
   [  1.05849721e-01,  -3.71876389e-01,   5.08157946e-02,  -1.13869026e-01,
     -7.60869086e-02,   5.54007292e-02,   1.64493293e-01,  -3.38216692e-01,
     -1.01428367e-01,  -6.04964606e-02,   1.45623073e-01,   8.79516006e-02,
      6.74188212e-02,  -1.59725755e-01,  -6.15015738e-02,  -1.30796492e-01,
     -1.40521690e-01,   1.01462893e-01,   3.70885916e-02,   1.01575300e-01],
   [ -6.48573413e-02,  -2.16815770e-01,  -1.12111010e-01,   9.56009105e-02,
      9.38427355e-03,  -3.55497688e-01,  -3.02800596e-01,   1.56559527e-01,
     -1.18854837e-02,   8.69721472e-02,  -2.48359859e-01,  -3.34678451e-03,
     -9.11125094e-02,   5.37435412e-02,   1.15049995e-01,   9.68715921e-02,
     -1.43318847e-01,  -5.94068587e-01,  -1.06144333e-02,   1.87168449e-01],
   [  7.95077905e-02,   8.44343454e-02,   6.73684105e-02,  -3.07834476e-01,
      1.00232713e-01,  -2.17312854e-02,  -6.34759106e-03,  -1.63392513e-03,
     -2.07841426e-01,  -1.31681832e-02,  -4.55843993e-02,  -1.05505675e-01,
      4.11931463e-02,   8.55737701e-02,   1.06314793e-01,   6.45011887e-02,
     -5.79915643e-02,  -1.90538704e-01,   1.47197649e-01,  -8.57577026e-02],
   [ -1.36412233e-01,  -1.00433789e-01,   1.15484195e-02,  -2.22276539e-01,
     -7.13645071e-02,   5.34978248e-02,  -1.08624853e-01,   1.36883585e-02,
     -1.66992262e-01,   1.90491319e-01,   4.05097269e-02,  -1.61738917e-02,
     -3.07994019e-02,  -7.25438967e-02,  -6.16382062e-02,  -6.09753616e-02,
     -1.35838196e-01,   6.18236773e-02,   3.15731950e-02,  -6.18201233e-02],
   [ -4.14694220e-01,   1.05483815e-01,   8.39116424e-02,   2.45715231e-02,
     -3.13121155e-02,   8.31002593e-02,  -7.25927949e-02,  -3.57060283e-02,
     -1.08062029e-01,  -5.02658971e-02,  -2.13897929e-01,   1.18168734e-01,
      5.81462383e-02,  -1.84100755e-02,  -7.14417696e-02,  -9.19548795e-02,
      2.34225448e-02,  -3.22608650e-01,   3.35817933e-02,   8.96065608e-02],
   [  4.51480560e-02,   2.46246800e-01,   2.71500736e-01,  -2.59260952e-01,
     -2.68423915e-01,   1.19020574e-01,   7.15403408e-02,   5.38802855e-02,
      2.53121555e-01,  -2.10187599e-01,  -5.21674231e-02,   5.22471145e-02,
      4.52747978e-02,   9.02259275e-02,  -1.43069893e-01,  -2.11328730e-01,
      3.86782503e-03,   3.43104564e-02,  -1.51656434e-01,  -1.57715574e-01],
   [  3.42157669e-04,   7.01671690e-02,  -1.85488701e-01,  -5.36858588e-02,
     -1.01770684e-01,   1.14089414e-01,  -8.07558447e-02,   5.91405556e-02,
      2.16741413e-02,   7.36694187e-02,   9.29790363e-02,  -7.34978914e-02,
      1.49828359e-01,  -1.67301476e-01,  -3.17641869e-02,  -1.17287561e-01,
      1.88894868e-02,   5.75211905e-02,   2.94945743e-02,  -2.35557035e-01],
   [ -1.67522132e-01,  -2.44714275e-01,   4.45307381e-02,  -2.47845724e-01,
     -9.72386748e-02,   3.54979420e-03,  -2.39363298e-01,   1.09186411e-01,
      1.65071994e-01,  -5.24168573e-02,  -4.68830131e-02,  -2.06370980e-01,
     -2.23773882e-01,  -1.95045561e-01,  -8.03382397e-02,   7.77591467e-02,
     -2.89522380e-01,   1.72673538e-02,   6.45871535e-02,  -1.07411586e-01],
   [  9.09179598e-02,  -1.21164724e-01,  -2.61498064e-01,   1.19005486e-01,
      1.27408594e-01,  -4.24114168e-02,  -4.25272696e-02,  -2.11991966e-01,
     -1.14687413e-01,  -6.53128773e-02,  -3.34857330e-02,  -1.90092809e-02,
      9.61215347e-02,  -3.01049739e-01,  -7.56111071e-02,  -1.32914884e-02,
     -2.69168001e-02,  -3.90258759e-01,  -1.26794487e-01,   4.53547388e-02],
   [  2.82785356e-01,  -6.07092418e-02,   9.56440642e-02,  -1.40934154e-01,
      3.16148438e-02,   2.57122636e-01,   1.01237804e-01,   5.08041941e-02,
     -2.24039048e-01,  -1.64024457e-01,  -2.58632321e-02,  -1.78916991e-01,
      1.52322784e-01,  -2.71851346e-02,  -1.38221934e-01,  -8.54604766e-02,
     -1.46970764e-01,  -2.97021240e-01,  -7.84617197e-03,  -3.93361412e-02],
   [  8.59345272e-02,   7.08513483e-02,  -1.75235614e-01,  -3.14745635e-01,
      1.99092075e-01,  -2.98339546e-01,   2.42202029e-01,  -5.88961318e-02,
     -1.74998984e-01,  -3.79259706e-01,  -1.37455434e-01,  -1.22863777e-01,
     -2.13585392e-01,   4.04498637e-01,   4.00827825e-01,  -6.87801987e-02,
      7.74239898e-02,   3.24970111e-02,   4.49368963e-03,  -1.38768062e-01],
   [  2.77326889e-02,  -1.49031341e-01,  -1.04441956e-01,  -2.01386631e-01,
      2.29502812e-01,   1.53686017e-01,   1.62370369e-01,  -8.71482566e-02,
      3.12233176e-02,   8.65266100e-02,   1.32250264e-01,   1.53138533e-01,
     -1.00128196e-01,  -2.43774485e-02,  -5.02996266e-01,  -2.51035243e-02,
     -1.03289317e-02,   2.36937612e-01,   3.45418960e-01,  -3.04081738e-01],
   [  3.05283652e-03,  -2.28480250e-02,  -2.73590609e-02,   3.98906469e-02,
     -2.28643641e-01,  -1.22867398e-01,   9.38066542e-02,  -7.48208389e-02,
      3.97545844e-02,  -1.89008713e-02,  -5.95252961e-02,   8.62364471e-02,
      9.20819864e-03,  -7.47203976e-02,  -8.08967873e-02,   8.20140541e-02,
     -5.62911816e-02,  -1.74396232e-01,  -1.05673447e-02,  -3.84218954e-02],
   [  1.30640529e-02,   1.51022494e-01,  -1.62059724e-01,   8.93172771e-02,
      1.81435540e-01,   2.18300059e-01,   1.92119867e-01,  -4.19002585e-02,
      4.87455726e-03,  -1.11550145e-01,   1.26977116e-01,   1.54705755e-02,
     -1.70985892e-01,  -2.08061486e-01,  -6.58452660e-02,  -4.03703451e-02,
      8.17413069e-03,  -2.59005755e-01,  -3.14207934e-02,  -1.42615467e-01],
   [ -1.12052828e-01,   1.46745652e-01,  -9.44337398e-02,  -2.76287168e-01,
     -2.57258058e-01,   9.06417593e-02,  -2.05267891e-01,   3.91338393e-02,
     -6.10500760e-02,  -1.25443056e-01,   2.69231528e-01,  -5.42494990e-02,
      8.21443796e-02,   4.19499464e-02,   1.59989297e-01,  -1.97347894e-01,
     -1.52910814e-01,  -1.51465416e-01,   1.04941234e-01,  -5.07102488e-03],
   [ -1.93340689e-01,  -2.64864951e-01,  -1.19094260e-01,   7.57060573e-02,
     -8.86010379e-03,  -1.16967171e-01,   1.57547623e-01,   5.15138693e-02,
      3.74385677e-02,  -6.97983801e-02,   1.10493273e-01,   2.03289259e-02,
     -8.68787095e-02,   7.32733905e-02,  -4.43720132e-01,   7.52109885e-02,
     -7.50227049e-02,  -9.69278887e-02,  -6.16152622e-02,  -1.43572986e-02],
   [ -2.23336369e-01,  -3.81249301e-02,  -2.34350145e-01,  -3.48793894e-01,
      2.44934142e-01,  -2.80752361e-01,  -6.92092162e-03,   1.25430867e-01,
     -3.24782401e-01,   4.74279746e-02,   1.69838771e-01,  -2.42399663e-01,
      8.75878036e-02,  -8.62026811e-02,  -1.58966318e-01,  -1.01707533e-01,
      1.18713439e-01,  -4.13212717e-01,   1.44881755e-01,  -1.82675630e-01],
   [  2.15451159e-02,  -1.87035248e-01,   7.68466964e-02,   5.43929935e-02,
     -8.75613280e-03,  -2.45106831e-01,   2.34175161e-01,  -1.34825051e-01,
      1.98309077e-04,   1.23365745e-01,  -6.88017085e-02,   1.58520639e-01,
     -9.96683314e-02,  -1.00235850e-01,   3.60448539e-01,  -8.16128626e-02,
     -2.08797589e-01,   2.63612643e-02,   1.57041494e-02,  -1.01538926e-01],
   [ -3.24259978e-03,   7.85393044e-02,  -1.64107516e-01,   1.58988684e-01,
     -6.95137680e-02,   5.33171892e-02,  -2.26065204e-01,  -9.07489099e-03,
     -6.17473051e-02,   1.29706740e-01,  -2.03165725e-01,  -1.00556225e-01,
      1.04972333e-01,  -1.43571019e-01,  -3.70324664e-02,   1.35977119e-01,
     -3.46247852e-01,   1.91893101e-01,   8.71144682e-02,  -3.06930467e-02],
   [  2.06572264e-01,  -1.77643877e-02,  -1.04194023e-01,   5.98926805e-02,
     -2.59595305e-01,   1.85124338e-01,  -3.18989873e-01,  -3.35468240e-02,
      2.39781454e-01,   3.92631302e-03,  -2.69759357e-01,  -2.72951275e-03,
     -5.86202145e-02,  -1.20246388e-01,  -9.96510535e-02,  -1.95598096e-01,
     -1.33821785e-01,   1.03703357e-01,  -2.94917136e-01,  -7.64621794e-02],
   [  6.80909902e-02,  -1.04030751e-01,  -2.47796834e-01,  -1.79232985e-01,
      2.77790248e-01,   9.97867882e-02,  -4.76862490e-03,  -1.50726601e-01,
     -2.22538561e-01,  -1.87098384e-01,  -1.40682414e-01,  -1.28267139e-01,
      7.37475008e-02,  -1.09662496e-01,   3.39395413e-03,   5.20644002e-02,
     -1.07453950e-01,  -6.29091263e-02,  -8.74939337e-02,  -1.82793647e-01],
   [ -7.97752291e-02,   6.20662123e-02,  -2.21001357e-01,  -1.38234288e-01,
      2.98842266e-02,  -5.72068505e-02,   1.65513486e-01,   6.63376302e-02,
      1.00989431e-01,   1.29265100e-01,   1.27047449e-01,   4.40008231e-02,
      9.78493504e-03,  -1.42449751e-01,   3.39518011e-01,   2.64345765e-01,
     -2.55297981e-02,  -3.47295702e-02,   1.47251830e-01,  -2.41320208e-01],],],


 [[[  2.81583250e-01,   2.00860444e-02,  -1.30544156e-01,  -1.19445287e-01,
     -2.28489667e-01,   1.40511051e-01,  -1.19453847e-01,  -9.41011831e-02,
     -3.79815906e-01,  -2.39190273e-02,  -1.51356176e-01,  -7.82903582e-02,
      1.54361269e-02,  -1.66275389e-02,   4.45791893e-02,  -3.75628248e-02,
      1.52625337e-01,  -2.49050722e-01,  -2.13185661e-02,   1.80000946e-01],
   [ -2.15507112e-02,   8.86468887e-02,  -4.98034991e-03,  -7.92151168e-02,
     -7.79138459e-03,  -6.07274845e-02,  -1.62658349e-01,   2.57301122e-01,
     -5.88089041e-02,   8.90224129e-02,  -1.73356056e-01,  -2.68192273e-02,
     -1.48681536e-01,   1.03887416e-01,   9.61779654e-02,   1.45272732e-01,
     -1.62130311e-01,  -1.36214241e-01,  -2.44981363e-01,  -2.88141638e-01],
   [ -3.47196966e-01,   1.52178362e-01,  -2.46735692e-01,   2.85607371e-02,
     -1.60712481e-01,   1.39573023e-01,  -2.07419116e-02,   6.27290681e-02,
     -1.31275088e-01,  -4.55791131e-02,   3.33825350e-02,  -1.90500855e-01,
     -7.11873025e-02,  -1.79048087e-02,   9.98051092e-02,   1.48629144e-01,
      1.97609529e-01,  -1.82140425e-01,   6.43016249e-02,   2.97066253e-02],
   [ -2.78399795e-01,  -2.05248594e-01,   1.57280803e-01,   1.00599118e-01,
      7.37123638e-02,   7.52284527e-02,  -7.67201036e-02,   5.05694039e-02,
     -2.64856629e-02,   6.82638958e-02,  -4.09027636e-02,   2.00728923e-02,
      1.16742095e-02,   5.49293905e-02,   2.30544001e-01,  -4.59222542e-03,
      1.05713010e-01,  -4.58649099e-02,   9.58122686e-02,   3.70512754e-02],
   [  1.28232449e-01,  -1.32992892e-02,   1.05699204e-01,   1.36233568e-01,
      1.41699510e-02,   1.35848314e-01,  -3.04969866e-02,   2.36664474e-01,
      2.03498498e-01,   9.03411880e-02,   2.05731168e-01,   1.34445325e-01,
     -2.70590633e-02,   2.74226349e-02,  -1.44967094e-01,   8.89966264e-04,
      2.55236506e-01,   2.17142910e-01,  -6.04814887e-02,  -1.33139253e-01],
   [  2.72639338e-02,   1.30131636e-02,  -8.03578198e-02,  -1.14370100e-01,
      3.92715037e-02,   1.23191565e-01,  -2.65065674e-02,  -1.87234078e-02,
     -7.14282244e-02,  -2.25191906e-01,  -2.78726183e-02,  -2.26772949e-01,
      4.95725535e-02,   6.00503664e-03,  -1.77356079e-01,  -3.26209366e-01,
     -1.99475186e-03,  -2.42657363e-01,   1.70277461e-01,  -5.08469269e-02],
   [ -2.39265233e-01,   1.08107068e-01,  -2.58475184e-01,   6.56806976e-02,
     -1.12037338e-01,   5.89192808e-02,  -5.25897481e-02,   5.50945625e-02,
      6.15320541e-02,  -1.43808141e-01,  -5.20914011e-02,  -8.49007219e-02,
      9.09614787e-02,  -1.57729521e-01,  -7.65128583e-02,   1.81887567e-01,
     -3.29998881e-01,   9.06291455e-02,   1.52000040e-01,  -8.19174349e-02],
   [  2.59034969e-02,   2.07141623e-01,  -1.49443671e-01,   7.65234455e-02,
     -1.35679737e-01,   7.19672954e-03,  -3.17930460e-01,   1.36620969e-01,
     -3.06469887e-01,  -2.79201031e-01,   5.19664437e-02,   7.59512931e-02,
     -3.64411056e-01,  -2.46356472e-01,   1.54239148e-01,  -1.78567439e-01,
     -1.38581872e-01,  -1.48231140e-03,   5.13620824e-02,   4.26275991e-02],
   [ -4.14638460e-01,   3.43384109e-02,   5.45823038e-01,   3.42942439e-02,
      1.50668016e-02,  -4.34321724e-02,  -1.31172091e-01,  -5.92892349e-01,
      9.08526182e-02,  -1.00678012e-01,   1.00038029e-01,  -2.79824078e-01,
      1.64999422e-02,  -1.20268669e-03,  -1.03175834e-01,  -7.74382725e-02,
     -5.67497760e-02,   5.69951460e-02,  -1.61993980e-01,  -1.32347092e-01],
   [ -1.10288501e-01,   1.42689243e-01,   6.77163452e-02,   2.79716164e-01,
      1.13374004e-02,   7.25144446e-02,   9.43476800e-03,   5.75861968e-02,
      2.76402682e-02,  -2.50500105e-02,  -5.92577457e-02,  -6.52480200e-02,
     -1.42379478e-01,   2.95488030e-01,  -6.34070635e-02,  -1.35499403e-01,
     -3.06339860e-02,   6.50297925e-02,  -2.10856907e-02,  -3.35547835e-01],
   [ -3.49772535e-03,   1.34323463e-01,   1.53933153e-01,   1.14390671e-01,
      9.47627947e-02,  -1.95315465e-01,  -7.85808787e-02,  -1.40673250e-01,
     -1.95904791e-01,   1.29106387e-01,   4.10843641e-02,  -6.12085164e-02,
     -2.34849229e-01,   2.51446009e-01,   2.21738473e-01,   1.66719079e-01,
     -1.24495722e-01,  -1.64709806e-01,  -5.71893528e-02,   2.19592184e-01],
   [  9.24758706e-03,   2.38236681e-01,   2.40279036e-03,   7.55851865e-02,
     -3.28652292e-01,  -1.67062670e-01,  -1.36922166e-01,  -1.39011741e-01,
     -1.83517620e-01,   2.34086469e-01,  -7.63838738e-03,   1.28110871e-01,
     -1.30954236e-01,   3.53040576e-01,  -3.15574594e-02,   5.38068824e-02,
      1.02990240e-01,  -1.59641519e-01,  -1.71638772e-01,   3.38913612e-02],
   [ -1.50378704e-01,  -1.38955796e-02,  -2.02619016e-01,   7.24733621e-02,
      1.20056726e-01,  -6.34355918e-02,   1.27558649e-01,  -8.58010910e-03,
      1.21257156e-01,  -2.71765471e-01,  -1.80085197e-01,  -2.70894051e-01,
     -1.60025999e-01,   1.00873351e-01,  -5.79844415e-02,  -2.52503604e-01,
     -3.32616389e-01,   7.20670372e-02,  -1.35459080e-01,   1.54993489e-01],
   [  6.19134307e-02,   5.04843444e-02,  -1.05960101e-01,   2.67231893e-02,
     -1.26048669e-01,   1.72132980e-02,   2.06928328e-02,  -9.87431481e-02,
     -1.64788797e-01,  -4.02205735e-01,  -1.10466488e-01,  -3.19587857e-01,
      5.26379421e-02,   1.23672746e-01,   1.13790669e-02,   6.68464825e-02,
     -1.36773020e-01,   3.91426263e-03,  -1.48962259e-01,   8.13056529e-02],
   [ -2.47831643e-02,  -2.14350030e-01,  -8.47295672e-02,  -4.89216968e-02,
      8.73891339e-02,  -3.05010170e-01,  -2.85305023e-01,   1.80971473e-02,
      1.68463945e-01,   1.20758757e-01,  -1.11914836e-01,   9.04544070e-02,
      4.89565469e-02,  -2.10263297e-01,  -1.57096758e-01,   5.12994565e-02,
     -2.95853168e-01,  -1.08666740e-01,  -1.59665510e-01,  -1.63503602e-01],
   [ -1.73010781e-01,   1.12060299e-02,   1.94850072e-01,   7.30119869e-02,
      4.70116772e-02,   4.13198210e-02,  -1.95318937e-01,  -1.65920015e-02,
      3.29499841e-01,  -1.93379804e-01,  -1.28976688e-01,  -1.41638845e-01,
     -5.11102974e-02,   2.81770378e-01,   1.01698726e-01,   9.50946584e-02,
      6.58175945e-02,   6.71428367e-02,  -2.41153970e-01,   1.81948543e-02],
   [ -1.64737597e-01,  -1.96335092e-01,  -1.29087120e-01,  -4.90748361e-02,
     -2.38545649e-02,  -5.36323860e-02,  -5.88409416e-02,  -1.99443251e-01,
      5.05938232e-02,  -3.26705314e-02,  -2.17406005e-02,   8.52796342e-03,
      7.84020126e-02,  -4.27738577e-03,  -1.53239563e-01,  -5.45700565e-02,
      6.92877918e-02,  -1.80645183e-01,   9.93287563e-02,  -1.42924441e-02],
   [ -6.56132624e-02,  -1.92937553e-02,  -6.00278042e-02,   9.13535729e-02,
     -2.15568811e-01,   3.29895578e-02,  -2.70831257e-01,  -3.94236781e-02,
     -2.93418854e-01,  -2.46250093e-01,   4.68415990e-02,  -3.28303687e-02,
     -6.28230795e-02,   4.14652973e-02,  -1.46071641e-02,   3.45262177e-02,
      3.09420004e-02,   8.59071463e-02,   3.70249957e-01,  -1.12969637e-01],
   [ -1.27163097e-01,   2.47972906e-01,  -2.13385262e-02,   1.53921425e-01,
     -2.91338954e-02,  -2.00372323e-01,  -5.61041608e-02,  -1.52013928e-01,
      2.97237076e-02,  -2.38075685e-02,  -7.94404298e-02,   5.26955500e-02,
      1.89365428e-02,  -1.95434213e-01,  -1.36256650e-01,   5.15415668e-02,
     -2.05746636e-01,   2.63118260e-02,  -1.47770703e-01,   8.12039003e-02],
   [ -7.34363571e-02,  -1.65255547e-01,   1.06747463e-01,  -6.12382591e-02,
      5.33459969e-02,  -9.20182443e-04,  -1.60605088e-02,   1.84233651e-01,
     -3.76012251e-02,   3.54132764e-02,  -2.94374824e-02,  -5.81082925e-02,
      3.31789488e-03,   1.40749678e-01,  -5.76861128e-02,   1.40114322e-01,
     -8.98326337e-02,  -6.28254935e-02,  -2.45811343e-02,   2.43814796e-01],
   [  1.82568535e-01,  -5.39622784e-01,  -3.32638443e-01,   4.19803523e-02,
     -2.56571639e-03,  -2.07182933e-02,  -2.43206352e-01,  -1.88292027e-01,
      1.71108633e-01,  -3.29682492e-02,  -1.11400343e-01,  -1.31759420e-01,
     -1.58856288e-02,  -1.31097525e-01,  -5.47834784e-02,  -6.71877041e-02,
      1.44591540e-01,  -3.12643200e-02,  -7.54071847e-02,   1.73530608e-01],
   [ -3.07899248e-02,  -5.88782430e-01,  -5.85566834e-02,  -2.47342452e-01,
      3.87285240e-02,  -1.01111978e-02,  -1.49354994e-01,   7.40279704e-02,
     -7.89153650e-02,   5.07311411e-02,  -1.64703444e-01,  -1.50960013e-01,
     -1.86625928e-01,  -1.23484530e-01,  -1.88701332e-01,   2.60467142e-01,
     -1.26009554e-01,  -1.90042362e-01,   9.55303535e-02,  -6.45077438e-04],
   [  9.77461487e-02,   3.03681232e-02,   1.06060959e-01,  -5.33337072e-02,
     -3.52601334e-02,  -1.09011218e-01,   3.57787171e-03,   1.23335831e-01,
      1.10784151e-01,  -4.28722240e-02,   1.22896440e-01,   1.20575383e-01,
     -1.15161948e-01,  -2.43915115e-02,  -3.95453125e-01,  -2.07977928e-02,
     -2.13063538e-01,  -8.77946522e-03,   1.17856160e-01,   4.04436402e-02],
   [ -3.83495949e-02,   5.32781407e-02,   1.83809459e-01,  -2.28776708e-01,
      4.89580259e-02,   1.33697763e-01,   2.53216833e-01,  -1.10652357e-01,
      6.22212999e-02,  -3.21563631e-02,   3.56952958e-02,  -2.00115770e-01,
     -2.66690999e-02,  -1.91195562e-01,   7.05383569e-02,   9.85333920e-02,
     -7.39807785e-02,   8.37387796e-03,  -8.54104385e-02,  -2.00497638e-02],
   [ -8.19746554e-02,  -2.86715806e-01,   1.45452335e-01,  -1.06945656e-01,
      1.30775884e-01,  -1.16231486e-01,   3.20296921e-02,  -2.67486554e-02,
     -9.28698033e-02,  -4.77983840e-02,   4.56580073e-02,  -7.62158185e-02,
      1.51434526e-01,  -1.28981560e-01,   5.83254918e-02,   5.31417411e-03,
      3.13585289e-02,  -1.71653107e-01,  -1.44987464e-01,   1.04117572e-01],
   [ -1.81352288e-01,  -4.31467444e-01,  -7.02169240e-02,   1.28329977e-01,
     -6.58982098e-02,  -1.17575392e-01,   2.99035665e-02,   9.66415927e-02,
     -1.15367383e-01,  -7.44223073e-02,  -1.89010218e-01,   2.31828943e-01,
     -1.26108900e-01,  -3.38517159e-01,   1.53247684e-01,  -1.26530215e-01,
     -1.77707806e-01,   5.27221933e-02,  -1.24354266e-01,  -7.95666575e-02],
   [ -1.07318297e-01,  -6.62583858e-03,  -2.26799905e-01,  -2.78939530e-02,
     -3.62644158e-02,  -7.59080723e-02,   6.18490465e-02,   3.57691310e-02,
     -1.79798100e-02,  -6.11577220e-02,   7.91251380e-03,  -1.01514310e-01,
     -3.68607752e-02,  -2.22418174e-01,  -4.16095555e-02,  -1.95131805e-02,
     -3.84006619e-01,  -1.25429392e-01,  -1.42554909e-01,  -5.77491196e-03],
   [ -5.31990379e-02,  -7.94904754e-02,   8.67523849e-02,  -8.77712667e-02,
      1.86484188e-01,  -2.09617883e-01,   2.29992449e-01,  -5.70279174e-02,
     -1.66233689e-01,  -8.67756177e-03,  -1.72924191e-01,   7.87206143e-02,
      8.42250139e-02,  -4.87979762e-02,   3.04682523e-01,  -1.15251645e-01,
     -2.68359661e-01,   1.50847221e-02,  -2.31793895e-02,  -3.78813483e-02],
   [ -1.98410735e-01,   1.20492041e-01,  -3.26943576e-01,  -1.54430404e-01,
     -1.62025243e-01,   5.03661595e-02,  -2.13653997e-01,   7.17741176e-02,
     -8.43161568e-02,   8.16770643e-02,   4.42464873e-02,   4.69645672e-02,
     -3.08993477e-02,   3.45984623e-02,  -1.12049296e-01,  -3.59149165e-02,
     -8.95554200e-03,   2.93643191e-03,   1.41346440e-01,   5.22183953e-03],
   [  3.37495506e-01,   1.80457041e-01,  -2.05920726e-01,   9.71297026e-02,
     -1.06343128e-01,  -1.37196630e-01,  -2.69656241e-01,  -4.14708629e-03,
     -2.62390405e-01,  -2.21114866e-02,  -1.64331540e-01,   8.46907496e-05,
     -6.48462027e-02,   1.39504567e-01,  -2.55923241e-01,  -1.61190450e-01,
     -7.72000551e-02,  -1.92072690e-01,  -2.05433547e-01,   6.71851337e-02],
   [ -2.22668096e-01,  -5.03922589e-02,  -1.81016788e-01,  -3.96888703e-02,
     -2.87289441e-01,   3.81444506e-02,  -1.97643846e-01,  -4.52808514e-02,
      5.14823794e-02,   1.09038375e-01,   3.76308076e-02,  -5.67965209e-02,
     -1.31407782e-01,   2.12182589e-02,  -1.88470215e-01,  -1.25014767e-01,
     -2.77092129e-01,  -1.07136443e-01,   4.32907045e-02,  -2.52533227e-01],
   [  8.84364080e-03,   9.95105729e-02,   2.62827761e-02,  -3.02910227e-02,
     -1.17445819e-01,  -3.28260697e-02,   8.93473700e-02,  -5.22199869e-01,
      1.87076554e-01,   1.78011283e-01,   1.61663637e-01,  -3.91018279e-02,
     -5.77302352e-02,   3.17153275e-01,   1.76744685e-01,   3.95362437e-01,
     -2.89999604e-01,  -1.74335778e-01,  -2.64532417e-02,  -7.21116722e-01],],

  [[ -2.53220856e-01,   2.82046907e-02,   1.67412013e-02,  -6.38106763e-02,
     -3.54506850e-01,  -3.68994027e-01,  -3.31707269e-01,  -4.03396375e-02,
     -2.42685303e-01,  -8.16166699e-02,  -2.05695599e-01,  -1.73498884e-01,
     -4.22796868e-02,   1.87471464e-01,   1.02754883e-01,  -2.75039107e-01,
      3.70033681e-01,  -3.13681692e-01,  -2.13682950e-01,   9.28611159e-02],
   [ -7.00531751e-02,   1.11685224e-01,  -2.92297095e-01,  -1.66166380e-01,
     -4.57977682e-01,  -1.38231948e-01,  -2.63719261e-01,  -6.82700202e-02,
     -7.81217813e-02,  -1.03940710e-01,  -1.75386727e-01,  -7.59575903e-01,
     -2.32862264e-01,  -6.35204166e-02,   1.35028616e-01,  -2.44777456e-01,
     -1.87904403e-01,   7.89970160e-02,  -1.33716017e-01,   3.30435276e-01],
   [ -1.40132919e-01,   2.13598207e-01,  -4.58519422e-02,   7.14947730e-02,
     -1.93710923e-01,   3.77036110e-02,   2.49687918e-02,   1.85706079e-01,
      1.96318515e-02,  -9.52313840e-02,  -6.83166832e-02,  -8.39339122e-02,
      3.63994157e-04,   7.20209479e-02,   4.50441018e-02,  -8.96894038e-02,
      5.33549394e-03,   7.87966624e-02,  -3.81710529e-02,  -7.85358399e-02],
   [ -7.06114918e-02,  -1.66369602e-01,  -6.69090897e-02,   2.39973709e-01,
     -7.86576197e-02,  -3.94128375e-02,  -1.13568954e-01,   1.71663284e-01,
      3.01895551e-02,   2.41537809e-01,  -1.91260517e-01,  -3.08474172e-02,
      6.43764734e-02,   9.79981273e-02,   7.11070001e-02,   5.53482957e-02,
      7.04646762e-03,   1.07905217e-01,   3.83506596e-01,  -3.29473577e-02],
   [ -1.68623954e-01,   1.13450743e-01,   7.41907507e-02,   1.28512144e-01,
     -3.63273025e-02,   1.01123460e-01,   6.54729530e-02,   6.91879913e-02,
     -8.70527253e-02,  -2.15953551e-02,   1.79816842e-01,   1.02582887e-01,
      5.73775135e-02,  -7.34058544e-02,  -1.43165022e-01,   3.70311402e-02,
     -5.54021448e-02,   2.11048067e-01,  -9.84178558e-02,  -1.87511310e-01],
   [ -2.36410610e-02,   1.32521838e-01,  -1.75040707e-01,  -7.29017481e-02,
      7.50357169e-04,  -1.35802953e-02,  -4.10482101e-02,   1.81275774e-02,
     -4.72324453e-02,   1.71300042e-02,  -1.09076165e-01,   1.62131906e-01,
      2.57423997e-01,  -1.28360599e-01,  -1.86443135e-01,   2.05455855e-01,
     -2.19305947e-01,  -6.22971058e-02,   5.93413934e-02,  -3.81591946e-01],
   [ -2.89107487e-02,   3.61985229e-02,  -1.02941602e-01,   4.79961606e-03,
     -1.29398987e-01,  -1.58763766e-01,  -3.30150537e-02,   4.39474620e-02,
     -1.46617457e-01,  -8.17239359e-02,  -6.55871257e-03,  -1.69829112e-02,
     -1.25219762e-01,   1.28379911e-01,  -7.47313797e-02,   4.64219749e-02,
     -1.12242289e-01,  -1.64144784e-01,   1.11186855e-01,   2.35547006e-01],
   [  1.39730349e-01,   1.27563164e-01,  -2.85593331e-01,  -1.65875301e-01,
     -2.60065436e-01,   4.11463797e-01,  -2.12144062e-01,   2.32662007e-01,
     -3.89571577e-01,  -6.29190654e-02,   2.20311582e-02,  -3.96133304e-01,
     -2.86275268e-01,   4.76280041e-02,   4.67319429e-01,   1.88248619e-01,
      2.68648297e-01,   2.11048931e-01,  -3.52436677e-02,   1.40060246e-01],
   [ -8.08653906e-02,  -9.84165296e-02,  -2.28697788e-02,   2.64035106e-01,
     -5.24054840e-03,   6.39214693e-03,   3.50685976e-02,  -4.71118480e-01,
     -8.87469575e-02,  -4.86249439e-02,  -8.54374170e-02,  -1.93963036e-01,
     -4.98310514e-02,   1.38724577e-02,  -2.66031623e-01,  -1.34700269e-01,
      1.17565177e-01,   9.24578533e-02,  -3.48918512e-03,   5.94134405e-02],
   [ -1.10165857e-01,   8.09906051e-02,  -2.27187932e-01,   1.60462454e-01,
     -1.31237894e-01,  -1.20261975e-01,   1.06166728e-01,  -6.22155309e-01,
     -1.70965850e-01,  -1.10125244e-01,  -1.60672292e-01,   2.17116922e-02,
     -1.44281045e-01,   2.75904015e-02,  -5.32632731e-02,  -1.94878101e-01,
      2.07922727e-01,  -2.42652223e-01,  -1.39200732e-01,  -2.49993756e-01],
   [  7.68746883e-02,   5.75564941e-03,  -4.30275202e-02,   2.20707476e-01,
      1.26560926e-01,  -2.50010788e-01,  -2.27988601e-01,  -2.76593491e-02,
     -1.62325367e-01,   7.10026100e-02,  -1.51707560e-01,   3.12619433e-02,
      9.20590684e-02,  -1.64037123e-01,   1.04385771e-01,   1.93278193e-01,
      5.64705348e-03,   3.42218056e-02,  -8.49151835e-02,   4.88585718e-02],
   [ -1.30217165e-01,   1.03123747e-01,  -1.48912579e-01,   6.64155334e-02,
     -2.24470332e-01,   6.55623451e-02,  -3.04236021e-02,  -7.69022852e-02,
     -2.46552885e-01,  -1.90647885e-01,  -2.19513863e-01,   4.09348682e-02,
     -1.59356683e-01,   1.05966642e-01,   1.55364141e-01,  -7.57016689e-02,
      6.07908964e-02,  -1.08933523e-01,  -1.11702867e-01,   1.26956210e-01],
   [ -1.96350023e-01,   3.07945907e-01,  -1.87783986e-01,  -4.45522480e-02,
     -7.38073513e-02,  -1.55680090e-01,   1.62918538e-01,   6.79894686e-02,
     -4.44544613e-01,  -6.29587173e-02,   1.76721681e-02,  -2.73513108e-01,
     -2.27442548e-01,   6.49616867e-02,   2.42716581e-01,   1.69061385e-02,
     -1.25830784e-01,  -2.55210429e-01,  -9.47878063e-02,   7.52371177e-02],
   [  4.67672013e-02,  -7.92736560e-02,   5.01517095e-02,   1.37852550e-01,
     -8.69576111e-02,  -1.00896120e-01,   5.67073282e-03,   1.12873003e-01,
      2.20411550e-02,   3.13735604e-01,   2.53962465e-02,  -3.67642879e-01,
      4.48554382e-02,  -7.45867798e-03,  -8.41259584e-02,  -3.03646252e-02,
     -3.57881710e-02,   7.11130351e-02,  -1.17518686e-01,  -2.17631519e-01],
   [  1.79247446e-02,  -2.12329686e-01,  -1.33600205e-01,   2.24762000e-02,
      5.73278666e-02,   2.04608113e-01,  -1.73154891e-01,   8.38665962e-02,
      3.35953049e-02,  -1.82355642e-02,   4.11828868e-02,  -2.97362238e-01,
     -1.05291978e-01,  -4.70473021e-02,  -1.27469352e-03,  -2.50163257e-01,
     -3.65729406e-02,  -2.19830900e-01,  -6.77124932e-02,   1.66398257e-01],
   [ -1.44786850e-01,  -1.15265278e-02,   1.68844000e-01,  -9.27211493e-02,
     -3.33650187e-02,   2.21188553e-02,  -3.53406996e-01,  -9.61141065e-02,
     -1.82661980e-01,  -2.67360836e-01,  -1.01143658e-01,   6.22640848e-02,
     -8.59022886e-02,   1.81471556e-01,   1.62761822e-01,  -5.89528643e-02,
      8.63508731e-02,  -2.32979745e-01,  -4.99654971e-02,  -3.14976305e-01],
   [ -2.18814328e-01,   6.07389063e-02,  -5.11649847e-02,   2.17947233e-02,
      3.78143005e-02,  -1.18459882e-02,  -1.76425144e-01,   7.30487145e-03,
     -2.19684877e-02,  -5.87330759e-02,  -1.99410543e-01,  -2.07541473e-02,
      1.41107678e-01,   1.72527004e-02,  -4.40177359e-02,  -4.15173396e-02,
     -1.26134098e-01,   2.32916206e-01,   2.76887883e-02,  -4.33818661e-02],
   [ -1.58274382e-01,  -6.02715276e-02,   6.49361387e-02,  -3.26079205e-02,
      6.88971207e-02,  -4.35683429e-02,  -1.43682078e-01,   1.16219278e-02,
     -1.88851625e-01,  -1.44108608e-01,  -1.35148093e-01,   1.07880935e-01,
     -5.41950110e-03,  -7.96039477e-02,  -1.02464885e-01,  -1.68200508e-02,
     -9.72793549e-02,  -2.83767104e-01,   7.26407990e-02,  -1.52182868e-02],
   [ -1.33537903e-01,   4.22376096e-02,  -1.64910182e-01,   1.99587226e-01,
     -7.61263538e-03,  -2.76333630e-01,  -2.22028419e-01,   4.17210385e-02,
     -1.24394789e-01,   9.51595828e-02,   1.41063631e-01,   9.89641994e-03,
     -7.16664940e-02,   2.65386134e-01,  -2.59533346e-01,  -1.40906453e-01,
      2.82334443e-02,  -1.30120859e-01,  -3.48169319e-02,  -3.24507318e-02],
   [ -2.56499708e-01,   1.14678498e-03,   1.62784576e-01,  -1.88238367e-01,
     -1.23903982e-01,   1.87052876e-01,  -6.80622607e-02,   4.68008220e-02,
     -3.26115280e-01,  -1.94521114e-01,  -5.17162308e-02,  -1.31896555e-01,
      2.44883113e-02,  -5.73185012e-02,   1.95126515e-02,   1.06087066e-02,
     -3.10669869e-01,  -3.54536235e-01,  -5.32823848e-03,  -3.12098349e-03],
   [ -8.00096914e-02,  -1.50068253e-01,   8.20482746e-02,   9.92716476e-02,
     -6.51676282e-02,   7.77714029e-02,  -2.12270364e-01,  -5.69650829e-02,
     -1.09412149e-03,  -2.03934666e-02,  -8.84214342e-02,  -1.47709489e-01,
      1.74110904e-02,  -1.30358383e-01,   1.41026378e-01,  -1.33863509e-01,
     -3.08497790e-02,   1.09728411e-01,  -2.26837695e-01,  -1.19269602e-01],
   [ -1.22830294e-01,  -3.21628392e-01,  -5.57746589e-02,  -7.20372051e-02,
      3.12962756e-02,   1.30410597e-01,  -4.01570424e-02,  -8.85172635e-02,
      7.13586509e-02,  -6.48999214e-02,  -3.56733382e-01,  -2.92853445e-01,
     -1.60610288e-01,   7.49027431e-02,  -1.92210544e-02,  -3.76551956e-01,
      5.28622940e-02,   3.20636630e-02,   6.14594528e-03,  -4.32268679e-02],
   [  4.04184312e-02,   1.93409070e-01,  -2.32488662e-02,  -1.50211036e-01,
      9.24871042e-02,   3.66854906e-01,  -3.43898445e-01,   1.07871427e-03,
      1.69767827e-01,  -3.89645696e-02,   1.10490642e-01,   4.99889255e-02,
      2.80013271e-02,  -9.32974070e-02,  -3.08329254e-01,  -1.44382104e-01,
     -1.56525135e-01,  -1.87132537e-01,  -2.84547091e-01,   2.04476621e-03],
   [ -5.98707572e-02,  -4.33452189e-01,   6.74309209e-02,   6.66526258e-02,
     -7.46559817e-03,   3.37197840e-01,  -8.26709555e-04,   3.16382013e-02,
     -4.68633138e-02,   1.01421617e-01,  -1.15003847e-01,  -5.05470991e-01,
     -7.28940517e-02,   1.63568184e-01,  -5.72366305e-02,  -1.13503955e-01,
      7.80478772e-03,  -8.32821131e-02,  -5.12961186e-02,  -3.91361527e-02],
   [ -1.01988181e-01,  -6.84624389e-02,   3.00982177e-01,  -5.78877181e-02,
     -5.29591180e-02,  -4.60974723e-02,  -3.55948843e-02,  -1.36441514e-02,
      1.30054504e-02,  -1.03061840e-01,   2.41461992e-02,  -2.49374494e-01,
      5.13021126e-02,  -1.03762016e-01,   1.04952887e-01,  -8.01475942e-02,
     -5.57341836e-02,  -2.16903716e-01,  -2.30982304e-01,   6.64321259e-02],
   [ -4.13390428e-01,  -1.72120512e-01,  -5.67481965e-02,   2.86145676e-02,
     -9.93746296e-02,  -2.98426360e-01,   1.33146673e-01,  -8.85680020e-02,
      2.04750076e-01,  -5.38538173e-02,   7.96960443e-02,  -3.38922501e-01,
     -1.62445202e-01,   2.81915694e-01,  -1.56717598e-02,  -3.11873555e-01,
      2.26896238e-02,  -1.96095463e-02,  -1.62761763e-01,   6.13413937e-02],
   [  2.53813993e-03,  -1.44849434e-01,  -1.93337768e-01,   2.48746313e-02,
     -1.70567408e-01,  -1.91975851e-03,   4.12405394e-02,   1.30680883e-02,
     -1.91245899e-01,   6.72937836e-03,   9.71206501e-02,  -3.50370318e-01,
     -5.14341407e-02,  -2.59834558e-01,   8.11909735e-02,  -2.04517782e-01,
     -8.10514390e-02,   1.17084146e-01,  -1.16924748e-01,  -3.05501232e-03],
   [ -3.27355079e-02,  -1.49557188e-01,  -3.45704466e-01,   1.22440509e-01,
     -3.55113745e-01,  -1.43529937e-01,  -4.94973734e-03,   5.77917360e-02,
      3.31618637e-02,   3.22109275e-02,  -6.54831976e-02,  -2.62670606e-01,
     -3.51959467e-02,  -3.46497074e-02,   1.37777641e-01,  -6.98208734e-02,
      8.22709128e-02,   3.98551077e-02,   1.30657211e-01,   1.75285146e-01],
   [ -8.90192296e-03,   2.58833110e-01,  -2.92730778e-01,  -3.28043848e-02,
     -3.09292436e-01,  -1.12219028e-01,  -8.70812163e-02,   1.52166020e-02,
     -1.75574541e-01,  -3.51502676e-03,  -4.11657318e-02,   5.68911672e-01,
     -1.07727818e-01,   6.51956350e-02,   2.17855517e-02,   2.31489595e-02,
     -3.28609906e-02,   1.14077553e-01,  -5.25762588e-02,  -1.65246964e-01],
   [  7.38959983e-02,   1.54868394e-01,   9.29266959e-02,   5.46716712e-02,
      4.77461331e-02,  -1.57715678e-01,  -1.85841043e-02,   1.24462165e-01,
      8.83897301e-03,  -7.87278414e-02,   1.03234626e-01,   2.64496535e-01,
     -1.72767956e-02,  -6.72493279e-02,  -1.92523971e-01,   7.99571201e-02,
     -1.56122044e-01,  -1.38983399e-01,  -1.79186072e-02,  -2.02867255e-01],
   [ -2.15882391e-01,  -5.21288179e-02,  -4.02777255e-01,  -4.71976660e-02,
     -2.03422368e-01,  -2.76231691e-02,  -3.75522338e-02,   1.82647735e-01,
     -1.99178755e-01,   3.54524441e-02,   8.39108252e-04,   7.12940991e-02,
     -9.65573490e-02,  -6.27993047e-02,   4.42035273e-02,   3.34195942e-02,
     -1.76972345e-01,   5.47078475e-02,  -2.24426582e-01,  -1.52373061e-01],
   [  3.79366241e-02,  -2.42033198e-01,  -3.93279999e-01,   4.52547483e-02,
     -1.30058244e-01,  -1.39603376e-01,   1.06677711e-01,  -3.29435855e-01,
     -7.42762610e-02,  -1.01851746e-01,   1.27922222e-01,  -5.88601589e-01,
     -1.21466115e-01,  -9.91940349e-02,  -1.90037891e-01,  -2.99644530e-01,
      1.55174777e-01,  -1.06941022e-01,  -2.03366429e-01,   3.07741780e-02],],

  [[ -1.81726031e-02,  -2.63636082e-01,   1.97422758e-01,   7.80527741e-02,
      2.10949078e-01,  -4.01386730e-02,  -1.01896919e-01,  -2.54932851e-01,
     -2.29884848e-01,  -1.02694966e-02,  -1.09942310e-01,   5.73863499e-02,
      2.29899198e-01,   2.06501424e-01,  -7.69337490e-02,  -9.28163007e-02,
      8.52568299e-02,  -3.51737589e-01,  -4.43918377e-01,  -1.15527764e-01],
   [ -2.60534585e-01,   2.56949905e-02,   6.77544177e-02,   1.61343768e-01,
     -2.22383797e-01,  -1.43538982e-01,  -1.13547176e-01,   3.12519185e-02,
     -7.83396289e-02,  -2.01952770e-01,  -6.10884249e-01,  -8.92091170e-02,
     -1.25260353e-01,   1.48636866e-02,   3.25122438e-02,  -1.78164870e-01,
      3.86315063e-02,  -7.82970935e-02,  -1.92468435e-01,  -5.28051816e-02],
   [ -1.04449213e-01,   2.90516347e-01,  -1.64928678e-02,   1.26099259e-01,
      2.11929008e-01,  -3.01804185e-01,   5.64331003e-02,  -3.73838171e-02,
     -1.65015101e-01,  -6.29969612e-02,  -3.34364831e-01,  -1.75228685e-01,
     -1.01648010e-01,   6.20140284e-02,   7.27159902e-02,  -1.61459297e-03,
     -7.85209462e-02,  -4.17498238e-02,  -2.40492776e-01,  -5.15891731e-01],
   [ -1.81192338e-01,  -2.37714171e-01,   2.56906062e-01,   5.19461483e-02,
     -1.10442132e-01,   9.08177160e-03,  -1.93475053e-01,   6.92521706e-02,
     -5.84872346e-03,  -7.94951245e-02,  -2.34051868e-01,  -1.16111159e-01,
      1.42653450e-01,   4.31874692e-02,   5.28481826e-02,   9.35086757e-02,
     -1.19524971e-01,   3.47049564e-01,  -5.51575869e-02,   6.03394173e-02],
   [  3.51695925e-01,  -2.23898992e-01,  -5.45770749e-02,   1.31209746e-01,
      3.05967748e-01,  -1.22171782e-01,  -3.04214239e-01,   1.41846761e-02,
     -2.30031818e-01,  -3.90589759e-02,   2.43426174e-01,   1.26993567e-01,
      1.09890826e-01,  -1.38288245e-01,   2.77668595e-01,   6.83921427e-02,
     -6.95568621e-02,  -9.06132087e-02,   1.64051801e-01,   3.85764450e-01],
   [  3.86447161e-02,  -1.47280246e-01,  -5.15581481e-02,   4.01005410e-02,
     -1.53532505e-01,  -7.17740282e-02,  -1.21707723e-01,  -5.21635525e-02,
     -4.27564345e-02,   2.14436740e-01,  -1.19574197e-01,  -8.76353234e-02,
      5.99667504e-02,  -2.11782649e-01,  -1.95150271e-01,   8.40273723e-02,
      8.02748650e-03,  -3.59098732e-01,  -2.92578042e-01,  -1.03582524e-01],
   [  4.32626307e-01,   1.06674723e-01,  -7.80454800e-02,   4.36822027e-02,
     -9.13423523e-02,  -7.18498081e-02,  -1.34894207e-01,  -3.14576089e-01,
     -7.38483369e-02,  -1.79022364e-02,  -2.15586528e-01,  -1.91654697e-01,
     -7.87202045e-02,  -4.19557877e-02,   1.25266835e-02,  -6.52568266e-02,
     -1.63283840e-01,   2.01119762e-02,  -3.72543465e-04,  -1.29313022e-02],
   [  4.74031977e-02,  -7.87753463e-02,   8.49575251e-02,  -1.79503471e-01,
     -2.80496866e-01,   6.02866672e-02,  -4.03569311e-01,   3.50913592e-02,
     -6.70296729e-01,  -2.22363800e-01,  -3.75942916e-01,   4.01650481e-02,
     -1.23498134e-01,   2.11605325e-01,  -1.68826208e-01,  -8.70161504e-03,
     -1.56942800e-01,   2.30953768e-01,  -5.58282211e-02,  -1.03629038e-01],
   [  1.23180300e-01,  -2.85049211e-02,  -1.88018948e-01,  -1.51933402e-01,
     -2.53694262e-02,  -1.39577657e-01,  -6.53649941e-02,  -3.54160011e-01,
     -9.87387151e-02,  -2.42469177e-01,  -2.23864064e-01,  -1.43600404e-01,
     -3.52164842e-02,   1.91021618e-02,  -1.56217828e-01,  -1.71875674e-02,
     -1.46466605e-02,  -2.91160673e-01,  -4.90836091e-02,   1.37885571e-01],
   [  8.74689147e-02,  -9.87056866e-02,  -2.07544342e-01,  -3.57798450e-02,
     -4.78471905e-01,   1.13780007e-01,  -5.27105555e-02,  -5.07210732e-01,
     -6.21566437e-02,  -2.28699520e-01,  -4.19306196e-02,   4.32860851e-02,
     -1.52972624e-01,  -3.20356637e-01,   1.28175646e-01,   7.33240098e-02,
      5.69175668e-02,  -9.89881903e-03,   5.05914204e-02,  -2.34779745e-01],
   [ -3.74087915e-02,  -6.34140819e-02,  -1.43688091e-03,  -1.11270130e-01,
      2.10970524e-03,  -3.79692107e-01,  -1.37624413e-01,   9.18811187e-02,
      5.38245551e-02,  -4.61658426e-02,   1.15978628e-01,   1.50897846e-01,
     -7.75470957e-02,  -2.00787500e-01,   4.86289151e-03,   1.74878985e-01,
     -8.53653029e-02,   4.71544527e-02,   3.49765643e-02,   5.72943568e-01],
   [  1.17302313e-02,  -5.30808419e-02,  -2.58122273e-02,   1.96072772e-01,
     -1.54592678e-01,  -1.45764261e-01,  -5.20952195e-02,  -6.78774789e-02,
     -1.55568525e-01,   1.22471496e-01,  -4.52417254e-01,   3.18178274e-02,
     -2.63344616e-01,   4.39277768e-01,   7.13124722e-02,   1.25470057e-01,
      6.25529513e-02,  -9.17059630e-02,  -4.43575472e-01,  -9.97138470e-02],
   [ -5.17114326e-02,  -7.00142905e-02,   1.67788908e-01,   2.88482368e-01,
      1.19222470e-01,   1.32393762e-02,   1.47267789e-01,   9.89581198e-02,
     -3.51275742e-01,  -2.05587640e-01,  -1.14160009e-01,  -5.14859483e-02,
     -2.27364257e-01,   2.98445016e-01,   9.24631208e-02,   1.54012153e-02,
     -4.54920009e-02,   1.04547888e-02,   4.15038988e-02,  -2.05993086e-01],
   [  3.83012667e-02,   9.34977010e-02,  -8.34842324e-02,   3.74791026e-02,
     -1.99740380e-01,   1.18108973e-01,  -1.94176748e-01,  -1.01097204e-01,
      8.60237032e-02,   4.80401307e-01,   5.87041629e-03,  -1.47866875e-01,
      5.99813610e-02,   2.60080814e-01,  -1.01304658e-01,  -3.85113386e-03,
     -1.05623350e-01,   9.35609918e-03,  -3.26359197e-02,   1.73418107e-03],
   [ -1.65261105e-01,  -6.26682788e-02,  -1.93394244e-01,   5.99948503e-02,
      6.53988123e-02,  -3.31265301e-01,  -1.13925032e-01,  -2.64560938e-01,
      9.11400467e-02,  -1.65455118e-01,  -2.19108626e-01,   1.15132779e-01,
     -7.31800348e-02,  -4.70651925e-01,  -1.78002641e-01,  -1.86694100e-01,
      1.28979132e-01,  -4.23059672e-01,  -8.88798684e-02,  -8.91925022e-02],
   [  2.43171602e-01,   1.56473685e-02,  -9.68770236e-02,   6.11349978e-02,
     -4.45782579e-02,  -1.15479104e-01,   1.46163195e-01,  -1.64989438e-02,
     -2.56461650e-01,   8.83970782e-02,  -1.22865662e-01,  -1.40117601e-01,
     -8.12108889e-02,   2.96043515e-01,   1.68893114e-01,  -2.47398525e-01,
      1.77716184e-02,  -2.20714822e-01,   1.33932516e-01,   6.53112754e-02],
   [  5.48990145e-02,   8.85229111e-02,   2.86926725e-03,  -4.00644876e-02,
      7.25388974e-02,  -1.20325610e-01,  -1.27570316e-01,   1.53613295e-02,
      1.68558639e-02,  -7.18447343e-02,  -1.14320710e-01,   1.04764774e-01,
     -6.76203370e-02,  -3.04337367e-02,   1.01408437e-01,   5.54640871e-03,
     -1.87397655e-02,  -1.07624680e-02,  -2.61875391e-02,   6.30287360e-03],
   [  4.41487208e-02,  -2.96656102e-01,   1.04719676e-01,   1.77925199e-01,
     -1.85203910e-01,   3.44036594e-02,  -2.14213967e-01,  -9.33789387e-02,
     -1.30451396e-01,   1.03030235e-01,  -2.30478570e-01,   5.48213832e-02,
     -1.36723235e-01,  -8.02702904e-02,  -3.47432531e-02,  -4.90708016e-02,
     -6.73440769e-02,  -1.50903225e-01,   3.75172079e-01,  -2.51115859e-01],
   [ -1.30519226e-01,  -3.75273079e-02,  -6.92872405e-02,   3.18129845e-02,
     -2.96701342e-01,  -2.08899662e-01,   1.69860832e-02,  -3.12225036e-02,
     -1.13741934e-01,   1.24157749e-01,  -1.62271157e-01,   1.27253979e-01,
     -1.95333604e-02,  -7.86574483e-02,  -1.61622673e-01,  -4.43648472e-02,
      4.90690097e-02,  -3.08381587e-01,  -2.56271392e-01,  -1.88590828e-02],
   [ -7.61944382e-03,   5.90208396e-02,   6.01375043e-01,   6.27524927e-02,
     -3.12500298e-02,   1.37067199e-01,  -1.16995856e-01,   4.27463511e-03,
     -6.10108189e-02,  -2.55304156e-03,  -1.10920556e-01,  -9.35763419e-02,
     -6.08724132e-02,   7.81221613e-02,  -3.02123819e-02,  -1.33597180e-01,
     -9.52813104e-02,   2.46010870e-02,  -1.98445916e-01,   2.16781721e-02],
   [ -8.51444155e-02,   1.44997239e-01,   1.05529137e-01,   4.95587960e-02,
      3.87741596e-01,  -2.37031467e-02,  -1.52389854e-01,  -1.15630500e-01,
      3.87491286e-02,  -1.07831910e-01,  -3.98186594e-01,  -2.50884742e-01,
      5.80478273e-02,  -2.73710415e-02,   1.79859418e-02,   1.38817862e-01,
      2.07396016e-01,  -2.19027638e-01,   5.81607036e-02,  -4.38993424e-02],
   [  1.29078194e-01,   5.05100965e-01,  -2.38697929e-03,  -2.53163189e-01,
     -3.42548266e-02,  -2.35491142e-01,   1.34993130e-02,  -4.68353182e-02,
     -1.13211796e-01,  -2.62231771e-02,  -2.50555187e-01,   2.50478126e-02,
     -1.23653486e-01,  -1.30874157e-01,   3.29325914e-01,   2.48229071e-01,
      9.58409011e-02,  -1.75821409e-01,  -1.00191869e-01,   3.36693376e-02],
   [  6.72652200e-02,   6.51931763e-02,  -7.16393217e-02,   3.54587212e-02,
     -1.34218037e-01,  -9.76321697e-02,   5.17115481e-02,   4.98255342e-02,
      1.80019557e-01,  -1.44371197e-01,   2.72068262e-01,   1.57201290e-01,
     -5.75104058e-02,  -9.99892354e-02,  -1.89006984e-01,  -4.26026061e-02,
      3.27352877e-03,   5.01320772e-02,  -1.17688805e-01,   6.56751469e-02],
   [ -3.30810063e-02,   6.23133816e-02,   5.76762445e-02,   6.08114935e-02,
      2.98621040e-02,   4.10164669e-02,   1.43329248e-01,  -1.06269553e-01,
      4.63805608e-02,  -1.58636704e-01,  -2.39707008e-01,  -2.58580476e-01,
     -4.17786837e-03,  -1.67897567e-01,  -4.34486456e-02,  -9.04479027e-02,
      2.03253459e-02,  -2.15394273e-01,   9.72420350e-02,  -1.28884716e-02],
   [  6.98437332e-04,   8.86183977e-02,  -2.28925899e-01,  -1.87709525e-01,
     -2.10204404e-02,   9.33562592e-02,  -8.98945108e-02,   5.01235984e-02,
      1.34313516e-02,  -4.99425903e-02,   6.17521927e-02,  -1.86241176e-02,
     -2.94684172e-01,  -1.96845800e-01,  -2.25335415e-02,  -7.83895552e-02,
     -6.77251816e-02,  -2.53580570e-01,  -2.56633580e-01,   8.01077485e-02],
   [ -1.31574422e-01,   2.12500751e-01,  -1.07989699e-01,   1.14190422e-01,
      3.07404716e-02,  -2.00775951e-01,   9.11921561e-02,  -6.24075711e-01,
     -3.35052684e-02,  -1.62234932e-01,  -2.37556417e-02,   1.63786530e-01,
     -3.54076102e-02,  -9.12635103e-02,   1.14416800e-01,  -9.05301198e-02,
     -4.86750044e-02,   3.44875418e-02,  -1.33263776e-02,  -2.07858998e-02],
   [  5.15797548e-03,   1.86400905e-01,   2.25923330e-01,   2.14120060e-01,
      1.52071401e-01,  -7.40993768e-02,   1.05386734e-01,   2.77653158e-01,
      6.39186427e-02,  -1.69660076e-01,   1.25932217e-01,  -2.80036218e-02,
     -2.65568905e-02,   1.22157015e-01,  -2.52764225e-02,  -1.70361549e-01,
     -2.92098168e-02,   4.93677929e-02,  -1.43548939e-03,  -6.30215347e-01],
   [  3.02865542e-02,  -1.66254550e-01,   8.93570706e-02,   7.32959062e-02,
     -8.69807452e-02,  -1.60991713e-01,   2.12805733e-01,  -2.38012653e-02,
      5.21897990e-03,  -1.75781384e-01,  -2.32842997e-01,   8.33896101e-02,
      6.23338632e-02,  -1.60481595e-02,  -3.43250930e-01,  -2.81462759e-01,
     -6.50853589e-02,  -4.90712784e-02,  -1.91809684e-01,  -7.65871182e-02],
   [ -2.95021772e-01,  -4.34054472e-02,  -5.46717234e-02,  -1.82747357e-02,
     -1.76992446e-01,  -8.42761919e-02,  -3.45835954e-01,  -1.13735043e-01,
     -2.85902858e-01,   2.00057223e-01,  -1.20945573e-01,   1.03561066e-01,
     -4.64737937e-02,   7.82892033e-02,  -1.09399498e-01,  -9.34771728e-03,
     -2.68217146e-01,   9.60168988e-02,   1.21229693e-01,   1.34819292e-03],
   [  1.03081413e-01,  -1.48129314e-01,  -5.07570356e-02,   9.80966538e-03,
      1.31060064e-01,  -2.58709610e-01,  -1.56956404e-01,  -2.05098912e-01,
     -7.91375116e-02,   3.50504592e-02,  -1.89357951e-01,   6.07812479e-02,
     -2.14183796e-02,   1.88510820e-01,  -1.39133915e-01,   1.17969560e-03,
     -4.91366312e-02,  -9.40967724e-02,  -6.77096397e-02,  -3.42569277e-02],
   [ -2.25831568e-01,   4.51464504e-02,  -1.58965722e-01,  -4.78933901e-02,
      4.96452721e-03,   3.21433209e-02,  -1.91651344e-01,   2.69930866e-02,
     -1.79874837e-01,  -7.23480359e-02,   1.74252734e-01,  -9.76618938e-03,
     -7.17737712e-03,  -1.46925300e-01,  -2.10518524e-01,   1.21203959e-01,
     -2.93721445e-02,   1.47118926e-01,   1.07768655e-01,  -2.15532213e-01],
   [ -2.04924464e-01,   2.26515353e-01,  -2.34771401e-01,  -4.36541408e-01,
     -1.12506710e-01,  -3.45349312e-01,  -8.27413201e-02,  -6.12538099e-01,
     -7.24980310e-02,  -1.23038188e-01,   2.24468306e-01,  -2.93881863e-01,
     -5.89626618e-02,  -2.48105273e-01,   3.74885857e-01,  -1.79185286e-01,
     -3.19823506e-03,  -2.43637204e-01,   4.44122665e-02,   4.14130569e-01],],],


 [[[  5.45687973e-02,   2.17697099e-01,  -2.54605949e-01,  -2.16824915e-02,
      3.69007468e-01,  -5.52413017e-02,   3.84717286e-01,   5.63722588e-02,
     -5.73871806e-02,   2.04468220e-01,   1.00853637e-01,   4.26742673e-01,
      3.25013280e-01,  -2.59689361e-01,   5.66829629e-02,   2.10508540e-01,
     -3.18243593e-01,   1.24925643e-01,   1.01312019e-01,   3.67267244e-02],
   [  1.58344418e-01,  -3.52516502e-01,  -9.53452010e-03,   7.96671361e-02,
      9.35029238e-02,   8.04218501e-02,   2.87943214e-01,   2.77271479e-01,
      1.53418124e-01,   2.27238089e-02,  -1.64502189e-01,  -7.98333958e-02,
     -5.83058409e-02,  -1.12709619e-01,  -6.96396828e-02,   1.13632470e-01,
     -5.87900102e-01,  -5.82506880e-02,  -3.51395816e-01,  -2.83255428e-02],
   [ -4.71803453e-03,   3.18619795e-02,  -1.14897907e-01,   2.14242652e-01,
      1.96622536e-01,   1.70842186e-02,   1.70663055e-02,   8.00669566e-03,
     -1.74758181e-01,   3.12977172e-02,  -8.30963030e-02,   1.83400214e-02,
     -1.40032098e-01,   2.05921978e-02,   1.28171742e-01,  -2.93458164e-01,
      1.30745620e-01,   2.15286687e-01,  -2.31787309e-01,   1.70117632e-01],
   [ -2.10104719e-01,   9.26904902e-02,   2.00356007e-01,   1.29127232e-02,
     -2.38727797e-02,  -1.43286094e-01,  -1.13982186e-01,   6.12832159e-02,
     -6.30567372e-02,  -1.73336375e-04,   1.85167015e-01,   8.79543740e-03,
      1.50445357e-01,  -6.65066997e-03,  -1.34012386e-01,  -1.67577248e-02,
      3.09049100e-01,  -2.90168613e-01,  -1.70035049e-01,  -1.26072481e-01],
   [  2.47837797e-01,   7.54569843e-02,   1.87005654e-01,   7.54996836e-02,
      3.09548914e-01,   1.42067328e-01,   3.68492991e-01,   4.12819058e-01,
      2.73761660e-01,   1.43406555e-01,   2.24316493e-01,   3.11772227e-01,
      1.20502524e-01,   2.36359239e-01,   2.06219673e-01,  -1.88927174e-01,
     -5.08055866e-01,   1.25591680e-01,   3.73428047e-01,   1.58757530e-02],
   [ -7.48452619e-02,  -1.41209707e-01,   2.35213805e-02,  -5.24595827e-02,
     -8.12444612e-02,  -2.26621300e-01,   5.12875803e-02,  -5.76554239e-02,
     -1.03895165e-01,  -3.33447814e-01,  -1.50792345e-01,  -1.08835757e-01,
      1.32546527e-02,  -2.16463432e-01,  -1.68586358e-01,  -5.60732901e-01,
      2.65897326e-02,   1.72203165e-02,  -7.65706226e-02,  -3.58583145e-02],
   [  2.36114785e-01,   1.14983596e-01,   1.64002016e-01,   1.80598587e-01,
     -5.19171869e-03,   1.99651644e-02,  -1.06297150e-01,  -3.16453241e-02,
     -5.50687797e-02,  -1.34530038e-01,   1.58672594e-02,  -7.08261654e-02,
      1.46920308e-01,  -3.21968764e-01,  -9.16234851e-02,   1.39621943e-01,
     -1.04854822e-01,  -5.37751317e-02,  -1.42942011e-01,   2.98806399e-01],
   [  4.12134640e-03,   3.31760943e-01,  -7.43753165e-02,   1.35839507e-01,
      8.36713985e-03,  -1.03879154e-01,  -5.24666607e-01,  -7.28355721e-02,
     -7.61635080e-02,  -3.67973924e-01,  -4.18409817e-02,  -1.75943628e-01,
     -1.55261442e-01,  -2.74499923e-01,   6.52431771e-02,   1.04656406e-01,
     -3.53579998e-01,  -1.17469162e-01,  -9.21140537e-02,  -2.56216019e-01],
   [ -5.20369053e-01,   5.36183678e-02,  -2.74346977e-01,  -1.32413581e-01,
     -3.93303335e-01,   1.21538108e-02,   9.41493586e-02,  -3.08133721e-01,
      8.17538202e-02,  -1.72658652e-01,   2.22235069e-01,  -1.38152152e-01,
     -8.89812931e-02,  -9.94113088e-02,  -3.64308596e-01,  -1.45623550e-01,
     -6.51902556e-02,   1.28977820e-01,   1.31850347e-01,   4.82988469e-02],
   [ -5.38157374e-02,   5.75065278e-02,  -3.60790938e-02,  -1.48680443e-02,
     -3.31805572e-02,   1.37349516e-01,   1.32266954e-01,  -1.21455044e-01,
      1.49586096e-01,  -1.11920469e-01,   2.16397882e-01,  -2.03630060e-01,
      1.89881235e-01,  -1.43602118e-01,  -4.30617966e-02,  -3.42288643e-01,
     -1.28356695e-01,   2.15125203e-01,  -4.84734252e-02,   7.71413073e-02],
   [ -2.12701008e-01,   6.49910271e-02,   6.67323768e-02,  -8.38516206e-02,
      2.68830601e-02,  -1.21505029e-01,   2.17170358e-01,  -2.20941424e-01,
     -6.99862689e-02,   1.18601834e-03,  -1.96999297e-01,  -1.45432651e-01,
     -1.27414286e-01,  -3.11920643e-01,   2.14097444e-02,  -1.00212760e-01,
     -3.24086756e-01,  -1.57838598e-01,  -8.00083876e-02,   1.48468241e-01],
   [  1.64947677e-02,   4.13144380e-02,  -8.41219276e-02,  -8.17675218e-02,
      2.36320794e-01,   1.25797540e-01,   4.44670290e-01,  -2.52952427e-01,
      2.83279955e-01,   5.52200228e-02,  -3.99213880e-02,   7.91395903e-02,
     -1.15085810e-01,   2.01003975e-03,  -6.66015074e-02,  -1.33017212e-01,
     -3.05062413e-01,  -5.13291135e-02,   7.94615373e-02,  -4.52385880e-02],
   [  2.72882283e-02,   5.71647240e-03,   5.89391515e-02,  -7.73407472e-03,
      1.83504358e-01,   1.76205821e-02,   7.01200813e-02,  -1.63413674e-01,
     -3.48050565e-01,   5.10958806e-02,   1.82859395e-02,  -5.23097217e-01,
      1.49717275e-02,  -1.03567772e-01,   2.09875599e-01,   1.40156047e-02,
     -1.72397956e-01,   8.04699957e-02,   2.27311477e-01,   1.30992636e-01],
   [ -2.14324325e-01,   4.87358980e-02,  -1.76634058e-01,   1.89635545e-01,
      6.59916848e-02,   6.13224804e-02,   4.06515487e-02,   1.34516150e-01,
      7.21574053e-02,  -4.10414696e-01,   8.28171149e-02,   2.27531627e-01,
      4.40884307e-02,  -3.79903405e-03,  -9.20723975e-02,  -1.84066758e-01,
     -7.47821406e-02,   5.97571731e-02,   1.76373720e-01,  -4.37489972e-02],
   [ -1.26223147e-01,  -2.59131461e-01,   1.13880716e-01,   6.37573516e-03,
     -9.85687822e-02,  -7.07364008e-02,  -5.36335073e-02,  -1.68674722e-01,
     -8.21900181e-03,   2.03631949e-02,  -1.23691201e-01,   3.33558284e-02,
      2.17629462e-01,  -4.42771874e-02,   7.91120436e-03,   4.53004539e-02,
     -6.54601157e-02,  -2.56069899e-01,  -2.00719774e-01,  -2.45617509e-01],
   [  1.26298204e-01,   4.63569388e-02,   3.38433683e-02,   5.89538319e-03,
      7.24217892e-02,   8.95809010e-03,  -4.45535406e-02,   1.57167003e-01,
      1.36452839e-01,  -1.25179678e-01,   1.66868135e-01,   1.89612862e-02,
     -1.69314161e-01,  -1.47622555e-01,  -4.47632978e-03,   1.39608651e-01,
     -3.46433483e-02,   9.40411538e-02,   7.48239644e-03,   1.26399145e-01],
   [ -1.46571621e-01,  -1.95316866e-01,  -1.14891291e-01,  -4.63144109e-02,
      1.33313248e-02,  -8.83986503e-02,   2.54569389e-02,  -6.83931559e-02,
      3.03227687e-04,  -1.26055077e-01,   1.64770894e-02,   8.15785602e-02,
      7.57825077e-02,  -6.13147318e-02,  -1.73072875e-01,  -2.84544855e-01,
     -1.38855726e-02,  -4.50375676e-01,  -3.85384366e-04,   1.42657503e-01],
   [ -8.97280872e-02,  -7.83250257e-02,  -2.07736880e-01,  -3.61096021e-03,
      4.61929999e-02,   8.34354535e-02,   1.22283533e-01,  -2.30293516e-02,
     -1.17479026e-01,  -1.84184179e-01,   6.63978234e-02,  -2.47858018e-02,
     -3.68290730e-02,  -5.36817871e-02,   2.77376156e-02,  -1.12145200e-01,
      1.60520509e-01,   1.73895042e-02,   2.93603148e-02,   1.74131975e-01],
   [  3.30057442e-02,   2.05574915e-01,   2.31428072e-02,  -1.42612770e-01,
     -8.46114159e-02,   3.69379520e-02,   1.21935830e-01,  -2.70070255e-01,
      1.15823485e-01,  -8.00212547e-02,  -1.20203838e-01,   2.80094177e-01,
      2.03087274e-02,   2.15413094e-01,  -3.11889648e-01,  -2.71406353e-01,
     -2.65923329e-02,   1.22074887e-01,  -1.72833577e-01,  -3.45434807e-02],
   [ -2.15718120e-01,   3.14824507e-02,  -1.60817876e-01,   2.81803831e-02,
      8.29709098e-02,  -2.87274659e-01,  -1.65365428e-01,   9.19826031e-02,
      1.64722260e-02,  -5.22635095e-02,   1.99860704e-04,  -2.13672668e-01,
     -1.52675365e-03,  -7.44002983e-02,  -1.23767089e-02,   1.34991705e-01,
     -7.90589377e-02,  -1.54178321e-01,   1.24149315e-01,  -6.43810108e-02],
   [ -3.62536550e-01,  -6.69819489e-02,  -2.82066315e-01,  -1.86648503e-01,
     -2.45336387e-02,  -8.23208094e-02,   1.10393219e-01,  -1.35964632e-01,
     -8.83601159e-02,   6.62863106e-02,  -4.93973903e-02,   3.10932487e-01,
     -2.12909700e-03,  -2.10674316e-01,   6.81076497e-02,  -7.50026703e-02,
     -3.30202132e-01,  -6.17529862e-02,   3.92562568e-01,  -1.50032878e-01],
   [  1.50318056e-01,   1.16524510e-01,   1.66835323e-01,  -7.14283623e-03,
     -1.34072471e-02,   1.35419458e-01,   7.62681141e-02,  -9.56889167e-02,
     -2.29644746e-01,  -8.09055343e-02,  -1.92514043e-02,   5.22745438e-02,
     -1.81178316e-01,  -8.08905810e-02,  -2.28854194e-02,   5.23885190e-02,
     -1.36792079e-01,  -6.59848657e-03,  -9.90059599e-02,   1.43913493e-01],
   [  8.41298625e-02,  -2.80839443e-01,  -1.84738398e-01,   8.90523866e-02,
     -2.02745736e-01,  -1.09081082e-01,  -1.92437008e-01,   2.30063424e-01,
      3.28500599e-01,  -1.96613640e-01,  -7.48224258e-02,  -1.52482875e-02,
     -1.75842121e-01,  -1.22815602e-01,  -5.93830049e-02,  -2.99817622e-01,
     -1.91787053e-02,  -4.12217565e-02,  -2.69311875e-01,  -9.91908088e-03],
   [ -1.50005341e-01,  -1.13233142e-01,  -6.69225007e-02,  -2.92847324e-02,
     -1.45962778e-02,  -2.60793790e-02,  -6.89925253e-02,  -2.26089507e-01,
     -1.15096144e-01,  -1.27571538e-01,  -2.60679096e-01,  -8.47770125e-02,
     -1.77115649e-01,   2.85228901e-02,  -7.88169801e-02,   4.85465899e-02,
     -3.77266496e-01,   8.47050548e-03,  -3.34746331e-01,  -3.97605240e-01],
   [ -2.41512973e-02,   1.81330711e-01,   1.11245722e-01,   1.47271585e-02,
      2.44672075e-02,  -1.45492256e-01,  -1.47701547e-01,   9.03635547e-02,
     -3.39710772e-01,   6.31565079e-02,   5.80854248e-03,   2.10686773e-02,
     -2.55624168e-02,  -1.65204063e-01,   1.04528785e-01,   2.81864181e-02,
     -9.91427302e-02,  -2.08816007e-01,   2.27089040e-02,  -4.80019636e-02],
   [ -1.17320552e-01,  -4.66735452e-01,  -1.38426691e-01,   7.12423027e-02,
     -1.08304836e-01,  -2.86268562e-01,  -1.49310172e-01,  -2.32779562e-01,
     -1.46357596e-01,   7.46875107e-02,  -1.60284266e-01,  -8.43743887e-03,
      2.36273669e-02,   3.52877527e-01,   7.11889341e-02,  -3.10025871e-01,
     -1.36134401e-01,  -4.50066254e-02,  -4.31099012e-02,   5.12312204e-02],
   [ -1.96489707e-01,   1.66142449e-01,  -5.52988388e-02,   3.35581638e-02,
      1.27637461e-01,  -2.72561789e-01,   3.45525444e-02,   1.15519799e-01,
     -1.91806793e-01,   2.22036131e-02,  -7.86623277e-05,  -6.81714248e-03,
      4.80225608e-02,  -1.41223893e-01,  -7.81815574e-02,   3.39913219e-01,
     -9.17651504e-02,  -1.24155596e-01,   2.03047507e-02,  -2.09956780e-01],
   [  2.30967507e-01,  -1.62126601e-01,   1.87414542e-01,  -5.22188485e-01,
      6.99961036e-02,  -2.73450445e-02,  -1.30329892e-01,  -2.20582098e-01,
     -6.40267059e-02,  -4.89561968e-02,  -1.21923514e-01,   2.91595273e-02,
      4.24977206e-02,  -3.61965559e-02,   8.60473365e-02,   1.21564634e-01,
     -4.75939512e-01,  -1.90040115e-02,  -2.07481682e-01,   2.46249009e-02],
   [ -3.24728727e-01,   1.52778283e-01,   2.05703422e-01,   6.99423701e-02,
      7.55361915e-02,  -8.27503428e-02,   4.08176035e-02,  -7.33447596e-02,
     -1.02613941e-01,   2.78565823e-03,  -1.12528063e-01,   1.26608578e-03,
     -4.20333520e-02,  -1.42346025e-01,   6.03991514e-03,  -1.71299085e-01,
     -4.40875255e-02,  -5.61243156e-03,   5.84312994e-03,   1.05101176e-01],
   [ -3.08073223e-01,   1.19418368e-01,  -2.15272829e-01,  -1.00935139e-01,
     -3.80637357e-03,  -7.90492222e-02,   2.68454373e-01,   4.90587838e-02,
     -1.55308275e-02,  -1.00319952e-01,   1.03825843e-03,  -4.56629917e-02,
     -1.32744491e-01,  -9.55706090e-02,  -1.20138355e-01,  -3.94504964e-01,
      9.76143181e-02,  -3.90510298e-02,   3.62598091e-01,  -1.27014309e-01],
   [ -1.37570053e-01,   1.28622308e-01,   5.77001050e-02,  -3.60582508e-02,
     -1.46663830e-01,   1.39569387e-01,   1.04128465e-01,   2.55096126e-02,
     -8.36809576e-02,  -9.99312624e-02,   5.47799580e-02,   4.84452397e-02,
     -1.14922021e-02,   3.50123271e-02,  -1.15514517e-01,   1.31195504e-02,
     -7.39360675e-02,   4.13196115e-03,  -1.73006043e-01,   2.40274876e-01],
   [ -2.50400931e-01,   9.88220572e-02,  -6.87741116e-02,  -2.71443993e-01,
     -2.16831714e-01,   2.72915643e-02,   2.22410873e-01,  -1.61360592e-01,
      2.59985149e-01,  -1.83788016e-02,  -1.68287367e-01,   1.51118229e-03,
     -2.18002513e-01,  -1.15220122e-01,  -2.75916487e-01,   8.17785934e-02,
      1.50168072e-02,  -6.58515319e-02,  -3.47874224e-01,   4.52518500e-02],],

  [[ -2.72710919e-01,   1.42245904e-01,  -7.23060444e-02,   6.59708772e-03,
     -1.03720084e-01,  -2.86124140e-01,  -1.37462929e-01,   1.68517604e-01,
      4.19356152e-02,   2.87002265e-01,   2.03911457e-02,  -1.00237869e-01,
      3.64291370e-02,  -9.38740447e-02,  -2.27939427e-01,  -6.11775443e-02,
      3.43636990e-01,   1.33236974e-01,  -1.23447841e-02,   1.63561031e-02],
   [  2.49809884e-02,  -1.13925986e-01,  -2.57510066e-01,  -2.98002288e-02,
      3.70920524e-02,   2.04082429e-01,  -3.62010658e-01,  -8.36453214e-02,
      2.52387226e-01,   2.36508399e-01,  -6.26060516e-02,  -1.06572874e-01,
      2.58401837e-02,  -1.75786272e-01,  -3.76459733e-02,  -1.10235415e-01,
      1.20981270e-03,   5.88213131e-02,   3.71837676e-01,   3.62967849e-01],
   [ -2.48380210e-02,  -6.97160661e-02,  -4.11437154e-01,  -1.55522466e-01,
     -3.59073915e-02,  -6.03710227e-02,  -1.27079844e-01,  -2.70814225e-02,
     -1.07396625e-01,   1.20105185e-01,  -2.94790149e-01,   2.19340902e-02,
      1.46931827e-01,   3.04583877e-01,  -1.82593033e-01,  -1.27904028e-01,
      9.42952856e-02,   5.47982343e-02,  -2.62424886e-01,   4.90142033e-02],
   [ -1.70526654e-01,   6.08659759e-02,   1.25999540e-01,  -4.52160351e-02,
      1.02092259e-01,   6.00765496e-02,  -8.67598429e-02,  -2.14311346e-01,
     -1.31578311e-01,  -1.01425231e-01,  -1.92851320e-01,  -1.56906862e-02,
      2.37523895e-02,   5.94342723e-02,  -1.18450418e-01,   2.52632480e-02,
     -4.62287739e-02,  -5.94260953e-02,   1.25377819e-01,  -1.47542804e-01],
   [ -1.88737195e-02,   1.52103767e-01,  -3.86483781e-03,  -7.39000142e-02,
     -3.36642303e-02,   4.21462022e-02,   2.13964790e-01,  -1.37425050e-01,
     -1.10716270e-02,  -2.71026462e-01,  -3.34229171e-01,   1.74432188e-01,
     -1.55059546e-01,   1.75420582e-01,   8.22737217e-02,  -4.34641205e-02,
     -6.79416731e-02,   8.68587270e-02,   6.13338232e-01,   4.18344624e-02],
   [ -4.28063236e-02,  -1.67106628e-01,  -1.75210983e-01,  -7.80500844e-02,
     -3.01711950e-02,  -7.44584352e-02,   9.56237242e-02,  -1.02886841e-01,
     -2.93512017e-01,  -3.44348073e-01,   1.52296824e-02,  -4.01607484e-01,
     -8.48108903e-02,  -4.28650886e-01,   9.02827978e-02,   2.03544274e-03,
     -1.61092952e-01,  -3.25756669e-02,  -2.01782614e-01,  -1.72792356e-02],
   [ -4.82664444e-02,  -1.83716103e-01,   1.14795536e-01,  -2.33883355e-02,
      1.04726918e-01,  -6.98119849e-02,  -2.63807941e-02,   5.07276040e-03,
      4.23930623e-02,  -3.66713814e-02,   2.55171470e-02,  -4.81540971e-02,
      1.52960107e-01,  -1.65155768e-01,  -2.48263419e-01,   1.32128105e-01,
      3.23777832e-02,  -3.27703953e-02,  -2.58372366e-01,   1.45969659e-01],
   [ -1.46821558e-01,   2.14404732e-01,  -5.04889712e-02,  -4.89959978e-02,
     -1.08608708e-01,  -1.54554248e-01,  -2.88172334e-01,   2.43343368e-01,
     -1.67734027e-02,  -7.60679245e-02,   2.53049970e-01,  -5.56793869e-01,
      6.07010871e-02,  -2.16747105e-01,   9.22709517e-03,   3.27722579e-01,
     -4.38058645e-01,   7.76935667e-02,  -4.54845220e-01,  -2.88136214e-01],
   [ -2.24398635e-02,   4.60657664e-02,   8.03222731e-02,   4.97433022e-02,
     -1.14686549e-01,   1.07575864e-01,  -1.58278331e-01,  -7.10919499e-02,
     -1.11471862e-01,  -4.54592034e-02,   6.81591406e-02,  -1.66164085e-01,
     -4.82768305e-02,   4.87742946e-02,  -2.73645461e-01,  -1.76408723e-01,
      2.07397714e-03,   1.75773293e-01,  -1.81943725e-03,  -4.84035790e-01],
   [  1.41371414e-01,   3.57111841e-01,   1.59562901e-01,   2.60522574e-01,
     -2.29668304e-01,   7.43779689e-02,  -1.93082988e-01,  -3.33676845e-01,
      1.97427496e-02,   9.52457488e-02,  -1.37456954e-01,  -1.39374301e-01,
      1.70721605e-01,   1.40279308e-01,  -1.33655563e-01,   2.14555770e-01,
     -1.47087470e-01,   1.77986607e-01,  -1.04277447e-01,  -5.38267866e-02],
   [  9.95354205e-02,   2.88586527e-01,   1.52623817e-01,  -3.58169079e-02,
      1.21037506e-01,  -3.12491536e-01,  -1.22125693e-01,  -2.35129714e-01,
     -4.26025182e-01,   3.43900770e-02,  -2.34411895e-01,  -2.41410062e-01,
     -1.14115015e-01,  -1.59019306e-01,  -1.35052592e-01,   1.32077023e-01,
      3.84527594e-02,  -2.14722082e-01,  -2.10517943e-01,  -1.59335181e-01],
   [  5.41103706e-02,  -4.74089347e-02,  -1.16023421e-02,  -2.63692513e-02,
      2.92435046e-02,   1.22158485e-03,  -1.72597662e-01,  -8.95991921e-02,
      1.69703607e-02,   1.87308401e-01,   7.51183704e-02,   3.31521109e-02,
     -7.89678618e-02,  -1.05480976e-01,   1.69290900e-02,   1.19855143e-01,
      2.21643090e-01,  -2.00144231e-01,   3.46171856e-01,  -4.82925139e-02],
   [ -2.33219519e-01,   7.18604475e-02,   6.30826652e-02,  -1.49404168e-01,
      1.66002601e-01,   1.06454462e-01,  -7.94449523e-02,   3.77505608e-02,
     -3.12379301e-01,  -4.22297679e-02,   1.22484729e-01,  -4.58838403e-01,
      1.32150441e-01,  -3.87561135e-02,   2.56174803e-01,   1.58089593e-01,
     -1.94872096e-01,  -8.87826830e-02,   1.10149682e-01,  -1.30355448e-01],
   [ -1.35178253e-01,  -1.92261245e-02,   4.33951756e-03,   1.48071041e-02,
      3.44540784e-03,  -1.79540049e-02,   8.58504593e-01,  -1.14005357e-02,
     -2.50399321e-01,  -4.97331887e-01,  -4.73959558e-02,   3.74876000e-02,
     -1.37222754e-02,  -1.38238259e-02,  -1.53791144e-01,  -3.91781330e-02,
     -1.02546252e-01,  -1.94005221e-01,   1.86164510e-02,  -1.28095299e-01],
   [ -7.95727447e-02,  -1.74871281e-01,  -2.38298938e-01,  -1.51892781e-01,
      1.04238510e-01,  -7.48823360e-02,  -2.22503439e-01,  -6.37717918e-03,
      8.19081366e-02,   9.60320458e-02,  -2.31097993e-02,  -4.37102746e-04,
     -2.09562212e-01,  -4.39173616e-02,   2.68747993e-02,  -6.53325170e-02,
     -1.09318465e-01,   9.93560418e-04,   1.41449213e-01,   2.79444188e-01],
   [ -2.12339461e-01,   2.30158165e-01,   3.79391350e-02,  -7.21764863e-02,
     -1.51979670e-01,   1.86003242e-02,   4.30608578e-02,   9.62222519e-04,
     -3.08118612e-01,  -3.34875554e-01,  -5.92532493e-02,   8.46739709e-02,
      9.88750383e-02,  -1.23216905e-01,  -8.47823024e-02,  -8.33783150e-02,
      8.66134185e-03,   2.46708736e-01,  -3.16447973e-01,  -2.97723830e-01],
   [ -1.88939795e-01,   3.26908231e-02,  -4.48246673e-02,  -2.24425308e-02,
     -5.28480858e-03,  -5.09911962e-02,   5.45609519e-02,   3.79195213e-02,
      5.65025024e-03,   1.08081199e-01,   1.64519459e-01,   2.05237456e-02,
     -9.80098024e-02,  -3.44767720e-02,  -6.87490124e-03,  -8.53044614e-02,
      1.25804516e-02,  -6.30651414e-02,  -1.42678604e-01,   4.99078110e-02],
   [ -3.87150384e-02,   1.98585261e-02,  -2.14099273e-01,  -5.58105186e-02,
      6.25433624e-02,  -8.00919011e-02,   2.61325538e-01,  -4.11831699e-02,
     -2.47912496e-01,  -4.10222411e-02,   3.61925736e-02,   1.08053118e-01,
     -1.49843901e-01,  -3.55928093e-01,   7.83284083e-02,  -5.55704767e-03,
      1.01996213e-01,   6.89001307e-02,   3.45935151e-02,  -2.83821262e-02],
   [ -1.32889807e-01,  -1.21216580e-01,   1.27119049e-01,  -8.97227041e-03,
     -1.44466370e-01,  -3.02828010e-02,  -8.89091715e-02,   5.98323680e-02,
      4.62741777e-02,  -1.23340720e-02,  -7.99263269e-02,   5.03145680e-02,
     -1.86918855e-01,  -6.66623423e-03,  -1.06302522e-01,  -1.26572296e-01,
      6.15792312e-02,   2.83798128e-01,  -2.68393129e-01,   6.94598034e-02],
   [ -1.68186277e-01,   1.57851532e-01,   1.35944337e-01,  -2.88791656e-01,
      1.83784869e-02,  -8.76344070e-02,  -2.30151400e-01,  -1.69195145e-01,
     -3.43536772e-02,  -1.48702830e-01,  -1.85271085e-03,  -1.12533800e-01,
      1.51874647e-01,  -1.32188559e-01,  -7.05040470e-02,   1.95492864e-01,
     -5.70103973e-02,  -2.78970122e-01,  -1.21536270e-01,  -5.04736662e-01],
   [ -2.80495316e-01,  -1.41331092e-01,   1.31799420e-03,   4.75404449e-02,
      1.22633688e-01,  -4.06094976e-02,  -1.86211571e-01,  -1.54291987e-01,
     -2.21483260e-02,   6.41536489e-02,  -2.26132855e-01,   5.36494553e-02,
     -5.93723878e-02,   1.52974933e-01,   2.36688238e-02,  -2.57426441e-01,
     -1.74131244e-01,  -2.52053067e-02,   1.55182824e-01,  -8.20691735e-02],
   [  6.17924929e-02,  -2.53353064e-04,  -5.82155176e-02,  -7.60697871e-02,
     -1.56443164e-01,  -1.97147146e-01,  -2.85436302e-01,   8.12826157e-02,
      3.64248976e-02,   7.44300187e-02,  -1.66802809e-01,  -4.21072869e-03,
     -1.32083893e-01,  -1.18803814e-01,  -6.00580312e-02,  -1.10075645e-01,
      1.45075276e-01,  -6.82907999e-02,   1.30315155e-01,   1.65235311e-01],
   [  1.86994225e-01,  -4.31030057e-02,  -1.32384256e-01,  -1.52024314e-01,
      7.35430568e-02,   2.06481174e-01,  -1.57960594e-01,   8.77790898e-02,
     -1.05783202e-01,  -1.77114367e-01,   1.20646060e-01,   1.08628184e-01,
     -1.44289419e-01,   1.21099576e-02,  -6.15582727e-02,   1.80228189e-01,
      2.59395596e-03,   1.60668120e-02,  -2.66561419e-01,   1.33781388e-01],
   [  1.04889750e-01,  -2.52021849e-01,  -3.62761803e-02,  -1.47356093e-01,
     -1.91070382e-02,   4.82410401e-01,   4.60519604e-02,  -1.19291164e-01,
      3.15044150e-02,   8.43312368e-02,  -1.39321387e-01,  -4.28499728e-02,
     -6.41636476e-02,  -1.73745260e-01,  -1.78986385e-01,  -1.58592522e-01,
     -7.54232332e-02,  -5.17502055e-02,   1.00893997e-01,  -1.07140198e-01],
   [  2.27787778e-01,   1.49589032e-01,  -1.82201937e-01,   1.45161152e-01,
     -4.05501761e-02,  -2.18701046e-02,   1.02903046e-01,  -5.07980399e-02,
     -6.49379790e-02,  -1.91498145e-01,  -1.54153600e-01,   5.36581166e-02,
     -8.09348151e-02,  -2.98128635e-01,   1.41693741e-01,   1.55822888e-01,
     -8.22893381e-02,  -1.80169046e-01,  -5.02688251e-03,   1.09394372e-01],
   [ -1.38018087e-01,  -2.33713046e-01,  -2.19054163e-01,   5.60088344e-02,
     -1.87285066e-01,  -3.90706249e-02,   1.52550044e-03,   1.62756201e-02,
     -7.86227360e-02,   4.73986641e-02,  -3.31235118e-02,  -1.02571659e-01,
     -1.11929491e-01,   2.63081063e-02,   9.61834844e-03,  -1.43779889e-01,
      8.76455233e-02,  -4.22793217e-02,   1.42773673e-01,  -8.60937908e-02],
   [ -1.48779586e-01,  -1.09875202e-01,  -7.78277442e-02,  -1.50765181e-01,
     -8.69967937e-02,  -1.94111675e-01,  -1.81158677e-01,  -1.31236121e-01,
      1.77604675e-01,   1.61375120e-01,  -1.34269714e-01,   1.12777939e-02,
      3.03452108e-02,   6.84742630e-02,  -7.17713162e-02,  -1.08193606e-01,
     -2.87999865e-02,  -1.79733023e-01,   1.84604496e-01,  -1.51582390e-01],
   [  1.53565720e-01,  -8.71845037e-02,  -4.88139570e-01,   7.47862905e-02,
     -3.73888761e-04,   1.04240812e-01,   1.43809929e-01,   6.60025477e-02,
      7.93790221e-02,  -1.02690414e-01,  -2.24347755e-01,  -2.87032366e-01,
      7.69202039e-02,   5.22944741e-02,  -1.35509789e-01,  -1.09818578e-01,
     -6.27261549e-02,   1.65171012e-01,   3.97160619e-01,   1.50775328e-01],
   [ -2.61134386e-01,  -3.21324891e-03,   2.96425372e-01,  -1.54467925e-01,
      2.93396786e-03,  -9.56828594e-02,   1.40214667e-01,  -1.86352566e-01,
     -2.25747660e-01,  -1.66495815e-02,  -7.27893040e-02,  -9.07730982e-02,
      3.33208367e-02,  -2.29506940e-01,   1.89404756e-01,  -2.58830953e-02,
      8.93567875e-02,  -1.53756097e-01,  -1.80276424e-01,  -3.01890135e-01],
   [ -8.35140273e-02,  -6.18793890e-02,  -9.64582786e-02,   1.49854543e-02,
      8.32013786e-03,  -1.83363985e-02,   2.44572416e-01,  -1.83324948e-01,
     -5.40947318e-02,  -7.98133090e-02,  -6.89036353e-03,  -1.33479133e-01,
      1.30137224e-02,  -2.86910743e-01,  -1.93330720e-01,  -2.02316120e-02,
      1.57843940e-02,  -1.89875200e-01,  -3.76786999e-02,  -3.07340235e-01],
   [ -3.01133394e-01,  -1.18289739e-01,   2.84153670e-01,  -1.36692459e-02,
     -2.31741145e-02,  -1.49097010e-01,   4.82258126e-02,  -1.34034887e-01,
      1.28124785e-02,  -5.66288866e-02,  -1.58069447e-01,   1.08433596e-04,
      9.92200375e-02,  -5.93648106e-02,   1.32581711e-01,   1.03246257e-01,
     -9.62147266e-02,  -1.65409800e-02,  -1.80160612e-01,  -1.25248984e-01],
   [  6.23171367e-02,   3.52277532e-02,   7.38714188e-02,  -1.73096098e-02,
     -3.69491756e-01,  -7.08636716e-02,  -3.30488324e-01,   8.00604895e-02,
      2.38542214e-01,   5.54468744e-02,  -8.34698007e-02,  -1.76019549e-01,
     -1.18276685e-01,   1.73717946e-01,  -4.97280031e-01,  -4.75361869e-02,
     -1.70087412e-01,  -3.37165259e-02,  -4.43093553e-02,  -9.20000300e-02],],

  [[ -1.67351007e-01,  -8.72347206e-02,   1.15726575e-01,   7.09285587e-02,
      3.31299096e-01,  -1.40107974e-01,   3.74021560e-01,   2.25651175e-01,
     -3.58688325e-01,  -7.55166039e-02,   3.20831269e-01,   4.09435600e-01,
      1.91838652e-01,  -3.82612735e-01,  -1.31612375e-01,   8.51025432e-02,
      2.04729915e-01,   1.32682621e-01,   8.09127912e-02,  -2.93258011e-01],
   [ -1.17496669e-01,  -4.69069704e-02,   9.37629789e-02,  -5.37495054e-02,
      2.41684988e-02,   2.19737634e-01,   2.09033415e-01,   2.66565442e-01,
      2.82092839e-01,  -2.02210397e-01,   1.19129866e-01,  -6.46551186e-03,
     -2.12480024e-01,  -2.32167658e-03,  -6.52959570e-02,  -2.43391991e-01,
     -7.54470900e-02,   7.60244653e-02,  -4.71077144e-01,  -3.09432387e-01],
   [ -1.46456882e-01,   1.04311425e-02,  -2.72090942e-01,  -1.66880175e-01,
     -3.34120780e-01,  -7.72422180e-03,  -9.07731056e-02,  -1.66962430e-01,
     -8.07645619e-02,  -8.48005340e-02,  -8.05444121e-02,  -1.02919996e-01,
      3.54533903e-02,  -1.36603862e-01,  -2.44605973e-01,   9.30558071e-02,
     -1.15681484e-01,  -3.53511074e-03,  -2.23235771e-01,  -2.17652768e-01],
   [ -1.41076343e-02,  -1.57456934e-01,  -6.56157061e-02,   3.85523848e-02,
     -1.72252759e-01,   1.75513819e-01,   1.22321539e-01,  -1.50928020e-01,
     -5.44239357e-02,   6.47228658e-02,  -9.42444205e-02,   7.93455318e-02,
     -6.70539215e-02,  -1.19631447e-01,   4.85561639e-02,  -5.39657623e-02,
     -4.56135301e-03,   2.93600976e-01,  -1.15060389e-01,  -2.36767784e-01],
   [  4.91766632e-03,   1.28528744e-01,  -1.41984418e-01,  -1.29467651e-01,
      7.68969655e-02,  -2.21038282e-01,   4.46835279e-01,   1.15461692e-01,
      3.26076925e-01,   5.66450000e-01,   3.22453141e-01,   9.88461450e-02,
     -5.16448207e-02,  -1.02101520e-01,  -5.90004921e-02,   1.88250110e-01,
     -7.14270175e-02,  -3.39275479e-01,   3.18472922e-01,   1.97526682e-02],
   [  2.78327227e-01,  -2.54048735e-01,  -1.58088446e-01,  -2.52415001e-01,
     -2.02316325e-02,  -1.49073690e-01,   1.40644804e-01,  -7.23414347e-02,
     -2.44644672e-01,   1.17738992e-01,  -5.35650700e-02,  -4.58569936e-02,
      4.33737375e-02,  -3.56619447e-01,   1.21863686e-01,  -7.48670623e-02,
     -9.94803235e-02,  -1.06164716e-01,   1.06079817e-01,  -3.53565812e-01],
   [  9.29741710e-02,   7.14606345e-02,   3.41023415e-01,   1.44980624e-01,
