[[ -1.14765793e-01,  -1.52515573e-02,   1.15063719e-01,   2.75963377e-02,
    1.58462688e-01,   3.35760042e-02,   4.55603236e-03,   2.73936875e-02,
   -3.20619754e-02,  -1.67594552e-02],
 [  2.50574183e-02,   4.31612469e-02,   1.81722477e-01,   5.24063110e-02,
   -3.32792588e-02,   3.05322632e-02,   5.90257794e-02,  -1.13938950e-01,
   -5.68751134e-02,  -2.60303766e-02],
 [  3.23328637e-02,  -2.01106649e-02,  -3.75903696e-02,  -2.40287092e-03,
    2.54220366e-01,  -2.55960841e-02,   1.54577894e-03,  -4.95714061e-02,
    3.58109027e-02,  -4.58102413e-02],
 [  1.51131675e-02,   3.42457928e-02,  -6.12383150e-02,   1.95669174e-01,
    7.53924483e-03,   6.80336654e-02,   4.73622326e-03,   3.69072184e-02,
   -6.41380697e-02,   3.49926809e-03],
 [  9.59105119e-02,  -3.02419774e-02,   5.79055436e-02,   4.49053757e-03,
    2.13297526e-03,  -9.31684021e-03,   9.12439916e-03,   3.42474915e-02,
   -5.11079393e-02,  -2.43296064e-02],
 [ -7.89965168e-02,  -1.11490702e-02,   4.52539399e-02,   1.25022054e-01,
   -1.45944282e-02,   4.22220565e-02,   1.22004980e-02,   6.09845854e-02,
   -2.21074885e-03,  -6.24824800e-02],
 [  4.07464430e-02,   1.54565871e-01,  -4.55138683e-02,  -4.67685349e-02,
   -2.82626394e-02,  -1.81878991e-02,   8.53283796e-03,   1.02160405e-02,
    2.02451032e-02,  -3.45518477e-02],
 [ -1.38919931e-02,  -7.86530785e-03,  -3.57617904e-03,  -5.33029549e-02,
   -2.22156681e-02,  -5.22420481e-02,   1.14307337e-01,   5.13832234e-02,
   -1.30614378e-02,   8.40451643e-02],
 [  3.56539786e-02,   8.69589075e-02,  -3.55646499e-02,  -4.33385856e-02,
   -5.51279932e-02,  -1.00941919e-01,   8.49306285e-02,  -4.51913886e-02,
    1.75842628e-01,   1.93262976e-02],
 [  4.01752926e-02,   6.62627891e-02,  -3.30997482e-02,   7.04694726e-03,
   -6.47002235e-02,  -2.95151602e-02,  -3.66709866e-02,   7.45705813e-02,
   -3.51156965e-02,   6.37236163e-02],
 [  2.81582959e-02,  -6.79927878e-03,   4.06549126e-02,   1.16903614e-02,
    5.34293940e-03,  -4.17384179e-03,   2.49275312e-01,  -5.75309321e-02,
   -2.52162460e-02,  -3.60852554e-02],
 [  2.24675592e-02,   1.97372283e-03,  -7.59583786e-02,   7.23135397e-02,
   -3.90683226e-02,  -5.12264781e-02,  -8.36095810e-02,   1.80648603e-02,
    6.21729605e-02,   1.83193028e-01],
 [ -7.42910951e-02,   6.77693412e-02,  -3.70661356e-02,   3.08246668e-02,
    8.58894363e-02,   6.84703588e-02,   3.85947973e-02,   4.32839207e-02,
   -4.51417007e-02,  -2.05002110e-02],
 [  1.97730422e-01,  -3.44541832e-03,  -1.56659214e-03,  -2.06955876e-02,
   -2.39972975e-02,  -4.21352349e-02,  -7.73100406e-02,   8.45903344e-03,
    5.87025508e-02,  -2.38916697e-03],
 [ -2.50328854e-02,  -3.17588151e-02,   1.23027399e-01,  -7.22702816e-02,
   -9.05889794e-02,   1.38386316e-03,   2.64346376e-02,   7.38682300e-02,
    8.48159641e-02,   4.97724228e-02],
 [ -2.33266726e-02,  -4.79026772e-02,   1.56264424e-01,   4.14697416e-02,
   -8.96865223e-03,   1.03674464e-01,   1.95238218e-02,   1.51068553e-01,
   -1.18505374e-01,  -3.63239571e-02],
 [  1.72055990e-01,  -6.43059388e-02,   2.13089511e-02,  -4.82058302e-02,
    2.24185791e-02,  -5.04464917e-02,  -8.00760537e-02,   5.08987010e-02,
    1.67892277e-01,   8.22223946e-02],
 [ -1.01927422e-01,  -6.92375563e-03,   1.32299103e-02,   7.18955845e-02,
    3.18042338e-02,   1.93287000e-01,  -1.41616957e-02,   4.90431534e-03,
   -1.02253258e-02,  -6.32243082e-02],
 [ -3.25528271e-02,  -6.73327670e-02,  -3.85758877e-02,   4.16866802e-02,
    6.46437407e-02,   3.84713300e-02,  -4.07920266e-03,   2.22969025e-01,
   -5.11127971e-02,  -2.17812601e-03],
 [ -5.71108572e-02,   6.50327504e-02,   9.84516144e-02,   2.92408131e-02,
    1.04821108e-01,   6.05797134e-02,  -3.59528139e-02,  -1.09358355e-01,
   -3.94762605e-02,   2.51481379e-03],
 [ -4.54650633e-02,   6.48992881e-02,  -2.65891124e-02,   1.58673450e-02,
    6.47859722e-02,   1.53489960e-02,  -1.88291837e-02,  -3.55764776e-02,
   -3.44549939e-02,   5.63117415e-02],
 [  5.39272167e-02,  -3.81337442e-02,   9.61662233e-02,  -1.68204196e-02,
   -9.24384966e-03,  -4.05273847e-02,  -2.42349543e-02,   2.62551531e-02,
    4.65731844e-02,  -7.63970986e-03],
 [  6.66032210e-02,  -6.84662312e-02,   1.05680805e-02,   4.97978255e-02,
    1.52420625e-01,  -3.26438285e-02,  -3.49135622e-02,  -7.44211627e-03,
    9.63635510e-04,  -2.37842053e-02],
 [  4.31600437e-02,   1.45898014e-02,  -3.67662460e-02,   1.33817792e-01,
   -1.31188016e-02,   5.26644997e-02,  -3.87100354e-02,   9.84003022e-02,
   -2.30223276e-02,  -6.98398277e-02],
 [  5.01792133e-02,  -4.68540154e-02,   6.36410341e-02,  -1.18522896e-02,
    1.80491172e-02,  -7.23147718e-03,  -1.29686734e-02,   6.21601455e-02,
   -3.35499756e-02,  -1.70627143e-02],
 [ -7.65010044e-02,  -2.83840168e-02,   5.14436327e-03,   1.31039873e-01,
    5.30789420e-03,   6.61889240e-02,   5.56384958e-02,  -2.43699644e-04,
   -2.72345496e-03,  -8.58617648e-02],
 [  2.03313176e-02,   1.68926671e-01,  -3.78769562e-02,  -4.52189036e-02,
   -1.60577632e-02,  -2.93174405e-02,  -9.86295659e-03,  -3.95903811e-02,
   -1.48085700e-02,   3.85955013e-02],
 [  7.31411204e-02,   8.51143822e-02,  -3.47425081e-02,  -7.91608021e-02,
   -2.92898901e-02,  -9.99485031e-02,   1.27277464e-01,  -2.31011678e-02,
    5.56694902e-02,   8.54485109e-03],
 [  2.11940822e-03,   4.95811552e-02,  -2.38551805e-03,  -6.93617240e-02,
   -8.72877762e-02,  -4.40715402e-02,   3.40279005e-02,  -2.61329319e-02,
    1.69030830e-01,   6.91626295e-02],
 [ -1.37250433e-02,   1.40892148e-01,  -3.52388956e-02,  -1.49918944e-02,
   -7.12503493e-02,   2.22065812e-03,   1.59577113e-02,  -7.62523934e-02,
    1.97718460e-02,   7.33131692e-02],
 [  1.56637523e-02,  -9.85070970e-03,   9.45224240e-03,   3.53355035e-02,
    6.40519569e-03,  -6.11952357e-02,   2.32497022e-01,  -3.69442962e-02,
   -2.10125502e-02,  -2.91107129e-02],
 [  8.21867213e-03,  -1.85728874e-02,   3.45187254e-06,   1.78623591e-02,
   -9.10548307e-03,  -4.32639308e-02,  -7.14736879e-02,  -2.54407469e-02,
    7.98498243e-02,   1.28500313e-01],
 [ -6.53722957e-02,  -1.11362645e-02,  -9.38568916e-03,  -2.59465277e-02,
    1.80633247e-01,   4.04845886e-02,   1.51239783e-02,  -1.10225556e-02,
   -2.32537910e-02,   1.28834769e-02],
 [  1.76641241e-01,  -3.22002321e-02,  -3.25622596e-02,  -3.36449151e-03,
    4.19971114e-03,   1.57703515e-02,  -4.83511128e-02,   2.28098291e-03,
    6.25487557e-03,  -2.69209687e-02],
 [  2.27963664e-02,  -3.23084965e-02,  -1.61375180e-02,   8.99735838e-03,
   -6.27456009e-02,   7.57902637e-02,   2.84702852e-02,   5.53275049e-02,
    2.35014055e-02,  -3.37221064e-02],
 [ -5.52151576e-02,  -5.30753061e-02,   1.43798783e-01,  -3.00410320e-03,
    3.33009511e-02,   1.93621218e-03,   2.35469267e-02,   8.08781106e-03,
   -1.94852129e-02,  -1.77400503e-02],
 [ -4.30987664e-02,  -5.69935981e-03,  -1.76028386e-02,  -7.86359087e-02,
   -1.06119432e-01,   1.32208003e-03,  -3.37890387e-02,   2.49882758e-01,
    1.27787858e-01,  -2.68459767e-02],
 [ -1.01845013e-02,  -4.92362306e-02,   5.39673120e-03,  -1.46696996e-02,
   -2.29565576e-02,   1.25739619e-01,   1.29329972e-02,   4.88797911e-02,
   -7.93579873e-03,  -4.53049503e-02],
 [ -3.80122475e-02,  -5.54182902e-02,  -5.36682606e-02,   2.06796732e-02,
    5.72127551e-02,   7.61900023e-02,   7.16393068e-03,   1.77947998e-01,
   -2.48114709e-02,  -2.55176034e-02],
 [ -6.04538843e-02,   1.22332014e-01,   5.50459810e-02,  -6.05472270e-03,
    8.56729969e-02,   8.66002291e-02,   5.10407835e-02,  -1.84000731e-01,
   -5.42736873e-02,   2.39073094e-02],
 [ -6.76310211e-02,   8.05203989e-03,   2.74654701e-02,  -3.62879671e-02,
    5.61701953e-02,  -3.11730467e-02,  -8.36808421e-03,   6.20039627e-02,
   -2.03172769e-02,   4.37599644e-02],
 [  1.16917947e-02,  -6.74041919e-03,   1.48037404e-01,   6.79007173e-02,
   -2.15547383e-02,   5.05449660e-02,   9.53880996e-02,  -7.87074193e-02,
   -3.13778631e-02,  -7.91183114e-02],
 [ -1.90487632e-03,  -4.51305993e-02,   2.36877240e-03,  -2.72214704e-04,
    1.32168651e-01,   3.36695500e-02,  -2.05949810e-03,  -5.54712489e-02,
    3.35019566e-02,  -3.70739959e-02],
 [ -1.69601385e-02,  -4.14756238e-02,  -1.54009936e-02,   1.17671303e-01,
   -1.60282552e-02,   1.08207859e-01,   2.95927264e-02,   7.72455856e-02,
   -1.04502432e-01,  -1.14820609e-02],
 [ -2.70369872e-02,   1.17451690e-01,  -2.32506543e-02,  -2.59071924e-02,
   -2.71014925e-02,  -6.48366436e-02,   3.75242196e-02,   6.09193482e-02,
   -1.19991545e-02,   2.86147743e-03],
 [ -6.10207394e-02,  -4.07260768e-02,   5.53715508e-03,   3.21750119e-02,
    2.15657856e-02,  -1.69628505e-02,  -2.63928007e-02,   1.04684547e-01,
   -3.18462923e-02,   1.24800555e-01],
 [ -3.39935836e-03,   9.01216418e-02,  -5.47371097e-02,  -3.05928886e-02,
   -2.48453561e-02,  -6.09838329e-02,   2.87502594e-02,   5.09081483e-02,
   -2.18589287e-02,   5.54037020e-02],
 [  1.79495048e-02,  -9.64965113e-03,   6.88858479e-02,   1.06493495e-01,
    1.35496691e-01,  -6.50178269e-02,  -1.89995989e-02,  -6.99202716e-02,
    1.05567552e-01,  -7.68131390e-02],
 [ -4.22269963e-02,   9.33762491e-02,   7.76535366e-03,   1.73461996e-02,
   -7.40548521e-02,  -6.06102757e-02,  -2.59946231e-02,   5.55425473e-02,
    5.63957952e-02,   6.09416030e-02],
 [  9.89997536e-02,   7.90269300e-03,   6.64843293e-03,  -1.00820258e-01,
    5.15678674e-02,  -2.37248298e-02,  -6.88403696e-02,  -2.41477229e-02,
    1.31751239e-01,  -3.73210921e-03],
 [ -1.63220242e-01,   5.22354245e-03,   1.05287328e-01,   4.83939759e-02,
    4.55832481e-02,   1.78462520e-01,   4.53304835e-02,   1.24310113e-01,
   -6.66564852e-02,  -7.10725933e-02],
 [  1.02669364e-02,   1.10048708e-02,  -6.21358529e-02,   3.08923274e-02,
    1.16801029e-02,  -1.71746574e-02,  -6.38224110e-02,  -1.52532700e-02,
    3.91622558e-02,   1.35944515e-01],
 [ -6.04193024e-02,   1.15097053e-02,  -1.41711906e-02,   1.76370926e-02,
    8.67835954e-02,   7.54929893e-03,   1.48182705e-01,  -1.54608337e-03,
   -3.60781439e-02,  -1.72113515e-02],
 [  1.08652413e-01,   4.40179892e-02,  -2.51857024e-02,   1.18262982e-02,
   -7.43276030e-02,  -2.22945306e-02,  -6.09339364e-02,  -6.47609169e-03,
    2.29215669e-03,   6.66498765e-02],
 [  7.03707263e-02,   1.70251094e-02,   6.52834028e-02,  -5.54631241e-02,
   -2.80141979e-02,  -1.17768243e-01,  -1.62540842e-02,   2.23794058e-02,
    1.31957665e-01,   3.66832614e-02],
 [ -2.35296134e-03,   1.12532545e-02,   1.64453447e-01,   4.46560606e-02,
   -2.03699693e-02,   1.59979947e-02,   1.95306949e-02,  -4.34000343e-02,
   -3.33088897e-02,  -6.63241073e-02],
 [ -4.08617221e-02,  -3.78071517e-02,  -1.44043937e-02,  -4.08474393e-02,
   -5.02025038e-02,  -3.37865576e-02,   9.08200629e-03,   5.64679354e-02,
    2.05937549e-01,   4.00275961e-02],
 [  2.43544597e-02,   5.61218522e-02,  -1.07524404e-02,   2.35047042e-02,
   -9.98132862e-03,   9.19863433e-02,  -1.52267125e-02,   1.65260602e-02,
   -7.86105916e-02,  -3.53264734e-02],
 [ -1.12730404e-02,   2.27897037e-02,  -3.22228335e-02,   2.34538857e-02,
    4.91964482e-02,   4.53645550e-03,  -4.10505645e-02,   1.04324020e-01,
   -2.79226657e-02,  -2.91682296e-02],
 [ -1.14068110e-02,  -1.35598821e-03,   5.16506732e-02,  -4.08453606e-02,
    7.23686591e-02,   2.20009070e-02,  -6.93593472e-02,   8.35658759e-02,
   -2.11774688e-02,  -1.47267701e-02],
 [ -3.67804728e-02,  -1.21370973e-02,   6.39914870e-02,  -5.46388328e-04,
    1.25152797e-01,   1.30474828e-02,   4.99441549e-02,   4.87082005e-02,
   -9.03916266e-03,  -6.14234172e-02],
 [ -4.77462541e-03,  -5.29876864e-03,   8.99759978e-02,   2.21449081e-02,
    1.66003853e-02,  -3.91153879e-02,   4.44658697e-02,  -1.27715226e-02,
   -3.46831903e-02,   3.77129274e-03],
 [ -6.65050279e-03,  -1.65085471e-03,  -3.79513316e-02,  -7.55080255e-03,
    5.57954870e-02,  -9.36125498e-03,   9.21538845e-03,  -2.43322905e-02,
    8.61547887e-02,  -1.84104629e-02],
 [ -3.60255577e-02,   1.79363698e-01,  -4.74249497e-02,  -8.37717429e-02,
   -5.47115505e-02,  -1.88375451e-02,   1.53742339e-02,  -2.81717535e-02,
   -1.65978365e-03,   1.38745815e-01],
 [  1.28602415e-01,  -6.42774999e-02,   2.05537826e-01,  -4.18326110e-02,
    5.28266318e-02,  -3.84688526e-02,   5.90471271e-03,  -9.45438724e-03,
   -5.52613214e-02,  -7.97938630e-02],
 [ -6.59503415e-02,  -6.26378953e-02,  -9.37791076e-03,   1.86163157e-01,
    6.24958146e-03,   6.82489872e-02,   7.18421489e-02,  -1.84497982e-02,
   -1.01238880e-02,  -4.59697060e-02],
 [  1.94622558e-02,   1.77897468e-01,  -3.72640342e-02,  -4.67353128e-02,
   -2.98731886e-02,  -5.55704534e-02,   1.06406314e-02,  -3.05360761e-02,
   -2.14761011e-02,   1.66633260e-02],
 [  4.20172103e-02,   1.32900495e-02,   7.05134347e-02,  -1.11144006e-01,
   -7.64642954e-02,  -5.28506599e-02,   3.59485708e-02,  -3.83176729e-02,
    9.94141102e-02,   8.66372287e-02],
 [  2.19242759e-02,   2.90073473e-02,  -3.98008339e-02,   2.16690432e-02,
   -2.64764130e-02,  -7.57729262e-02,   4.67224382e-02,  -6.18621111e-02,
    1.68511108e-01,  -3.75586636e-02],
 [ -7.45079201e-03,   1.64282799e-01,  -3.87046635e-02,  -3.80280837e-02,
   -5.39862737e-02,  -8.55163019e-03,   5.04488684e-03,  -1.14208180e-02,
   -3.16158943e-02,   7.13289976e-02],
 [ -2.94491067e-04,   4.24408307e-03,   3.98280919e-02,   6.69632256e-02,
    1.76018011e-02,   1.30291795e-02,   1.86875552e-01,  -6.03845902e-02,
   -6.93078041e-02,  -7.56904930e-02],
 [  1.84315480e-02,   1.46626337e-02,  -7.00813606e-02,  -2.41661351e-03,
   -4.93786223e-02,  -5.12641184e-02,  -6.62974715e-02,  -2.12267656e-02,
    1.13155536e-01,   2.09284917e-01],
 [ -1.37020694e-02,  -8.51453617e-02,  -3.14875059e-02,   6.10033795e-02,
    7.63648376e-02,   6.84404522e-02,   3.41794714e-02,   2.87171192e-02,
   -8.61361474e-02,   9.79859233e-02],
 [  5.74344434e-02,   9.30036511e-03,  -2.76597310e-02,  -1.23219639e-02,
   -3.54462513e-03,  -6.01199036e-03,  -2.25412492e-02,  -5.76396212e-02,
    6.12693653e-02,   1.61368269e-02],
 [  8.44145268e-02,   9.60585475e-02,  -1.18445680e-02,  -1.77894458e-02,
   -4.22354080e-02,  -7.53677487e-02,  -5.68302535e-02,  -1.37573276e-02,
   -4.18178067e-02,   1.18167393e-01],
 [  6.71415310e-03,  -3.68629433e-02,   6.18248247e-02,   3.86916213e-02,
    7.77279306e-03,   7.70828277e-02,   1.05430372e-02,   1.47883505e-01,
   -4.74599786e-02,  -1.83007102e-02],
 [  1.07415505e-01,  -3.61429453e-02,   6.42810315e-02,  -1.34754833e-02,
    3.87254395e-02,  -6.30252063e-02,   2.27734465e-02,  -1.06907353e-01,
    1.12352572e-01,  -2.74817254e-02],
 [ -4.74617966e-02,  -2.90657114e-02,  -5.79162538e-02,   5.66553697e-02,
    1.67346690e-02,   1.73957959e-01,   3.08236806e-03,  -5.58547582e-03,
   -5.78924268e-03,   2.64267367e-03],
 [ -9.60776117e-03,  -3.09965666e-02,   1.09297596e-02,   1.36031732e-02,
    7.74292946e-02,   2.95477919e-02,   2.35790890e-02,   1.21255815e-01,
   -7.00568408e-02,  -2.48904545e-02],
 [  8.29109177e-03,   2.18277816e-02,   3.51637006e-02,  -7.39435181e-02,
    2.72765514e-02,  -7.10590109e-02,  -2.68170685e-02,   1.21826455e-01,
   -7.24685006e-03,   4.63087671e-03],
 [ -5.03569320e-02,   1.16540920e-02,   1.61916241e-02,  -8.58484022e-03,
    9.29344818e-02,   1.38150901e-02,  -5.17605059e-03,   5.22211790e-02,
    5.74706262e-03,  -4.94877882e-02],
 [  7.09616914e-02,  -4.69795093e-02,   6.32551610e-02,  -2.73187216e-02,
    1.41573260e-02,  -7.27613568e-02,  -1.96577720e-02,   1.71122812e-02,
   -3.49165616e-03,   4.53885794e-02],
 [ -5.48261823e-03,  -1.80171188e-02,  -2.88715437e-02,   1.71807744e-02,
    1.11431077e-01,   1.10682491e-02,   4.20579268e-03,   1.50684128e-03,
   -1.93250701e-02,  -4.60825674e-02],
 [ -4.81215455e-02,   3.10167391e-02,  -2.23036092e-02,  -2.26162039e-02,
    6.33795094e-03,   1.56616908e-03,   9.61574726e-03,  -3.28124175e-03,
    1.39191328e-02,   6.23597689e-02],
 [  7.14118555e-02,  -5.83939515e-02,   1.70734420e-01,  -3.85869630e-02,
    6.92657530e-02,  -1.38417426e-02,   1.24641135e-03,  -2.81330366e-02,
   -1.33332815e-02,  -9.31839496e-02],
 [ -5.33440746e-02,  -2.64799576e-02,   1.04056187e-02,   1.73192114e-01,
   -1.47703895e-02,   5.64864390e-02,   1.87251549e-02,  -4.62117754e-02,
   -3.51771852e-03,  -5.89519218e-02],
 [  1.48527911e-02,   1.61852017e-01,   3.82756954e-03,  -4.50247154e-02,
   -5.32241762e-02,  -2.67923921e-02,   1.87045280e-02,  -4.63855080e-02,
   -1.77002195e-02,   2.10042018e-03],
 [  9.19382554e-03,   9.65035781e-02,   4.38308856e-03,  -2.67992280e-02,
   -4.80537936e-02,  -3.70430388e-02,  -8.02008808e-03,  -3.31399702e-02,
    1.13991618e-01,  -1.18452115e-02],
 [ -2.22524870e-02,   2.84738299e-02,  -7.12731341e-03,  -3.66429761e-02,
   -4.77259569e-02,  -3.13808210e-02,   2.23319046e-02,  -2.04393687e-03,
    1.45012394e-01,  -3.39898467e-02],
 [ -1.57560278e-02,   1.79192960e-01,  -7.72279948e-02,  -3.97858284e-02,
   -5.06428741e-02,  -2.43163155e-03,   5.99707887e-02,  -4.93803360e-02,
    1.08689833e-02,   1.10226907e-02],
 [ -1.08941114e-02,   3.44062559e-02,   3.93322185e-02,   1.20612578e-02,
   -3.29141431e-02,   3.46290297e-04,   1.56017825e-01,  -1.86880957e-02,
   -7.78250843e-02,  -2.81317700e-02],
 [  7.75963441e-02,   2.34755338e-03,  -3.63702066e-02,  -1.11499138e-01,
   -5.50712720e-02,  -3.51631157e-02,  -8.16890076e-02,  -3.73807997e-02,
    1.31700203e-01,   1.97150052e-01],
 [ -1.86789408e-02,  -7.97232762e-02,  -4.87881862e-02,   4.26242240e-02,
    1.06684648e-01,   1.78460274e-02,   6.71584979e-02,  -4.93002199e-02,
   -5.14586680e-02,   9.13529173e-02],
 [  7.80574307e-02,   2.21463814e-02,  -1.01850452e-02,   2.86868401e-02,
   -9.28251725e-03,  -4.24075052e-02,  -1.81246549e-03,  -3.78533378e-02,
    4.57396656e-02,  -5.36241867e-02],
 [  4.47976850e-02,   9.99903604e-02,  -1.25595734e-01,   6.07245117e-02,
   -3.51057351e-02,  -3.92380208e-02,   1.16200503e-02,  -4.68879044e-02,
   -2.92537101e-02,   9.58201662e-02],
 [ -5.97111024e-02,   2.62836944e-02,   6.76607266e-02,   6.43587438e-04,
    8.10818933e-03,   4.29017469e-02,   4.32663783e-02,  -3.96241620e-02,
    9.38483793e-03,  -5.18567748e-02],
 [ -3.48514915e-02,   2.75018215e-02,  -1.34479273e-02,  -1.33275772e-02,
   -4.05754708e-02,  -3.94259542e-02,   8.40747077e-03,  -2.09949240e-02,
    9.72705707e-02,   4.33095433e-02],
 [ -4.47558016e-02,  -2.94537526e-02,  -5.62113300e-02,   4.03716452e-02,
    2.16314215e-02,   1.56091079e-01,  -4.21541072e-02,  -2.31770407e-02,
    3.60947400e-02,  -1.04638636e-02],
 [ -3.90562899e-02,  -3.35939117e-02,  -6.93945289e-02,   1.14879543e-02,
    9.69146565e-02,   7.18672797e-02,   3.03073227e-03,   2.25843892e-01,
   -9.27684978e-02,  -6.54620826e-02],
 [ -2.67999526e-02,   6.28951192e-02,   1.52500179e-02,  -6.08198568e-02,
    3.91453207e-02,  -1.94977894e-02,  -4.95023318e-02,   7.58538321e-02,
   -1.98681708e-02,   1.59552880e-02],
 [ -1.80689711e-02,   4.05843090e-03,  -1.30194202e-02,  -3.28139849e-02,
    8.64023715e-02,  -1.89693887e-02,  -2.88185347e-02,   7.27124810e-02,
    1.86803397e-02,  -1.63684674e-02],
 [ -2.00145710e-02,  -1.78146213e-02,   5.18872738e-02,   3.57764401e-02,
    1.50318025e-04,   2.54808646e-02,  -2.06036270e-02,   6.35965988e-02,
   -4.81728949e-02,  -3.37921968e-03],
 [  1.38500500e-02,  -3.92602719e-02,   2.01079957e-02,  -1.77506842e-02,
    5.13602868e-02,  -1.79116819e-02,  -4.70900349e-02,  -1.23447552e-02,
    5.27034104e-02,   2.53239777e-02],
 [ -2.17221472e-02,  -5.88593856e-02,  -1.60932876e-02,   1.93840358e-02,
   -1.06612137e-02,   5.94814979e-02,   2.22487077e-02,   5.88198900e-02,
   -1.79234650e-02,   9.27620754e-03],
 [ -1.57124072e-03,   3.69436927e-02,   7.16069192e-02,  -1.25500588e-02,
    7.11824093e-03,  -2.53223814e-02,  -2.14591492e-02,   1.81197915e-02,
    1.72458943e-02,  -6.16722703e-02],
 [ -2.71862317e-02,  -1.26798656e-02,  -1.51165035e-02,   6.50835261e-02,
    1.99039318e-02,  -3.11042345e-03,   2.90064067e-02,  -4.21057455e-02,
    4.06414904e-02,  -1.87740661e-02],
 [ -2.29479074e-02,   9.69960690e-02,  -2.38807891e-02,  -4.04597521e-02,
   -2.89456360e-02,  -4.57667485e-02,   2.79771648e-02,  -7.46091688e-03,
   -3.18074645e-03,   5.58354333e-02],
 [ -3.47347744e-02,   2.70367656e-02,   3.66019569e-02,  -4.23748884e-03,
   -9.92233399e-03,  -2.46313624e-02,   4.02597561e-02,  -8.82197097e-02,
    1.72804013e-01,  -3.84151302e-02],
 [  7.31138438e-02,   2.82038245e-02,  -7.00778421e-03,  -5.08056507e-02,
   -3.95848304e-02,  -3.29827033e-02,  -3.84380631e-02,   2.39772419e-03,
    9.93751138e-02,   2.19893851e-03],
 [  3.35238688e-02,   7.15106055e-02,   3.93338762e-02,  -1.11627067e-02,
    3.65208276e-02,  -7.53151774e-02,  -7.37230107e-02,  -3.63463536e-02,
    6.04454465e-02,  -3.44085740e-04],
 [ -9.92780104e-02,   6.21203240e-03,   5.65553308e-02,   4.10218835e-02,
   -6.27282402e-03,   7.23133683e-02,   3.91910300e-02,   1.09539360e-01,
   -5.87927178e-02,   2.33369006e-04],
 [ -1.07157417e-03,   2.00691018e-02,  -6.09788895e-02,   1.28684472e-02,
   -3.03855003e-03,   6.09064521e-03,  -7.80179352e-02,   1.11896293e-02,
    2.67266948e-02,   1.30750060e-01],
 [ -4.38547507e-02,   3.66015965e-03,  -1.83842634e-03,  -2.25324370e-02,
   -1.92456525e-02,  -7.52577782e-02,   1.27328157e-01,   2.44365763e-02,
   -7.23355100e-04,   1.13335103e-01],
 [  3.14823491e-03,   2.42237784e-02,  -7.26547092e-02,   9.46401358e-02,
   -4.68530543e-02,   7.32284114e-02,  -7.86924213e-02,  -7.21959248e-02,
    3.96135189e-02,   7.81564191e-02],
 [  1.26947314e-02,   1.05378471e-01,   6.95720315e-03,  -1.25615112e-02,
   -3.60487029e-02,  -1.75032783e-02,  -3.68087813e-02,  -6.23222664e-02,
   -5.82754575e-02,   1.50925100e-01],
 [ -6.20586686e-02,   5.33182621e-02,   6.28188923e-02,  -8.33430141e-03,
   -1.36403842e-02,   3.27527197e-03,   2.55922507e-02,  -5.21746539e-02,
   -1.25048980e-02,   4.55095507e-02],
 [ -4.54940088e-02,   2.88781468e-02,  -1.30781708e-02,   1.94295794e-02,
   -6.17385022e-02,   3.37748742e-03,   4.77223936e-03,   7.28617131e-04,
    9.21399966e-02,   1.54393911e-03],
 [  4.84618507e-02,  -3.58020104e-02,  -4.16265503e-02,   3.18609141e-02,
   -6.53944314e-02,   1.16974838e-01,   1.84093323e-02,  -2.74347719e-02,
   -5.54449204e-03,   2.22927555e-02],
 [  8.86405911e-03,   1.50211379e-02,   1.03288202e-03,  -1.78761513e-03,
    7.72086158e-02,  -2.43967380e-02,   8.17596389e-04,   3.36586982e-02,
   -5.81989549e-02,  -4.42781160e-03],
 [  4.28661332e-02,  -4.18892540e-02,   4.91242334e-02,  -4.64849584e-02,
    4.32664678e-02,  -2.82954387e-02,  -6.64655864e-02,   1.16132818e-01,
   -1.01712700e-02,  -1.26371384e-02],
 [ -1.18475100e-02,  -6.18323386e-02,   2.29026135e-02,   2.27814838e-02,
    1.29894823e-01,   1.34887630e-02,   4.38029394e-02,   1.02558181e-01,
   -6.11726716e-02,  -1.77843384e-02],
 [  3.01007666e-02,  -3.98748778e-02,   1.16623089e-01,  -2.49703471e-02,
    1.04807587e-02,  -2.83640325e-02,   1.52626289e-02,   1.13063911e-02,
   -9.61907499e-04,  -4.37470339e-02],
 [ -2.50627585e-02,  -3.93536352e-02,   3.20225358e-02,   1.02758659e-02,
   -1.10884523e-02,   2.04148758e-02,  -7.91001949e-04,   5.44230305e-02,
    2.69035902e-02,  -1.96808074e-02],
 [ -2.85733230e-02,   2.02718496e-01,  -9.95487869e-02,  -3.28212269e-02,
   -1.14051558e-01,  -5.39109707e-02,   3.27095622e-03,  -2.17255205e-02,
    2.44412925e-02,   1.91328466e-01],
 [  5.72651438e-02,  -4.07382287e-02,   8.71151835e-02,  -3.16432444e-03,
    4.98432666e-02,  -4.09770980e-02,   6.94303885e-02,  -2.08311975e-02,
   -3.23955119e-02,  -5.72529659e-02],
 [ -4.93278950e-02,  -6.64230213e-02,   7.00449198e-02,   5.88141158e-02,
    7.79282227e-02,   6.72129169e-02,   8.88618529e-02,  -4.06413376e-02,
   -1.37069784e-02,  -4.29383367e-02],
 [  6.32787851e-05,   9.85932499e-02,  -3.61474864e-02,  -1.46002218e-04,
   -6.09872937e-02,  -1.38217323e-02,  -1.65760238e-02,  -3.01688295e-02,
    3.63063082e-05,   4.37987521e-02],
 [  2.02152833e-01,  -5.70312291e-02,  -1.02427648e-02,  -4.18012068e-02,
   -1.21988356e-02,  -1.17405038e-03,  -1.09424584e-01,  -5.19142896e-02,
    1.00456558e-01,   5.35690598e-02],
 [ -4.03229371e-02,  -2.52190679e-02,   3.23729590e-02,  -1.81398410e-02,
    4.89388630e-02,  -7.44713172e-02,  -6.04646094e-02,   1.18617909e-02,
    1.11083888e-01,   2.30926722e-02],
 [  1.27667636e-02,   1.70811638e-01,  -1.92759894e-02,  -3.44974399e-02,
   -1.91535447e-02,  -7.69794434e-02,  -9.63826478e-02,   4.15543932e-03,
   -8.46598446e-02,   1.95684507e-01],
 [ -9.14126914e-03,   4.33572605e-02,   8.79972503e-02,  -5.62307145e-03,
    2.69935802e-02,  -2.13985685e-02,   1.59052312e-02,  -4.49284129e-02,
   -3.40474024e-02,  -2.23798933e-03],
 [ -3.66642587e-02,   2.65155993e-02,   4.51702289e-02,  -1.31492903e-02,
    3.45977917e-02,  -3.26604359e-02,  -7.05676004e-02,   4.25095744e-02,
    2.44344119e-02,   7.98139796e-02],
 [ -4.27331030e-03,  -6.55149668e-02,   6.75855502e-02,   6.38394207e-02,
    5.07297926e-02,  -7.49202166e-03,   1.12111606e-01,  -1.11034941e-02,
   -1.60453856e-01,   1.02075599e-01],
 [  4.64651920e-02,   1.73463989e-02,   6.66772723e-02,  -3.23011633e-03,
    3.22545320e-02,  -4.89030220e-02,  -8.44849348e-02,  -1.81054929e-05,
    7.36175179e-02,   1.39526241e-02],
 [  1.13107547e-01,   9.68878791e-02,  -8.57452676e-02,   8.02097190e-03,
   -7.63611495e-02,  -1.00850552e-01,  -2.15738136e-02,  -1.38066988e-02,
    5.51289320e-03,   1.66966528e-01],
 [  2.00997293e-02,  -7.90048391e-03,   1.36799589e-02,  -7.79358996e-03,
    8.00690278e-02,   3.65158133e-02,  -3.91701609e-02,   1.03191778e-01,
   -9.56177935e-02,   5.59289157e-02],
 [  9.05407872e-03,   6.69014752e-02,  -9.22037568e-03,  -2.13572383e-03,
   -7.84702227e-02,  -2.39058547e-02,   1.31452277e-01,  -1.27317756e-01,
    1.86283842e-01,   6.67618471e-04],
 [  8.91369022e-03,  -1.36031918e-02,  -5.20234071e-02,   7.36288121e-03,
    6.10929132e-02,   9.38066766e-02,  -3.07450537e-02,   2.70564836e-02,
   -1.13151707e-02,  -1.97439939e-02],
 [  3.68372246e-04,  -1.42775779e-03,   2.73324139e-02,  -1.91118510e-03,
    2.96927057e-02,  -2.30963808e-02,   1.94297172e-02,   6.61988184e-02,
   -5.46492040e-02,  -1.27010019e-02],
 [  9.65714976e-02,  -7.45564420e-03,  -7.62009481e-03,  -5.52450344e-02,
    3.10425647e-02,  -1.89149808e-02,  -6.16478994e-02,   2.05045789e-01,
   -6.32416159e-02,   2.03730762e-02],
 [ -5.36896735e-02,  -1.10983580e-01,   4.59102867e-03,   1.46861197e-02,
    2.08798587e-01,   1.14196256e-01,  -2.25782543e-02,   9.77039635e-02,
   -2.37056296e-02,  -6.28615320e-02],
 [  6.13632947e-02,  -6.10225648e-02,   1.32051662e-01,  -5.21803014e-02,
   -1.43923787e-02,  -2.51671989e-02,  -1.16847502e-02,   3.37987929e-03,
   -4.06667683e-03,  -1.06175074e-04],
 [  5.74562466e-04,   2.64199488e-02,  -4.06246223e-02,   4.01313715e-02,
   -1.34386104e-02,  -4.22773287e-02,  -4.49283281e-03,   1.10884078e-01,
   -1.17182257e-02,  -5.13303466e-02],
 [  7.85035267e-03,   8.14778134e-02,  -5.01497835e-02,  -3.93957645e-02,
   -1.75749213e-02,  -8.67408607e-03,  -6.62656203e-02,   2.24989112e-02,
   -4.43202779e-02,   1.48751885e-01],
 [  2.00630389e-02,  -7.42363138e-03,   4.26185504e-02,  -8.00336804e-03,
    2.31668949e-02,  -4.01578955e-02,   3.43217999e-02,  -2.07569730e-02,
    8.80777184e-03,  -2.43996978e-02],
 [  7.49057950e-03,  -2.79278867e-02,   9.69630294e-03,   1.02909848e-01,
    6.27954826e-02,   6.40233979e-04,   3.56950611e-02,   1.61143616e-02,
   -3.59120779e-02,  -6.59469664e-02],
 [  7.38476776e-03,   7.56078959e-02,  -1.47079993e-02,  -8.74164328e-03,
   -5.03189005e-02,  -1.59122106e-02,  -5.51115023e-03,  -1.10798068e-02,
   -1.15870936e-02,   2.97175236e-02],
 [ -3.65649499e-02,   8.64424556e-02,  -1.51802069e-02,  -4.89602983e-03,
   -7.25697726e-02,   3.02374847e-02,   3.06144706e-03,  -3.93078849e-02,
    1.50532231e-01,  -2.69811917e-02],
 [ -1.40699726e-02,  -3.82950120e-02,   5.27509823e-02,  -4.23965901e-02,
    3.59101705e-02,  -4.47039679e-02,  -4.25391085e-02,   1.29261706e-02,
    6.87126145e-02,   2.81301588e-02],
 [  6.50090026e-03,   1.94170788e-01,  -5.35651334e-02,  -6.31984174e-02,
   -5.75192273e-02,  -6.18469007e-02,  -3.11474726e-02,   1.68127045e-02,
   -5.02135642e-02,   1.27131268e-01],
 [  5.17015792e-02,   4.12975587e-02,   1.91917457e-02,  -1.63454481e-03,
    1.45019973e-02,  -4.07793075e-02,   1.60493944e-02,  -2.66345814e-02,
   -2.78826747e-02,  -2.26667114e-02],
 [ -5.24836499e-03,  -1.65624730e-02,   3.97386663e-02,   1.23636629e-02,
    1.41084800e-02,  -2.34355219e-02,  -4.41730432e-02,  -8.81847460e-03,
    1.35296732e-02,   7.73194507e-02],
 [ -4.44663279e-02,  -7.41220862e-02,   5.66531271e-02,   2.57889517e-02,
    1.56097682e-02,  -1.14554800e-02,   9.64493230e-02,  -7.33987764e-02,
    8.34638905e-03,   5.53587489e-02],
 [  9.42787454e-02,  -2.83710510e-02,   1.55195117e-01,  -3.63480812e-03,
    1.94427222e-02,  -1.50514385e-02,  -7.04202056e-02,   2.59858370e-02,
    1.68401666e-03,  -6.85749725e-02],
 [  1.06660046e-01,   7.73050487e-02,  -4.09183241e-02,   3.33091766e-02,
   -6.20891824e-02,  -5.21032326e-02,  -4.59673665e-02,  -2.13444475e-02,
    3.60876545e-02,   3.34865227e-02],
 [ -3.22524309e-02,   5.26572913e-02,  -4.40808609e-02,   7.01575726e-03,
    7.42534995e-02,  -1.05069302e-01,  -3.01255863e-02,   9.21057630e-03,
    4.18931767e-02,   5.77094182e-02],
 [  9.17734951e-02,   3.56307924e-02,  -2.39065811e-02,  -7.27192760e-02,
   -8.97334830e-04,  -1.29518062e-02,  -2.20871642e-02,  -2.31844913e-02,
    4.45199497e-02,   3.35489102e-02],
 [  3.73029374e-02,  -2.83209831e-02,  -8.47178623e-02,   2.74813883e-02,
    2.43954547e-02,   7.78805315e-02,  -6.47000447e-02,   2.96772551e-02,
   -1.83954779e-02,   2.70580761e-02],
 [ -2.88921185e-02,  -3.12134009e-02,   8.50083120e-03,   4.24724212e-03,
    4.74861786e-02,   7.64567126e-03,   1.79328229e-02,   7.21091852e-02,
   -5.12699634e-02,  -1.46338278e-02],
 [  4.93086353e-02,  -1.12138651e-02,   2.46246867e-02,   8.20844807e-03,
   -9.53127444e-03,  -9.60294902e-03,  -7.37400353e-02,   1.69713482e-01,
   -5.27215227e-02,   2.53249658e-04],
 [ -9.70980246e-03,  -8.86495635e-02,  -2.55625844e-02,   2.25063749e-02,
    1.45586073e-01,  -1.79467108e-02,   1.35970432e-02,   7.32833892e-02,
    3.25229913e-02,   3.16851540e-03],
 [  4.19928133e-02,  -3.30888443e-02,   8.29005167e-02,   1.81293557e-03,
   -8.38465814e-04,  -3.91980857e-02,   3.88913639e-02,   1.92325376e-02,
   -2.57973652e-02,  -4.53875847e-02],
 [ -6.22253772e-03,   9.86625254e-03,   5.62935323e-02,  -6.91128708e-03,
   -4.46505472e-02,   3.86315398e-03,   1.86438374e-02,  -4.01385613e-02,
    2.72119008e-02,   2.20535137e-03],
 [  6.28638640e-02,  -1.70957334e-02,   3.31075974e-02,  -3.04691656e-03,
    5.70338592e-03,   1.77228898e-02,  -5.37716597e-02,   3.09077017e-02,
   -4.41248082e-02,   2.78699864e-02],
 [ -2.06788331e-02,   2.90751457e-02,   2.54029129e-02,   1.09911816e-04,
   -1.42301619e-02,  -1.95109937e-02,   1.13950977e-02,  -7.89601542e-03,
   -1.00404415e-02,   2.68204249e-02],
 [ -6.89429268e-02,  -4.38019484e-02,   4.44164872e-02,   8.62779911e-04,
    4.70413826e-02,   5.97787350e-02,   8.41556191e-02,  -2.32065227e-02,
   -9.98963974e-03,   4.83323168e-03],
 [ -5.42484596e-03,   3.88772525e-02,   7.92387594e-03,   3.56373284e-03,
    1.35197630e-03,  -1.14501007e-02,  -7.78827677e-03,  -1.93387046e-02,
   -3.79296578e-02,   3.02787106e-02],
 [ -6.21194094e-02,   8.11406374e-02,   2.02496932e-03,   6.63742125e-02,
   -3.60066257e-02,  -1.43685266e-02,   7.41716567e-03,  -6.14339635e-02,
    9.96006802e-02,   1.73522271e-02],
 [  4.50104475e-02,  -2.41302736e-02,   4.45703529e-02,  -3.85771841e-02,
   -3.59210037e-02,  -2.18975153e-02,  -1.82895325e-02,   4.94252890e-05,
    3.79822068e-02,   3.26385647e-02],
 [  3.91909219e-02,   1.18577279e-01,  -7.73945078e-03,  -7.07647065e-04,
   -1.99666116e-02,  -8.95422325e-02,  -1.15667023e-01,  -4.01008986e-02,
    9.14939567e-02,   8.08770433e-02],
 [ -5.46856783e-02,   2.71685817e-03,   9.67087597e-02,  -6.01577014e-03,
    6.69841245e-02,   9.50364396e-02,  -2.96058897e-02,   9.89587419e-03,
   -7.45709017e-02,   2.59790234e-02],
 [ -3.31591326e-03,   3.68361734e-02,   1.49547318e-02,   3.61697786e-02,
    1.05124721e-02,  -1.91873442e-02,  -4.96085361e-02,  -1.13144629e-02,
    1.62890144e-02,   2.14133821e-02],
 [ -3.34256776e-02,   1.52109601e-02,   5.46048656e-02,   1.07330363e-03,
    3.01368851e-02,  -6.82455897e-02,   7.74903223e-02,  -5.19000478e-02,
    7.02645211e-03,   5.20326793e-02],
 [ -1.86397769e-02,   4.19461653e-02,   3.41567188e-03,   9.40487757e-02,
   -1.60411745e-02,   3.92910056e-02,  -1.27943829e-01,   4.16741930e-02,
    1.50790796e-01,  -5.06838486e-02],
 [  8.25558752e-02,   1.33162051e-01,  -9.97755975e-02,  -1.75857618e-02,
   -7.31755197e-02,  -6.33921027e-02,  -3.98645326e-02,  -4.75344397e-02,
   -3.59562635e-02,   2.35959485e-01],
 [ -3.17443460e-02,   7.15494305e-02,  -2.56013330e-02,  -2.81354077e-02,
   -1.09562995e-02,  -2.59855520e-02,   2.15142816e-02,  -2.10686140e-02,
    2.10938714e-02,   5.48952632e-02],
 [  1.23191483e-01,  -6.07127734e-02,   1.16943628e-01,  -7.97637366e-03,
   -3.08111664e-02,   2.80926116e-02,  -1.57874003e-02,   2.68301871e-02,
   -1.01222633e-03,  -2.85137556e-02],
 [  4.92759421e-03,   4.29873019e-02,  -3.76218781e-02,   3.28873470e-02,
   -7.93594960e-03,   3.20329033e-02,  -2.27220263e-02,  -2.24566320e-03,
    8.23279470e-03,  -8.72774981e-04],
 [  1.56629346e-02,  -7.55373575e-03,  -3.12665105e-02,   5.28269112e-02,
    1.56397410e-02,  -4.29981798e-02,   1.97777450e-02,   3.07309087e-02,
   -2.16973405e-02,  -1.19746579e-02],
 [  2.77840812e-02,  -1.29483417e-02,   6.51101470e-02,  -3.86175662e-02,
    5.91667406e-02,   6.47545140e-03,  -3.21667679e-02,   8.65688622e-02,
   -7.45184869e-02,   2.34040506e-02],],
